7482 50
için 0.489016 -0.627340 0.056147 0.611827 0.261783 -0.122930 0.512301 -0.098482 -0.415113 0.361556 0.207223 -1.188329 -0.205759 0.937179 -1.220449 0.400012 0.361480 -0.540548 -0.532270 0.446732 0.507412 0.482979 -1.031257 -0.954985 -0.162291 0.536227 0.089456 -0.007039 -0.271482 0.098220 -0.124694 -0.234909 0.809541 1.087592 0.487483 0.707393 0.449935 -0.213087 0.810620 -0.402716 0.146815 -0.111512 -0.067339 0.383132 0.307919 0.318743 -0.156485 0.081892 0.676329 0.961270 
yılında -1.248197 0.466440 -0.847254 -0.432822 -0.464679 1.005158 -0.825121 -0.801890 1.028728 -1.887771 0.066959 -0.572575 -0.316998 -0.410190 0.082241 -0.744212 -1.292868 -1.085306 0.082331 -0.891802 -1.504250 1.174315 0.486955 0.116494 -0.288857 -1.055685 -0.066122 0.408409 0.025593 -1.478690 -0.339133 0.307536 0.468181 -1.396897 -0.156171 0.956830 -0.551368 0.426866 -0.243954 0.266401 -1.423442 -2.312443 1.611545 1.019409 -0.658789 1.172546 0.702230 -1.079982 -1.427696 1.081297 
tarafından -0.420351 -0.934369 -0.740178 0.433299 -1.054732 1.225916 -0.731942 -1.101300 -0.251406 -0.968408 0.091021 -0.741065 0.376783 -0.016179 -0.268187 -0.250880 0.245038 -0.408539 0.022919 0.028441 -0.293903 -0.279504 0.304731 -0.867420 -0.639716 0.424270 -0.563617 -0.748615 -0.306546 -1.242468 0.269469 0.239490 0.822922 -0.089635 0.564075 -0.130095 -0.398691 -0.580639 0.513672 -0.093917 -0.931243 -0.741739 0.407106 0.760581 0.225436 -0.108086 0.754334 0.501214 -1.833243 0.771575 
ise -0.592765 0.131093 0.135112 0.164580 0.366719 0.441053 0.665146 0.272485 0.820673 0.733811 0.215122 -0.371137 -0.199227 -0.342775 0.611498 -0.426529 0.067864 0.653715 0.814861 0.448690 0.321345 0.184478 0.490807 -0.277083 -0.250521 -0.478115 0.627138 -0.792625 0.015399 0.551009 0.297707 0.090088 -0.081147 0.539401 0.016243 0.245857 -0.034697 -0.728846 0.028560 0.077726 -0.694123 -0.580363 -0.088804 0.586777 0.149093 -0.241518 -0.080059 -0.528816 0.051378 0.183858 
yeni 0.180848 0.061654 -0.096976 -0.163362 0.038842 0.551565 0.502737 0.160969 0.436015 -0.571940 0.659722 -0.883168 -0.895521 -0.235193 0.043905 0.909142 -0.361841 -2.081696 0.781879 0.477780 -0.609220 -0.058203 -0.283984 -0.032388 0.484430 0.093610 -0.619022 0.711719 -1.066646 0.066801 -0.545177 -0.554213 1.119947 0.485577 0.380753 -0.178609 0.383547 0.088181 -0.497011 0.632577 -0.174963 -1.500135 0.165869 -0.845604 1.476567 -0.380064 0.562998 0.219007 -0.371500 0.379231 
birlikte 0.113929 0.067706 0.344607 -0.299145 0.074225 0.792766 -0.009867 -0.080357 0.247995 -0.368855 -0.051599 -0.571279 0.024387 -0.108262 0.098557 -0.210420 -0.042052 -1.083908 0.736563 -0.757216 -0.132759 0.099359 -0.956608 0.021866 0.055180 -0.476091 0.470855 -0.171623 -0.046736 -0.577999 -0.115490 -0.304278 0.089439 0.232842 0.243693 0.973384 -0.141707 -0.106253 -0.122657 0.225028 0.157105 -0.563419 -0.471118 0.734386 0.382752 0.438886 0.026654 -0.824402 0.117077 -0.145640 
yıl 0.554820 0.267508 -1.695709 -0.633985 0.205528 -0.581583 -0.974097 -0.757034 0.866974 -1.151168 1.578501 0.092055 -0.376899 0.261429 0.416470 -0.762109 -0.472494 -0.234982 0.468981 -1.597884 -1.919417 0.427271 0.589458 0.235101 0.024770 -1.884358 0.430233 0.115692 -0.216714 -1.343955 0.001108 -0.334544 -0.164664 -0.057526 0.239009 1.548977 -0.132553 0.834406 0.334668 0.227718 -0.795793 -1.382412 1.053090 1.109175 -0.048102 -0.277432 -0.128883 -1.922220 -0.015838 0.982418 
tarihinde -2.299778 -2.004529 -0.772704 2.364419 1.077744 1.069908 0.560303 -0.224987 -0.023164 -0.083408 1.498517 -0.885990 1.086536 -1.892810 0.871117 0.122155 -0.664338 0.083780 1.752849 0.148023 -0.946635 1.746301 1.340056 -0.447124 0.646544 -2.191583 -1.587574 1.888357 0.602144 -1.792534 2.039971 -1.280982 0.242710 1.165423 1.054461 -1.271979 -0.169253 0.255681 -0.105754 2.237515 -0.314458 -0.556424 2.248926 1.563184 -0.823142 -1.551876 1.631208 -0.967138 -1.965241 0.519345 
bazı 1.431541 -0.171030 0.480520 -0.353745 -1.593298 -0.110292 -0.197426 0.304223 0.492220 -0.609093 -0.231826 -0.413170 -0.335817 1.315396 -1.177126 -0.514494 0.518164 0.693173 2.030555 1.478046 -0.112806 -0.270561 -0.943470 -0.106973 -0.492812 0.776073 0.197978 -1.547020 -0.297255 0.713365 -0.038345 0.900018 -0.297410 -0.173906 1.150858 0.033351 0.354503 0.286649 -0.126688 -1.051337 0.600380 0.708639 -1.448746 -1.126103 0.685747 -0.686239 0.638725 1.916045 -0.008083 0.720385 
kez -0.960468 -0.493693 -1.216920 0.293723 0.798622 0.164440 -0.417216 0.244933 -0.831930 -0.717128 0.384464 -0.330143 -1.417084 0.488869 0.666695 -1.649593 0.272965 1.843095 1.599299 -0.579902 -0.622242 0.568507 -0.003157 -0.569775 1.177330 -1.127177 0.015108 0.296594 0.509988 -0.496360 1.795532 0.155452 0.393573 1.350119 -0.985059 0.383719 -0.662115 -0.434705 0.208643 0.082176 -2.180359 -2.424114 1.963599 1.158886 -0.046582 0.977568 0.035665 -0.839093 -0.742422 0.347951 
kabul -0.127453 -0.336811 -0.850632 1.409467 0.856186 -0.425039 -0.039425 -2.322444 0.214778 0.672185 -0.019317 0.355842 -0.369835 1.025250 -1.602947 -0.587143 0.867464 -1.098542 -0.064868 -0.881526 -1.000654 -0.164278 0.636895 1.215202 0.907964 0.438897 -0.891201 -1.326806 -0.538559 -1.476179 -0.521334 0.443601 0.472311 0.625644 1.390114 0.910336 0.997398 -0.493544 0.826839 -0.174061 0.175129 -0.488237 -1.055058 -1.306285 -0.558013 -0.568211 1.052270 0.786849 0.064555 -0.225091 
zaman 0.419415 0.031230 -0.775810 -0.810258 -1.272895 -0.042256 -1.520249 -0.438833 1.149588 1.346557 -0.265207 -0.850769 -1.319286 2.147424 0.302601 0.369389 0.514086 0.712762 0.720585 0.340548 0.590798 -2.564287 -0.156197 0.753512 1.028129 0.064071 -0.321288 -0.265153 0.303981 1.169510 -0.096900 1.149162 1.088438 1.495809 1.608724 0.632301 2.045924 0.035145 0.564471 -1.581582 0.308209 0.624524 -0.127844 0.354857 1.119267 0.729181 -0.969467 -0.141335 1.113498 0.357367 
şekilde 0.427381 -0.473595 0.083921 -0.005344 0.274714 -0.553717 0.177392 0.717048 0.302763 0.883941 -0.827572 -0.418518 -0.342655 0.911858 -0.108221 0.607014 0.320410 0.248488 0.343332 0.787031 0.474699 0.169255 -0.474555 -0.522001 -0.138963 1.554505 -0.424701 -0.384378 -1.089058 0.551312 0.263232 -0.372323 0.966235 0.646453 0.157426 0.771376 1.020546 -0.267758 0.289461 -0.073055 0.350197 0.502186 -1.215860 0.291495 0.089608 0.327368 -0.562242 0.737630 0.535486 -0.107401 
avrupa 0.175466 1.792502 -1.346996 0.012289 0.396542 0.289906 0.988500 -1.982816 0.015009 -0.381621 2.069670 -1.237530 -0.774379 0.010201 -0.338987 -3.471866 -1.108086 1.634709 1.102687 -0.962044 0.140967 2.526968 0.110570 0.968351 1.493344 -0.368887 2.160238 2.371748 1.733809 -0.027983 0.941443 1.667510 0.827337 1.408396 -0.770273 0.226779 1.284162 0.420260 -1.174512 0.914284 -0.600601 0.240856 1.826651 -1.696208 -0.409778 2.225576 2.115929 0.371138 -1.027927 0.190775 
devam -0.495552 -0.911922 -0.162807 0.054209 0.545212 -0.537386 0.535544 -0.331525 0.576301 -0.340671 -1.172134 -0.364592 -0.014029 1.165932 -0.075952 -0.491361 -0.706614 -1.802651 2.324886 -1.541747 -1.721727 0.037029 -0.092827 1.417711 -0.839895 0.416401 -0.283674 -0.301497 -1.230231 0.092624 0.483527 0.275581 1.123840 -1.737107 0.292061 1.298244 0.222619 1.621103 -0.870872 1.109103 0.301585 -1.021415 0.509844 -1.020925 -0.007443 0.202277 -1.524856 -1.793256 2.113551 0.368010 
ama 0.755354 -0.539785 0.883657 -0.132968 0.396220 -0.190938 -0.738174 -0.277789 0.111131 1.224249 0.145940 -0.531734 -0.564435 1.558290 -0.456619 0.117495 0.148436 -0.769275 0.561808 0.287245 1.073155 -0.634341 -0.905411 -0.617181 0.271560 -0.260838 -0.798167 -0.735107 -0.869296 0.612194 0.021606 -0.213439 1.877981 1.022253 0.854178 1.446424 0.160233 -0.765881 0.859258 -0.399539 0.554486 -0.928717 -0.970136 -0.755163 -0.349809 0.449887 -0.823531 -0.961399 1.385603 0.642596 
sahip 0.341169 -0.227727 0.710052 0.116983 0.234030 -0.158577 0.338109 0.434543 1.009011 0.781456 0.450403 0.305492 -0.420614 0.619606 -0.341635 0.803035 -1.353953 1.355462 -0.067749 0.944737 -0.000431 -1.199503 0.948116 -0.446111 0.556535 0.794593 1.109821 0.945406 -2.260830 0.886635 -1.643392 1.316433 0.621962 -0.542953 -1.626795 0.898630 0.797596 0.120054 0.390557 -1.986373 2.681058 -0.956859 -0.213193 0.776432 -0.311320 -0.651112 0.712869 1.745301 -0.557893 -0.964719 
alman -0.367417 -1.180664 0.040704 1.117724 -1.143622 -0.005560 0.290613 -1.493207 2.162711 0.397587 0.355527 -0.537544 2.073173 0.058273 -1.310516 -1.404279 -1.905419 -1.456968 -0.967517 -0.695001 0.832394 -0.265541 0.988390 -0.322173 2.800982 0.791036 -0.714336 -0.073843 0.721534 -1.373385 2.033640 -0.994417 2.349769 0.329556 -0.531360 2.298187 -0.066848 1.857601 -2.820204 -0.466379 -0.801620 0.957299 0.553605 -0.841754 0.871711 0.931572 -0.593710 -0.410254 -1.642935 0.544896 
mayıs -1.015883 -0.917712 -1.209131 1.595215 0.677481 1.431222 -1.649664 0.895997 0.174998 0.794024 1.731747 0.980438 1.589111 -1.106821 -0.411872 -0.644748 -1.013983 -0.373168 0.712031 -1.820273 -0.895626 0.951234 0.111745 0.396712 0.595898 -0.712339 -0.654580 0.759353 0.455413 -2.127639 1.651195 0.782774 0.751422 1.112636 0.383899 -0.462347 -0.829337 0.170594 -0.300279 3.350781 -2.563649 -0.633670 3.351950 1.415331 1.590018 -0.856380 0.386894 -0.531099 -0.235299 -1.022367 
türkiye -0.982784 0.637148 -1.081166 2.004907 -0.516828 0.864903 2.286493 -1.321244 0.314325 0.217247 -1.212008 -0.818761 -0.946921 -1.579671 -0.701856 -2.931938 -0.246588 3.179342 0.161998 -0.328894 -3.661211 1.162389 1.714192 -0.515378 1.991241 -2.428313 0.991232 1.174637 0.614022 0.578887 0.775392 -0.028207 -0.337248 0.203608 -0.727719 -1.502376 0.285815 0.155402 0.306429 2.697736 -1.096529 -0.614666 1.636604 0.083116 0.444600 1.506915 1.378597 -0.810758 -0.468461 -0.082041 
mart -0.734545 -0.873623 -0.856197 1.537955 0.797263 1.599349 -1.479360 0.802990 -0.035886 0.580615 1.398937 1.152118 1.843271 -1.135170 -0.427641 -0.717915 -0.656776 -0.336446 0.900444 -2.085581 -1.146345 0.725871 0.421373 0.264270 0.225614 -0.373363 -0.609052 1.021904 0.131996 -2.073055 1.656106 0.896168 0.327962 1.214474 0.430703 -0.274728 -1.060732 0.036319 -0.012289 3.315752 -2.191354 -0.779085 2.922016 1.375986 1.134772 -0.942109 0.337740 -0.516673 -0.392957 -0.706584 
özellikle 1.781434 0.722984 0.528065 0.344543 -1.474776 -0.494956 0.194406 0.114839 -0.467869 -0.361160 -0.184176 0.038282 0.065898 -0.014898 0.196141 -0.123145 -1.481130 -0.044981 0.747706 -0.017389 -0.070191 -0.497361 0.155118 0.072408 0.686867 1.094061 0.371623 -0.633092 0.367935 1.171057 -1.101001 0.435881 -0.433914 0.188649 -0.505011 1.239579 0.020153 0.089658 -1.943171 -0.991284 0.539560 0.909718 -1.201472 -0.662665 0.206859 0.481561 0.963866 1.444005 0.582602 1.053368 
eylül -0.919843 -0.901807 -1.277998 1.591839 0.683214 1.350967 -1.655136 0.938504 -0.244743 0.643030 1.164717 1.491852 1.691391 -1.014757 -0.189763 -0.858867 -1.038080 -0.713877 1.127810 -1.786966 -0.790998 0.603654 0.087580 -0.104070 0.117437 -0.328530 -0.440719 0.632955 0.427890 -1.902576 1.791118 0.805596 0.320861 1.056019 0.208326 0.064416 -1.154019 0.322270 -0.164769 3.710606 -2.636159 -0.546743 3.269025 1.708159 1.306333 -0.897307 0.470866 -0.484416 -0.467207 -0.559473 
haziran -0.777636 -0.852339 -0.954267 1.583298 0.916511 1.325035 -1.645766 0.599600 0.186743 0.636475 1.444975 1.085859 1.876377 -0.697459 -0.994581 -0.781314 -0.932058 -0.809479 0.943612 -1.565319 -1.024236 0.675194 0.321506 0.301727 0.428727 -0.184664 -0.581739 1.002732 0.711353 -2.029115 1.352657 1.076967 0.465338 1.449983 0.383931 -0.340141 -0.859548 0.432827 -0.148593 3.402082 -2.298279 -0.734297 3.445144 1.522944 1.173533 -0.912550 0.437316 -0.716443 -0.466525 -0.918232 
ocak -0.711872 -0.815408 -0.944526 1.539700 1.443830 1.605237 -1.284529 0.905049 0.279070 0.688662 1.194086 1.398903 1.747728 -1.068709 -1.127256 -0.723146 -0.734210 -0.919742 0.927820 -1.690721 -0.971515 0.852384 0.304276 0.678867 -0.049844 -0.588050 -0.739885 0.781402 0.521456 -1.866245 1.439543 0.670065 0.099736 1.270675 0.541375 -0.323053 -0.692100 0.502767 -0.336217 2.916852 -2.568717 -0.572539 2.821853 1.442517 1.129480 -1.153602 -0.068336 -0.637667 -0.257601 -0.991002 
zamanda 0.913121 0.562724 0.841128 -0.179673 0.131513 0.626333 -0.010498 -0.538439 0.438305 0.191660 -0.338374 -0.972859 -0.310889 0.069630 0.004482 0.369022 -0.612580 -0.257789 -0.509687 -0.613537 0.165430 -0.426657 -0.603492 -0.434322 0.038809 0.066682 0.224835 -0.211343 -0.653270 -0.289132 -0.190772 0.416685 -0.157284 0.484081 -0.273590 0.666073 0.662257 -0.019504 0.234287 -0.872546 0.125732 -0.466879 0.129992 0.503797 -0.587384 0.781968 0.308282 0.078667 -0.236432 -0.178519 
temmuz -0.889696 -0.782405 -1.056502 1.469359 0.977249 1.599338 -1.714036 0.595273 0.458308 0.882850 1.250972 1.362434 1.839121 -0.760155 -1.246273 -1.048326 -0.780922 -0.914699 0.996495 -1.524085 -1.049043 1.038678 0.405426 0.563499 0.535947 -0.088977 -0.619875 0.658835 1.014044 -2.029377 1.156384 0.833569 0.306707 1.272990 0.482855 0.001468 -0.466251 0.233881 -0.174211 2.996331 -2.423699 -0.478306 3.274991 1.492308 1.198382 -1.419960 0.422821 -0.864823 -0.352726 -0.762325 
müzik 0.765294 3.792666 1.735782 -1.790059 1.128870 -1.529677 -1.152934 -2.281434 -2.571230 -2.987800 -0.322213 -4.180092 -0.753023 -1.544370 1.449898 0.052107 0.756683 -1.918506 0.309490 -1.361619 -1.068502 -1.526681 0.230275 1.188631 -0.133485 0.696924 -0.795018 -0.216908 -1.753861 -2.088024 1.845726 1.069779 0.502249 -0.492899 -0.438532 0.590258 -1.031847 2.093867 -0.637846 -0.163004 0.783229 0.495031 2.242965 2.101040 -0.118588 0.304518 1.861518 1.136964 1.912082 -1.842521 
ağustos -1.390205 -0.799701 -1.032852 1.635327 1.178090 1.488102 -0.996529 0.915745 0.256040 1.055524 1.321131 1.541675 1.494175 -1.249692 -0.891217 -1.124392 -1.086042 -1.206928 1.117447 -1.484265 -0.544749 0.847241 0.398616 -0.017760 0.318921 0.040968 -0.525855 0.233116 0.854592 -1.768938 1.850855 0.440246 0.367771 1.315318 0.412023 -0.031932 -1.021083 0.279836 -0.248446 2.944664 -2.548039 -0.644474 3.562596 1.552099 1.248821 -1.125823 0.427341 -1.037700 0.199817 -1.096732 
takım -2.877575 0.823229 -1.237254 -1.122309 2.410357 0.034053 1.982495 -0.230474 -0.098221 1.030032 0.454446 -0.719589 -0.726629 0.524474 -0.924871 -0.401175 1.127733 2.169156 2.543261 0.773669 -1.896917 0.838093 -0.854785 -0.125966 -0.328717 -1.546027 1.033667 -0.048817 2.695930 0.234400 1.073853 -0.756872 1.542374 0.965913 -1.498153 0.152915 1.246289 -1.300347 -1.485918 -0.946704 -0.805293 -2.039829 2.231203 -0.762632 0.348354 0.399190 -2.042043 -0.221547 0.213046 -0.197305 
şarkı 0.326179 0.691999 2.290219 -2.238596 1.388604 0.161444 -0.192452 -0.029496 -3.238664 -1.002211 1.510796 -4.881336 -0.834560 -0.265393 2.112486 0.065797 2.694628 -0.114674 -0.178264 -1.237457 0.192443 -0.995033 1.465048 2.720267 1.185648 -0.189255 0.697199 1.203973 -2.666477 -2.027042 4.309890 1.115445 0.934208 -0.974300 0.304140 0.517493 -2.058763 -1.121098 0.486542 0.069152 -0.409647 0.365605 0.181382 2.111074 -0.203664 0.292675 2.819824 0.045363 1.653962 -2.627863 
doğu -0.142064 2.932174 -0.121047 0.751169 -0.646671 0.130404 0.515422 -0.890997 1.787082 0.623927 1.495169 0.540835 1.357232 0.185127 1.212503 -3.562746 -1.383306 -2.178232 1.097122 0.017969 0.963579 0.355535 2.202767 -1.330339 1.195521 -0.191502 1.058271 -0.572373 0.222794 -0.109723 -0.930985 0.922324 0.593512 -0.226274 -0.311993 -0.126645 1.012155 0.676810 -1.421591 -0.058778 -1.114207 1.671997 -0.666681 -1.959328 -0.135385 0.787124 0.135440 0.247670 -0.701692 1.238692 
yılı -0.837620 -0.344770 0.161899 0.623013 0.694942 1.166327 -1.472159 0.495234 0.995344 0.233638 2.323800 -0.460756 0.958778 -1.513498 0.249296 -0.752224 -1.337594 -0.393656 -1.493076 0.220271 -2.542909 0.132346 1.740576 -0.263002 -1.071790 0.660975 0.637793 1.607702 0.169142 -1.621504 -0.051661 -0.548531 -0.975393 -0.405951 -1.122227 0.929154 -0.374197 1.185834 -0.829372 2.054170 -0.822410 -0.968149 -0.074713 1.108792 -0.866997 -0.998280 0.935970 -0.872488 -0.744044 0.433464 
kişi -1.815162 -1.430525 -0.201774 -0.073280 0.841192 1.696206 -1.055935 0.459430 1.026167 0.700664 -0.242207 -0.629619 -0.304997 1.779772 0.788087 0.012391 0.826272 2.253598 -1.893321 -0.758046 -0.148108 1.295062 1.192195 -1.605353 -1.107645 -0.789031 -0.110609 -0.799577 -1.312658 -1.376957 -0.872654 0.433256 -0.292100 0.751017 0.583421 0.014504 -0.751855 0.148527 -1.116315 1.283248 0.535468 1.210072 -0.974918 0.318534 -0.084997 -0.554421 0.441848 0.443657 -0.023481 -1.007063 
ana -0.989292 -0.675575 0.483388 0.294577 -0.511877 -0.535230 0.849062 1.352526 0.654909 0.572087 0.358855 -0.810101 -0.261461 -0.646489 -1.027533 1.108391 -0.812627 -0.084121 0.468397 0.379993 1.419825 -1.215251 -0.043356 -0.512738 0.537926 0.609461 1.936011 -1.355986 -1.727070 0.068642 0.254885 1.034529 -0.680717 -1.032963 -0.287657 -0.947937 1.300645 0.040090 0.200351 0.182564 0.072147 0.702924 0.205522 -0.523646 -0.036951 0.937269 -1.172487 0.768403 -0.835819 0.409283 
gün 0.500643 -1.688406 -0.403288 0.569146 -0.029319 -0.594500 -0.426990 0.948250 0.420582 1.955573 1.272546 0.697641 -0.106621 1.066875 0.648080 0.107872 1.167044 0.059310 0.549582 -0.851516 -0.508399 -1.319989 0.848837 -1.590567 -0.497523 -0.024186 -0.240560 0.080733 -0.777228 -1.595063 0.498397 -1.820737 1.127157 2.216483 1.740582 0.513200 -0.612089 0.391617 -0.003461 1.385509 0.046190 1.203148 0.540983 1.379925 1.832709 -1.666813 -0.532152 -2.697195 1.203348 0.473629 
şubat -0.759896 -0.824969 -1.178632 1.636715 1.162197 1.671165 -1.560304 0.843983 0.083036 0.530792 1.304736 1.198839 1.783233 -1.006390 -0.667800 -0.669033 -0.517655 -0.443496 1.209028 -1.903083 -0.807836 1.091387 0.342761 0.608856 0.037267 -0.202627 -0.581614 0.633399 0.632512 -2.293670 1.882123 0.418426 0.219840 1.382580 0.316219 -0.229864 -0.772035 0.290811 -0.298606 3.014101 -2.623866 -0.671419 3.111913 1.564897 1.204505 -0.989957 0.515966 -0.393297 -0.283126 -0.809172 
görev 0.326987 0.479528 -0.126913 -0.893406 1.346081 2.506403 0.751563 -2.808425 4.156329 -0.382300 -0.805255 1.759356 1.438257 1.349999 -0.457444 -0.246442 -2.094080 1.118836 2.230140 -1.060870 -0.616910 -0.633226 -1.146321 -1.164573 0.805937 -1.169900 -0.674121 1.989701 0.669074 -0.851032 1.204499 0.236830 -1.463587 -0.595005 -1.115338 -0.276503 -0.548029 1.911229 0.617867 0.661460 -1.302394 -0.913249 1.792016 -0.237015 0.912651 0.437407 -0.773596 -0.113506 -0.561323 1.433535 
tekrar -0.554969 -0.570144 -0.850096 0.056173 0.245059 0.076678 -1.042660 -0.068434 0.324757 -0.913654 0.099122 -0.995998 -1.104016 1.475922 1.055109 -0.235599 -0.263211 -1.358321 1.942055 0.308263 -1.394047 1.536633 -0.218664 -0.485956 0.049046 -0.774248 -0.498883 0.588683 -0.362558 0.767027 0.702306 -0.807558 2.196364 0.309658 1.618846 0.882962 0.431179 -1.045014 1.058105 1.120238 -1.195071 -1.671829 0.126916 0.909898 0.077135 -0.226085 -0.930870 -1.714872 0.904977 0.774520 
nedeniyle -0.018021 -0.641979 1.046421 -0.636011 -1.030575 -1.657194 0.967547 2.080151 0.846448 0.743964 -0.190640 0.110088 -0.152206 -0.235894 -0.447947 -1.090857 -0.821945 0.270302 -0.259253 -0.325826 -0.114743 3.359318 -1.022286 0.348685 0.731297 -2.990413 0.263841 -0.430086 0.589154 0.426590 -0.224360 0.335026 0.391960 1.234434 0.773467 2.675588 -0.253899 -0.684509 -0.282782 -0.842919 0.612607 0.311094 1.343306 0.575278 0.504721 -2.176244 0.453120 0.864110 1.025445 2.353237 
grup -2.314574 0.767824 0.124701 -1.265745 0.476138 1.566242 -0.132313 -0.463376 -0.044685 -1.541019 1.603055 -2.833746 -0.927600 -0.749165 0.472986 -0.398500 1.282221 -0.257052 1.377130 -0.213642 -1.242049 -0.581871 -2.206104 -0.140174 1.090596 0.163353 1.087287 -0.773148 -1.063274 -0.821359 1.241131 0.339588 2.569794 1.224314 0.356346 1.137542 -1.443326 -0.989149 -0.657161 1.938205 1.714325 0.966183 0.955305 0.120096 0.265499 0.522945 -0.526115 0.391901 -0.514794 -0.295984 
genellikle 1.697260 1.367200 0.277406 0.169314 -0.504290 -0.461405 0.193806 0.799129 -0.135524 0.165182 0.458234 -0.683117 -0.033917 0.351842 -0.449495 1.614968 0.314883 1.859028 1.214473 1.371436 1.730274 -0.865683 0.282353 -0.241507 -0.449702 1.299988 0.387716 -0.990488 -0.548248 1.494940 -0.100389 1.072306 -1.005952 1.233724 0.203401 0.125242 0.837519 0.136149 -0.244563 -1.112552 1.142611 1.383051 -1.100664 0.135514 0.735126 -0.179427 -0.526063 0.722130 0.460345 0.056356 
abd 0.971281 -2.436770 -0.982274 -0.177972 0.415985 0.748390 0.048626 -1.132401 0.540016 1.742264 -0.211603 -0.293807 2.415582 0.743468 -1.665078 -0.057948 -0.856843 -0.598449 0.219450 -1.356110 -1.623171 1.468590 -0.049094 0.960677 -0.873202 0.872486 0.830853 0.409318 -0.226517 -1.349385 2.568366 0.504809 0.166281 0.814725 -2.286175 -0.401745 -1.697541 -0.130315 -0.152699 1.045437 -1.122721 1.095000 0.719988 -0.012971 -0.971746 1.790080 3.771525 -0.515980 -2.287731 2.022377 
yılları 0.072275 1.373673 -1.098142 0.013946 -0.480074 1.076707 -0.074430 -1.074481 2.190757 -2.581227 -0.262183 0.298491 0.464959 -0.130878 0.608587 -0.918575 -1.529112 -0.483877 0.698593 -2.402297 -1.870432 -0.021516 0.810120 -0.558244 0.481518 -0.785655 -0.306854 1.134957 0.223253 -0.838291 0.535761 1.395665 -1.706089 -1.545137 -0.494992 0.297918 0.929995 0.264366 -1.156363 0.331260 -2.528899 -1.035881 1.066595 1.148419 -1.200913 1.708269 -0.555212 -0.789820 -1.366888 2.223061 
tarihi -0.519167 -1.200771 -0.987922 1.573092 -3.379992 -1.313539 -0.112087 -0.412988 0.149393 0.691152 0.070632 0.849831 -0.484797 -1.719133 2.353809 -0.830874 -0.208121 -0.617923 -0.139804 0.829869 -2.132763 -1.723680 0.065904 -0.708385 -0.272159 -0.756960 0.445786 1.257509 -0.004231 -1.410192 -1.165945 1.348490 -1.468922 -0.633796 -0.099691 -0.678604 1.023395 1.011188 -1.217799 -0.306812 -0.930721 -0.648929 -0.331693 0.491389 -2.006180 -0.444528 0.237142 1.581065 -0.458767 0.231504 
yakın 0.712522 0.688214 1.647215 -1.237382 -1.646184 -0.023476 -0.062451 0.116922 1.072710 1.656724 0.090137 0.259331 -0.079844 -0.005268 0.885303 -0.112512 -0.972137 -0.082134 0.389673 -1.242764 -0.840108 -0.605358 -0.532951 -0.666310 0.097043 -0.093436 0.640288 -0.546377 -0.824937 0.202096 -1.230662 1.563810 0.902417 0.894187 0.568640 0.301848 0.283562 0.259422 0.009486 -0.472238 0.833661 0.077758 -1.733770 0.312156 -0.730091 0.032546 -0.520001 -0.628092 0.283063 -0.368518 
sezonunda -2.374485 0.296409 1.470146 0.431026 4.334489 -0.568790 0.916987 -1.495223 -0.381142 -0.404174 0.609355 -0.682967 -1.751487 0.629184 1.437112 -1.127917 -0.949532 1.921609 1.939487 -0.080588 -2.283420 1.516075 0.195824 0.142073 -0.471968 -3.576177 1.898570 0.226687 2.266158 3.129833 0.992796 -0.573203 -0.337584 -0.531152 0.321382 0.927426 1.058770 -2.159960 -2.407436 0.069264 -2.188088 -2.936278 3.210169 0.432418 1.071510 1.095996 -1.893862 -2.019730 -0.428679 -0.104579 
gol -1.540365 -1.477357 0.760230 0.441695 4.886787 1.211284 4.021304 -2.231724 1.022286 0.295875 1.728348 -0.001668 -3.954719 0.473031 1.984615 -3.962355 -1.408956 3.274710 2.637650 -1.015506 0.533978 0.834459 0.575199 -2.172521 0.914139 -1.601529 0.908166 -1.389678 4.870034 2.357716 3.357324 0.887178 -0.729354 1.838563 0.636288 1.278974 -1.328987 -1.223518 -1.515870 -0.664065 -1.038692 -4.058183 2.799036 -0.862438 0.076151 -0.120450 -2.458280 -0.092018 -0.114207 -1.354473 
olması 0.535448 -0.047244 1.782584 -0.572902 -0.739750 -0.608140 0.453070 0.749331 1.203411 1.086707 -0.377230 0.583403 0.645615 1.430881 -0.105092 0.932121 -1.673441 0.801429 -0.587070 1.097010 -1.327182 -0.851295 2.331252 0.203291 0.100177 -0.423515 2.077642 -1.075958 1.262628 0.381602 -1.463093 0.322286 1.427775 1.224788 0.426829 1.116705 0.908462 -0.711950 1.257622 0.235014 0.922981 -0.808152 -0.890748 -0.092606 -0.849730 -0.862738 0.097304 2.524690 0.513872 -0.986393 
şebekesi -0.979762 0.018012 3.068681 -0.777376 -1.798326 1.748646 1.688725 3.477797 -0.214158 -0.300934 1.421179 0.515504 0.266445 -1.520374 0.883227 3.165677 -0.433166 1.924917 0.129154 5.113152 0.457854 2.661361 -1.520476 -2.289570 -0.349887 -1.919198 -1.476550 1.634427 0.710094 -1.254408 -2.383365 0.400350 2.458812 -1.548802 -0.469320 1.502907 -5.341938 4.189459 1.175628 -1.049594 -0.664754 -2.650067 -0.313108 -3.992328 0.001133 0.815748 -1.454213 -1.428927 4.842230 -0.585042 
hava -0.263280 0.002955 0.073300 -0.677212 -1.317975 -2.474422 1.622431 0.399095 1.960196 2.342350 0.571729 -0.021876 2.851165 1.756335 -1.377946 -0.171373 -1.355210 -0.647604 -0.497468 -0.823664 -1.359710 1.761961 1.311838 -1.657294 1.277140 1.936896 -1.776384 -0.923489 -0.482444 0.349045 1.333518 -0.797867 0.241818 -0.825190 -1.442575 -1.859196 -0.744720 0.914595 0.839609 -0.819195 -0.244019 2.335183 0.594440 1.979809 2.359434 0.265792 -0.056301 0.837238 1.555821 0.536124 
sezon -1.539269 -1.126401 1.208187 0.292676 4.719746 -1.499927 0.049508 -1.231002 -0.092481 0.587475 -0.039132 -0.842595 -0.886033 -0.028100 1.811652 -0.875647 -0.771788 1.348105 2.160198 0.805785 -2.307786 0.140504 -0.408343 -0.243870 -0.355346 -3.977947 2.138033 -0.641638 1.251521 2.428001 2.160069 -0.432481 0.245365 0.505710 0.778604 0.575942 1.126690 -1.445041 -1.595348 0.449407 -2.662326 -2.065374 3.140780 -0.134402 1.110046 0.551628 -2.171741 -2.131870 -0.139722 0.590005 
transfer -1.050306 -0.687221 -0.292524 -2.275564 3.086692 -0.153182 1.765865 -3.936913 -0.208996 1.827433 -0.219294 1.195652 -2.291957 0.429542 -1.064013 -0.774188 -4.016373 -0.858149 1.653644 2.370806 -3.639560 1.893836 -0.469534 0.253623 -0.623922 -2.153490 1.299815 0.288215 3.266343 4.032433 2.131404 -0.488130 -0.702560 0.735540 1.898683 2.335580 -0.025618 0.078924 -1.188968 0.777678 -2.369115 -1.812747 3.340222 0.378283 0.891005 -2.457333 -0.592343 -1.958818 -1.224228 -1.628021 
forma -2.742110 -0.909510 0.631481 -1.550849 2.922490 1.221349 2.069419 -2.624342 -0.167853 -0.848573 0.643897 0.106759 -1.547781 1.316912 0.907364 -2.341389 -3.097739 4.158561 4.175921 3.258677 -0.850969 -0.128059 0.684310 -0.215527 1.636852 -2.384619 0.296282 0.083262 1.882343 2.405405 2.223876 -0.171382 -1.603266 2.392228 0.275758 0.529260 -0.843697 -0.343749 -2.021135 -0.085936 -1.276993 -1.685354 2.993427 0.446172 0.159457 -0.334409 -2.341466 -1.189016 -0.136796 -0.507131 
takımı -3.605893 0.968612 0.042644 -0.450086 3.129008 0.247046 2.405860 -1.177186 -0.448668 0.903248 1.009020 -0.209041 -1.139930 1.046654 -0.662894 -1.775112 -0.735976 1.986616 2.282068 0.696286 -2.333356 1.495345 0.662239 -0.444488 0.496084 -1.584251 1.439464 0.690041 2.106462 -0.183821 0.202935 -0.921765 -0.326619 0.991786 -1.169637 -0.347740 0.638528 -1.654797 -2.066419 -1.057585 -1.686431 -2.582156 3.255595 -0.394779 0.657555 0.266571 -1.173466 -1.861539 -0.341115 0.010532 
askeri 0.307005 -0.710159 -1.375719 0.354823 0.285968 1.047475 0.269775 -1.028295 0.691163 1.137828 -0.298050 1.828093 2.198863 0.962263 -0.853233 -0.028138 -1.770873 -1.271647 0.233411 -1.798810 -0.392492 0.971648 0.262983 -2.213842 1.572930 -0.105330 -0.944303 0.673850 -0.094089 -1.169394 -0.633370 -0.453539 2.343468 -1.478207 -0.943017 0.585121 -1.874714 1.628382 0.600474 0.254371 -0.099837 2.038128 -0.691024 0.338314 0.031594 -0.056425 0.327134 2.885506 0.451711 3.152289 
roma 0.042212 -0.102454 -1.072208 1.855774 -1.986123 0.278413 0.627223 -3.347302 1.251335 0.269282 1.188504 1.388911 -1.163428 2.526378 0.583815 -0.890341 -0.874889 -2.885585 0.310805 -0.188889 0.862137 -1.338423 1.204709 -0.579225 1.475709 -0.984462 0.746430 1.191137 0.304248 1.092079 -0.383628 0.218058 1.531355 -1.253560 -1.632230 2.445113 2.853851 -0.220941 -1.261168 -0.396267 -2.726109 1.347035 -2.239852 0.238089 -2.645974 -1.977993 -0.373009 0.183165 -1.426629 1.205167 
temsil -0.296950 1.263908 -0.624205 1.337655 1.432477 2.038256 1.216883 -0.507137 -0.422566 0.249223 1.350837 -1.710702 -0.282227 1.635552 -1.741387 0.721038 1.905579 2.066420 0.598199 -1.076890 0.067519 1.810947 1.821038 1.913320 2.890224 -0.155661 1.630683 0.674390 -1.346623 -1.443933 1.240673 -0.211510 -1.321979 -1.310414 -0.209067 -0.388664 1.468975 -1.390164 0.260071 -0.691951 -0.688019 -0.159265 -0.845657 -1.359015 -1.119349 1.005970 0.074213 0.015647 0.077818 -2.724487 
nüfusu -2.193128 -0.290495 1.399231 0.128788 -1.104617 2.869767 -0.206560 0.886680 1.413515 1.339645 2.467277 0.769379 0.487589 0.750859 2.632591 -1.199642 -1.700324 0.244839 -1.741162 0.330789 -1.963144 1.085543 2.997654 0.235443 -1.117207 0.890341 1.355541 0.747331 -0.347172 0.626180 -3.916016 3.220644 -1.733900 -2.068538 -1.843701 -0.012496 -2.232750 -0.604660 -1.702087 1.321837 -0.410715 0.184549 -4.306905 -0.645676 0.059534 -1.424681 0.947966 0.048273 0.451821 -1.064475 
kupası -3.537246 -0.554351 0.996941 0.330013 2.221699 1.450095 2.261967 -0.593833 -0.925260 -0.379584 3.468778 1.467028 -3.675372 0.381615 1.218363 -2.878556 -1.254045 3.822398 3.017612 1.114193 -1.206470 0.813104 -0.785150 -1.431598 1.452016 -1.373776 1.867949 2.321747 2.656831 -1.102288 1.098317 -0.467733 0.194411 0.448506 -1.262118 -1.908193 0.879164 -0.434408 -1.420562 -0.530388 -1.985921 -1.850220 4.576050 -0.198729 0.531765 0.993499 0.655304 0.064679 0.315679 0.075314 
sonucu -0.824737 -0.980618 -0.250775 -0.208578 -0.471982 -0.701841 0.139595 2.835135 1.042723 0.036404 -0.024409 0.816724 -0.515463 0.731623 0.832815 0.007765 -0.185273 -0.029207 0.358470 -0.731196 -0.246642 2.790403 -0.480299 -0.034478 0.307431 -2.034539 -1.123996 -1.259688 0.573114 0.239312 0.220679 -0.510097 1.732362 -0.088353 0.525108 1.271737 1.095380 -0.859662 0.097285 0.805115 0.403701 1.366005 -0.094932 0.702515 0.659449 -0.725246 0.304406 0.219700 -0.583564 0.798118 
dolayı 0.290762 -0.285023 0.974441 0.328168 -0.554881 -0.486276 -1.695980 0.961539 1.606063 1.950276 -0.425531 -0.042106 -0.936360 0.119452 -0.940060 -1.242122 -0.772339 0.472855 -0.354647 1.112158 -1.213362 1.443505 -0.987472 1.217691 -1.757067 -0.756059 0.442629 -1.699880 -0.411245 -1.152618 -0.811715 -0.390595 2.008337 0.029860 -0.971726 1.271078 -0.027959 -0.977648 -0.344446 -1.994306 -0.267316 0.599553 1.358679 0.831512 0.969194 -1.729000 -0.086601 0.374588 1.883199 0.494433 
maçta -4.280909 0.114070 0.998138 0.550756 5.501107 -1.357895 2.500475 -1.568439 -0.323598 1.404985 1.579422 1.113739 -0.913051 1.087953 3.397480 -3.335993 -0.860984 2.827838 2.999874 0.186126 -0.876438 0.151541 -0.564591 -0.840175 -1.185871 -2.102518 1.051824 1.611695 1.172917 1.027449 2.379082 -1.622299 -0.534708 2.507135 -1.156731 1.905247 -0.268382 -2.597728 -0.624381 1.085685 -2.085837 -1.575155 3.747319 0.395249 0.274895 -0.403243 -1.461221 -0.305206 -0.681518 -1.241440 
döneminde 1.246057 1.338856 -1.344356 0.902868 -0.951681 0.481315 0.052524 -0.264306 0.219434 -0.359132 -0.061113 1.273075 -0.932790 -1.030597 0.550617 0.071270 -2.317425 -0.531413 1.104355 -1.041613 -1.794507 -0.161645 0.688155 -0.520588 1.638490 -1.486398 0.371954 0.143752 0.863617 0.316849 -2.103741 0.397330 -0.202641 -1.259796 1.487608 1.455211 0.342675 -0.365611 -0.833477 -0.182136 -3.194540 0.334974 -0.609674 0.914651 -1.033235 -0.925122 0.014385 0.997495 -0.119610 2.622445 
amerikan 0.621695 -1.695149 -0.600743 0.020926 0.373814 0.234268 -0.740372 -1.923337 0.061352 0.688142 -0.318041 -1.016416 1.035798 -0.317059 -0.790474 0.432405 -0.469027 -1.124815 0.107129 -1.402994 0.294074 0.379038 -0.127840 1.281205 -0.622204 0.778705 -0.018999 -0.861921 -0.652136 -0.920190 1.678523 0.021381 0.376829 0.168862 -1.891322 0.201993 -1.101626 1.282124 -2.013632 -0.129845 -0.137054 1.537319 1.532242 1.234466 -0.574400 2.304713 2.488061 -0.324087 -2.761369 1.944465 
bilgi 0.282747 -0.528122 -0.613238 -0.441244 -0.592121 0.896905 0.493851 0.335875 -0.051673 0.132393 -1.805139 1.188091 -0.689626 -0.087908 -0.367006 0.437149 0.644745 -1.010646 -3.000281 1.019423 -1.843172 -1.144942 -0.979629 -1.309087 -0.961323 0.032192 0.617962 0.492224 0.402747 -0.472482 -0.064600 1.090350 -0.572816 0.312262 -0.497698 -0.232134 2.024314 2.297961 1.243536 -0.774688 0.365460 1.394934 -1.289856 -0.606418 0.471816 0.882450 -1.057427 2.157382 0.221055 -0.826821 
günümüzde 0.526022 0.846891 -0.669115 0.574821 -2.063986 -0.876464 2.161330 -0.203345 0.039330 -0.070851 -0.291712 -0.435577 -1.148260 -0.101743 0.088761 0.554292 -1.061330 -0.272985 0.419497 -0.233525 -0.589244 0.475172 0.824999 0.706732 -0.932510 1.229340 0.380110 -1.228140 -0.590458 -0.098892 -1.765993 2.478201 0.284171 -0.251983 0.406644 -0.455412 -0.302329 0.458899 -1.447168 -1.623896 -0.323941 0.348830 -0.658159 -0.352003 -0.627603 0.201015 0.408551 1.025804 -0.443936 -0.326801 
ödülü 2.046700 -1.395644 0.841029 -0.497530 1.838834 0.781680 -2.831878 -3.434445 -1.069432 -2.978402 1.710147 -1.017094 -0.859767 -0.378352 1.066163 -0.939038 0.840153 1.303911 -1.491999 0.817775 0.491414 0.250110 0.299944 0.590452 0.129344 -1.498489 -1.089643 -2.013889 0.830545 -1.093599 -0.184752 -0.259309 0.162358 -0.551150 -3.770498 0.221288 -1.406893 2.443596 1.305584 0.389285 -1.326844 -2.797173 2.306192 0.038696 -0.048897 1.299262 0.692546 -0.102413 -1.633434 -1.904204 
kadın 1.281199 -0.462555 1.865989 -0.983297 0.304824 1.011502 -1.524195 -1.853565 -0.277102 0.114856 -1.053352 -0.784763 -1.343158 0.685799 -1.566614 -0.619457 2.141015 1.642261 -1.017941 0.202105 1.465536 0.499427 -0.511458 0.563714 1.739245 -0.012169 -0.862873 -1.109119 0.415792 -0.735180 -1.017912 0.387562 -1.155398 -0.223757 -1.709841 0.624444 0.871067 -0.798585 -1.168312 1.379458 -0.375293 -0.412560 -0.870841 1.235051 0.387041 0.499754 0.962275 -1.484049 0.133293 0.286396 
lig -3.986174 -0.051654 -0.487023 1.235044 3.055948 0.776077 1.872628 -1.631051 -0.250448 0.435500 1.708865 0.941709 -2.806313 -1.355730 1.416261 0.426788 -2.700633 2.619561 1.443150 0.808260 -2.742339 -1.136947 -0.579209 -0.430153 0.582669 -3.872816 1.068053 1.883244 2.303406 3.251552 2.177835 0.095755 0.969622 0.676084 0.176394 -0.066265 0.299735 -2.017037 -1.562265 1.468568 -1.786226 -1.249893 3.172248 -0.884233 1.456736 0.561764 -0.662025 -1.710638 0.999091 -1.030912 
yıllarda 0.669497 0.738297 0.127776 -0.506907 -1.646939 -0.310366 -0.130456 0.642148 0.036391 -1.568637 -0.771461 -1.550192 -0.688546 -0.461388 0.984697 0.031428 -0.706842 -0.044341 0.108100 -0.962393 -1.989067 -0.047685 0.746684 1.028097 -0.247786 -0.093106 0.661806 -0.286121 0.702707 0.686460 -1.881457 0.612267 0.040754 -0.724049 -0.727332 1.112020 -1.165066 -0.151199 -1.661578 -1.153305 -0.511765 -0.936034 -0.094402 0.354349 0.432356 1.057017 0.326291 -0.360886 0.553000 1.206559 
dönemde 0.955193 0.796666 -0.842113 -0.145747 -0.637732 -0.095397 0.238257 -0.325409 0.366574 -0.989138 -0.278986 -0.086300 -0.675656 -0.244112 0.554673 -0.505762 -1.717916 -0.315131 1.004582 -1.749790 -1.958365 -0.578474 -0.153900 0.418595 1.223085 -0.571146 -0.114989 -0.008785 0.078886 -0.027439 -1.425119 -0.562908 -0.024393 -0.029845 0.279485 1.759800 0.497552 -0.076555 -1.741086 -0.362418 -1.432699 0.160325 -0.863467 -0.267939 -0.747188 0.316760 -0.112945 0.582876 0.343100 1.878812 
john -1.021998 -1.955041 0.971497 -1.062600 0.359437 1.208817 -1.626218 -1.507980 -0.418657 -0.900524 0.308219 -1.150352 0.343333 -0.288239 0.453485 0.990091 0.305857 -1.466568 0.188600 -1.640990 0.581345 -0.806006 -1.798414 1.262499 -1.187495 -0.423833 -1.007361 -0.857085 -0.057286 -1.919103 1.217905 -0.975979 -0.562975 1.930667 -1.214807 1.251637 -0.951722 -1.383803 0.303360 -0.314218 -0.673764 -1.237772 0.278956 -0.027950 -1.309545 0.902874 -0.134504 -0.470213 -1.768719 0.653981 
grubu -2.728992 1.419809 1.192366 0.059779 0.850715 1.604938 0.213008 -0.482960 0.159838 -1.972362 1.877571 -1.959693 0.344696 -1.619742 -0.578888 -1.015446 -0.024614 -0.859006 1.459055 -0.852490 -1.012617 -1.215088 -0.794318 0.448195 0.911626 0.672187 0.817180 -1.243024 0.025608 -0.307253 1.380315 0.811475 2.301914 0.389258 -0.001113 0.467985 -0.957892 0.101227 0.024098 0.890077 1.734781 1.604501 1.530442 0.600689 0.429616 1.089079 -0.203627 -0.540586 -1.448320 -1.062282 
sıra 1.836088 0.937300 0.497478 -0.894941 0.073081 -0.581228 1.081488 0.736293 -0.277610 -0.462814 0.123950 -1.033863 -0.558562 -1.222128 -1.093507 0.300389 -0.971888 0.923113 -0.248983 -0.149422 0.451040 -0.869867 -1.120687 -0.233864 0.555482 0.195109 1.300876 -0.518682 -0.329876 0.296784 -0.688037 0.630653 -1.010188 -0.581156 0.505302 1.601350 -0.277873 0.705179 -0.174811 -0.218000 -0.566147 0.465070 0.599537 -0.267828 -0.237655 0.409779 -0.622836 1.063880 0.259836 -0.308641 
amerika 0.441623 0.457618 -1.290748 -1.302142 -0.166003 -0.054587 0.104314 -0.280679 0.108810 0.272829 1.859166 -0.469124 0.662513 0.098214 -0.565921 -1.090737 -0.967726 -0.780028 0.746832 -0.568828 0.386577 0.777147 0.353294 0.889232 -0.792257 0.224823 1.057741 0.262378 -0.853218 -1.982250 1.595528 1.488643 -0.538781 1.622522 -1.928779 -0.852095 -0.579429 -0.225796 -1.576956 -0.193167 0.194340 0.937440 0.386703 -0.497925 -0.425465 2.118910 3.571435 -0.576994 -1.407133 1.118968 
rol 1.029543 -0.821598 1.213608 -0.438697 1.501811 0.783642 -2.080233 0.357320 0.489665 -0.653176 -1.450335 -1.423098 -1.107139 0.440613 -0.130009 0.402810 -1.890173 -0.718629 2.506490 -2.173393 0.165397 -0.611236 -1.987607 -0.534002 1.065148 -0.219232 0.412248 -1.146289 1.839720 -0.419933 0.062365 0.223073 -1.365488 -1.243981 -2.068617 0.755435 -0.646368 1.055769 0.125288 -1.048042 -0.001771 -1.729713 -0.464898 -0.930950 -0.243337 0.330283 1.303613 -0.298470 -0.629295 0.024453 
okulu -1.904394 2.029127 1.046119 -0.418164 -0.549705 1.371501 0.859027 -0.548870 0.701634 -0.984840 0.300660 1.126450 -0.333765 -0.944164 0.406861 1.075068 -1.385917 -0.541508 -0.631758 0.259827 -0.392598 -0.279636 1.267127 1.380643 0.516082 -0.225788 -0.457601 -0.896011 -0.745096 -1.697515 -1.698105 0.644454 -1.279445 -1.840389 0.574401 1.050090 -3.185060 2.211181 0.942983 0.215419 -0.309139 -1.542622 1.441690 -1.377056 -0.208767 2.273969 -2.071949 0.712155 2.948257 2.072299 
ülkenin 1.165804 1.541322 -1.348739 0.126216 1.023366 1.732446 1.945028 0.190896 1.351998 2.066550 0.813893 -1.391429 0.513959 0.123166 0.773903 -0.575206 -2.675923 0.521921 -1.807611 -1.733651 -0.024182 1.124125 2.440788 -0.533755 1.753254 -0.850355 0.341106 0.162003 -1.068228 -1.227798 0.437349 2.212334 0.118858 -0.861979 -1.128067 -0.134148 0.429676 -1.043778 -0.254290 -0.434422 -0.583396 1.486851 -0.569827 -2.099521 0.685546 -0.747252 2.997401 0.069056 0.730789 -0.624404 
ligi -3.965597 0.749336 -0.347561 0.124451 4.089209 1.884605 1.654121 -1.788574 -2.113761 -0.042019 2.040198 0.171251 -1.333270 -0.670506 1.587049 -1.822842 -2.425447 3.084886 1.652092 1.742553 -1.845372 1.594577 0.848601 0.107634 0.449209 -1.626598 1.144156 0.778051 1.789066 1.085312 1.434223 0.563838 1.150120 -0.465838 -1.050789 -0.542225 2.193494 -2.373289 -2.834051 0.725074 -0.856631 -1.438836 3.650639 -1.053768 1.157002 2.251929 -0.796050 -0.550824 -0.089426 0.554505 
günü -0.617421 -2.591635 -0.623715 2.216266 0.240052 0.936448 0.613576 -0.574179 -0.002561 2.403848 1.147960 0.151690 1.274565 -0.384749 2.051548 0.043904 1.382006 -0.200592 2.010264 0.007717 -0.258142 0.481400 1.892927 -1.239819 0.535123 -0.648817 -0.809187 0.663915 1.246250 -2.749582 0.473303 -3.168934 0.096140 2.348783 1.820527 -0.877298 -0.584902 0.983831 -1.128253 2.922527 0.623519 1.530015 1.534530 1.278328 1.142984 -2.253022 0.854303 -2.071244 0.013464 1.348042 
adet -0.996368 -0.028726 -0.562367 -0.627101 0.313549 -1.416882 1.868337 1.274636 3.186333 0.105271 0.640317 -0.591327 -0.027330 -2.537917 -1.480637 1.723220 -0.156271 0.697191 -0.692447 1.231714 0.958242 0.123160 1.980323 -1.997480 -1.062246 1.413337 0.666125 0.523623 -0.918547 0.005881 -0.501313 0.474052 -0.513902 -1.651152 -0.154660 -0.747518 -1.581676 1.719752 -0.814053 1.575820 -0.721521 -0.718690 0.526520 2.232471 -0.048009 0.244652 -0.164081 -0.816489 0.384643 0.427204 
etki 1.765057 0.424616 2.124794 0.695564 -0.232525 -0.138670 0.135075 2.291393 1.383879 0.047808 0.564627 1.018752 0.359998 1.642869 0.308049 -0.763522 0.639913 -0.329325 0.957352 -0.164803 -0.152098 -0.418420 0.105285 1.424804 -1.011159 0.678865 -0.425294 0.662022 0.648539 2.015139 0.696454 0.262788 -0.324049 -1.246133 -1.391627 1.131719 0.147395 -0.493675 0.677764 -1.209620 1.672309 0.421886 -1.020056 -0.786278 1.092588 1.106483 1.093116 1.142967 0.675156 -1.023731 
kara 1.802257 -0.386302 -0.377455 -1.421723 -1.693661 -0.288520 -0.148326 0.589281 0.561225 2.915216 0.395446 0.841971 0.985460 -1.061952 -1.374703 -0.801929 -1.011984 -1.468712 1.134935 0.309300 -0.067380 -0.874342 0.912586 -0.580221 0.691152 0.682179 -0.789580 -1.386849 0.151306 0.560586 0.772614 -1.066203 -0.790209 -2.682864 -0.581652 -0.428099 -1.188323 -0.382524 1.572348 -0.202013 1.383117 -0.340191 -1.449384 0.421480 0.195652 0.545679 0.015954 0.467883 0.523702 -0.004462 
babası -1.276261 0.255441 1.377286 -0.791615 0.172437 2.291901 -1.011617 -1.922740 -0.353866 -0.273456 -1.694913 1.183035 0.142004 0.421428 -0.414370 0.486623 -1.617642 -1.478883 -0.139988 -1.784752 0.520066 -1.749276 0.971633 1.078586 -1.225974 -2.946836 -0.674506 -0.772900 -0.144275 -2.730161 -0.884277 -0.492413 0.257586 0.359581 0.488242 1.018521 0.167262 -0.468104 0.232088 -1.569046 -0.476448 -0.760866 -0.925963 2.081882 -0.866323 0.638849 -0.873412 -1.554185 2.523500 0.438226 
sahibi 1.083776 -1.116291 -0.025057 -0.330496 2.813762 1.310153 1.212328 -0.304601 -0.237159 -1.059908 -0.572740 -0.800624 -0.419443 -1.016114 -0.258853 -0.914916 0.085805 0.973739 -1.640339 0.345682 0.929914 -0.319190 -0.085919 -1.291166 -0.907521 -2.230627 0.429313 -0.661130 1.184812 -2.060350 -2.164009 -0.067667 0.911567 0.872996 -1.926481 0.541356 1.184376 -0.542122 -0.681401 -0.303555 -0.056984 -1.182184 1.556735 -0.436620 -0.026321 0.200573 -0.199307 -0.854068 -0.921849 -1.457530 
meydana -0.253234 0.441311 -1.099454 -0.199121 -1.177716 -0.814864 -1.565164 3.053769 1.897546 0.443437 -0.100034 0.925976 -0.698316 0.460426 2.353847 0.851970 -0.933729 0.572699 1.456360 1.742050 -0.250038 1.902181 0.736599 -0.232138 0.167698 0.330976 -1.348291 -1.321739 0.301125 0.175646 -0.058703 0.103697 0.378666 -0.613119 0.089502 -0.810500 1.280887 -0.344305 0.373249 1.293015 0.989627 2.761453 -1.277373 0.354402 1.108251 -0.576127 -0.523527 0.661403 -0.008137 -0.726809 
albüm -0.165164 -0.180624 0.541208 -3.722584 2.006111 -1.968388 -1.981667 0.054966 0.056823 -2.646433 0.943858 -4.500215 -2.089193 -2.119622 0.495976 -1.048756 1.883590 -3.092893 0.494833 0.185334 -1.390331 -2.567418 0.257722 1.352308 0.689887 0.474161 0.722308 0.806719 -1.239666 -0.620067 2.818681 1.523285 1.954317 2.180269 -0.435730 0.636176 -2.658504 0.228012 0.123169 2.283675 1.007809 -0.046656 1.483469 1.366537 -0.859318 0.026234 2.587269 0.202087 1.984250 -2.374968 
albümü -0.638493 -0.484362 1.425156 -2.583488 2.866695 -1.029004 -2.509917 -1.039056 -0.698115 -3.330597 1.434838 -3.949898 -2.493662 -2.382246 0.188450 -0.389875 1.189244 -3.383478 0.872606 -0.348160 -1.423342 -2.726145 1.429976 2.311594 -0.021639 0.711222 1.427971 0.072326 -0.565878 -0.393540 2.795804 0.914521 0.323019 1.078086 -0.336006 0.899066 -2.464527 -0.213331 0.764188 1.693268 1.220537 -0.526090 1.284644 2.082191 -0.822137 -0.531517 3.612242 -0.501477 1.342260 -2.119734 
ülke 1.553061 -0.276526 -1.932756 -0.089959 0.783188 0.886021 2.176161 0.489763 -0.109264 1.120610 0.845073 -1.096806 0.285302 0.233258 -0.701591 -1.262793 -1.923632 1.833304 -1.008196 -1.262425 -1.776805 1.189482 1.945907 0.341037 1.929789 -1.119093 1.539859 0.492989 -0.341154 -1.005317 0.180426 2.900058 2.329138 -0.189351 -0.958630 0.074979 -0.006243 -0.287768 -0.122047 0.310681 -0.795513 0.745464 -1.486937 -1.969864 0.081724 0.266995 2.675203 -0.344658 0.053451 -0.135787 
oyun -1.023388 0.056256 -0.473984 -1.969050 0.873612 -1.559034 -0.912254 -1.134969 -1.733627 0.954433 -1.411075 -2.633060 0.606820 -0.071921 -0.489637 0.732743 0.742483 1.918752 0.868388 -0.964939 1.846552 -1.098370 -0.000117 -1.205656 -2.611750 -0.572777 0.096029 1.079210 -0.373003 0.564728 1.749780 -1.345852 -0.388568 0.875803 -0.971543 1.033959 1.831065 0.797788 -2.239740 0.476987 -0.955852 -2.712340 0.139756 -1.141226 1.439892 -1.226319 -0.182133 1.510758 -1.087141 -1.229947 
ay 0.906443 -0.890853 -1.736185 -0.798842 0.416668 -0.617429 -1.110612 0.356423 1.621494 0.278138 1.811180 0.986469 0.391027 -0.261563 -0.050018 -0.548540 0.316621 -0.517082 1.182501 -1.167391 -1.699932 0.204699 1.257316 -0.604226 -0.161661 -1.615381 1.099882 0.378118 -0.317236 -1.191976 1.650977 -1.135685 0.204481 2.612237 0.932096 1.145768 -0.500946 0.831769 1.543285 0.933811 -0.017117 0.459839 0.545188 1.532422 -0.088386 -2.176442 -1.133925 -1.739203 0.604819 1.027336 
kariyeri 0.095555 0.052856 0.544936 -0.989410 1.495484 0.357823 0.042445 -0.843672 -0.138789 -0.508914 0.481497 -1.132006 -0.119763 0.638021 -0.552511 -0.003986 -0.732378 0.519647 0.974630 -1.569213 -0.879221 -0.767971 -0.197462 0.940170 0.247465 -1.500801 -1.019866 0.370856 0.452038 1.104446 0.937245 -0.220274 -0.832856 0.074805 -1.324931 1.729604 0.239460 1.694588 -1.439722 -0.381124 -0.558202 -0.890075 2.587424 0.866499 -2.604377 2.021159 -0.049210 -0.718834 0.267717 0.638477 
fransa -0.379292 -0.643469 -0.005588 0.640633 0.052095 0.876599 1.088408 -1.418954 1.269133 0.075786 1.837667 -0.317668 0.145944 1.060890 -1.320930 -2.543754 -2.925054 0.553075 0.742311 -2.040835 -0.181397 -0.670187 0.244061 -0.188455 1.644766 -0.327258 -0.681930 1.256511 2.569559 -1.246427 1.805945 -0.112727 1.397023 0.121254 -1.079145 0.448828 1.095525 -0.768024 -0.650810 0.674469 -2.184624 -1.041515 -0.157404 -1.365529 -0.184728 1.045686 2.546847 -1.176197 -0.663857 0.989479 
nüfus -2.955476 0.224409 0.358650 0.300444 -0.460201 1.254106 -0.468461 1.323399 0.860490 0.871334 1.240306 1.961870 0.707623 2.178524 2.187653 -0.770206 -1.159158 0.910004 -2.226524 1.194658 -2.673708 1.263070 1.972059 1.370682 -0.343191 0.828102 1.211712 1.186091 0.177157 1.441649 -3.443207 4.172896 -2.627121 -1.699384 -1.598373 0.981880 -2.406743 -0.852840 -1.515347 1.182408 -0.803850 1.015416 -4.377262 -1.148282 1.843271 -0.872394 1.970323 0.625755 0.319507 -1.620465 
yılından -0.241499 0.856221 -1.381256 0.373865 -0.288376 1.007018 0.482382 -0.752076 1.797523 -1.666263 0.173740 -0.905641 -0.227959 -0.228300 0.544431 -0.539265 -0.755136 0.202402 0.721580 -0.883960 -1.982847 0.392730 0.763897 0.864896 -0.052375 -0.530015 -0.658322 1.808268 -0.145975 -1.112848 -0.107788 2.418674 0.165033 -1.397897 -0.703631 -0.448660 0.359582 1.717759 -1.360892 0.070774 -1.705852 -1.812724 1.128470 0.363257 0.039815 0.653825 -0.116855 -1.322732 -0.763764 0.741906 
bilgileri -0.223518 -1.098544 0.185689 -0.273218 0.400527 0.983867 1.980809 0.872520 0.006371 -0.451990 -0.515524 0.134412 -0.111222 0.239734 -0.159317 0.246943 1.595647 -0.282918 -0.871488 1.057968 -1.600374 -0.191776 -0.990520 -1.102921 -1.188669 -0.954555 -0.175545 1.947010 -0.784602 1.826441 0.294768 0.323306 -0.974794 -0.170360 0.698203 0.694286 0.668366 1.754182 1.135999 -1.786094 0.520962 0.730567 -0.004100 -0.352885 -0.939440 1.139814 -0.469340 0.757727 0.511747 0.424271 
ankara -1.566773 1.531908 1.006919 0.668584 -2.688882 -0.619682 1.076067 -1.023304 0.562012 -0.802698 -0.625120 0.813846 -0.159928 -0.919029 0.536144 -1.113074 0.550266 0.423231 -0.035393 -0.890374 -1.358947 0.209003 0.380421 -0.448998 -0.360567 -3.341975 0.168852 1.482864 0.307529 0.320913 -1.263491 -1.092708 -1.429739 -2.702037 0.089457 0.607693 -0.172827 1.967455 1.393638 2.883129 -0.644071 -0.348300 1.206986 0.699693 0.999829 0.388266 0.134069 -1.415724 -0.544585 0.839246 
birliği 1.132872 1.464674 -0.873703 0.221333 -0.135204 1.262780 0.228464 -1.987417 0.604301 0.711122 1.451932 -0.414740 1.219215 -0.640279 -1.222410 -1.766981 -0.208281 0.524245 -0.152322 -0.852441 -0.857905 1.889148 1.119881 0.248392 2.153496 0.610682 0.898633 2.495179 1.336116 -2.218440 -0.043745 0.466398 2.562631 -0.161752 -0.320124 -0.028059 0.347109 0.871905 -0.229235 1.453040 0.126154 0.875332 0.190294 -0.282136 0.051515 2.138866 1.264938 1.156955 -2.615504 1.812707 
ilan -0.230387 -0.827255 -1.144530 3.049763 1.403268 2.317320 -0.102757 -0.779380 -0.806411 1.335076 1.154951 1.455942 0.037427 1.726923 0.558942 -0.438110 0.504000 -2.005601 0.571923 -0.648457 -0.973619 -0.066833 3.025728 -0.124680 0.298569 -0.321127 -2.692264 0.258394 -0.389389 -2.410020 0.271599 -0.199847 3.598520 -1.620906 0.845163 0.342675 0.197686 -1.591955 0.068063 2.256088 -0.183072 -0.473270 -0.245034 -1.385386 0.546741 -1.553862 2.318321 -0.723450 0.622048 1.068673 
yıllarında 0.028151 1.921424 -0.440867 -0.791818 -1.445735 0.952078 -0.324956 -0.818667 1.481310 -1.946613 -0.653595 -0.020312 -0.482975 0.275338 1.211743 -1.049578 -1.020880 0.413474 0.116934 -1.329557 -1.920776 0.375923 -0.221056 -0.226710 0.577435 -0.871596 0.401325 0.930741 0.592575 -1.144032 -0.603037 0.217670 -0.364585 -1.566157 -1.043180 1.452511 0.337064 -0.020156 -1.049917 -0.202046 -2.705280 -1.305249 0.959813 1.344746 -0.821283 2.278515 0.185528 -0.794671 0.164312 2.003895 
bilim 1.701706 -1.442752 -0.673954 -0.177826 -0.692477 -1.422364 -2.483322 -2.884531 -0.272281 -0.119966 -1.289894 1.853307 -0.730862 -1.593721 1.926197 1.345945 -0.998469 -0.119236 -1.604016 -0.156674 -2.383259 1.500057 -2.575040 -0.225908 -0.180861 1.022821 -0.820795 -1.523155 -0.353136 -3.083164 -0.068464 1.662770 -0.798521 0.779551 -0.258140 -0.856458 -0.001319 1.376837 -0.257936 -2.037902 0.498056 -0.319033 -0.275994 -1.442760 0.663821 1.461112 -0.679165 2.275438 -2.133762 -1.243550 
inşa -0.929851 -1.426699 -1.686903 0.040176 -3.031225 -0.134320 0.590877 -1.022350 0.063284 -2.060394 0.686892 0.127055 -1.208828 0.761232 0.294630 2.094012 -1.651216 -2.442192 -0.099394 -0.610015 0.198707 1.652233 2.843080 -2.737840 0.388058 2.304990 0.861079 0.432721 -0.924083 0.574225 -2.055911 1.371062 -0.279853 -1.952545 1.296796 -1.231204 0.613811 -1.695159 -1.300091 -0.436662 -1.197222 -0.141740 1.278198 -0.765783 -1.520974 -1.357379 -1.815244 0.930080 0.650528 0.781582 
hareket 0.292289 0.173649 -0.432719 -0.751841 -0.290358 0.570902 -1.114715 0.521618 1.121430 2.054027 -0.629066 1.012867 0.854642 1.268335 -0.789782 1.228762 0.353868 0.210692 1.891138 -0.953689 0.801869 1.055005 -0.176838 -0.657769 0.544883 3.217927 -0.157211 0.928487 -0.431235 0.867043 0.031646 -1.675311 1.238092 -0.183344 0.253487 0.775547 1.507938 -0.619926 1.005267 0.442443 1.999388 0.845405 -1.517042 -1.007937 1.456446 0.903705 -0.971284 0.502062 0.139278 -0.502127 
anlamına 0.534498 1.340502 -0.617898 0.514871 -0.896070 2.207360 -0.042890 0.801065 -1.031855 1.778672 -0.418266 -0.216331 -2.441225 0.256108 0.528877 -0.202926 0.475648 -0.307271 -0.453254 1.345599 1.243030 0.459503 1.764582 0.577697 -0.319832 -0.032440 0.185522 -1.466054 0.502835 -0.121161 -0.249354 0.482039 0.046952 1.197183 0.361101 0.381913 -0.408327 -0.728731 0.483759 -1.859197 0.053792 0.549801 -1.504363 1.408203 -0.625393 -0.229370 -0.768483 2.585610 -0.783693 -0.474677 
ifade 0.727286 0.179398 0.218159 0.851225 1.616124 0.462436 -0.350811 0.086853 0.290438 1.890337 -1.538904 -0.692192 -1.307093 0.792642 0.434888 0.681656 2.031331 -0.285858 -1.016949 0.757670 0.227985 -0.232440 0.815632 1.393540 0.880341 1.102930 -0.436138 -0.866016 -0.964838 0.849006 0.380481 0.139459 -0.387906 1.152078 1.093297 0.739167 1.101117 -0.125760 1.367813 -0.263779 0.882371 1.567294 -1.928126 -0.059760 -0.089767 0.508828 -0.055211 2.267018 0.067933 -0.787001 
ordusu -1.793802 -1.661114 -0.787608 1.902949 0.697435 0.093072 -1.324139 0.140345 0.713747 2.350502 1.944049 2.776047 2.037576 0.580121 -0.663620 -1.360813 0.193293 -2.202461 2.216197 -1.615543 -0.350409 -0.732630 1.731963 -3.735789 1.183715 1.166460 0.642622 0.876802 0.062446 -0.353244 -0.402863 -0.848923 4.734641 -3.134576 0.907337 -0.436331 -2.153707 -0.452714 -0.854013 0.059904 -0.615906 1.628569 -1.931170 1.691749 1.552789 0.200716 0.368018 0.039007 -0.489615 1.724744 
telefon -1.088410 -2.438252 1.340442 -0.298132 -1.084984 2.673070 0.624426 2.831984 0.385530 0.451903 -1.587649 -1.123255 -1.549399 0.039973 -0.862253 0.366378 -0.475614 0.820327 -1.546790 3.441944 0.183939 -1.263968 0.856833 -2.836852 -1.570732 1.836113 -1.376813 3.236086 0.768168 0.800262 -0.240840 1.557872 0.700095 0.231257 1.085338 -0.241810 -1.616779 1.526118 1.377049 -0.259432 1.158237 -0.635100 1.027891 -0.391177 1.186265 -0.696028 -0.506239 -2.494359 0.079305 0.417267 
tür 1.574586 1.293447 0.041586 -0.947953 -1.384902 -1.379090 0.484786 0.662368 -0.928309 0.135881 -0.436099 0.212480 -0.667638 1.136981 -1.633067 1.408177 0.505246 0.523522 0.445663 1.818234 0.425731 0.106078 0.129391 -0.138891 -0.094462 1.332451 -0.267098 -1.453176 -0.267148 0.934209 0.087927 0.805276 0.056025 1.185329 0.490778 0.550040 0.460961 0.274777 -0.176262 -1.690393 1.611663 0.429140 -2.239929 -0.360054 0.110540 1.127977 0.494322 1.218789 -1.431602 -0.866054 
amacıyla 0.870920 -0.429103 -0.859699 0.899203 -0.377596 0.137856 0.845819 0.358931 -1.137604 -0.951204 -0.561948 -0.277869 0.116791 0.431681 -0.998090 0.255312 -0.240688 -1.027030 -0.911707 -0.540489 0.361156 1.677862 -0.276181 -1.877641 -0.073759 0.762503 -0.058409 1.289755 0.626899 -0.289979 -0.343316 0.611530 0.064232 0.265070 0.645318 0.014232 0.282025 -0.821746 0.356349 0.315934 1.224861 0.660018 0.062392 -0.058910 0.937588 0.934187 0.063696 1.312678 -0.222233 1.762965 
ali -1.348270 -0.974815 -1.312454 0.852626 -0.261162 1.763583 -1.272537 -0.516370 0.168434 -0.410213 -1.714797 0.953861 0.600649 -2.271287 -0.008328 -0.781827 0.586597 0.548729 1.883710 -1.921012 -2.135001 -0.624181 0.520062 -1.262904 0.075641 -2.553434 -0.521831 0.012460 0.352755 -0.063551 -2.003944 -2.351171 -0.487213 -0.945267 2.490259 -0.134502 -0.779458 -1.407632 1.355869 -0.399473 -0.321589 -0.027044 0.721273 -0.051110 0.000209 -0.136049 0.099935 -0.108072 1.266591 -0.480642 
altyapı -1.119735 0.435371 -0.060758 -0.277398 1.033126 -0.206321 0.975395 1.171815 -0.106291 -0.555090 -0.983006 -0.210404 0.303684 0.383935 -0.833922 0.430152 -1.015071 -0.417916 -0.340084 1.004677 -1.644865 1.858228 -0.044148 -0.027603 -0.244174 -1.240690 0.421733 2.235916 0.392529 2.169259 -0.242241 0.721288 -1.403931 -0.910746 -0.468925 1.062975 -0.878772 0.479822 -0.573513 -1.024973 -0.071332 -0.349780 2.083909 -1.167256 -0.437102 1.537069 -0.816303 0.607784 1.075993 -1.242406 
maç -4.096328 -0.563177 0.107130 -0.178382 4.688210 -0.169477 1.155446 -0.809784 -0.778422 2.051754 1.073332 -0.198963 -1.079681 1.871780 1.709909 -1.489172 0.370765 3.823259 3.149004 -0.869682 -0.843842 0.152958 0.046427 -0.978153 -1.711834 -0.726109 0.979981 0.018893 2.693286 0.659837 1.247970 -1.754668 0.834325 2.581689 -1.416288 0.591404 0.857568 -0.136187 -0.793636 0.427401 -1.955636 -0.234186 3.504285 -1.797148 -0.354138 -1.090619 -1.301471 -0.973270 0.100522 -0.211580 
ilçesine -1.068783 1.253952 3.408039 0.239475 -3.058463 -0.138869 1.479086 1.611614 1.236950 2.036167 0.304197 2.526005 -0.287782 -0.577044 2.433363 -0.904590 1.089206 -1.450568 0.337700 0.988520 -0.294742 1.057409 2.006463 0.955590 -2.188150 -2.307988 0.910296 2.304636 1.416237 1.357625 -1.966577 0.816047 -1.097717 -3.134498 0.223964 0.135596 -2.205285 -0.288426 0.523060 1.377396 0.761643 -1.210471 -0.897149 1.354673 1.109929 -0.298441 0.425399 -0.638069 0.503190 -1.219488 
paşa -1.152943 -1.947964 -2.395205 1.288650 -1.716369 -0.889916 -2.820368 -0.995015 2.062519 0.737847 -1.377243 0.904198 1.949901 -2.245433 -0.997421 -0.720422 -0.224910 -1.361152 2.194994 0.239483 -1.355628 -0.492986 0.011778 -3.632169 1.738630 -1.987709 0.036094 2.788249 1.247452 -1.624525 -2.312250 -4.383592 0.438750 -3.170395 3.396372 0.419929 -2.109598 -2.547347 1.802428 0.541709 -1.382261 0.619229 -1.377621 -1.184905 1.038127 -1.656700 0.921942 0.434591 2.817917 0.056344 
iklimi 2.824714 1.954412 2.997190 0.127032 -1.233794 -2.249454 1.699279 1.549977 2.967038 3.462399 2.312275 0.652706 3.062873 0.070142 4.073192 -1.666178 1.143273 -1.164145 1.404946 1.840648 0.158597 -0.973153 3.418454 2.349515 -3.002424 -2.516232 -0.630419 1.727939 1.794480 2.065092 0.786229 -0.901798 -2.983047 -3.009616 -1.641877 0.391284 0.260819 -1.326553 -0.096133 -1.887099 3.021502 -0.221266 -2.469837 0.200131 2.632889 -0.050939 1.760598 0.315283 2.412688 0.756766 
listesi 1.843593 -0.645176 -1.503986 0.527126 0.715819 1.273438 1.329763 -0.272111 -0.825975 -0.578990 3.518265 -0.921340 0.101159 -1.104438 -1.556174 -0.316613 0.763421 0.644636 0.294482 2.662438 -0.812850 -0.110620 -1.295249 -0.318990 -0.396537 1.262964 -0.869044 -0.435588 -1.297584 0.641541 0.777586 0.895672 -1.280631 -1.644545 -0.510958 -0.047826 -0.009416 1.210387 -0.039768 -0.250961 -1.905745 -0.127438 0.696278 -0.707224 -0.693329 0.439956 1.839654 0.689028 -1.250237 0.317825 
bölge -0.062158 1.887920 -1.918639 1.379069 -2.118327 -0.581177 0.634662 0.644619 0.890966 1.508933 0.192070 -0.434074 1.513822 1.425096 1.783330 -1.144427 -1.421796 -0.754947 0.241342 0.287229 -1.291931 0.160753 1.607771 -0.611885 -0.231464 -0.798119 0.307298 0.418173 0.159212 -0.376519 -1.748190 2.100924 0.058134 -1.795970 -1.816171 0.138171 -0.957952 -1.037224 1.709923 -0.450471 -0.804736 1.503430 -1.798757 -1.293956 0.222057 -1.062957 0.063675 0.309992 -0.648258 0.423988 
belediye -1.749717 0.395885 1.813078 1.436955 -2.169920 -0.075481 -0.069843 -1.489387 1.197364 -0.144677 -0.423154 -1.057219 0.895302 0.409383 0.965214 1.817187 -0.320953 2.062397 -0.774201 -1.237614 -2.638043 1.429462 0.379436 -0.171763 -0.159340 -1.992143 -1.384187 3.753595 -0.103805 -0.761233 -2.683452 2.117457 -1.365156 -1.944339 0.507145 0.505845 -2.663621 -2.129239 0.102603 2.235058 -1.206567 -0.976409 -0.538806 -0.794724 -1.022513 -2.032483 -0.736138 -2.054163 -1.333223 0.307517 
kralı 0.538187 -0.825590 -0.711012 0.165515 0.917994 1.070241 0.292260 -2.101785 -1.253603 0.461559 2.475145 0.980359 -1.464893 1.630000 -0.035301 -4.071133 -1.853757 -1.804608 0.473885 -1.663756 1.013811 -1.441205 1.025937 -1.274332 -0.493105 -1.763110 -0.997401 1.172604 2.070430 -0.980787 0.387094 -0.747488 2.335721 -1.867163 0.428522 1.127052 2.285475 -3.777847 0.718955 -0.859917 -1.788932 -1.030951 -0.892846 0.659544 -0.512677 -1.050762 0.343665 -0.095626 -0.404360 0.251922 
sistemi -0.609311 1.210396 -0.137894 0.011740 0.401211 0.176552 2.522263 1.618382 0.724109 -0.435462 0.340910 0.583268 -1.297578 0.424949 -0.977877 3.300202 -0.893913 1.167583 -0.421951 -0.493436 -0.242666 1.137705 0.496709 -0.832351 -1.488733 2.116213 0.151221 0.853760 -1.102000 0.356648 0.834273 0.418871 1.113232 -0.197701 0.030158 -0.030571 0.570949 1.141035 1.655608 -1.075449 -0.998755 -0.046377 -0.093999 -0.905923 1.346530 -0.204679 0.916855 1.637501 -0.683322 0.871452 
sonucunda -0.498105 -1.161903 -1.580315 0.155870 0.066034 -0.716612 0.342174 2.678249 0.227105 -0.854944 0.522889 0.141132 0.112407 0.317806 0.487560 -0.880432 -0.529479 0.667068 0.314450 -0.667939 -0.917437 2.272560 -0.705124 -0.555206 0.401342 -1.669400 -1.072763 -0.533434 0.503110 0.100602 0.240347 -0.335730 2.027082 -0.352355 0.180790 1.304288 1.238912 -0.452419 -0.088345 0.772905 0.366951 1.239646 0.309321 -0.230460 0.724502 0.096342 0.219540 -0.031713 -0.507897 0.762790 
defa -1.052129 -0.124644 -1.442540 0.427101 -0.020269 0.121020 -1.365337 0.260278 -0.000800 -1.068557 0.323770 -0.559784 -1.486008 0.455717 0.285374 -1.038464 0.675187 0.903339 1.090417 -0.201294 -0.184560 0.559819 0.095898 -0.362572 -0.125029 0.062688 -0.518448 0.401340 0.227857 -0.638625 0.564114 -0.479962 0.200959 0.597283 -0.586000 0.118906 -0.040742 -0.653663 0.557246 -0.327706 -2.288436 -2.418270 0.628023 1.064357 -0.129808 0.619362 0.113094 -0.535047 0.493737 0.261607 
maçında -4.060876 -0.106460 2.091031 1.643583 4.952590 -1.712698 2.180064 -1.765080 -1.793539 1.609616 2.016510 0.536984 -0.601882 -0.029389 3.945611 -3.129920 -0.858713 3.898324 3.330302 -0.128377 -1.051515 0.942115 -1.874075 -2.267806 -1.340248 -0.994340 0.432487 0.135743 1.520725 -0.576941 1.323785 -2.943095 1.131449 5.124472 -0.823408 0.411660 -1.555003 -1.827198 -1.782783 2.196855 -2.273245 -0.212141 4.145120 0.990459 0.378711 -0.240341 -2.884634 0.062096 -0.003069 -1.590014 
üyesi 0.516773 1.849905 0.428799 -1.108412 0.753800 2.878603 -0.325694 -2.288066 1.816706 -1.035189 0.733649 -0.657288 1.687073 -0.427110 -0.262091 -0.179250 -0.316534 1.616373 0.515609 -1.718211 -1.692838 0.215703 -0.708705 0.308466 0.752903 -0.695490 -0.405531 0.837365 -0.292353 -3.875328 -0.234205 1.911362 0.928503 -0.224393 0.606099 0.239348 -0.347918 0.350399 0.791519 1.991771 1.065933 -0.117096 0.932723 -0.527238 -0.797763 1.052877 -0.050136 -0.200814 -2.488866 0.010318 
konusunda 1.045533 -1.274628 0.889156 0.087439 0.479899 0.206451 0.658779 -0.625912 0.173957 -0.056087 -0.894996 0.431154 0.264709 -0.419133 -0.931082 -0.809917 0.565949 -1.129743 -1.349668 -0.286438 -0.790189 -0.621875 -1.656232 -0.347791 0.098843 -0.026035 -0.014986 -0.059718 0.701874 -0.965715 -0.439033 0.301152 0.832015 1.627109 0.072664 0.868279 1.147660 0.007744 0.588799 -0.501876 1.334133 -0.597506 -0.854517 -1.198366 0.455392 1.496655 0.269155 2.038455 0.571950 2.173786 
yarı -1.693371 -0.143151 0.344824 0.625347 1.046698 -0.236605 1.291771 -0.111387 -0.526928 -0.303237 3.360773 -0.338102 -0.395452 -0.312206 0.913608 -0.349704 -1.002454 3.870696 2.007380 -1.248673 1.750922 1.039733 0.394637 0.620756 -0.332789 -0.453620 0.983607 -0.968905 -1.459070 0.280246 1.673183 -0.060413 1.062657 -0.109885 -0.895568 -0.361827 1.131917 -1.373721 -0.565150 -0.738361 0.381860 -0.546288 0.515863 0.036996 1.759371 0.304029 -0.558350 -0.725817 0.597557 -0.946332 
televizyon 1.996017 -1.150370 1.965589 -0.675112 1.273030 -0.060612 -2.424104 0.116400 -3.731801 -0.674907 -1.804364 -3.249578 -0.107137 -1.197870 1.027210 1.123755 -0.499875 0.170435 0.917610 -1.508727 -0.239174 -0.756022 0.519926 -0.317549 -0.790272 0.712146 0.289468 -0.289332 0.985392 -1.608956 1.981691 2.649721 -0.878954 -1.918893 -1.319471 -1.726063 -0.191615 3.844676 0.728000 -1.037483 -1.168545 -0.366380 1.795743 0.436203 0.057135 0.116782 0.251465 -1.680775 -0.544305 1.144374 
yılına -0.933107 0.417195 -2.370494 -0.125760 -0.137514 0.756389 0.371473 -0.365040 2.802864 -1.118339 -0.075606 -0.648246 -0.802619 0.340037 0.604599 -0.822984 -1.347027 -0.924156 0.947509 -1.048917 -2.101883 0.646816 0.788111 0.989352 -0.314939 -1.014230 -0.050172 1.797983 -0.313983 -1.488673 -0.595645 1.877871 0.345713 -1.549843 -0.537120 0.518196 0.430717 1.031705 -0.811179 0.007188 -1.886567 -1.873960 0.896095 1.289612 -0.420573 0.205214 -0.266742 -1.437366 -1.063344 1.237420 
anadolu -1.877566 4.101380 -0.626745 1.698326 -2.436746 -1.286750 -0.225107 -1.081944 1.720473 0.708767 -1.251097 0.276249 -1.090991 -0.421256 0.813523 -3.568753 -0.748952 -1.715901 0.942360 0.457018 -0.775801 -0.176295 1.723602 -1.775481 0.096092 -1.577139 1.058998 -0.005909 0.901170 1.772484 -2.351985 -0.781595 -1.101604 -1.963758 -0.039940 0.623212 0.677301 1.023826 0.277867 0.663688 0.047731 1.075114 0.079936 -0.218189 0.134310 0.104873 0.340162 0.555716 1.012956 0.559373 
olmasına 0.264642 -0.297030 1.184198 -0.182619 -0.130915 -0.482236 0.615526 -0.222412 1.472091 0.899807 -0.151567 -0.532191 0.041265 0.509708 0.155462 -0.598464 -0.875465 0.789591 -0.187390 0.539315 -0.323942 -0.341848 0.284467 0.095193 0.070091 -0.228131 0.077695 -0.899909 -0.637228 0.762357 -0.341029 0.778679 0.674288 0.306709 -0.525548 1.462887 0.602011 -0.584673 -0.523400 -0.846630 1.000313 -1.043646 -0.710190 -0.080053 -0.655469 -0.477083 0.325886 0.784935 0.876286 0.604434 
ordu -1.400981 0.380930 0.398432 1.449210 0.043287 1.383532 -1.214005 -0.554368 2.737813 1.635047 0.824773 1.314597 2.609379 -0.348743 -1.722470 -1.096355 0.080855 -2.966743 0.375941 -0.979403 -0.132703 0.148853 1.359195 -2.337453 1.071228 0.237371 0.285052 1.714038 0.539485 0.229754 -0.160605 -0.908178 4.068066 -2.893113 0.587081 0.966072 -1.820431 0.682999 -0.815431 0.556597 0.170136 1.931967 -1.244036 -0.027145 1.765876 -1.200048 0.242023 0.773423 0.767402 0.697927 
kulüp -3.237486 0.449372 -1.404211 -0.119610 1.369433 0.231125 0.881675 -1.493493 -0.610740 0.830128 0.525243 -1.793607 -2.036018 0.470179 -0.193822 0.086064 0.342117 0.608593 0.147459 0.357099 -3.575428 1.287620 0.186809 0.425466 0.562777 -2.613165 -0.617590 -0.183220 3.064213 0.909791 -0.445512 1.442819 1.019960 -0.023807 -0.001162 0.353486 0.431428 -1.181463 -2.254070 -0.301931 -0.172019 -1.693985 4.059192 -0.319872 -1.175124 -0.572669 -0.904829 -0.344439 0.991588 -0.326114 
yüzyılda 0.148434 0.825944 -2.183263 1.034341 -3.161741 -0.413642 -0.334299 -0.009344 -1.344959 -1.054230 0.251830 0.612155 -1.620476 0.364285 1.658189 -0.977508 -1.446166 -1.222501 0.151099 -1.411016 1.104817 0.120252 1.100532 0.249029 -0.189936 0.911363 0.053076 -0.402995 -0.473385 -0.412932 -2.831016 0.464021 0.014739 -1.252412 0.714536 1.609993 0.758481 -1.395630 -1.443695 -2.201828 -2.595078 0.881907 -3.285455 -0.360172 -0.923219 0.352361 -0.551866 2.407407 -0.987198 -0.006973 
grubun -2.363885 1.157101 0.924480 -2.331049 0.612567 0.925499 -0.269989 -0.230063 1.109005 -1.420841 0.811162 -4.036196 -1.295480 -1.456924 -0.057380 -0.492625 1.586230 -1.636090 0.857382 -0.822375 -1.322924 -1.688842 -1.661327 1.060906 0.872396 0.451042 0.731545 -1.689569 -1.073440 -1.608412 2.939409 1.393973 2.141535 1.498200 -0.471638 1.625707 -1.545718 -1.809052 -0.493027 2.269497 2.607522 0.820664 0.818574 0.098724 -0.328577 -0.368721 -0.017899 1.135852 0.317332 -0.642120 
ilköğretim -3.049120 2.669918 1.025209 -0.425387 -2.305105 -1.501380 1.197444 1.045048 1.144953 1.665290 -0.432765 0.683865 0.061152 -2.778009 -0.177508 3.256233 -0.727249 3.220516 -2.037101 2.413055 -1.991216 0.091971 1.448494 3.646451 -0.380773 -2.084137 2.425214 1.163125 -0.897315 -2.262513 -1.759512 -0.731916 -0.148924 -3.858627 -2.787510 2.956680 -5.146544 3.543531 0.344560 -0.023828 -2.168475 2.724674 -0.574649 -4.526748 -1.968754 1.803720 -1.937513 -0.254730 4.982749 0.277561 
rusya -1.421947 1.143198 -1.437118 2.229333 -0.175641 1.022164 0.669984 -1.341817 1.139325 1.202488 0.896634 -0.751372 2.549320 -0.796259 -0.510350 -2.229502 -1.792186 0.297374 0.575244 -0.738793 -1.237432 2.887085 2.090822 -0.338046 1.356425 -1.303938 0.399234 0.631304 0.762404 -1.152954 1.595398 -0.243348 2.340100 -0.444526 -0.143854 -0.263532 0.986544 0.284129 -1.634855 0.885024 -1.676756 -0.934715 -1.038537 -2.192906 -0.131794 1.806527 2.278509 -0.412666 -0.146941 0.574743 
kendisine 0.824018 -0.684306 0.665501 -0.414719 1.108050 -0.020717 -1.051010 -1.819620 0.456829 0.435713 -1.294070 -0.550566 -0.481083 1.553459 -1.459245 -1.104638 0.438384 -1.244537 -0.837907 -0.356145 0.097990 -0.465236 -0.581004 -0.966629 -0.094271 -1.548492 -0.276752 -0.214901 -0.074443 -1.392213 -0.385657 -1.580676 0.961262 0.584145 0.742103 1.740338 0.567855 -1.004922 1.591503 -0.651061 0.190133 -0.151788 0.468200 0.775844 -1.209649 0.111941 -0.032362 -0.456964 1.388661 0.257941 
cumhuriyeti -0.305262 0.602316 -0.655252 2.783695 -0.116381 1.617216 2.632166 -0.854515 0.371723 0.688963 0.245582 1.414813 0.001758 -0.559401 -0.346136 -1.660130 -1.905674 0.826166 0.710874 -0.365170 -3.079884 0.607904 2.617455 0.546398 2.223838 -1.117230 -0.512378 0.855685 -0.483508 -1.491328 -0.328239 0.903274 1.510114 -0.282373 -0.929712 -1.972243 0.594344 -0.654846 0.730016 0.901067 -2.884973 1.018373 -0.695819 -0.528860 -0.135086 -0.005128 1.335127 -0.687106 -1.724032 0.648820 
parti 0.939530 1.651790 1.008904 0.567274 1.332805 1.735886 -1.863829 0.097618 1.736128 -0.179052 -1.638992 -0.529243 0.817261 -1.310433 -0.751536 1.509543 2.051250 1.169886 0.719038 -2.902097 -3.248695 1.644048 1.324436 -0.089604 2.658739 -0.060765 -0.620751 2.978349 0.078889 -2.008778 -1.199939 1.450065 3.240552 0.939592 -0.666526 0.763970 -1.758170 -1.535789 0.178945 2.307723 0.029195 -0.339976 -1.051309 -3.370196 0.033979 -1.085926 -0.527428 0.013622 -1.462401 2.147154 
almanya -0.557328 0.177051 0.251722 1.190732 0.455872 0.292116 1.994861 -1.339172 1.526726 -0.084489 1.271677 -1.516818 0.393135 0.429320 -0.579005 -3.012689 -2.775056 0.569262 0.069162 -0.024601 -0.341681 -0.155250 1.330079 -0.101927 2.093874 -0.296262 0.723042 0.962029 1.076388 -1.583924 2.039632 0.335706 2.826264 1.709075 -1.131362 0.774830 0.011473 -0.008420 -2.192788 0.872383 -1.740546 -0.552130 1.572264 -1.901909 0.106039 1.673311 0.250048 -1.075381 -1.389016 0.914716 
kendini 0.322087 -0.078473 0.857118 0.004620 0.822864 0.153860 -1.327650 -1.223432 -0.685009 0.161243 -1.312142 -0.115031 -1.076154 2.566713 0.545057 1.133557 0.223192 -0.399963 -0.241508 -0.425168 0.291103 -1.000511 -0.228840 -0.499588 0.024484 -0.306557 -0.746325 -0.741291 -1.339260 0.248142 0.304243 -0.939454 1.394756 0.556117 0.424340 2.233284 1.233903 -0.908959 -0.120010 0.006370 1.341619 -0.340090 -0.463544 0.251363 0.012201 1.052230 -0.429074 -0.311685 1.240878 0.454660 
sultan -1.104610 -1.054976 -2.350507 1.021933 -1.471614 -0.163827 -4.395711 -1.674912 0.368756 0.425103 -1.770528 0.646612 -1.598793 -1.632060 -1.117789 -0.991522 -1.076392 -1.246416 0.874868 -0.072907 0.363079 -0.899280 1.629860 -1.743281 0.390921 -1.551693 1.682382 2.110379 1.839299 -0.548375 -2.810969 -1.288068 0.554995 -2.515810 2.508831 0.572432 0.970019 -1.893401 1.216412 1.669144 -1.384468 1.137975 -1.296019 1.518207 -1.218445 -1.198415 0.839251 0.378732 3.822675 0.608593 
ocağı 0.527722 0.415439 1.416828 0.907852 -3.747894 0.650533 1.789950 0.170361 1.948090 0.751742 0.815400 0.513209 -1.339269 -0.804156 -0.369161 1.251613 -1.359377 0.499994 -1.816899 1.137443 0.780975 -0.292311 1.611755 0.158509 -2.297359 -2.094547 -1.992477 1.645935 1.229427 1.586188 0.737236 -0.559402 0.055707 -1.966615 1.829224 2.879617 -3.722496 0.218567 -0.074660 0.389063 -1.040086 -0.368887 2.016020 -2.700178 -0.228772 -0.369377 -1.613981 -1.788067 1.728973 0.072291 
kültür 1.895935 1.605860 0.784985 1.729868 -2.723559 -1.473260 -0.356810 -1.106767 -0.140349 -1.426275 -0.145213 0.290097 -1.019557 -0.731442 0.483534 -0.170613 0.084410 -0.151832 -1.626636 -1.438989 -2.210329 -0.529518 0.724657 -0.288938 1.034882 -1.240864 0.849491 1.055566 -0.492778 -1.879734 -2.377872 1.712172 -1.637771 -1.271315 -0.051539 -0.822061 0.566377 1.588655 -0.824166 0.056835 0.701503 1.210820 0.946235 -1.680719 0.453467 0.278599 1.366194 0.218171 -0.811916 -1.635028 
yılın 1.127092 0.693571 -0.979287 0.069551 0.617493 0.713739 -1.743517 -2.259454 1.143892 -0.025340 2.222542 -1.285326 -0.867458 -0.621889 0.710779 -1.984434 2.289390 -0.689364 -1.056795 0.169526 -0.447451 1.259921 0.570531 0.315693 -0.044238 -0.692230 -0.027651 -0.191536 1.126035 0.231985 1.648316 -0.187073 0.031961 1.124316 -1.883476 1.578896 -0.841619 -0.189666 -2.010849 0.358839 -1.530283 -1.515805 2.855994 0.650939 2.200221 -0.939683 0.914780 -2.023880 -0.057253 -0.128143 
dönem 1.126894 1.209213 0.044489 0.432346 -0.281311 -0.670916 0.362472 -0.830985 0.770752 -1.132299 -0.242236 0.246884 -0.648244 -0.413573 0.734387 0.256930 -0.660880 -0.081809 1.681191 -2.104807 -2.923130 -1.365450 -0.199276 1.074005 1.843940 -1.564342 -1.058856 0.114280 0.233743 1.034362 -0.996543 0.352501 -1.406530 1.043886 -0.069155 0.595226 0.553503 0.135908 -0.421940 0.049980 -2.075794 0.110544 -0.333511 0.732450 -1.275341 -0.466130 -0.804510 0.383825 -0.021101 1.710681 
kral 2.185027 -0.713366 0.097963 -0.348608 0.060679 1.843739 -0.844796 -0.843808 -0.683303 0.549237 2.277758 0.667657 -2.798508 1.241243 -0.594092 -0.884603 -0.821708 -1.292152 0.245729 -2.065778 0.936086 -0.417399 0.111558 -1.784738 -0.701054 -1.508474 -1.101007 0.793288 -0.033539 -1.932251 0.801443 -0.691590 2.555096 -1.207496 0.746710 0.699187 1.680065 -2.007651 -0.614630 -0.789481 -1.240979 -0.561031 -0.613479 -0.168821 -1.713612 -1.964669 0.405429 0.095228 0.421828 0.110886 
metre -0.593994 -0.253586 -0.035852 -1.960724 -2.575618 -1.873304 1.986071 -0.669597 1.232654 0.874222 1.613098 1.501828 1.700551 -0.550119 1.073759 0.283933 0.720635 1.957734 1.179621 0.429529 1.475328 1.810821 4.018875 -1.925381 0.700525 2.128769 2.160219 -0.209378 0.132690 0.941486 -1.008670 1.001788 -1.095204 -0.577428 0.046354 0.025940 1.442100 -0.501030 0.201767 -0.506593 0.354532 -0.705729 1.502029 0.948730 -1.445042 -0.909016 -0.376052 -2.365193 -0.403480 -1.645256 
yardım 0.687750 -2.101340 -0.537062 -0.385150 1.674123 1.488618 0.145465 -1.321114 -1.259291 0.642250 0.125110 -0.299623 0.253355 3.081615 -1.901190 -0.795187 -1.163384 -1.236073 -0.693656 -1.023710 -0.091366 -0.204631 -0.743985 -2.412135 -0.530312 0.699784 0.775657 -0.007165 0.741834 -1.548008 0.053147 -0.709620 0.865968 -0.710567 0.434383 0.368241 -0.498376 -0.385071 1.483230 1.324322 1.595746 1.158423 -0.009499 -0.844810 -0.140461 1.780347 -0.503042 -0.875411 1.556352 0.274935 
madalya -0.703662 -1.422183 -0.994281 -0.996462 2.734348 0.685679 1.553634 -2.792603 -2.031976 0.072404 0.961934 1.963547 1.924318 0.363903 -0.269712 -0.753031 1.284906 2.966047 2.117189 0.234297 0.420182 3.050675 1.359023 0.734623 1.118219 -1.367533 3.898627 -0.051968 3.512959 -1.576341 0.708680 -0.786649 0.899679 0.591789 -3.523494 0.515772 0.701249 1.538190 -0.818571 -0.847277 -4.046412 -2.948354 0.027926 0.910241 -2.072217 2.778982 1.617781 -2.158434 0.753217 -3.439264 
basketbol -3.627224 1.158667 -0.673087 -0.326106 2.303988 0.210243 1.078493 -3.134466 -1.824900 0.913802 -0.798250 -1.936222 -0.062905 0.936702 -1.118684 -2.084573 -0.773254 3.298487 1.647757 0.747410 -1.942591 1.954066 0.836136 0.457529 0.076715 -1.052893 0.788888 -0.698947 1.066050 -0.920043 -0.858279 0.269946 -1.887153 -0.835205 -3.181676 -0.762227 2.618475 -1.548010 -2.971213 0.682583 -0.505750 -1.869609 3.039850 1.998806 -0.465543 2.371959 -0.365242 -1.434224 -0.140390 1.101292 
bölgede 0.705962 1.028147 -1.927709 0.657257 -2.758467 -0.558812 0.877216 1.456964 0.381450 1.203872 0.405534 0.494392 0.940723 1.275804 1.311333 -1.644997 -1.801210 -1.073201 0.477431 -0.479332 -1.457319 -0.232858 1.408551 -1.669542 -0.581751 -0.325483 0.490303 -0.769760 0.133994 0.280300 -2.331874 1.258779 0.298133 -0.958283 -0.961065 0.841246 -0.542818 -1.156772 -0.736352 -0.992395 0.277219 1.565946 -2.427380 -0.380830 0.261775 -0.808626 -0.618532 0.256786 -0.843282 0.038736 
anda -1.193909 -0.907503 0.559779 -0.843973 0.301113 0.178320 0.380741 0.394268 0.434754 1.061256 -0.871187 -0.988021 0.033868 0.586014 -0.030816 0.651515 -0.162743 0.634065 -0.175760 0.747494 -0.225934 -0.446104 -0.295198 -0.692330 -0.857439 0.645693 -0.420763 0.138777 -0.691655 -0.040575 0.398956 0.639765 0.845524 0.094202 0.933871 0.329925 0.668474 -0.268438 -0.760647 0.230673 0.244043 -0.562917 1.136568 0.848763 0.053870 0.329702 -0.805122 -1.077812 -0.003525 -0.850538 
sezonu -2.256263 -0.737207 0.671866 0.743802 4.456146 -1.300099 0.298522 -1.352036 -0.562055 0.053833 1.712399 -0.704994 -0.537243 -0.386902 0.673698 -0.283809 -1.218289 1.414260 2.020931 -0.015186 -2.851787 0.531389 0.378041 0.843892 -0.660430 -3.176490 1.716354 -0.434579 1.974494 2.906309 0.807279 -1.140898 -1.111453 0.785877 0.507954 -0.602354 2.078252 -1.756080 -1.500761 0.381924 -2.377799 -1.453607 2.770634 0.121608 1.073125 -0.075436 -1.463869 -1.331610 0.648051 0.159103 
sinema 0.545832 -0.807057 2.146474 -1.933235 0.254366 -1.793895 -3.182065 -1.345576 -2.390659 -0.057487 -1.827169 -2.393431 -0.004856 -1.716982 0.262670 0.959918 -0.854800 -0.337496 0.182822 -2.279970 -0.412725 -1.254748 0.191869 0.296251 1.149235 -0.214880 -2.384359 -1.481378 0.931762 -0.572114 -0.863257 0.737426 -2.769867 -0.852890 -1.793389 -0.866058 -0.690718 3.603659 -0.326937 0.044111 -0.270018 -2.318034 0.290317 -0.105855 1.025490 -0.306530 1.615133 -1.090162 0.255971 0.028362 
saat -1.148735 -1.411124 -0.485439 0.167348 -0.211509 -1.352065 -0.732517 1.231353 0.838158 1.734656 1.170565 0.056887 1.512400 0.712568 2.244126 1.663353 0.537617 1.023898 0.880468 -1.179945 0.724765 -0.747688 1.957760 -1.509043 -0.818889 2.120317 -0.477657 0.611486 -0.284121 0.136599 0.515690 -1.209422 0.678240 1.658303 1.398804 -0.194466 -0.543127 2.262911 1.618922 0.806260 -0.167806 2.389443 1.028117 1.990275 1.304263 -0.885551 -0.449099 -2.272626 0.940357 0.476318 
kanalizasyon -1.295971 -0.653075 0.868171 1.141136 -0.390737 0.050909 0.104929 1.415006 1.480515 2.248579 0.652484 2.858916 -3.822843 0.179157 -3.004064 1.370363 -3.031078 -0.804192 0.990563 1.924957 -0.986900 -3.435114 1.943152 1.045387 -2.175777 2.890201 -0.133654 1.499954 1.601096 3.231197 -0.368070 1.484733 -2.007315 -0.250365 0.716459 1.563045 -2.922449 0.151816 2.571666 1.017329 2.100335 2.161543 3.596034 -4.252770 -3.132857 2.656536 -2.747952 -3.063282 2.312340 2.613507 
asfalt 0.891924 -0.542429 1.610217 -0.634337 -1.112911 -0.790312 -0.045230 1.782808 1.310646 2.573254 1.181836 1.146203 -1.792925 -2.067653 0.211836 1.009692 -0.504013 1.975330 -0.683359 0.434917 2.000313 0.741009 0.043587 -2.393977 -2.918416 -0.600598 -2.473126 4.795775 0.257069 3.425506 -2.529114 2.216680 1.475033 -0.931607 0.889698 -0.735282 -3.302566 1.581137 0.092109 0.611556 0.963685 0.675153 1.109843 -1.639676 -0.148237 0.003965 -0.744816 -2.353132 2.275710 -0.902126 
piyasaya -1.353183 -0.694318 -0.986541 -1.793270 1.052817 -1.592389 -1.244100 0.547818 -0.917700 -2.515529 0.436794 -4.178916 -0.790401 -2.665323 -0.362781 0.304506 -0.039839 -2.845408 1.238434 0.494577 -0.212410 -0.725457 1.701689 0.855309 -2.025762 1.361413 0.795694 1.379783 -0.782496 0.369131 4.096970 0.389979 1.395146 2.256628 -1.249206 0.365686 -1.485780 1.169433 -0.400713 2.169525 -0.031990 -1.681258 -0.269392 2.116590 0.666809 -1.322464 2.423636 0.512591 -0.542164 -0.699511 
kendisi 0.092489 -0.940845 1.263218 -0.779173 0.638529 1.154271 -1.214648 -1.372857 0.030823 0.001510 -1.374058 -0.398557 -0.613780 1.159512 -0.452600 0.398770 0.015579 -0.502598 -0.711257 -0.582840 0.068065 -1.174452 -0.369739 -0.421870 -0.448721 -0.642609 -0.426577 -0.404262 -0.458002 -1.341569 0.277098 -1.322275 0.251122 0.747266 0.689789 1.174047 0.704556 -0.776994 0.696259 -0.520710 0.143117 -0.758018 -0.459966 0.600514 -0.940736 0.615441 -0.276343 -0.335965 1.046211 -0.196253 
çin 0.812785 0.850476 -0.750633 1.683002 -0.505950 0.841594 1.577382 0.018840 0.346202 0.403480 0.157675 1.069366 0.273145 -1.169058 -1.885469 -1.104236 -0.342458 -1.960381 0.450382 -2.003932 -0.932444 1.534824 1.756042 -0.637386 0.150410 -1.187851 1.036297 -1.382419 -1.377874 -0.200682 0.538732 0.203057 1.615018 1.171834 -1.638086 -1.651959 1.538421 0.235589 -1.712189 -0.713846 -1.889585 1.163189 -2.561886 -1.280566 -1.362028 1.060474 1.446244 -0.410774 -0.935227 -0.007411 
bölümü 0.605140 -0.183591 0.207796 1.079064 -1.013042 -0.203594 -0.180241 -1.214736 0.237947 -0.292831 0.355531 -0.252168 1.712595 -1.338422 2.955571 0.585188 -1.234318 -0.675111 0.088915 1.273974 0.847723 0.342196 1.367063 -0.067168 -0.455574 -0.437181 1.766079 -1.304807 -1.105469 -0.194352 1.064979 2.018576 -0.966978 -1.263773 0.326744 -0.910299 0.394637 0.740272 0.531593 1.203573 -1.070105 -0.144848 -0.055120 -0.525070 1.424307 0.261732 -0.270067 0.289891 -0.092663 1.530070 
kuvvetleri -0.489006 -1.132601 -0.640010 0.321491 -0.414391 -0.327570 0.389225 0.675151 1.159229 3.177497 1.660250 2.168081 3.997833 -0.040143 -1.738961 -0.990263 -0.346075 -2.531598 0.106702 -0.915219 -1.714261 0.822784 1.293484 -2.333383 1.288962 2.187515 -1.107027 0.806680 0.013550 -1.997482 1.477264 -0.796125 1.919288 -3.349562 -0.758000 -1.884204 -1.735623 0.227205 0.976431 0.169221 -0.678332 2.296670 -0.979597 1.490804 2.183929 0.377769 -0.300839 1.517033 0.028939 1.989400 
aday 2.098112 0.015697 2.657584 0.282756 3.213677 0.697340 -4.172037 -1.591897 0.334660 -0.937104 1.633061 -2.295896 -0.420574 1.086324 -0.203051 -0.570576 1.212756 1.127999 0.794058 -0.879976 -1.358715 2.034238 -0.297077 0.520680 1.905009 -1.991273 -0.631493 1.001907 -0.900176 -0.167779 -0.034617 1.265495 0.522953 0.177358 -2.474586 0.009472 -2.426428 -0.160443 1.614031 1.791154 -1.562242 -3.713291 0.900910 0.208723 -1.686564 -0.575049 1.150024 0.310975 -1.587609 -0.701939 
hatta 1.221359 -0.250500 0.364096 -0.300030 -0.774482 -0.398638 -0.430036 -0.157344 0.085919 1.092949 -0.529887 -0.288251 -0.870506 1.256076 -0.399483 -0.464775 0.042437 0.724887 0.905798 0.245745 0.099650 -0.794482 -0.501351 -0.787284 -0.043731 0.671601 -0.004439 -1.442393 -0.456661 1.081095 -0.765102 -0.192988 0.521382 0.922434 1.637558 1.226748 0.441625 -0.107833 -0.147114 -1.008870 0.576284 0.168169 -1.489345 0.025457 0.320648 0.159229 -0.044611 0.290477 1.015796 0.859280 
sonrasında -0.434594 -0.825911 -0.787137 -0.068259 0.598546 0.111823 0.128900 0.732444 -0.041145 -0.420875 -0.422978 -0.199749 0.006303 0.563232 0.681019 -0.746620 -0.764354 -0.183496 1.028253 -1.347968 -1.236173 0.726397 -0.546310 0.037090 0.450732 -0.665809 -0.270313 -0.618046 0.124338 -0.518984 0.575470 -0.403353 1.054018 -0.323923 -0.029810 1.314724 0.228156 0.215778 -0.517203 1.362860 -0.946726 0.981933 0.334735 0.550260 0.220498 -0.209187 0.003884 -0.266102 -0.064982 1.218006 
başkenti -1.359639 0.826271 -1.163653 0.933472 -1.227594 2.157974 0.172083 -0.699141 -0.233156 1.407992 2.310760 -0.634179 0.081680 0.220207 1.652158 -0.704556 -1.641129 -1.244972 -0.983392 -1.529954 -0.569754 1.201909 2.638325 -0.993611 0.960630 -0.891078 0.823458 0.505842 -1.230979 -2.311273 -1.153725 1.785464 0.528102 -2.148585 0.337511 -0.659369 1.182720 -0.027429 -1.182917 -0.904746 -1.976122 0.299496 0.897241 -0.243337 -0.672241 -1.499486 1.812284 -0.779062 -0.384900 -1.048476 
bölgesinde -0.902823 1.952073 -0.271459 0.574394 -0.912222 0.658985 0.653503 1.030592 0.700491 0.901259 1.564602 0.869433 1.525221 0.176811 1.192569 -1.366947 -1.781808 -0.869245 0.585619 -0.037861 0.032593 0.125992 1.568305 -0.972951 -0.837356 0.198379 0.007071 -0.400690 -0.201510 -0.333851 -0.712354 1.693419 -0.832628 -0.774973 -0.783378 0.209281 -0.500933 -0.516790 -1.309462 -0.633094 0.184769 1.471933 -0.761092 -0.254710 -0.308706 -0.566499 -0.370650 -0.079861 -0.595214 0.433316 
partisi 1.199887 2.070837 1.455633 1.536677 1.179889 1.702201 -0.931956 0.835874 0.862645 0.340507 -0.908823 0.946335 -0.067101 -2.145732 -0.559898 -0.458678 1.078673 1.028511 0.709230 -3.398153 -2.886727 1.720819 2.191290 -0.036278 3.837667 0.087991 -0.938452 2.390340 -0.302087 -3.078216 -1.849636 1.328948 2.548141 0.312466 -0.760206 0.295926 -2.027046 -0.799696 -0.258889 3.506371 -0.651982 0.172038 -0.535631 -2.037132 -0.268621 0.197059 -1.820887 -0.633224 -2.292329 2.357654 
maçı -4.987636 -0.663649 1.817353 1.073123 3.538397 -0.323849 1.039544 -1.458936 -1.583189 1.516333 1.771186 -0.730991 -1.019846 1.348696 2.717312 -1.201195 -0.337898 3.719880 2.429366 -0.862148 -0.870556 0.685168 0.186982 -1.372026 -1.387091 -0.585452 0.367712 -0.733358 1.740651 -0.495848 -0.630765 -2.608773 2.695860 4.958175 -1.495753 -0.258676 -0.170420 -1.239335 -0.548731 0.776696 -2.428140 -0.728736 4.009258 -2.186223 -1.077613 -0.391098 -1.919317 -1.904475 0.144235 -1.122903 
tarih -0.888886 -0.650211 -0.869223 1.154302 -3.439018 -1.633474 -0.580999 -1.703815 -0.148461 0.599256 -0.255887 2.206460 -0.650462 -1.045360 2.164653 -1.368016 0.291405 -0.540080 -0.764086 -0.245088 -0.884535 -1.510189 -0.267756 1.445296 0.228040 -1.058904 -0.733953 1.782852 -0.893152 -1.479946 -1.416944 1.687076 -1.390918 -0.467661 0.059763 -0.449328 1.269372 1.744446 0.447654 -0.213272 -0.597220 0.105327 -1.600289 -0.355880 0.352339 0.253295 0.117526 1.622296 -0.053018 0.489653 
yaşam 2.134041 1.722283 0.216980 -1.070306 0.260584 -2.659756 -0.494795 -0.076807 -1.293980 0.430432 0.891409 1.583341 -0.924461 2.109388 0.301833 1.089437 0.333550 -0.609055 -1.781755 -1.152815 -0.088110 -0.146619 0.367219 0.101678 -0.341310 -1.202919 0.467155 -0.953398 -2.921471 1.073274 -0.850704 1.216634 -1.983436 1.332851 -1.579119 1.496925 0.801064 -0.207120 -1.002321 -0.061213 2.451153 1.424572 -1.461010 -1.109257 1.944790 -0.281725 -0.622873 0.755738 -0.272163 -0.497069 
hale 0.884672 -0.616326 -0.541538 0.333998 -0.532002 -0.289453 -0.027609 0.813741 0.057018 -0.294435 -0.608293 -0.601148 -0.311113 1.280071 0.228674 1.285047 -0.739177 -0.128277 0.259294 0.705249 0.432404 0.615054 -0.003585 -0.660326 -0.355503 1.357588 -0.680361 0.363389 0.002262 1.050356 0.726130 -0.245336 2.290511 0.264868 -0.084096 0.925015 0.530152 0.093769 0.157782 -0.231841 0.735932 0.170853 -1.030223 0.178109 1.365075 0.205841 -0.894301 0.685617 1.139898 0.405813 
general -1.087089 -1.509913 0.855903 1.466111 0.711743 1.459705 -1.376463 0.406037 1.839762 1.491918 1.116305 1.259633 3.531513 0.544563 -1.114926 -0.298934 0.148069 -3.824494 -0.577819 -1.824371 0.794530 -0.083058 0.613148 -2.082822 0.474523 0.832471 -1.119521 0.506381 -0.571002 -1.165419 1.071371 -1.479540 2.567162 0.177469 -1.206440 1.217857 -1.989884 -0.269321 0.340516 -1.047778 -0.468948 1.504080 -0.511231 -0.469795 0.909984 -0.952095 -0.516235 0.831004 -0.014839 1.534261 
yazar 0.348508 -1.770653 1.382794 -1.640182 -0.531647 0.314367 -2.312263 -0.416874 -1.032558 -1.077888 -2.082016 0.150519 0.597402 -1.159593 0.039773 -0.606181 0.505944 -0.005406 -0.982390 -0.825688 0.455957 -1.886151 0.065158 1.083604 0.954614 -1.194544 -1.188909 -0.558466 -1.863197 -2.162292 0.250294 -0.087128 -1.592895 0.457390 -0.286185 1.292737 -1.090434 1.029130 -1.060036 -0.764138 -1.394621 -1.248071 -1.215482 -1.271855 0.101645 0.838759 -0.640190 0.221454 -1.420758 -0.960145 
mehmet -1.201521 -1.027484 -1.313305 0.529358 -1.529532 0.944404 -0.999513 -0.841398 0.788465 -0.316098 -1.813559 0.522193 0.676962 -3.175730 -0.146573 -0.599547 0.215818 0.878224 1.764299 -0.826891 -1.605118 -0.843996 0.018608 -1.475297 0.760457 -2.934733 0.539721 1.025587 1.871798 0.168221 -2.116353 -2.471638 -0.874623 -0.961102 2.746438 0.573260 -0.841085 -1.412836 1.648263 0.243200 -1.066728 -0.408112 1.004758 0.757715 0.257953 -0.501442 -0.191275 -0.471628 0.560891 -0.010073 
durum 0.170471 -0.876228 0.510342 0.576545 0.537341 -0.333282 -0.370955 1.012182 0.521343 1.674655 -0.781170 -0.046137 0.445289 1.850906 0.013273 0.317889 -0.057123 0.259755 0.262736 0.230502 -0.520183 -0.433147 0.330661 0.147463 -0.196714 0.962779 -0.277463 -0.822699 1.213382 1.045001 -0.267766 0.433027 2.099734 0.368381 0.469382 1.167938 1.124028 -0.096091 0.802425 -0.487698 0.520766 0.710883 -2.077690 -0.705225 0.785799 -0.310650 0.227363 0.914799 0.976533 0.944346 
arap 1.449659 -0.095783 -0.746548 0.639945 0.172304 1.463734 -0.660822 -1.187096 0.415100 0.975623 -0.276492 0.268227 -0.543754 0.150628 0.759142 -4.126042 -0.854050 -0.831204 1.988309 -2.632850 -0.923963 0.700246 0.390873 -0.407740 0.208387 -0.412129 0.474143 1.911385 -2.371950 1.344935 -1.134446 0.528832 0.501779 -0.641097 1.751641 -0.543802 -0.071745 0.224933 -1.429835 -1.297084 -0.171322 2.958078 -1.418497 -1.356473 -1.203861 0.850629 1.667302 1.065821 -0.340946 -0.346463 
hafta 0.090606 -1.152198 -0.115577 0.364083 2.371411 -1.124156 -0.463617 0.728834 0.059662 0.983911 2.083889 -0.310815 0.166176 -1.041102 1.221915 0.471897 0.891854 1.276350 1.016548 -0.123701 -1.018749 -1.597404 0.363854 -1.012028 -1.341910 -0.369267 0.921950 -0.188173 -0.015106 -0.227384 2.602885 -0.007103 1.509688 2.343707 1.476229 1.508133 -1.826814 -0.488213 -0.672480 1.955007 -0.695516 0.347566 2.440729 0.796210 0.140882 -0.793248 0.785675 -2.966810 1.238858 0.869990 
nedenle 0.910502 -0.282577 0.342108 0.462092 -0.581857 -0.435183 0.027194 0.852637 0.811800 1.001067 0.175867 -0.038439 -0.560106 1.547870 -0.185154 0.302499 -0.266554 0.343773 -0.287484 0.383602 0.271391 -0.126977 0.240378 0.117671 -0.012191 -0.125848 0.216740 -0.072288 0.322299 0.876915 -0.673723 0.443819 0.086574 0.582956 0.982997 1.075513 1.196470 -0.357298 0.586113 -1.352153 0.837297 0.554837 -1.171107 -0.061637 0.368164 -0.543195 -0.309943 0.854750 1.277331 0.551083 
takımının -2.561033 0.443536 0.160691 -0.239444 3.223250 -0.491256 2.593401 -1.925508 0.054122 1.008708 -0.927522 -0.416408 -0.860786 -0.889936 1.254689 -2.689008 -1.368243 1.505270 1.702370 -0.038360 -0.008540 1.366586 -0.757800 -2.288564 -0.033262 -0.959142 1.473081 -0.795147 2.906188 -0.306100 1.435152 -0.477726 -0.562170 1.925348 -2.350760 1.116424 0.629264 -2.870437 -2.418989 -2.022753 0.287349 -2.192151 3.072524 -2.215136 1.068693 -0.309225 -1.306394 -0.875302 0.117780 -0.959993 
yılının -0.522426 -1.105640 -0.282832 0.799475 0.455334 1.016179 -1.592627 0.055672 0.722220 -0.208748 1.742921 -1.495192 2.154944 -1.487584 0.506990 -0.380716 -0.369393 -2.343775 0.326324 0.583547 -2.105088 1.069653 1.434291 -0.118770 -0.195506 -0.405846 0.249496 1.952748 0.202400 -0.979639 1.786039 -0.532156 0.379348 1.649874 0.419291 0.583892 -0.955256 1.469105 -2.278595 1.756961 0.065204 -1.378853 1.393697 1.050244 0.638808 -1.327780 0.844045 -1.769743 0.017019 0.388187 
mustafa -0.894070 -0.656307 -0.431029 0.897961 -1.250625 1.560692 -0.429301 -0.871638 1.686469 0.429926 -1.700973 0.883856 0.893674 -2.037824 -0.170683 -1.149385 0.592423 0.053142 1.400474 0.073306 -2.349057 -0.780942 -0.509495 -2.003506 1.779888 -1.688295 -0.121554 0.952375 1.349970 -1.059370 -1.604993 -3.052672 -0.070496 -1.140712 2.386420 0.696858 -1.677196 -0.905300 1.948336 1.321116 -0.403414 -0.159129 0.542754 0.640825 0.816886 -0.331200 0.345080 -0.444107 1.406542 -0.311103 
bölgesi -0.677706 3.439830 -0.043606 1.963207 -0.866526 -0.539539 1.083041 1.010069 1.008708 1.744133 1.275235 0.393148 1.630008 0.555758 1.394531 -0.950220 -2.231826 -1.306365 0.091267 0.554197 -0.746612 0.149822 1.729707 -0.903055 -0.606030 -0.127145 0.037152 -0.163797 0.297431 -0.344505 -1.806908 1.780943 -0.538265 -1.348662 -1.733944 -0.278993 -0.071440 -1.244747 0.768734 -0.275223 -0.740649 1.706965 -0.994097 -1.163142 -0.346095 -0.553180 0.250536 0.188093 -0.190319 0.225329 
iddia 0.569615 -2.099046 0.548964 -0.630066 -0.231610 1.234001 0.203987 -0.027632 0.154250 0.405314 -1.613246 0.965547 0.019850 1.143569 -1.694952 -1.579571 1.546727 -0.447421 -0.512595 -0.754510 -1.749264 -0.863835 1.174692 0.026966 -0.958035 0.455118 -0.499348 -1.707450 0.162669 -1.162237 0.570289 -1.013032 0.704802 0.572489 1.199050 0.938917 1.628853 -1.594904 0.406835 -0.334726 0.154233 1.136745 -1.307747 -0.462407 -1.628013 -0.519985 -0.755215 1.777276 -1.038858 0.987621 
takımın -2.290021 0.420676 -1.218421 -0.698755 3.157371 -0.372239 2.417327 -1.685638 1.375713 1.706597 -0.829686 -1.581291 -1.215666 -0.966356 0.098695 -0.652787 0.121347 2.007850 1.727941 0.500708 -2.661440 0.407246 -0.820261 -0.766729 -0.066641 -1.708941 1.870712 -0.479011 3.354453 0.557752 1.071684 -1.331179 1.182991 1.356351 -1.667220 1.534213 1.245800 -3.295482 -2.251695 -1.260477 -1.122684 -1.913088 2.709425 -1.315233 0.814682 -1.593659 -2.260436 -0.468753 0.295113 -0.517073 
kendisini 0.655059 -1.393868 1.556231 -0.921839 1.178603 1.128216 -1.131392 -1.538616 0.002089 0.430121 -1.931147 0.464730 -0.617611 2.189152 -0.334662 0.099199 0.351251 -0.886726 -0.662088 -0.803491 -0.154527 -1.019104 -0.415965 -1.050622 -0.149912 -0.903924 -0.801409 -0.687965 -0.932387 -0.807057 0.156326 -1.677345 1.653287 1.133391 1.005742 1.829512 1.193514 -1.566233 0.187932 0.295287 0.722390 -0.781295 -0.608036 0.138612 -0.281528 1.050975 -0.055925 -0.848131 1.003848 0.150557 
tiyatro -1.265848 1.266213 1.686661 -1.058022 -2.027753 -1.379883 -2.149934 -2.185382 -2.398168 -2.010039 -1.070331 -3.096683 0.076069 0.024704 0.484036 1.170571 0.473638 0.265919 0.792384 -2.936013 1.163888 -0.885974 0.185561 -0.852789 0.931462 -1.400968 -0.511411 -0.500202 0.231416 -2.222995 -0.376301 -1.123796 -2.909244 -2.635298 -1.035262 1.251758 0.719763 3.789628 -1.378780 0.363019 -0.559167 -2.574183 0.484754 -1.513529 0.683759 -0.881150 0.094713 -0.428269 0.294159 0.370865 
dizi 0.957508 -1.517570 0.317948 -0.017171 1.327275 -0.690616 -2.822366 0.760861 -1.369151 -0.734524 -0.966133 -1.477342 1.035395 -1.050192 0.598307 1.046278 -0.642949 -1.372626 1.141951 0.251917 -0.007707 -0.180607 0.274336 -0.873956 1.384893 0.055285 -0.600148 -1.869533 0.199651 0.437534 0.816433 1.653112 -0.457803 -0.893583 -0.378201 -0.963744 1.131982 1.699269 0.776562 0.618659 -0.611598 -0.647226 -0.728591 -0.687055 0.791330 0.127862 -0.363070 -0.395722 -1.063897 2.144853 
kişinin -0.931655 -1.706637 0.522980 -0.461389 0.846040 0.347144 -0.397294 1.182605 0.365162 0.497491 -1.852436 0.250114 -0.456423 2.316691 1.062199 0.144902 1.884809 2.020876 -1.831201 -0.031326 0.776772 0.775694 1.038648 -1.533462 -0.340745 -0.737635 -0.555785 -0.493283 -0.938453 -1.686012 -0.471594 0.531143 -0.395953 0.783870 0.864097 0.777512 0.896253 -0.296373 -0.148424 1.174729 2.655041 1.783277 -1.821082 0.713058 -0.098866 -0.605461 0.592279 1.409306 0.354960 -1.137911 
süren 0.929987 -1.595848 -3.227210 -0.477555 0.181983 -0.728485 -0.558471 0.448535 -0.238285 -0.961291 1.983447 1.171693 0.443143 0.590969 1.545560 -1.091632 0.093734 -0.827700 1.925845 -2.721658 -1.600132 -1.626142 1.664628 -0.771964 0.466703 -1.372674 -1.014076 -1.018494 -0.140068 0.441984 1.365049 -0.413282 0.535731 0.304975 0.000511 1.361610 0.841743 0.486910 0.150467 1.958685 0.810555 0.437591 -0.287459 0.880380 0.937944 -1.464621 -0.908147 -0.938279 0.922382 2.120199 
konu 1.260678 -2.026675 0.664984 -1.429207 -0.280097 -0.780535 -1.602753 0.780183 -2.314741 0.206072 -1.462439 -0.428970 -0.174510 0.118717 0.153922 0.225370 0.817449 -0.162475 -0.969804 0.012819 -0.087335 -1.182739 -0.996830 0.660342 0.081530 -0.977672 -0.327510 -1.612222 -0.433734 -1.120054 0.717267 0.122793 -1.707319 0.234938 0.312405 0.329809 0.858696 0.557814 -0.573364 1.179373 -0.549923 -0.689173 -1.363685 -0.963748 -0.137652 1.779964 -0.078013 1.697990 -0.398006 0.527449 
açısından 0.838235 0.036681 0.798529 1.852422 -1.055354 -2.061872 0.748730 1.374825 -0.333870 1.284954 0.306010 0.190134 -0.274651 -0.892976 0.663321 -0.021447 -0.519328 0.355342 -1.414554 0.079442 -0.365858 -0.315646 -0.888727 -0.752889 1.152352 -0.065007 1.092014 -0.267976 -0.566731 2.389745 -1.367503 0.972498 -0.794422 0.950162 -1.599000 0.780151 0.632966 0.467132 1.075840 -1.092159 1.035319 0.778521 -1.135288 -0.802454 -0.191458 0.790004 1.432426 3.236700 0.503321 0.763881 
şey 0.825229 -1.769322 1.067855 0.065129 0.427084 -0.326007 -0.614472 -0.246755 0.085868 2.037256 -1.659207 -0.944391 -1.974535 1.581320 0.846645 1.112093 1.233722 -0.728382 -0.709233 0.581132 0.467684 -2.196037 -0.156325 -0.056406 -0.346732 0.728810 -0.842105 -0.773269 -1.166311 0.370465 0.525690 -1.397411 0.960713 1.829321 1.098978 1.297230 0.661391 -0.427493 1.063851 0.463600 1.589064 -0.553693 -1.688667 0.222910 -0.404006 1.277124 -1.661660 0.004265 1.381595 -0.884420 
alması 0.298122 -0.388489 2.203826 0.405127 1.088045 -0.554668 0.870506 0.911025 1.503525 -0.047372 -0.065429 -0.645252 1.117334 1.759968 -0.319093 1.246364 0.140394 -1.272708 0.332367 -0.016043 -0.807665 -0.278498 0.897367 0.346817 -0.573333 -1.545602 1.789421 1.787405 1.834920 -0.392050 -0.045626 -2.880332 -1.019150 -0.319292 0.781498 1.369184 0.186773 -0.569846 0.372701 0.242939 0.414385 -0.401277 -0.987239 -0.550235 -0.073272 0.654283 1.404547 0.585011 0.231285 -0.850987 
yüzyıl 0.169222 -0.127859 -1.462508 0.625716 -2.094468 -1.156491 -1.298439 -0.994705 -0.310059 -0.667610 0.156651 0.509440 -1.127900 -0.385256 1.921666 -0.621829 -1.288718 -1.160389 0.268255 -1.699273 0.827701 -1.150979 0.746385 0.863073 0.413400 0.919603 -0.835298 -0.332138 -0.589691 0.092807 -2.530001 0.713420 -0.726001 -1.434228 0.164060 0.949786 1.747022 -0.419519 -1.677202 -1.494861 -2.275378 0.711546 -2.810818 0.038697 -0.770690 0.015468 -0.286733 1.836232 -0.870346 0.650843 
james -0.759432 -2.315732 0.958079 -1.003794 0.374551 1.312898 -1.303429 -0.909083 -0.457627 -0.703650 0.363186 -1.004038 0.200863 -0.567645 0.453793 0.319137 -0.227578 -1.157296 0.692344 -0.916555 0.429637 -1.451471 -1.391535 1.263752 -1.071416 -0.452605 -0.920549 -0.999268 -0.086789 -1.193248 1.275724 -0.938298 -1.081116 0.936849 -1.977664 0.468872 -0.170353 -1.442301 0.266727 -0.813898 -0.386119 -0.795219 0.159712 0.255145 -0.835030 0.408499 -0.565537 -1.111346 -1.492850 0.504297 
sonradan -0.685060 -0.346631 0.315242 -0.151786 -0.550111 0.599524 -0.000151 -0.854235 -0.006383 0.015793 -0.435299 -0.574811 -0.757813 0.646690 0.496682 -0.317441 -0.801264 -0.585134 1.231656 -0.183364 0.061102 -0.827529 -0.659258 -0.409325 -0.799129 -0.643567 -0.194033 -0.742463 -0.514552 -0.744721 0.073351 -0.283474 0.554950 0.651435 1.183743 0.737224 -0.038858 -0.845279 0.133098 -0.115100 -0.531925 -1.296490 -0.373171 -0.135871 -0.973426 -0.039768 -0.383642 0.826530 -0.355174 0.763571 
kişilik -3.819366 -0.531763 -0.585386 0.716484 0.413328 2.265353 -0.056014 -0.780967 1.792087 0.564668 2.159430 -0.861781 1.026143 0.647499 -0.999843 0.430816 0.729277 0.593817 0.822695 -1.531775 -0.237512 -0.653127 -0.077033 -2.754275 0.474910 -0.106872 1.924077 -0.284829 0.408151 0.396980 -0.496371 -0.336779 -0.246667 -1.289597 -0.104600 -0.020278 0.463086 -0.429301 -1.228779 0.825486 2.132571 -0.071419 0.178937 1.175847 0.535002 -0.733829 1.171158 1.112307 -0.307998 0.131236 
sonrası -0.489342 -0.634909 -0.494853 0.147708 0.305213 -0.131011 0.506142 1.092831 0.683356 -0.248597 -0.376523 -0.027250 -0.764947 0.244690 0.384389 -0.057827 -0.675052 0.003083 0.737124 -1.458267 -1.649600 0.638962 -0.757686 -0.050538 0.763757 -1.023841 -0.613440 -1.080883 0.659525 -0.553595 0.715910 -0.690525 0.481494 0.637746 -0.205097 1.184987 0.379804 0.631964 -1.292242 1.287376 -1.111975 0.689201 0.527405 -0.119234 -0.165127 0.099059 0.407642 -0.178426 0.018356 1.820994 
izin 0.965236 -2.342963 0.535554 -0.526078 0.467168 0.357298 0.590384 -0.349731 -0.972076 -0.175206 -0.036315 0.198168 1.054470 2.833062 -2.342200 -0.682004 -0.924306 0.464751 0.726855 0.989571 0.239931 0.542101 0.692765 -0.162860 0.114012 1.019922 0.640936 1.085675 -1.214225 -1.108268 -0.398802 0.389118 1.680214 0.467114 1.546437 0.939235 1.224520 -0.341822 1.949253 0.112340 0.559788 -0.802370 -0.025559 -1.522619 0.619618 -1.397504 -0.512842 0.395591 1.593898 0.604445 
parçası 0.944066 0.606923 -0.432443 0.316100 0.559893 0.388186 0.791274 0.264556 0.034588 0.022157 0.518936 -1.475607 -0.452276 0.113026 1.264239 -0.034506 -1.045025 -2.132901 0.860849 0.732035 0.437107 -0.573027 0.874344 0.187312 0.525079 2.518394 0.752643 -0.304191 -0.501165 -1.556133 1.509456 0.378039 -0.073392 -0.561637 -0.447150 0.537422 1.342962 -0.909134 -0.054055 0.596966 -0.499935 0.178384 0.189506 0.262135 -1.087452 -0.012949 0.482800 0.819560 -1.163735 -0.767403 
dönemi 1.406687 1.324610 -1.135025 0.468149 -0.613287 -0.171026 -0.245968 -0.538251 -0.665658 -0.287185 1.448682 1.424933 -0.884342 -1.380159 0.884042 0.939768 -1.357607 -0.282595 0.993639 -1.279401 -2.525604 -2.054566 0.719133 0.055114 2.013125 -0.765487 -0.449272 -0.262393 0.145667 0.766133 -0.579967 0.088151 -0.978775 0.401513 0.204059 0.975034 0.762060 0.165780 -1.045364 1.190258 -2.410525 0.120316 -1.525572 0.889199 -0.722704 -0.974911 -0.581764 0.947422 0.355510 2.075732 
çoğunlukla 1.148977 1.451583 0.308438 0.285917 -0.977551 0.119888 0.131915 0.211754 -0.157344 -0.510440 0.473191 -0.814272 -0.010628 0.439252 -0.140859 0.938593 -0.020848 0.943987 1.253039 1.168312 0.824113 -0.504678 -0.230622 -0.544336 0.682317 1.086586 -0.200759 -0.961295 -1.027421 0.987789 -0.266557 1.095013 -0.718810 1.259048 0.050811 0.193825 0.067909 -0.244737 -1.020442 -0.496170 0.660020 0.796792 -1.121944 -0.569851 0.417822 0.159839 0.512838 0.718619 0.308400 0.050440 
amerikalı -0.751281 -1.954645 0.471079 -0.526729 -0.347553 1.900009 -1.677392 -1.424361 -1.204630 -0.903333 0.310356 -1.419420 1.913876 -1.011793 -0.785151 0.179784 -0.229179 -1.124559 -0.357040 -0.744715 1.291399 -0.381251 -1.243704 1.304117 -0.071636 -0.109830 -1.197748 -0.940093 -0.490530 -1.158831 1.575848 0.447546 -1.207798 1.178303 -1.940843 1.273819 -0.467317 0.480562 -1.095320 -0.782340 1.031341 0.714177 0.410816 0.876697 -0.441066 0.962304 1.433633 -1.436946 -1.827779 -0.751275 
biçimde 1.465962 -0.005586 0.327006 0.318673 -0.371094 -0.559116 0.303638 0.942749 -0.463058 0.580835 -0.366751 -0.015358 0.068468 0.345309 -0.130924 0.721575 0.213508 -0.131666 0.039118 -0.181258 1.688238 0.199547 0.121905 -0.191843 1.074669 1.663133 -0.323158 0.042812 -0.672441 0.700619 0.557351 0.095607 0.131934 0.460445 0.531085 1.119275 1.245784 0.022092 0.107836 0.391398 0.690813 0.823946 -1.685438 -0.851170 0.207877 0.356076 -0.366217 1.996738 0.850355 0.160915 
