8490 50
anno -0.853374 0.558259 0.721884 -0.367030 -0.483884 -0.612089 2.974280 0.683398 1.077138 3.322138 2.463780 0.220375 -0.165017 0.621931 -1.205842 -1.049468 1.200616 -1.120667 -0.767034 0.427582 0.492203 -3.515943 -0.090712 -1.280974 -2.025077 -0.346886 -1.380623 0.513978 -1.569468 0.204499 0.879034 0.885494 1.759058 -0.566027 0.581882 1.195438 -0.646285 -0.086444 2.501833 0.020468 0.593582 2.436723 0.260466 0.916181 0.672775 -0.064945 -0.670084 -0.279098 -1.772892 -0.695890 
parte 0.972085 -0.763363 0.441931 -1.162455 -0.894693 0.763920 -0.291764 -0.273723 -0.039330 -0.410484 1.253564 0.628688 2.606618 0.663095 -1.121136 -0.272906 1.195280 1.397689 0.914760 -0.978208 -0.352585 0.334836 -0.526171 0.170719 -0.986324 -0.546617 -1.181049 0.090095 -0.138984 -0.366787 1.291270 0.696917 0.836228 -0.098040 0.186003 1.615622 -0.487275 -0.458938 -0.154624 0.248961 -0.165417 0.120328 -0.180513 1.565572 1.225384 -0.267906 -0.525155 -0.071399 -0.703604 -1.423903 
|| 0.690025 -2.536481 -0.108704 -0.543316 -0.298563 -2.683354 1.922682 1.823916 1.047203 1.182882 -2.145394 1.045855 0.941167 2.074298 3.073717 -0.014093 0.333125 -2.918553 -3.117445 -2.998051 2.562616 -0.055702 -2.070225 3.405859 3.315730 -0.923220 2.651171 0.562598 1.178176 4.642299 1.869315 0.139487 -0.307021 -1.095235 -3.006085 -3.628376 -1.437944 -0.086772 -0.987112 5.495288 0.170437 -3.971904 -1.900894 -2.547688 2.894058 -3.515332 4.599559 -0.876843 0.453057 1.148618 
regia -2.418431 2.271432 -3.117630 2.628155 0.277824 0.309218 -2.450705 -0.083715 -2.709335 -1.673985 0.095595 -3.524425 -3.174038 0.799956 1.674753 1.690297 -5.880816 -4.636233 -1.163522 -0.442517 1.822645 1.958693 -1.569005 1.396956 2.329272 -1.575446 0.839830 0.693396 -0.738713 1.454189 -2.132223 -0.301980 -1.140743 -2.193568 0.161302 1.234605 1.400313 -1.630141 1.221053 -1.644863 0.437945 -4.185009 -2.115236 -3.433733 -1.435524 -1.501975 1.351137 -1.079532 -0.807051 0.853641 
– -0.935133 0.748497 0.086535 -0.666765 2.902922 0.010493 -0.914403 0.022391 0.466612 1.538235 1.814586 -0.527586 -3.341825 -0.440669 0.322401 -0.338316 -1.237065 -2.367399 1.574225 0.444562 -0.707732 0.579276 0.376120 2.472949 1.802671 0.146623 -1.606123 0.576505 -1.060825 0.278092 -2.540708 0.919499 -0.127527 -0.188891 -0.227818 -0.168240 1.593266 0.703580 -0.567043 1.495967 0.273773 -2.528841 0.110004 -2.483427 -2.626895 -0.487588 0.264463 -0.722444 0.774242 -0.024035 
the -2.007077 0.662588 1.854352 4.106264 1.015345 -1.420291 0.564665 -1.868790 -3.691673 -0.293776 -0.489123 -0.952021 -2.154445 0.333242 1.566307 1.213331 -0.526121 -4.661150 2.777919 2.289043 -0.651176 -0.167581 -0.347673 3.584961 2.811660 -0.527273 1.211258 0.067164 1.239901 1.156679 -2.522154 -3.354033 -0.897564 -2.039485 1.265539 -0.742404 0.915556 0.733462 0.674327 1.567103 1.163866 -3.219399 -3.768317 -0.406446 -3.026013 -0.572253 -0.580291 -0.906402 -1.498801 0.759294 
film -2.149578 2.095357 0.976565 2.442230 -0.469658 -2.732838 -3.676941 0.819536 0.990091 0.764972 -0.708714 -3.656563 0.117802 -0.904665 2.597243 2.341233 -3.281538 -1.721860 -0.816611 1.789567 3.119251 -1.325546 -3.330446 0.766385 0.625850 0.173312 -0.388664 -1.055394 -1.466963 -2.056017 -1.150087 0.747586 -1.479945 -2.161156 3.887707 2.410843 0.199463 1.156276 4.509625 -4.092249 -1.399533 -4.527551 -1.005447 -0.967214 0.090958 -0.555779 -1.679322 -1.925028 -1.998242 -0.963738 
città -0.646937 0.663824 -0.886671 -1.271692 -0.729052 2.303636 0.449709 1.661783 -1.324960 -2.120093 2.366766 -0.173518 3.035908 -0.087259 -0.102319 1.553486 0.263640 0.740539 2.124430 -1.149529 1.078836 1.491034 2.406562 -2.491478 -0.643425 -3.096419 -1.626573 0.595127 -0.474969 0.895832 -0.974131 1.761081 0.540773 0.740557 -1.229504 -1.749841 -2.235874 0.356139 0.130392 0.144669 1.564376 2.824152 0.397979 0.636795 0.690730 1.451646 0.340367 0.815016 -1.494963 -0.656794 
serie 1.956540 0.234771 2.694018 1.614361 -0.257737 0.017364 0.210327 0.753043 1.977876 0.714276 -0.579103 0.052339 0.584441 1.921740 1.069855 0.799214 -0.775530 -0.612873 -0.269790 4.391284 -1.202464 -2.936003 -0.474297 0.351133 -1.117334 0.127619 -4.677072 -0.473679 -1.155784 -0.092421 0.469151 0.506234 0.018993 -0.322628 1.980885 2.893994 2.216319 0.820818 2.159984 -1.477915 -0.732353 -1.607680 -0.140338 -2.462296 1.690341 2.299814 -1.331232 -1.616925 1.414139 1.971781 
nome 2.067214 2.282599 0.042864 0.384877 2.220485 -1.012595 0.166468 0.971668 -0.415237 -1.130791 1.162224 1.723132 -0.389592 -0.485095 0.839985 1.402872 0.621450 3.170768 2.176919 0.290669 1.159171 -2.147845 -0.872346 0.945940 -0.264092 -0.923384 1.547184 -1.226055 1.278050 -0.740522 -0.806631 0.982670 1.513577 0.720813 -2.723744 -1.194946 -0.216467 0.854838 -1.250815 -2.578611 1.299294 1.930240 -1.903975 0.912705 0.337664 1.480246 -1.620389 -0.414831 -0.712835 0.035440 
stato -1.155398 1.236934 -3.144495 -4.324319 -2.492139 5.248149 0.649316 1.657058 0.092942 2.061230 3.040124 -0.889857 2.709570 3.869193 -0.091715 -0.265082 -0.244779 1.368703 3.679198 -0.827935 -0.311932 2.689167 -1.723388 2.160943 0.750599 1.179294 0.281880 -1.263598 0.720257 -3.542113 3.794282 -0.080986 -1.573260 0.955057 1.644850 1.254513 -6.202772 -1.703477 2.810853 0.862052 1.453294 2.698007 1.685966 -2.720307 3.008770 -3.946064 3.409391 1.344442 0.773663 2.993183 
gruppo 0.526103 0.770504 -0.588896 -0.625092 -1.479168 0.290869 -0.696280 -1.166544 -0.924361 1.652895 1.554495 1.637192 1.600287 -0.364597 -0.064957 -0.222748 2.161040 0.226621 -0.679849 -1.031319 -2.593107 -2.563923 1.699053 2.068520 -0.053737 1.163981 0.441691 0.047680 0.104396 -0.856637 2.517146 0.829253 -1.713664 1.722121 1.280603 -0.495409 1.503374 -0.888472 0.099286 -0.422916 -1.250301 1.859633 -3.936773 0.342853 0.476264 -2.470949 -3.163393 1.184907 -0.983672 0.666096 
volta 0.460825 -0.902286 0.275235 -0.014772 -0.136422 -1.227301 0.344347 0.641821 0.807063 -0.336866 -0.406120 0.377199 0.333951 0.471023 -1.133490 -0.071280 0.202176 1.370003 -0.621353 0.791677 -0.018625 -1.715457 0.196090 -0.631138 -2.749735 1.593400 -1.139760 0.108335 -0.518925 0.988735 -0.791519 -0.938245 0.152421 -0.051760 -0.332081 1.509023 -0.413469 -0.278982 0.055819 -1.327889 -0.300127 1.320108 0.154371 0.821534 0.563725 0.376487 0.709096 0.028017 -0.208957 0.510762 
comune 0.761832 -0.342547 -3.069959 -3.162534 0.559475 0.383731 -0.509466 -0.438055 2.322901 -1.421187 3.062634 1.091416 3.828457 -0.781206 -0.746200 2.541811 -2.264503 0.841293 2.034020 0.709932 -1.174461 2.234470 -0.731896 -1.784556 1.065409 -1.213825 -1.812479 -1.733927 -2.143347 -0.128906 -0.021197 4.397890 0.658686 1.642205 -1.203875 -3.023655 -1.375143 0.697455 -2.592628 2.385836 1.612196 0.708229 2.475935 0.039210 1.418624 -0.418280 -0.850412 4.056728 0.403029 -2.000861 
tempo -1.105064 -0.569466 -0.823431 0.223416 -1.057948 0.952000 1.415190 -0.273309 0.690599 0.461289 -1.438847 -0.092528 0.810921 -1.430005 -0.903299 -0.343789 0.673609 0.800297 0.075703 -1.186540 -1.377152 -0.869676 0.005682 -1.974282 -1.693053 -0.089090 -0.837847 0.913612 -0.061700 0.074698 0.055155 -0.071883 1.952823 0.305674 -0.099719 0.793392 -0.465867 -1.146828 0.564342 -1.686063 -1.083685 2.142033 1.434309 1.574110 0.330083 1.022013 -0.170259 0.925707 -0.831139 1.222404 
stagione 3.120922 -1.353031 1.208832 0.982004 -0.356951 -1.185897 3.015753 0.536530 5.059119 -0.035204 -0.579634 -1.060976 -0.000014 3.933078 -0.680411 -1.395104 -2.046727 -0.740225 -1.120387 4.198397 -2.094250 -3.601307 1.357561 -3.874270 -1.780966 0.212886 -4.849298 -1.912833 1.086421 4.412207 -1.123913 -1.294628 0.307936 -0.454124 1.753620 3.637881 2.673517 0.476181 1.091453 2.182370 0.404679 0.607422 -0.907147 -3.781825 1.519256 -0.454529 -1.644000 -2.649674 -0.405094 1.421635 
secolo 2.489805 -2.102701 -0.083689 -0.519522 1.739591 3.293556 3.138240 -1.112856 -1.453201 -0.676837 2.576410 1.071849 1.813245 -1.000858 0.960794 -0.342970 0.524741 -1.236251 3.898915 -0.496687 -1.043444 -0.442480 -1.045312 -5.608065 1.639911 -0.366159 1.639761 1.094081 -2.366755 -0.504340 -1.313513 4.025876 4.641773 2.640273 -1.805007 -0.633221 -3.418361 0.856064 1.918127 -1.479762 2.107315 3.066936 1.460449 2.822606 -1.348191 2.426268 -1.145894 -3.085808 -1.513788 -2.245980 
album -3.708039 1.030901 0.276212 4.035380 -1.651026 -2.467375 1.295481 -2.420199 0.385258 6.428184 -0.632951 1.276265 -1.082552 -0.056220 3.541737 -0.509700 -0.879116 -2.726326 1.183135 1.504373 -1.075163 -2.315373 -2.261884 2.767169 3.345486 2.577846 2.793947 -0.021787 -0.960864 -0.618372 -0.672840 -2.808771 -6.956650 3.102061 4.539705 -3.999484 2.044796 0.871621 0.464810 -0.771668 -5.925703 1.535894 -4.835501 1.311787 -1.755901 -3.464592 -5.710144 -1.088289 -2.718019 -1.227653 
squadra 4.044971 0.726003 -0.068964 -2.042588 -2.907166 1.256242 1.275790 3.382465 1.177608 -0.871284 -0.265282 0.083745 0.850296 3.932059 -0.139759 0.784802 -1.317782 0.695416 -2.503593 0.840041 -2.749702 -2.962231 3.935042 -2.503603 -3.291728 -1.343679 -0.877180 -1.836706 1.282974 5.349895 0.556419 -2.538226 -0.906806 -1.576566 1.793924 2.466196 2.584404 0.373305 0.009107 2.184822 0.263462 3.220522 -1.329932 -0.320300 3.797179 -0.558717 -1.123850 -0.965230 -0.074114 1.875382 
opera 0.173783 -2.229621 3.056124 0.256922 -0.523404 -0.408621 -0.111222 -3.402819 -1.013214 2.405492 0.733691 0.393471 0.203432 -3.183291 2.329649 1.694604 -3.279360 1.002588 0.119486 1.200960 2.089714 -0.621454 -0.188564 -2.386758 1.714207 0.510205 0.271692 0.653618 -0.884172 -3.033995 0.085312 -0.413053 1.984083 0.940113 -0.342718 0.214903 -3.090964 -0.709017 3.019596 0.005388 -1.624007 -0.491708 0.736514 1.259660 -0.257133 1.633924 -0.596742 -0.002450 0.450548 -2.255841 
episodio -0.432156 0.473969 0.150046 3.260632 1.338316 -1.329356 -0.900399 2.621614 1.316014 -1.004979 -0.095423 -0.912123 -2.009842 1.509432 0.784912 0.650433 -3.970017 -1.616426 1.722943 3.442060 -0.518783 -0.606646 -1.475934 0.369758 -0.959885 0.301036 -5.645689 0.144760 -1.226328 -1.046165 -1.566188 1.254503 0.348608 0.196538 1.418753 2.877544 2.407171 -0.214477 1.462631 -2.017987 -0.846161 -3.269772 0.847416 -4.471554 -2.712934 0.268018 -1.440658 -2.278986 1.891001 1.624561 
abitante -0.950444 0.218554 -2.259696 0.730644 -0.060769 2.783585 -0.106894 2.521846 3.406957 -5.121026 4.675505 2.509292 6.780461 -1.577733 2.596575 0.705875 0.538432 -1.157391 -3.073125 -1.809757 1.514068 4.681612 -3.126990 -2.941866 0.051173 -2.890797 -1.483943 -0.479805 1.926337 0.467989 -1.044495 3.025387 1.898349 0.489799 -1.700479 -2.005086 -0.957459 1.223137 -3.626451 2.385285 0.828061 -0.696686 1.109571 1.195274 -1.994963 -0.965430 0.283600 -1.201063 -6.200933 -0.183995 
guerra 1.949550 -0.852920 0.461427 0.158595 3.225233 5.642789 -0.603042 1.033622 -1.858106 0.968852 4.402123 -2.720612 -0.063587 -1.642726 -0.222220 -0.595613 1.621448 1.504076 -0.048286 -1.887775 -0.144084 -0.034243 0.585904 -0.686688 -2.972110 -0.493775 -3.169610 -0.897363 0.634430 -0.949340 -0.072613 1.637403 -0.336584 -0.092612 3.419189 2.865557 -2.511920 -4.320111 2.327915 0.146089 4.655447 0.971103 1.258755 2.631118 -0.828902 0.155954 1.077906 -1.955001 0.458775 -1.942849 
mondo -1.700406 -0.230106 1.081331 1.050170 0.470500 -1.248993 0.699209 0.337777 2.230194 0.089725 -0.961557 0.486477 2.604577 -0.601446 -2.620677 3.292929 0.071293 -1.162160 -1.601540 -1.419966 -2.296813 -0.868346 0.602470 0.482042 -1.750868 1.803948 -0.662574 -0.690919 0.024595 -1.818440 0.228727 -0.892011 -0.688452 -0.519147 -2.508699 3.326176 -1.300073 0.421198 4.026317 0.036199 -0.807186 2.971193 -0.150658 0.806541 2.194100 0.471637 -0.044251 0.399476 -0.712993 1.106669 
seguito 0.872643 -0.722043 -0.581761 0.603456 -1.298467 0.717005 1.080396 0.677541 0.242743 0.590090 1.639760 0.994534 -0.325749 0.414682 -0.698116 -1.050683 0.527493 0.967329 1.622372 0.031971 1.580504 -1.019056 -0.217715 1.148433 -1.448608 -1.073693 -0.968440 0.369743 -1.297321 0.407308 2.275113 0.519965 -0.173442 0.386910 1.475093 1.502277 -0.907191 -1.400643 0.694458 -0.321324 -0.033794 1.105457 0.490810 0.824024 1.217498 0.216557 -0.251457 -0.199830 -0.352593 0.242030 
famiglia -2.155330 2.135376 -1.232905 -0.797213 -0.603908 2.365236 -1.868018 1.911126 -0.444051 1.004564 1.502384 2.660516 0.217472 1.336194 -1.968359 -1.575550 -0.867044 2.269553 0.723890 -1.207915 -0.120484 -0.403703 1.468283 -2.869914 -0.759137 -0.916034 1.350950 -0.405089 -1.350563 -1.329885 3.862537 1.833067 2.022525 1.870296 -4.027406 -1.141635 0.551165 -0.075097 2.163580 -3.478403 2.952983 -0.389682 -0.242750 -0.085206 -0.397542 -0.202069 -1.159863 -0.635333 0.529481 -0.849200 
titolo -0.459183 0.837191 2.029581 0.819846 1.927083 -0.535559 1.125217 0.817264 3.874425 0.862081 0.245815 1.579230 -1.702363 2.337074 0.813016 1.107950 -2.375561 0.058705 2.534487 2.840286 0.021195 -3.434801 -0.238993 0.512180 0.128997 1.801087 1.373871 -0.384868 -0.352901 0.727123 -1.497587 -3.358312 -1.235123 -0.848663 0.738620 2.485305 0.615780 0.708363 0.992918 -1.078265 1.461260 -0.462444 -0.278553 2.335126 0.656690 0.885064 1.351024 0.661014 -0.412813 -0.547933 
chiesa 0.569985 -3.710286 0.713241 -1.311702 -0.536781 -0.382711 -0.456554 0.423816 -1.964862 -0.393767 2.556331 1.156653 2.194021 0.218494 1.853217 -1.516203 -2.807094 2.215775 2.689423 -3.133778 1.196269 1.332911 0.643904 -3.280238 0.457681 -0.812945 3.489283 2.123905 -2.930268 -0.337078 0.120751 2.395616 1.503661 4.470435 -1.977645 -0.173443 -1.957933 1.442960 0.108790 1.864819 2.152475 4.460577 0.859739 -0.133942 -2.426511 0.899863 0.249110 0.467071 2.506587 -0.868326 
fine -0.723370 -0.671155 1.238684 1.073314 -1.077903 0.141916 1.663700 1.155412 0.061127 1.292673 1.555814 -0.804571 -0.403265 -0.649438 -0.881234 -1.506392 0.852177 -0.361685 0.773153 -0.538992 -0.818419 -0.866319 -0.172663 -1.094762 -2.975106 0.081513 -2.423020 1.229040 -1.900454 -0.581509 1.263099 1.440584 -0.169369 0.110064 0.131519 3.040020 -0.304990 -1.805201 0.567646 -1.139652 -0.130114 3.240508 1.034364 2.106303 1.007433 0.595134 -0.226588 -0.649417 -0.330937 -0.152707 
figlio -2.395579 2.267698 -1.886594 -0.808224 1.817647 0.363303 -0.125418 2.201421 0.653241 0.118662 1.755899 1.776802 -2.394140 -0.991838 -2.036942 -2.653078 -2.087562 2.508130 -0.479728 -2.949120 3.499317 -1.368372 -1.061081 -1.812654 0.859492 -0.075127 -0.172081 0.229900 -0.839989 1.200234 2.354912 -2.679742 1.177832 0.090883 -2.611274 -1.978674 -0.928403 -1.976373 2.248403 -2.238193 3.867106 -0.120067 -0.668907 0.106766 -1.283475 1.259213 0.812523 -1.682319 0.583891 0.353506 
storia 0.265336 -1.267009 1.890617 -0.258334 0.926157 0.617117 0.090557 1.493703 0.884526 -0.075416 0.578042 -0.215867 0.514221 -1.751729 0.021344 3.229528 -0.611575 -2.166211 -0.140865 2.422179 -0.653722 -2.353262 -0.887196 -1.175635 -1.136597 -0.573747 -0.244148 -0.580704 0.955811 -1.146343 -0.213042 -1.744138 2.596965 1.096918 -1.261745 3.203618 -1.634834 -0.590960 3.577239 -1.919758 -0.799522 0.883483 0.181382 0.241787 -0.671416 3.011924 -1.423538 -0.607345 -1.505750 0.613011 
vita -2.989134 -0.685565 -0.403630 0.702258 0.461390 -1.380971 -0.438464 0.183368 -0.214121 0.837789 -0.037440 0.003345 1.353878 -2.777518 -1.358496 0.357491 -0.386586 0.809913 -0.679836 -1.328278 -0.792623 -2.416811 -0.332390 -2.264572 -2.083304 -0.943290 1.034852 0.958940 0.195603 -1.515797 1.122910 -0.496643 2.422082 2.049274 -0.274325 1.667368 -0.257274 -2.056957 2.994713 -1.055851 1.085674 0.129937 1.027500 -0.201687 -1.142131 1.830055 -0.769939 0.286103 0.568724 0.038499 
la -0.477478 -0.746025 2.247676 1.935330 1.421320 0.577614 -1.063493 0.324074 0.230599 -1.581082 1.545518 -0.797060 -1.147609 -1.477315 -0.299135 2.476720 -3.130992 -2.166761 -1.363168 0.081568 4.042675 -0.872638 -1.279628 1.254741 -0.933224 -1.754891 0.739038 0.076333 -2.180841 -0.444307 -3.753992 1.022628 1.263905 1.097197 -1.692517 2.677610 -0.112568 -1.337173 1.800120 -0.380164 -1.215890 -2.312363 -0.771676 -2.106152 0.995282 1.066853 -0.715860 0.321957 -1.036232 -1.663222 
numero 1.404798 -0.570788 0.837831 1.747663 -0.864229 1.243716 0.370897 1.434557 2.450049 0.639652 -0.833651 1.888897 2.407100 0.920412 2.608576 -1.183929 1.659805 -1.088868 -1.580431 2.701386 -2.422362 -0.206723 0.566173 0.086866 -3.444335 1.857170 -1.064766 1.058892 2.100014 -1.678507 -0.439973 0.002627 -0.396547 -0.718978 -0.285465 -0.944934 -0.612734 1.128857 -1.544188 -0.830581 0.526933 1.032396 -0.246760 2.674094 -0.300381 -0.151397 0.971028 2.266613 -0.595446 2.329776 
regione 0.767047 -0.096486 -1.563495 -2.437279 0.415574 2.322685 2.045571 -1.490878 1.227386 -2.959491 2.249947 2.809621 3.905274 0.677188 -0.899404 1.088739 1.998887 -0.428174 1.717058 -1.553781 -1.434456 3.257697 -0.853656 -1.955505 0.607328 -1.765749 -1.698506 -1.917089 1.148261 -0.154908 0.776180 4.190147 -0.370047 -0.679689 -0.213638 -0.650073 -2.791458 -0.032603 0.734208 0.833177 1.564451 -1.120338 -0.176519 -0.046193 1.588913 -2.400563 0.391651 0.502761 -0.280329 -1.513297 
giorno -2.884129 -1.973038 -1.770618 0.258377 -0.656970 -1.386869 0.972960 1.697812 1.996959 0.938373 0.040098 0.101557 -0.650385 0.869021 -0.313805 -1.314936 0.965660 -0.337612 -1.733556 -1.685149 2.560749 -0.521246 1.858408 1.100154 -4.094604 0.457890 -0.885856 -0.006050 -1.524234 0.242443 -2.048568 1.466874 0.705478 0.277315 2.085209 0.187621 -1.068524 -3.276352 -0.378087 -0.786268 0.682233 3.374334 0.265940 -1.418013 -0.875223 0.075282 1.261778 1.150353 -0.876830 1.528927 
punto 0.798105 -1.918285 -2.158547 -1.575684 -6.095558 1.354305 -0.213853 -0.517160 3.625182 -2.710613 -3.543339 -0.269612 2.385002 -0.252525 -0.725856 -0.331775 0.342083 0.330588 1.148418 -0.651180 -2.518395 0.303185 0.456071 -2.157995 -1.470789 0.812839 -1.593498 -1.278641 1.584082 1.434673 -1.263784 0.084158 -0.740671 0.854037 1.300405 -0.495885 0.738807 0.584134 2.079067 -1.667673 -1.867377 2.521331 -0.900447 0.700975 3.157332 2.142712 3.093251 0.486217 1.011351 2.490095 
campionato 5.080958 -0.470921 2.538812 -1.939934 -1.160593 0.564675 4.074172 2.295109 3.920566 -0.623267 -2.831556 0.485033 -0.149001 5.607234 0.179419 2.895697 -4.732528 -0.842953 -2.462377 0.883124 -2.770981 -4.402416 2.017175 -0.211849 -3.298870 0.356979 -3.295074 -1.174933 2.739567 7.624402 -0.513489 -1.651390 -1.257148 -1.704238 0.948117 2.375105 2.746683 0.948676 2.740064 4.765663 0.955405 4.421798 1.422402 0.506899 4.124541 -1.049883 0.074274 -1.866525 0.419422 -1.309820 
uomo -1.312588 2.771322 -1.831506 1.482704 0.945732 0.390889 -1.809117 0.939217 -0.809701 -2.250410 -1.268116 0.546648 1.283753 -1.932031 -0.463579 -0.056273 -0.495134 -0.471402 -2.434424 -2.220128 0.189100 0.291443 0.012068 -1.410210 -2.669929 0.683476 -0.114594 1.430246 0.958242 -2.947261 0.039181 -1.614744 0.260564 0.810218 -1.351059 2.210466 -0.802938 -3.936475 0.683322 -0.484207 1.444525 0.799214 -1.004116 -1.842364 -0.393376 1.592263 1.012285 0.407693 0.991700 0.789644 
periodo -1.016416 -0.302509 0.019417 -0.551150 -1.247473 0.939043 2.856916 -0.815141 -0.373725 2.707558 1.479472 0.881282 -0.501438 -0.905238 -0.049761 -0.839810 2.183318 -0.575824 1.133827 -0.680518 -0.951125 -1.266097 -0.298515 -2.284763 -1.702813 -1.249259 -0.930924 1.162861 -0.578832 0.241359 0.501141 2.240345 0.918337 1.050655 0.377124 0.926360 -1.831656 -1.164336 2.050644 -1.362330 -0.400253 2.795743 1.277177 1.144541 0.778696 0.220653 -0.485284 -0.514804 -1.464446 -0.457057 
versione 0.297188 0.224082 2.425015 2.877663 0.743591 -0.541917 1.232445 0.390607 0.603529 1.692644 -0.016532 -1.013655 0.617267 1.722073 4.155774 -0.257073 1.859428 0.725915 -0.208041 0.000061 -0.332159 -1.227484 -1.999193 2.869124 0.164334 2.659639 -0.276579 -3.207631 -1.102189 -1.905306 -1.077934 -1.083815 -1.053532 0.447008 0.664036 -1.714014 2.267272 -0.069050 -0.739538 -1.616253 -3.197189 -2.120394 2.339839 2.262799 0.555189 1.178323 -1.358076 -0.711664 -0.028068 1.231465 
d&apos -0.011816 0.109834 -0.195306 -4.656565 1.561210 2.270221 -2.853101 -0.256240 -0.181775 2.907991 2.510724 0.699218 -0.766825 4.165363 -0.326362 1.492666 -1.670387 -0.793587 1.024203 -2.575534 4.695856 1.661688 -1.465176 -0.589832 0.637328 -0.494183 -0.380907 -2.186761 -0.563146 0.564641 -0.015018 -0.998757 -1.197644 0.389594 -0.456335 2.297359 -3.221182 -1.255282 1.000296 -0.862298 -1.024458 -0.976309 0.577161 -0.352717 1.433769 0.332393 1.940761 1.065940 -1.096230 0.564484 
paese -0.166237 -0.390960 -0.562193 -0.692185 -0.557642 1.649477 0.627898 0.928967 1.381820 0.294381 1.336855 -0.288267 3.355868 0.407076 0.388942 0.628033 0.983905 0.316717 1.730404 -2.096811 -1.083532 1.793162 -0.241997 -0.236852 -1.532886 -0.904275 -0.336154 -0.353422 -0.444182 -0.454207 1.624012 3.183489 -1.222661 0.695345 -2.596512 0.925058 -1.176341 -1.081651 1.377448 0.041560 2.472250 4.041049 0.704785 1.280270 2.108413 -1.746719 -0.393669 2.492183 -1.521587 -1.982716 
studio -2.957639 -0.337140 1.873399 -2.094049 -0.243403 0.281559 2.103148 -1.577382 -0.900112 2.993383 0.183136 0.046328 -0.521668 -1.402691 -1.734101 -0.615542 1.175735 0.499229 -1.024114 2.979444 -0.484196 -0.140929 -1.503434 -0.329285 1.515319 -0.974702 2.245236 -0.736483 0.436318 -3.265515 3.825225 0.727639 0.690687 -1.216448 2.129106 -0.776537 -0.023271 1.719234 0.857432 0.837126 -2.796817 1.956587 -1.658933 -0.295219 -1.962449 1.135536 -2.118100 0.723802 -0.867080 -0.382553 
casa -2.498396 -0.868945 -0.577539 1.705216 -2.335987 0.299288 -0.652170 1.907876 -0.587947 0.045715 -2.092507 -0.390656 0.181739 1.327121 -1.684909 -2.197080 -1.456566 1.488311 -1.960248 1.048410 1.180797 -0.718908 1.770882 -0.610830 -0.665047 -1.793106 -0.532049 0.233555 -2.386819 -0.589286 -0.061112 0.350563 -0.301783 0.957331 -2.623868 -1.017093 1.367218 -0.964723 0.781252 -1.159705 2.125960 1.941551 0.098359 -0.189246 1.212591 2.769264 -3.041539 -0.273098 -1.181905 0.850975 
modo -0.535111 -0.762093 -1.099927 0.745022 -1.199930 0.604757 -0.422145 -1.177452 0.739449 -1.061316 -2.221510 -0.191582 2.101566 -1.376795 -0.747099 -0.513135 1.936801 2.613502 -0.618026 -1.492061 -2.042513 -0.428833 -1.527175 -1.599800 -0.774796 0.442446 -0.007302 1.253392 0.834877 -0.953308 1.391414 0.017648 1.163248 0.200824 -0.702627 0.788924 -0.688965 -1.613288 -0.127244 -1.519311 -0.855962 0.549908 0.542225 1.910469 0.292863 0.924895 0.365690 0.647893 1.695421 1.284646 
sistema 1.881051 0.854170 -0.915358 1.107777 -0.903300 3.486916 1.707487 -0.785026 0.303557 -0.903929 -2.083910 -1.433402 1.421237 -0.896537 -0.243535 -0.111427 3.113277 1.619873 -0.225954 -0.330977 -3.521414 2.761662 -2.513214 1.521010 -0.550829 0.649183 0.464221 -0.474271 -0.668654 1.299994 3.447688 2.407121 1.710339 -1.100875 -0.120928 -2.064062 -0.819561 0.897353 -0.938828 0.424018 -2.560165 -0.398135 2.284187 2.310945 1.286635 -0.839696 2.877998 1.890989 3.822452 0.742609 
caso 0.294184 0.051071 -2.273169 0.186197 -1.571691 0.494595 -0.285436 0.162247 1.518658 -0.199304 -3.706719 0.104193 0.643118 0.058142 0.471613 -0.590926 0.819512 1.958460 0.747168 0.374635 -0.838743 0.911504 -1.899442 -0.401022 -2.814918 0.860911 -0.868271 1.322805 1.372902 -0.663911 2.187367 1.052298 1.646986 0.351991 0.429473 0.842938 -0.232154 -1.958462 -0.773588 -0.350336 0.200587 -0.399585 0.820241 1.617262 0.529911 0.112739 0.716300 0.948767 2.254577 1.224971 
re -1.771635 0.633681 1.182866 0.536088 1.336503 2.060541 -0.309633 -1.131140 1.126843 -1.874135 2.587894 4.279545 -2.120282 -0.176976 0.509100 0.905366 -0.300286 2.406207 3.649220 -3.933835 4.173185 1.354944 -0.437107 -2.636678 0.723155 1.131787 -0.335779 -0.930679 -2.308599 3.093460 -0.060320 -2.523373 -0.061880 -0.304792 -1.205336 0.875477 -2.057782 -3.660101 -0.529142 -1.742453 3.404305 0.748436 -0.595193 0.981245 -0.635116 0.146007 1.819090 -0.513319 0.171445 0.148145 
forma 0.567656 -0.470365 0.136621 -0.290608 -1.135062 -0.710443 -0.526300 -2.651310 -0.506523 -1.244561 -1.750811 0.787947 0.965002 -0.117925 -0.262264 1.716350 1.718710 1.322095 0.140007 -0.282690 -2.686613 -0.907437 -3.072849 -1.439910 -1.498987 1.854469 2.360165 1.210593 0.795314 -1.788854 -0.283947 2.579730 1.875144 1.996151 -2.055636 -0.089860 -1.907037 -0.116929 -1.226348 -0.346756 -0.877491 -0.022819 -0.032936 0.661632 1.297490 0.432634 0.345951 -1.029627 1.980273 0.151799 
linea 1.404931 2.084244 2.204255 -2.034637 0.453422 2.193637 -0.821166 -0.739313 1.518965 -2.821348 -0.957552 -1.568608 1.938044 1.587891 0.076344 -2.412532 0.653050 0.162715 -0.296047 -2.900999 -1.155514 -0.059101 0.768399 1.298816 1.541220 0.513515 -3.456797 0.781635 1.387963 0.708379 -0.058574 2.366709 0.756936 -0.373373 1.879842 -3.011228 -0.931113 -1.083093 0.301025 0.793240 -2.627435 1.312749 -0.391895 0.822998 1.555198 2.556637 1.875572 -0.385484 2.046549 -0.481861 
persona -2.978343 1.708949 -2.440533 1.816848 -2.181338 -2.178186 0.095032 2.851938 1.003178 -1.014257 0.235420 0.958367 3.534695 -2.271566 0.231350 0.475671 0.837549 1.789801 -0.910582 -1.048806 -0.839113 -0.857173 -0.251047 0.051002 -2.576034 -0.602847 -0.171971 1.972970 1.441158 -2.024085 1.864778 0.884243 2.694762 0.092603 -1.073422 -0.660886 0.200023 -1.555501 -0.487285 -0.081247 1.431715 2.336244 0.290654 1.205499 -1.507339 -0.829163 0.372225 0.965598 1.112446 -0.118353 
causa -0.480401 -1.152917 -2.458343 1.580574 -2.836750 0.433169 1.794810 0.559993 1.082361 0.867667 -1.476867 0.088621 0.151753 0.158504 -1.869981 -2.528477 1.254838 1.067899 1.405602 -1.643954 0.342548 -0.108491 -1.058471 -0.485084 -4.220546 -2.646904 -0.915977 1.649614 0.601699 0.595972 3.446688 0.395558 -0.120152 0.813116 0.686632 0.946965 -0.353150 -2.708245 0.072193 1.604881 -0.311941 0.565825 1.040596 1.000919 1.720607 -0.470790 0.649743 -2.205971 0.389839 -0.145556 
morte -3.158903 0.104337 -1.682718 0.241781 1.050447 -0.357314 0.022199 0.807851 -0.069064 -0.077090 0.439997 2.643230 -1.315224 -1.425238 -1.990829 -0.985670 -1.028934 1.558741 1.268999 -1.789744 4.261620 -2.266285 -0.009751 0.010308 -2.511149 -0.523472 -0.334711 1.629934 -1.700451 0.443353 1.628008 -2.140894 1.680089 1.439167 0.843483 0.551486 -1.426231 -2.660897 1.613898 0.159820 3.136580 0.432474 0.416308 1.219007 -2.236569 1.098646 0.027138 -1.572294 1.532991 1.175354 
il -1.606594 0.364236 3.534195 1.357601 2.650155 0.344631 -1.249946 -1.028711 0.952243 -1.512053 -1.832540 -0.227063 -1.512866 -1.773704 1.140301 2.064692 -3.612252 -1.921249 -1.827887 1.049328 3.409183 -1.134385 -1.642407 1.404389 -0.606609 -0.799894 0.486922 -0.036056 -2.905150 -1.277623 -4.218023 -0.227196 1.980853 -0.917565 -0.952767 4.378997 -1.068396 -0.770895 1.810843 -1.792444 0.700850 -1.783436 -1.326134 -2.128103 -0.413994 0.178815 0.209207 -1.040529 -1.257309 0.206851 
gioco 2.106868 -0.703877 3.529955 1.130851 -0.560417 -3.062417 -2.088496 4.120557 1.251358 -0.278219 -4.431392 -1.058694 0.274955 1.547053 0.598571 3.049171 2.185476 0.906630 -1.427875 -1.477855 -3.829426 0.160438 -0.138668 -0.270852 -2.167986 0.407412 0.681176 -1.922343 -1.224151 1.934047 0.369003 -2.330578 -0.527732 -4.556979 0.790216 2.069498 -0.082440 0.797824 0.614966 -2.108230 -1.762204 0.306970 2.018284 3.036568 0.747421 3.105273 -1.676919 -0.191243 -1.752918 -0.348757 
maggio 1.062938 -1.550795 0.174380 -0.828127 -0.346284 -0.351141 1.611275 0.200157 2.944041 1.631332 3.561859 0.225350 -1.494464 2.272027 -0.555318 -1.836746 0.001785 0.106264 -0.575553 0.744617 2.583385 -0.565590 2.563639 4.037319 -0.840533 0.126577 -0.496979 -0.237536 -2.508307 1.902470 -1.151072 0.686642 -0.829442 -0.515441 2.584669 0.416812 -1.743339 -1.331696 -0.890164 0.958999 0.902611 2.257560 -0.021451 -1.800021 -0.792312 -0.006184 1.919129 0.145889 -1.148852 -0.646068 
centro 0.508379 -0.462605 -0.187256 -2.602151 -2.355312 2.017723 -1.008991 -0.892844 -2.279696 -1.760992 0.581772 -0.995286 3.373053 0.495674 -1.081257 0.576384 1.610710 -0.679974 0.154654 -1.152100 -0.359260 1.939532 -0.271546 -1.262887 -0.328529 -2.400393 -0.628457 0.661688 -0.694560 0.836198 -0.038996 3.691270 1.221473 0.672648 -1.946672 -1.910933 -1.261997 2.582609 0.612119 0.990168 -1.005471 4.172339 -0.315386 -0.705937 0.060181 0.793925 0.292084 1.808354 -0.731784 -1.891218 
settembre 1.229212 -1.363796 0.234707 -0.695381 0.045959 -0.247145 1.810535 0.157990 2.663378 1.778793 3.469090 -0.339257 -1.265472 2.813196 -0.234162 -1.842380 0.103276 -0.236310 -0.534307 0.526672 3.023035 -0.567356 2.301133 4.347366 -1.154231 -0.235619 -0.695744 -0.159807 -2.417938 1.513762 -0.841566 0.971570 -1.289997 -0.657327 2.679576 0.444210 -1.620944 -1.328441 -0.525173 0.888399 0.693619 2.359270 0.051050 -2.020405 -0.970757 0.384601 1.620211 -0.076236 -1.304738 -0.254419 
lavoro -1.511171 -0.884593 0.292597 1.416652 -1.669187 -0.252667 0.141027 -1.273723 -1.354713 2.563648 -0.555753 -0.916569 0.873924 -3.134031 -0.271550 -3.023459 -0.145744 1.612362 -1.401936 1.547317 -0.408071 -1.107225 0.258769 -1.012685 1.516154 -0.847833 0.537353 1.308823 -0.277210 -2.270925 2.093904 1.105843 2.026361 -0.838725 1.812482 -0.218369 -0.999298 -0.796726 1.432715 1.068971 0.159742 2.527576 -0.017042 0.372689 1.551153 0.554754 -1.365168 1.943744 -0.286043 -1.295391 
base 1.653240 -0.433540 0.369150 -0.576899 -1.606401 1.616940 -0.236218 -0.691022 -0.239228 -0.779902 -0.234453 0.175935 1.022026 0.048458 1.029761 -1.107706 1.897733 1.156989 -0.330894 -0.177695 -2.992183 1.842102 -0.259875 0.410005 -1.371510 1.563377 0.806674 -0.698442 3.015959 -1.555778 0.836199 1.595264 1.611947 0.250772 1.415625 -0.415878 -0.899535 0.415035 -1.737404 -0.143185 -0.563222 0.941507 -0.147469 1.572439 1.266079 1.197016 2.125319 0.477950 0.716912 0.808051 
giugno 0.926731 -1.078666 0.110007 -0.827120 -0.430867 -0.497092 1.487565 0.116334 2.758738 1.716477 3.525448 0.272197 -1.513962 2.512106 -0.282454 -2.122593 0.431819 0.094661 -0.605250 0.511436 2.433908 -0.592474 2.682283 4.055839 -0.794649 -0.081175 -0.078058 -0.491590 -2.393052 2.047348 -1.018325 0.815359 -0.649614 -0.636809 3.037861 0.373070 -1.469073 -1.308477 -0.932771 0.901411 0.912554 2.117893 -0.160781 -1.709716 -0.633140 -0.055298 1.658452 0.421231 -1.005096 -0.631786 
luglio 1.061373 -1.016405 -0.263528 -0.699079 -0.176242 -0.676372 1.506545 0.390476 3.062198 1.666271 3.489800 0.219505 -1.560504 2.656665 -0.299303 -2.092518 0.318962 0.344563 -0.521105 0.229962 2.418224 -0.675536 2.786519 3.967221 -0.715496 -0.462887 0.214953 -0.224329 -2.269550 2.129047 -1.067361 0.979397 -0.632496 -0.787407 2.827431 0.426433 -1.764061 -1.330085 -0.881138 1.259085 0.982298 2.111171 0.091261 -1.478045 -0.280761 0.088494 1.752328 0.299000 -0.872045 -0.396187 
territorio 0.540661 1.220674 -1.099902 -3.561249 0.756338 2.519177 0.755728 0.150600 1.385327 -2.207629 2.496669 1.686303 3.792625 0.317138 -0.288633 -0.989686 0.609103 0.619895 3.829545 -2.513098 -2.719235 5.507833 -0.101788 -1.396666 -0.216450 -2.401881 -2.126398 -1.448629 -1.277602 0.583206 0.561339 2.307132 0.184901 2.394074 0.717946 -0.391895 -3.218719 -0.801030 -1.088892 0.181973 1.282050 1.753479 1.129567 1.067020 1.111428 0.536441 0.566077 -0.064073 -0.316485 -4.905042 
edizione 1.348501 -4.700802 4.521722 -0.890868 0.239133 -0.291409 0.730069 2.972693 3.398574 3.274838 -0.692133 0.921565 0.614909 2.715563 -0.638651 4.033787 -1.079280 -1.410132 -1.966383 1.742973 -0.107380 -1.318776 1.140773 2.165452 -0.236964 1.955868 0.548395 -3.412565 -0.068726 -0.720175 -2.160652 -2.512190 -0.799409 -0.269876 -1.220882 2.060256 -0.161849 0.426367 1.702364 1.149889 -2.228184 -0.327151 0.616677 1.025175 0.171510 -0.450857 -1.286825 0.021606 0.129198 -1.990179 
gennaio 1.352424 -0.751028 0.002858 -0.148376 -0.422999 -0.901109 1.805268 0.063478 3.727310 1.259440 3.630706 0.904769 -0.919540 2.461317 -0.263185 -2.238549 0.065923 0.684884 -0.952748 1.172065 2.275878 -0.928760 2.078655 3.609769 -0.363880 -0.772756 -0.353233 -0.458979 -2.451458 2.084054 -0.881449 0.918924 -0.616971 -0.918937 2.939650 0.497509 -1.946417 -1.051553 -1.008839 1.665133 0.856538 1.485626 0.246193 -1.784441 -0.007920 -0.045022 1.757216 0.066029 -0.984757 0.356692 
esempio 0.758463 -0.399142 -0.311131 0.767611 -0.612132 0.479423 0.168185 -1.765320 0.093396 -0.391241 -2.481324 -0.322845 1.013803 -0.652124 1.708916 1.487162 1.242693 1.745418 0.023086 0.091537 -1.875771 0.504709 -2.201294 -0.762935 0.107015 0.666084 0.998065 1.182584 1.150214 -1.590006 0.847551 1.627685 2.157530 0.133210 -1.237313 -0.278500 -1.148140 0.225224 -0.400357 -1.401125 -0.817457 -0.600929 0.433024 2.042260 -0.126884 1.105127 0.027878 1.113310 0.820042 0.756750 
ruolo 2.043180 1.728122 2.313084 1.203783 0.033620 -0.573077 -1.616746 0.484659 -0.418678 -0.033322 1.571669 -1.225219 0.055182 -1.488916 0.727748 -0.452484 -0.669783 1.547317 -1.150085 -0.342314 0.528597 -1.201367 -2.371463 -1.637415 0.535431 -0.573299 -2.213732 1.616154 0.298305 -0.144974 3.036155 -0.361634 -0.087190 -2.445276 0.771872 4.591858 0.993114 0.986161 2.842783 -1.329708 -0.127309 -2.472463 0.358370 -3.347497 0.210942 0.454360 -0.590253 -1.007735 -0.737935 0.046153 
termine 1.704742 -0.566411 0.111271 0.876180 -1.041456 -0.327526 3.817904 0.700779 2.383282 -0.294712 -0.266467 -0.224868 -0.625184 -1.524964 0.487783 0.805318 0.775272 1.871079 1.539050 0.118419 -2.889182 -0.925460 -0.896464 -1.212466 -1.804102 0.205442 -0.822564 0.646176 2.216272 -1.785897 0.501910 1.836248 0.612270 0.290829 0.137389 2.301311 -0.298335 -1.249931 -1.656223 -0.665021 -0.497590 2.717742 -0.965729 1.477535 1.985681 0.144299 1.116501 0.585588 1.205696 -0.650510 
marzo 0.910948 -0.871223 0.413743 -0.418371 -0.393851 -0.851159 1.858216 0.306628 2.764999 1.537098 3.248156 0.279808 -1.304969 2.122955 -0.609485 -2.431557 0.123317 0.051496 -0.550622 0.868000 2.482511 -0.620932 2.194843 4.193615 -0.374259 -0.018490 -0.166803 -0.291568 -2.513078 1.701031 -0.862938 0.754180 -1.017387 -0.588374 2.848434 0.415724 -1.828298 -1.114034 -0.580243 1.204577 0.636289 1.841556 0.232659 -1.533949 -0.665510 0.072294 2.041349 0.185826 -0.970556 -0.210155 
agosto 1.093239 -1.423531 -0.353232 -0.569541 -0.013485 -0.552263 2.037940 0.379815 2.639512 1.863896 3.227734 -0.137632 -1.674014 2.865532 -0.242875 -1.943436 0.248335 0.214783 -0.894294 -0.206258 2.729700 -0.597119 2.894733 3.536824 -1.086638 -0.387396 0.003861 -0.148819 -2.280125 2.102511 -1.606058 0.761479 -1.115584 -0.866164 2.648897 0.369151 -1.603565 -1.671552 -1.080623 1.070783 0.947876 2.423998 0.094744 -1.435041 -0.414060 0.418819 1.781772 -0.305652 -1.709942 -0.536012 
ottobre 0.986440 -1.250453 0.496593 -0.499837 -0.167104 -0.276802 1.818930 0.201009 2.482248 1.843784 3.471130 -0.116206 -1.541258 2.588667 -0.485191 -2.105216 0.315878 0.026621 -0.478367 0.936751 2.930790 -0.663519 2.209655 4.119466 -0.796361 -0.234670 -0.312539 -0.238394 -2.417042 1.576693 -0.649379 0.948493 -1.242931 -0.744944 2.719787 0.369998 -1.848383 -1.439551 -0.666355 0.896836 0.549660 1.981290 0.048654 -1.627070 -1.079251 -0.036523 1.788682 -0.086438 -1.287439 -0.397156 
padre -2.939030 0.568061 -1.953706 -0.717888 0.469881 0.265420 0.381633 2.098182 -0.744367 -0.367386 1.045162 1.855191 -1.995566 -0.976098 -2.454319 -2.138871 -1.392074 3.312764 -0.601040 -2.571141 3.371446 -2.227873 -0.807663 -1.835914 0.276918 -1.657694 0.922584 0.253305 -1.198830 -0.662932 2.995381 -2.057615 1.478493 -0.134763 -2.742879 0.087412 0.045053 -1.518118 2.755172 -1.728489 2.221408 1.280798 -0.708704 0.308479 -1.011389 0.983980 -0.962505 -1.088336 1.300198 0.615566 
isola -0.172400 0.900247 -1.690578 -2.359407 2.660681 0.251605 0.233554 -0.844611 -2.016447 -2.226494 3.124357 0.296317 3.938720 -0.626956 0.629495 -0.333467 -0.646648 0.786593 2.805516 -1.748204 -0.562650 4.042866 3.182461 -0.553729 -2.672398 0.083198 1.005673 -2.350599 0.863622 1.329946 -1.707822 1.003944 1.366910 0.425040 -1.159313 -0.417125 -1.978240 -1.880373 -0.034575 -1.409247 -0.151782 0.614015 -0.116785 -0.991408 2.264198 -1.808478 1.255110 -1.905809 -2.684340 -1.101470 
dicembre 0.863342 -0.745583 0.233083 -0.315557 -0.252891 -0.913614 2.006850 0.203425 3.113873 1.582761 3.543457 0.748253 -0.811368 1.841992 -0.318242 -2.138705 -0.098734 0.292634 -1.000925 0.815400 2.327961 -0.360894 1.939242 3.873026 -0.629064 -0.283963 -0.376207 -0.460358 -2.341771 1.487631 -0.888452 0.918632 -0.615286 -0.591488 2.538720 0.345557 -1.743713 -1.010284 -0.669257 1.251539 0.823086 1.841851 0.225595 -1.753035 -0.590593 -0.008196 1.984139 0.314584 -1.222040 0.057804 
uniti 0.431128 3.266459 2.724298 1.614092 7.142180 -2.877023 0.089612 -0.037496 1.136782 -0.870723 3.827751 -4.020685 0.054474 1.625953 -2.395197 -2.215354 1.933005 1.888505 -1.203788 1.034726 0.653423 2.079362 -0.616201 2.611051 -3.573092 -0.750315 -0.052947 -0.320724 1.857127 -1.249542 3.052851 -0.563696 -5.193085 -0.517353 -2.378296 6.051267 -3.514756 3.205355 -2.551857 5.277125 -1.935813 1.315341 2.413175 5.502007 -6.100150 -2.895649 -2.619574 0.889774 -7.884386 -1.747737 
zona 0.596922 0.596472 -1.688785 -1.465410 -0.813320 1.475313 1.144369 -1.243141 -1.558369 -1.960082 -1.330597 0.472885 3.298352 0.682609 -1.019994 -0.103171 1.290757 0.203446 1.991217 -1.322434 -2.953663 3.347411 1.210199 -0.653793 -1.814741 -2.329475 -2.580759 0.281155 -0.119574 0.538312 -0.922709 4.373371 0.436440 1.165701 -0.132820 -1.706874 -0.186965 0.311680 -0.916044 0.392330 0.294766 1.693757 -0.553916 -0.421783 1.690458 0.204309 -0.657268 -0.936424 -2.123042 -2.914653 
aprile 0.919812 -1.106156 -0.065414 -0.559729 -0.409890 -0.320931 1.569897 0.296794 2.700892 1.365955 3.353451 0.198991 -1.386749 2.402673 -0.573229 -2.208381 0.296816 0.138808 -0.372665 1.099515 2.668458 -0.738437 2.589561 4.287138 -0.839021 -0.050243 -0.273233 -0.229129 -2.441444 1.559885 -0.851523 0.779072 -0.921372 -0.444424 2.821357 0.203729 -1.784665 -1.370620 -0.877857 0.795847 0.970783 1.953443 -0.053861 -1.770421 -0.824255 0.159797 1.821071 0.076162 -1.094277 -0.242206 
corso 0.853191 -1.408524 0.679730 -0.455363 -1.104656 -0.726814 2.251591 1.424901 -0.603543 0.872916 1.034506 -0.666989 -0.409057 0.070270 -2.019307 -0.178826 0.733958 -0.181453 1.389138 0.956969 -0.483374 -0.559900 -0.383678 -2.431101 -2.760637 -0.666275 -3.479524 -0.389253 -1.545205 -1.323616 1.563875 2.440581 0.933441 -0.265954 0.608323 2.147543 -0.110024 -0.652048 1.161389 -0.452558 -2.859565 2.749156 -0.068428 0.464130 -0.139387 0.916244 1.211989 0.919233 -1.601639 -2.167379 
novembre 0.893197 -1.045659 0.180866 -0.478354 -0.602152 -0.745032 1.921279 0.086825 2.518272 1.566622 3.449574 0.173790 -1.327077 2.482924 -0.554130 -2.074995 0.319944 0.247054 -0.677224 0.959791 2.797441 -0.642478 2.276546 4.180839 -0.642454 -0.185249 -0.162978 -0.207128 -2.623910 1.694421 -0.743902 0.693341 -1.366097 -0.671879 2.855592 0.413453 -1.924253 -1.304459 -0.669043 1.081113 0.698597 1.861870 0.044474 -1.491111 -1.080940 -0.063984 1.846620 -0.018774 -1.211467 -0.303229 
personaggio 1.918469 1.097416 1.451430 2.666477 -1.072746 -2.178824 -3.378202 1.603263 0.570747 -1.426401 -0.863433 0.716231 1.549625 -1.611778 1.124813 2.549605 -1.989369 1.045501 0.422875 0.649369 -0.643661 -3.239029 -2.875078 -1.289684 0.136589 -0.164737 -1.820818 0.132429 0.737998 -2.547653 0.656979 -2.064883 1.399113 -1.191008 -0.548930 2.194479 -0.485853 0.126047 2.437713 -5.533144 -0.966828 -2.917074 1.240430 -0.996318 -1.050478 2.527664 -2.324459 -1.853036 0.086753 1.948669 
popolazione -1.300409 1.350668 -2.215868 -1.062167 -2.174417 1.356686 3.596461 2.581636 1.016410 -0.993401 2.817259 1.942553 5.985829 -2.284159 0.778166 -0.206015 1.336838 -1.315280 1.695881 -1.989956 -4.109557 3.449622 -0.225294 -2.357524 -2.562428 -1.996399 -1.804303 0.954592 2.208046 -1.445994 1.566460 2.672095 1.118797 2.586167 -0.946751 -2.423493 -2.065539 -2.448653 -1.666546 1.166422 3.605291 0.396321 1.820234 1.327689 0.088902 -1.565454 1.419408 -1.311350 -1.433490 -2.526627 
successo -0.129968 0.323803 2.329176 2.825385 -0.406727 0.860386 1.338505 -1.665519 1.983256 3.314851 0.421155 -1.309805 1.644764 -0.147731 0.676500 -0.595409 0.818542 -0.911796 -0.629804 0.220789 1.068698 -2.775938 -0.738620 0.211876 -0.954132 1.236831 -1.299698 0.426563 0.033786 -0.752632 0.444834 -1.756060 -3.368199 -0.892778 1.302584 3.242357 1.634681 0.031675 2.000229 -1.295924 -1.344469 1.323530 -0.049730 1.402127 1.275992 -0.190594 -0.754613 -0.327086 -3.381439 -1.030411 
lingua 0.247289 -0.353101 1.355622 -1.596133 1.453665 1.064310 3.573804 1.403383 1.099147 -1.155359 0.810423 1.554892 2.737943 -2.330925 3.328783 2.595417 1.372831 2.231099 1.934730 1.874220 -2.238409 0.343438 -2.761142 -1.185499 0.741265 -0.065746 2.598100 -1.209151 1.614722 -4.321343 0.154812 2.052264 -0.012190 -0.765852 -3.118795 -0.949391 -0.189542 -2.367733 -0.422452 -1.497089 -1.052452 0.495970 -2.028679 1.692010 0.261388 -1.954525 -0.554055 -0.006070 -0.653237 -2.513888 
vittoria 3.007609 -1.147399 0.938041 -0.928806 -1.773659 2.160371 2.324259 0.564976 3.581673 -0.107676 -0.041267 -1.416224 0.099156 1.636893 -1.333257 1.423025 -2.702974 -1.605113 -0.140193 0.212886 0.504799 -1.897765 2.741274 -1.282052 -3.021279 2.277869 -3.174535 -1.187948 0.765046 3.676965 -1.537001 -4.000232 -4.063002 -0.831111 1.273471 2.026911 1.117355 -0.690850 -0.926765 1.064864 3.582583 2.851963 0.026762 2.575340 0.345594 0.602720 2.666550 -0.840611 -1.968558 -0.042470 
inizio 0.495350 -1.210799 2.522339 0.346894 -0.672275 -0.439814 2.060713 1.451702 0.000701 1.811481 2.039301 -0.646356 -0.918194 -0.973362 0.008168 -1.581075 1.454505 -1.305539 1.161047 -0.404678 -0.384775 -1.869429 0.260973 -1.536688 -3.070523 -0.042518 -2.966948 1.643791 -2.500753 -0.342979 0.886657 2.599890 -0.219142 0.009110 0.077946 2.290655 -0.726289 -1.068173 0.795271 -1.827222 -1.258773 3.638526 0.900234 1.512657 1.313530 1.023047 -0.858476 -1.120230 -1.585772 -0.694378 
campo 3.123646 -1.963360 -0.790653 -0.923286 -2.091684 1.102425 0.299715 -0.309258 0.129779 0.536503 -2.002829 -1.195621 0.126871 0.214851 -1.797557 0.391969 0.995032 1.308709 -3.379107 -0.739754 -2.079380 0.991794 1.557339 -1.378372 -2.803932 -2.332408 -1.495492 1.438059 -0.265995 -0.406915 1.571579 0.085587 -0.326753 -3.457846 0.267845 -0.158259 -2.277954 -0.543811 -1.338772 0.322064 -0.517862 2.980552 -1.586875 0.253140 0.248425 2.074890 1.869473 -0.753142 0.069855 -1.155022 
interno 1.287950 -1.139488 0.262211 -0.394068 -1.336435 0.091322 -1.743977 -1.967999 -2.882412 -1.637262 -0.692612 0.963373 3.340200 0.920935 -0.395837 -0.631172 2.012215 1.604765 -0.756475 0.189614 -2.030273 1.057773 -1.004386 0.824630 -0.702461 -0.194082 -0.594204 2.012873 -1.786941 0.085848 1.035788 2.539454 1.401212 1.355718 -1.595689 0.486609 -1.665237 1.008594 -0.342747 -0.041965 -0.637359 1.132459 0.592162 0.238962 -0.473635 0.594240 0.159775 1.329861 -0.042908 0.242381 
febbraio 1.078379 -0.887751 0.327034 -0.450855 -0.375125 -1.201708 1.523526 0.384726 2.551742 1.615520 2.942786 0.350885 -1.301380 2.177802 -0.706903 -2.366576 0.094159 0.276597 -0.809920 0.642735 2.381895 -0.558656 2.145819 3.984812 -0.479375 -0.285513 -0.114629 -0.180204 -2.324638 1.869162 -0.816859 0.497088 -1.240516 -0.880391 2.745883 0.555322 -1.906036 -1.142085 -0.770019 1.141000 0.538680 1.503553 0.446986 -1.400327 -0.673945 0.160877 1.989750 0.045927 -1.292693 -0.036511 
via -0.145236 -0.462949 0.395361 -0.679684 -0.247756 1.728110 0.487012 -0.327046 -0.849734 -0.950630 -2.582485 -2.069948 3.064571 0.949759 -1.287891 0.405253 -0.872690 -0.020432 0.724012 -1.507047 2.316267 0.537761 -0.606317 -0.572627 -1.709183 -1.304758 0.088966 1.451873 -2.126800 1.126123 0.229245 3.520085 0.446769 1.733743 -0.349810 -1.378529 0.802299 -0.066665 -0.054192 -0.456065 -0.929504 3.125480 -0.578108 -0.416156 0.955766 1.598250 0.054039 2.320566 -0.236827 -2.324488 
membro 1.010450 2.365140 0.440832 -0.658400 -1.129112 -0.128589 -1.571138 0.821904 -2.808880 -0.056909 3.354206 2.710880 0.027743 -0.527795 -1.917980 -1.039710 0.785201 1.871475 -0.323745 -0.219304 -1.582635 -2.238253 0.279022 3.280394 -0.132402 -0.288374 1.446988 0.346299 0.080842 0.840946 4.881709 -0.877454 1.284050 -0.145377 -1.086205 2.456210 0.469802 -0.524031 -2.067489 -0.243978 2.060269 1.601348 -1.461741 0.940773 -3.267708 -4.163536 -0.821943 2.843937 -0.439637 0.961007 
tipo 1.519588 -0.332634 -1.795785 0.971035 -0.959862 0.972523 0.123849 -1.832980 -0.522319 0.513278 -2.866075 -0.392776 0.517092 0.632600 0.321619 1.045386 3.318985 1.397985 -0.853489 -0.519722 -3.138339 0.830821 -1.593607 -0.107547 -1.300348 1.152378 -0.351614 0.362196 2.305371 -1.471088 1.566073 3.073832 2.645314 -0.249425 -1.283808 -1.059633 -0.228273 -0.205087 -1.376169 -1.007290 -1.055721 -0.849697 0.915806 1.720971 1.006380 0.924334 0.596270 0.016063 1.914092 0.089843 
canzone -2.347897 -1.165795 0.334045 2.795841 0.049059 -2.035403 -1.443705 -0.605840 1.839589 4.559375 -0.139080 -0.171522 0.568819 -0.382997 4.302103 1.398727 1.084664 0.426197 1.619585 0.568609 0.040899 -3.476613 -3.192357 0.764038 1.736578 2.545460 1.868731 -0.142695 0.019779 -1.166399 -4.127148 -2.147717 -3.131002 1.530317 1.191992 -0.662507 2.375887 -1.375623 1.034189 -1.619048 -3.848481 -0.433987 -2.809461 0.965880 -1.734117 -3.090778 -4.236044 0.573776 -2.918896 0.094651 
presenza 1.063636 -0.011982 -0.420264 -1.686833 -0.990631 -0.902157 1.081950 -2.728141 0.639056 0.261670 -1.635727 1.986220 2.427942 0.743399 0.657758 0.280514 1.617652 1.315217 -0.325692 1.763793 -0.875597 0.700045 -0.131592 -1.706477 -2.395350 -0.405902 -2.809706 1.794089 0.205562 1.990414 1.514380 1.302356 1.199687 0.875982 -1.988196 0.976339 1.081079 -0.102709 -1.264789 0.851702 -0.809160 1.682060 -0.171868 -0.089806 -0.453063 1.209180 -0.008605 -1.839638 -0.856441 -0.561732 
provincia 1.026680 0.962981 -0.376966 -4.167632 1.071123 2.223234 2.243221 1.878898 1.450001 -2.446189 2.975356 2.576077 3.497032 0.469245 0.825378 0.762511 -0.106412 0.682165 2.153085 -1.147132 0.639670 1.633352 0.463464 -1.728890 1.094916 -1.945863 -1.409615 -1.345234 -0.388715 0.955029 -0.817032 2.790153 0.111596 1.844443 0.060344 -0.325086 -2.045035 0.459276 0.786100 0.697811 1.918817 -0.818307 1.763377 -0.117826 1.951103 -1.161955 -0.438889 3.040338 -0.971830 -2.990881 
posizione 2.481235 -1.273078 0.496050 0.349655 -1.553370 3.366771 -0.252997 -1.107541 2.211480 -0.199866 -1.317675 1.583400 2.543976 0.907124 -0.268304 -3.349597 2.306715 -0.414779 0.804667 -2.325059 -1.133339 0.406104 -0.884924 -1.173439 -1.704177 1.488529 0.524548 1.091842 1.136988 0.724634 -0.906013 -0.243950 -3.596048 0.741903 0.273910 0.069500 0.789732 0.140523 -0.386209 0.870503 -1.872599 2.201940 -0.940712 1.355628 -0.846549 -1.479170 2.182001 1.498724 -0.790817 0.595971 
coppa 3.536367 -1.429164 2.161328 -0.419932 2.223243 -1.218280 4.017765 0.086493 2.499973 -1.068191 -1.150334 2.133932 -0.168168 2.349562 -0.172960 4.444668 -5.182925 -0.879446 -4.017776 1.199319 -2.537302 -0.347355 1.458142 -0.129856 -1.563654 4.162760 -2.652347 1.182395 0.557506 8.242013 -0.992209 -2.659142 -2.904957 -1.522295 -2.836887 4.559629 -1.055269 -0.358118 0.338990 4.311244 1.360241 4.044166 1.684556 1.446038 5.296407 -1.845462 -0.129863 -1.919621 -2.429410 -0.767846 
corpo 1.042558 0.134150 -2.141398 -0.477912 0.664056 1.007128 -1.575736 -0.599454 -2.331560 -3.855393 0.396178 2.508678 2.121213 1.783155 -4.164656 -0.442829 0.590377 1.540258 -2.899563 -3.386705 -0.549734 -0.463534 -1.424804 -0.895603 -1.932665 2.536444 0.415109 1.663955 -0.669343 -2.752232 0.082458 0.478827 -0.325994 1.145461 2.211468 -0.463635 -1.690826 -2.020393 -2.123059 2.002579 -0.953906 -0.117714 0.463433 -1.278022 -1.802508 1.508356 1.222265 -0.475837 3.220531 0.735283 
livello 0.290399 0.605434 0.371507 -0.000753 -1.641412 0.000407 1.459435 -0.628910 0.382464 -0.525792 -2.481540 0.025412 2.109324 1.406629 -0.410130 1.678765 2.565428 2.450594 -0.695759 -1.202670 -4.348372 0.542260 -1.429331 -1.210886 -1.784345 0.605795 -1.339201 1.238263 1.004970 1.506079 1.617393 -0.073135 1.749669 -0.936863 1.059439 1.574803 0.627711 2.797471 0.732681 1.005367 -1.775519 -0.121743 0.865918 1.097363 1.766601 0.224461 1.120454 1.843906 -0.002579 -1.474602 
carriera 1.553019 0.489306 0.734621 -0.950658 -0.242553 -1.268373 2.572079 -0.065646 1.328164 2.736223 1.793863 -0.719066 -0.077593 0.862245 -1.424936 -1.597062 0.240236 0.126844 -1.771527 1.562515 0.916663 -5.684838 -0.454167 -3.201338 0.197391 0.443687 -1.631067 0.656716 1.406803 1.507570 0.649214 -2.428492 -0.747963 -2.816351 1.511789 3.066458 1.023783 1.616117 3.793178 -0.146304 -0.159622 1.373116 -0.865803 0.950415 -0.274192 -0.615540 -1.241521 -0.561480 -2.949832 -1.412497 
forza 1.966204 0.611694 -0.978639 -0.158692 0.964825 4.044186 -1.635615 -0.702196 -0.095823 -2.181824 1.876124 -0.467348 2.279949 -1.640638 -0.540674 -0.377144 2.664538 1.802731 -1.311315 -4.762316 -2.027145 1.469281 1.015864 -0.490114 -3.066387 -0.200023 -1.613739 0.808697 0.321357 -1.112987 1.202676 -0.290491 -3.397644 -0.839796 3.666490 1.245336 -2.038597 -3.413102 -1.550062 1.132162 0.728932 0.646735 0.427170 -0.108780 0.043169 0.282406 3.106555 0.540016 2.166346 0.055922 
produzione -1.390767 0.385353 1.130183 1.337958 -0.350363 0.498737 1.189326 -2.363716 0.094381 2.676346 -0.599330 -3.084526 0.387696 -0.515448 1.429212 -1.378147 1.320323 -0.154069 -2.634117 0.895007 -0.820624 -1.042162 -0.881570 0.239944 1.909916 -0.062194 -2.756824 -1.298185 -0.703451 -3.647352 3.025702 3.632733 0.361701 -0.083347 2.017287 0.929153 -0.421557 3.391848 0.147202 -0.572941 0.394542 -0.238193 2.754194 1.401942 3.962022 0.867762 -2.548622 -1.857114 -0.947872 -1.956141 
origine 0.982033 0.506769 -0.074606 -0.610006 1.823326 0.420314 0.970506 0.536820 -0.413841 -0.333140 0.369950 1.634620 0.870242 -1.771230 -0.503939 1.183508 0.694633 1.019147 1.321341 -0.917468 -0.803848 -0.983729 -1.821125 -1.351221 -0.561702 -1.216795 1.013902 0.076464 1.203045 -1.553281 1.415828 2.546330 2.030836 2.038190 -3.285414 -0.693379 -0.986466 0.243853 -0.287072 -1.608824 0.823861 1.886163 -1.189479 0.936569 0.324034 1.054765 -1.130495 -1.868007 -1.208639 -0.952054 
premio 1.269787 -0.712675 2.638555 0.205958 -0.045127 -1.097378 -0.665479 -0.450660 1.550664 4.667754 -1.320325 -0.680892 1.095734 -0.368110 -3.181835 3.151802 -2.841085 -1.878058 -1.699597 3.408630 4.292361 -2.061690 -2.711669 -0.317332 0.285993 0.052586 -0.277893 -5.639271 2.529507 0.481751 -0.196499 -1.231342 -0.708510 -3.689174 -0.177775 3.647584 1.474092 1.617978 0.843493 2.328253 1.235028 0.346007 0.242143 1.586873 -0.005256 -2.700759 2.681203 2.992121 -3.160395 -0.910197 
servizio 0.182593 2.006056 0.249556 1.293917 1.227317 2.431967 0.244351 1.405243 -0.893440 0.628291 1.893081 -1.242160 1.662014 1.864082 1.022314 -3.052321 1.717191 2.583960 -2.210188 -0.363101 0.048833 2.122560 1.768282 1.312627 1.331843 -0.262605 -2.362892 -0.087920 0.965884 -0.029569 2.368890 2.064493 2.951197 -3.065727 1.282422 0.058452 -0.370161 -1.385994 -0.334754 0.463431 0.659634 2.591719 2.022327 -0.380617 -0.186935 0.325640 2.009524 2.946531 1.991608 -1.835897 
voce -0.662855 -1.192477 0.018277 0.537430 0.502343 -1.168255 -1.197685 0.044217 1.447549 0.909261 0.012710 0.793112 -1.239967 -2.539792 1.910804 -0.083618 0.895010 1.409523 -0.163644 -1.481282 -1.019776 -0.604177 -1.205778 0.709085 1.205698 1.039143 -0.375038 0.324613 0.216215 -1.244957 -1.488535 -1.955080 1.744162 -0.514667 -0.897928 0.739875 1.252368 -0.458573 -1.032338 -0.675905 -3.120529 -2.175716 -0.453074 -1.515461 -1.259376 -2.087827 -3.958252 -0.971586 0.549041 0.724327 
governo 0.396854 1.947091 0.176631 -0.838959 -2.007304 3.465471 -1.559409 0.300691 0.764536 -1.954891 3.576397 0.776957 0.357511 -2.568718 0.991605 -2.664580 3.208229 2.098994 2.560834 -1.339020 -0.444085 2.013716 1.008580 0.706118 -0.059913 -0.500826 0.326583 -0.336677 -1.367105 1.091444 4.701516 2.219847 -1.488318 0.532575 1.137809 3.006870 -3.869969 -3.667379 0.674787 2.450936 3.635647 2.767246 2.852325 0.438053 0.583780 -3.378036 2.298505 2.490917 1.849938 -0.810150 
luogo -0.928809 -1.762310 -1.618992 1.143168 -1.784469 -1.274242 0.005858 -0.359014 -0.218226 0.236501 -0.224346 1.111240 2.060028 -0.559609 -0.588631 2.091820 0.451129 1.678716 1.653930 -1.839239 0.446480 2.263240 1.655227 -0.609388 -1.836145 -1.324025 -0.734379 1.050275 -0.837130 -0.401642 0.463796 3.175472 1.865939 1.512464 -1.066219 -1.069235 -1.708818 -1.357439 0.379729 -0.861131 0.113027 4.076897 -0.708050 -0.486902 -0.578084 2.644928 0.211997 0.030577 -1.061220 -0.137713 
genere 0.590841 1.757859 0.199792 0.408088 -0.686033 -0.575582 0.357302 -2.173297 0.403196 1.668729 -1.660305 0.838570 1.177358 0.054832 -0.175748 0.966792 0.417671 0.873131 0.288937 0.081570 -3.067760 -1.142435 0.022158 -0.794732 -0.764417 2.152631 1.164605 0.699028 1.394937 -3.993992 1.260265 2.823944 1.334803 0.948476 -0.963161 0.820104 -0.523549 -0.027519 1.033442 -3.245393 -1.755475 -2.036428 -0.523770 0.670955 -0.212832 -0.782495 -1.518857 -0.986184 -1.489315 -0.538078 
donna -2.659631 1.629930 -1.206865 1.563119 -0.746197 -2.451850 -2.440114 2.831289 -0.496484 -0.525708 -1.392558 0.199084 0.763570 -0.883430 -0.878327 -0.619261 -0.479792 0.768962 -2.351406 -1.220234 1.301073 -0.454498 -2.286056 -1.968972 -1.334305 0.389119 1.043440 2.089003 2.353346 -1.007079 0.059109 -0.082320 0.454981 1.045491 -2.654716 1.227631 0.494415 -4.486266 2.540343 -0.579157 2.639996 -0.270093 -0.562323 -1.339910 -0.480303 2.077441 -0.316972 0.993293 0.768480 0.320349 
fratello -1.614773 0.490589 -1.567192 -1.244642 0.513106 0.849233 -0.371854 1.277990 -0.159575 -0.415118 1.277732 1.359512 -1.294732 -0.369348 -2.221324 -1.672246 -1.509852 2.083344 0.190882 -2.832087 3.328315 -2.506088 -0.206100 -0.978442 0.439875 -0.439441 -0.237373 -0.062118 -1.859694 0.803804 2.192610 -3.130299 0.555864 -0.763277 -1.352850 0.260420 0.636836 -1.297347 1.779923 -2.516879 2.141450 0.298070 -0.657852 0.919419 -0.679043 0.441772 -1.265472 -1.021971 0.538001 0.479246 
mese -1.795856 -0.256191 -0.292970 -0.255876 -0.490410 -1.956249 2.996846 0.588875 2.364202 3.534380 1.202632 0.447191 -0.947156 1.658107 -0.750919 -3.565521 2.320539 -0.242252 -0.626653 0.262700 2.272108 -0.632633 1.821763 1.041202 -4.273039 0.041873 -1.325317 -0.014644 -2.059436 1.224111 0.279294 1.070673 -0.861300 -0.754853 3.294837 0.028950 -1.510327 -2.565171 0.296175 0.314122 0.731120 3.309681 0.591434 -0.965405 0.323274 0.090206 0.447427 0.415593 -0.847452 -0.157798 
libro -1.815730 -2.559196 2.138211 1.819894 0.640612 -0.473602 -0.305095 1.850785 0.927444 -0.417457 -2.580650 2.019085 -0.771294 -2.549263 1.991388 1.549048 -1.468071 -1.705034 0.690639 2.926097 0.927422 -0.788859 -1.601382 0.342669 0.723430 0.178078 2.150700 -2.229613 0.119186 -3.922820 -1.233635 -1.499282 2.633932 -0.016951 -0.518305 1.013461 -1.921703 -1.493747 4.256253 -2.057936 -0.576562 -0.869747 -1.026983 1.138472 -1.346282 1.136475 -0.672464 -0.408185 1.425315 -0.232173 
sede 0.082628 -0.270051 1.283706 -2.220222 -1.312291 1.400177 0.592668 0.407192 -1.670369 -2.283231 3.406271 -0.102134 1.216835 3.152040 0.076479 0.036410 0.154809 1.984432 1.107860 0.453922 1.201252 0.218264 2.205479 0.959458 1.410794 -3.129267 1.740833 0.672864 -1.265502 1.707933 1.769857 2.027119 2.415473 0.474033 -0.691180 0.905902 -2.009875 3.702597 -0.963535 2.587423 0.559807 5.167462 1.571224 -0.983941 0.299478 0.854310 -0.142764 2.499996 -0.835304 -1.784156 
gara 4.049960 -1.354554 0.393936 -0.954794 -1.244379 -1.535337 2.032559 1.584621 3.308951 0.678561 -4.541947 -2.167171 1.019937 3.876227 -2.934945 0.115179 -3.564281 -2.097121 -0.636098 -0.323896 -0.418309 -3.419088 2.733201 -1.070506 -2.064820 1.775115 -1.544832 -2.576475 0.744155 4.328343 -1.529879 -0.478876 -0.833244 -2.679784 1.443336 0.991510 2.895794 -1.071582 -1.342504 3.971085 -0.519654 3.862151 2.308365 1.820417 1.514079 -0.381689 1.096969 -0.076070 -2.922518 1.560681 
progetto 0.519273 0.131765 1.372907 1.080334 -1.321718 0.875216 -0.953941 -1.675672 -1.338656 1.587888 2.502586 -2.796542 0.817554 -3.178385 -0.080817 -2.358693 0.375428 1.375313 0.770956 1.475165 -1.498078 -0.205323 -0.302473 2.341829 0.869770 0.471827 0.913245 -1.624967 -1.754912 -0.508828 3.691828 0.595013 1.740290 0.225320 1.794839 -1.260664 0.122406 1.471630 1.882413 1.177753 -1.203460 2.625262 0.870491 1.098571 2.443298 1.566669 -0.908338 1.115482 0.631951 -0.550573 
attività -0.829897 -0.504773 -1.080784 -0.771470 -1.307315 0.123425 0.969112 -1.212611 -0.623871 1.986927 0.092977 -0.627756 0.845813 -1.301413 -0.805661 -0.688498 2.401472 0.510492 -1.239184 -0.019253 -1.310192 -0.404043 0.607189 -1.271556 0.315776 -1.902891 -0.584343 0.917735 0.907986 -0.313860 4.442438 2.468626 2.865179 -1.443562 0.824700 1.780483 -0.617449 0.368074 1.184131 0.527454 0.138685 3.138382 0.943339 -0.369085 1.288113 -0.263781 -1.420575 1.976266 0.108178 -3.033462 
area 0.458678 0.652131 -0.884406 -1.783559 -1.835275 1.224573 0.817663 -1.014071 -1.440691 -2.328609 -0.654534 -0.090686 3.700170 0.205030 -0.688572 -0.348791 1.747457 0.528401 1.594113 -0.827367 -3.816741 5.019065 0.430015 -1.050824 -1.200395 -1.853380 -1.843924 0.120385 0.242455 0.147774 0.672478 3.226458 1.397829 0.043039 -0.985426 -2.456321 -2.225334 1.135228 -0.430232 1.173927 -0.465175 1.819477 -0.203872 0.209650 1.200533 0.010593 0.503538 0.073992 -1.753487 -3.072209 
grado 0.116089 1.497852 -2.104404 -0.157298 0.440153 2.131938 1.526141 -1.939905 0.120942 -1.009064 -1.164948 0.447293 0.906854 0.137972 -0.728230 -0.754041 1.723046 2.977134 -2.306379 -2.192738 -2.448935 0.104204 -0.642694 -0.977420 -3.093436 0.805255 -0.143731 1.130839 0.180831 -0.890930 1.417798 -0.295093 0.566012 -1.388487 1.429400 0.180131 -0.192600 0.036240 -0.771901 -0.304888 -1.077294 0.126650 1.343639 0.692519 -0.345661 0.464647 3.140164 1.105866 2.368137 1.189365 
sud 0.886872 0.670615 1.498991 -3.413204 0.605672 2.833076 0.996113 -0.331556 -0.512363 -2.560792 0.704962 -1.053977 3.614143 1.081502 -2.280176 -1.182219 0.524889 0.309265 1.565831 -3.373806 -0.125144 2.274964 1.651535 0.626796 -1.275267 -1.595852 -0.930777 -1.269193 -0.453774 0.141417 -1.780675 2.581937 -1.719414 0.183094 -0.094674 -1.530770 -1.927238 0.488695 1.132597 1.378966 -0.145231 0.757439 -2.896708 -0.701643 1.999465 -2.101499 1.238892 -0.280091 -3.318237 -1.822446 
acqua -0.773667 -0.767800 -3.514952 0.130442 3.896832 -2.130464 0.267509 -2.217593 -2.231943 -2.757028 -5.270797 -1.105754 1.344466 -0.030284 -1.327925 0.227984 2.273875 1.834355 -0.670934 -0.922958 -1.832777 1.661461 -0.401804 -2.630660 -2.121751 -1.161223 -1.640614 -2.717534 -1.357838 1.057947 -0.307162 3.748216 2.367282 3.127914 -0.394482 -0.740795 -1.532532 0.202670 -2.338676 1.210806 -0.774444 -1.442620 1.405973 -0.951475 0.230319 -0.089535 4.216639 -1.855102 -2.064626 -4.077128 
età -2.815015 2.891117 0.775501 -3.089494 -0.598406 -1.977226 3.347089 3.288404 -1.077600 4.678508 1.680804 2.597430 0.068710 -0.197126 -1.664396 0.184965 0.763532 -0.993460 -1.671520 -0.522502 -0.035759 -1.507944 -2.470157 -4.821726 -2.711776 -0.560577 -0.613653 2.392514 -0.652461 0.253669 1.153555 1.164823 2.369070 -0.906228 -0.969509 -2.335050 -0.319287 -0.600592 2.376031 1.439016 1.769498 0.946656 0.219171 0.105529 0.333159 1.687550 -0.400123 -1.603001 -0.282518 -0.513772 
partita 1.845812 -1.877960 2.070352 -3.163389 -3.591059 -0.668126 2.081025 1.946935 4.366466 -0.735881 -3.501179 -2.699236 -0.654336 3.045660 1.364184 1.128861 -0.520000 0.232815 -1.542641 4.117886 -1.977404 -1.719890 4.379359 -2.413485 -3.531684 0.558455 -2.704571 -0.569152 -1.137552 5.533236 -0.465869 -2.960527 -1.257319 -3.498278 0.249100 0.536895 1.432557 -0.675045 -1.352646 3.306278 1.382345 3.054912 -0.778704 -0.336329 0.447345 0.131821 -0.854403 -3.701032 -1.602015 1.724455 
contea -0.653049 2.687360 -2.523835 -3.659473 1.973495 3.452972 -1.369710 3.654943 2.055828 -2.969028 3.140204 -0.229135 0.500554 3.255372 -2.791742 -0.400313 -2.443942 2.573126 6.305682 -3.039778 -0.020502 2.613003 2.085408 -2.553163 3.221648 -3.408275 -0.843887 -1.655281 1.894968 -0.132394 -0.355084 -0.959646 1.684408 0.023319 -0.960100 -2.989134 -5.465562 1.602422 -0.651122 2.747684 1.947383 -2.515020 0.461840 0.956317 -1.559921 -2.007701 -1.225846 -1.694083 -3.789130 -0.130621 
rete 2.077489 0.943294 -0.107585 -1.139199 -1.598090 0.915508 2.939223 -0.188879 4.101993 -0.396789 -2.272266 -2.180171 3.285285 2.052615 1.447643 1.084182 0.650912 0.590923 -1.469715 4.248211 -2.234774 2.621893 2.943055 0.490022 -0.566427 0.793017 -4.601062 1.355597 -0.723803 3.425112 2.628279 0.682202 -0.976980 -2.099914 -2.444395 -0.340420 0.509815 -1.121355 -0.121828 0.009768 -3.167193 2.017950 -0.143854 -0.887067 2.346597 0.713984 0.413469 0.139379 2.391094 -0.440079 
† 1.654663 2.027267 1.358789 -3.334836 4.044887 -1.642948 -1.404027 0.489489 1.867060 1.724545 1.109427 3.871469 2.581128 -3.442412 0.612458 -2.315755 -5.271544 -3.365235 0.471552 -1.070872 3.840544 0.745001 3.985108 -1.898410 3.382079 0.605726 3.581464 1.383751 -4.391586 0.945996 2.358627 -2.333247 -1.871112 -2.779625 -2.927036 -4.485981 -0.850436 0.079697 -6.915869 0.408034 1.217593 -3.129409 3.823431 -3.061257 -2.433960 0.355112 2.039631 -3.585949 -0.096045 -1.965507 
distretto -0.542391 1.315413 -2.086770 -2.531951 1.136182 1.440030 -0.357976 3.037900 0.487767 -4.179022 4.034909 2.898334 2.574737 1.334511 -0.448262 1.610868 -0.173978 3.256014 1.273502 0.877194 -1.806770 2.666394 1.269360 -0.416623 1.600351 -1.850753 -0.814406 -0.021575 1.515288 0.486442 -1.874799 4.011860 -1.587607 -0.151009 1.234065 -1.625616 -2.303597 1.482283 1.371396 4.775130 1.894924 -2.513124 2.346953 -0.465016 0.672122 -1.658860 -1.098440 1.290061 -1.434475 -0.746314 
a 0.055018 0.135010 2.256454 0.732519 -0.142950 1.427324 0.069481 -1.219770 0.443938 0.967132 -1.582432 0.622738 -1.275911 1.174649 3.274595 2.036494 -0.926953 -1.175339 -0.613850 4.347412 -0.368993 -0.711229 0.155417 1.336036 -0.369423 0.590182 -1.717922 0.565876 1.240523 2.267077 -1.436219 0.104471 -2.445042 0.305207 0.959963 -0.651009 3.961254 0.348317 0.615440 1.437684 -0.671804 -2.086208 -3.372940 -1.448534 0.376030 0.089235 -0.763637 -0.250374 0.690425 1.964239 
battaglia 3.439108 -0.754808 0.498123 0.411872 2.738456 3.945884 -0.359140 0.879464 -0.331405 -1.512357 3.048517 -1.267280 0.685017 -2.034592 -1.991806 1.759223 0.938678 1.188116 -0.618116 -3.076760 2.020010 0.901426 2.942388 -2.074998 -3.968179 0.605222 -3.652798 -1.227025 -0.375270 0.851536 -2.302061 -1.275465 -1.288407 -1.028582 4.554045 -0.165283 -2.045301 -3.380201 -1.432062 -0.956603 2.821936 -0.014219 -1.679376 1.004341 -2.270177 2.886191 2.120639 -3.222516 -0.556007 -1.221212 
nord 1.267376 0.807450 1.672721 -2.533901 1.210197 3.068285 1.276440 -0.154632 -0.559626 -2.644878 1.029603 -0.515505 3.063570 1.020807 -1.736688 -1.065885 0.942825 0.044971 1.635955 -3.292715 -0.509017 2.435146 1.625412 1.147157 -0.887541 -2.193817 -1.665311 -1.495896 0.018864 0.434959 -1.252522 2.463893 -1.305210 0.290018 -0.143413 -0.990199 -2.243250 -0.137974 0.252887 0.823336 0.065042 0.797078 -2.632779 -0.475019 1.830651 -1.990899 1.319235 -0.284964 -3.327999 -2.137725 
momento -1.339802 -1.092072 -1.214679 1.201884 -2.077145 0.264279 0.057560 -0.385980 1.257206 0.006424 -0.346332 -0.153490 0.697015 -0.577008 -0.739786 -1.013435 1.661123 1.630069 -0.237906 -2.125528 -0.200593 -0.867036 -0.740093 -0.598837 -1.831075 0.229656 -0.793012 1.026103 -0.099259 0.241020 1.126064 -0.244614 0.451935 1.082533 0.261147 1.508577 -0.818827 -1.978979 0.705058 -1.512911 -0.507818 2.159337 0.583636 1.165859 0.270141 0.681165 0.180847 0.034129 0.593203 1.570060 
fatto 0.112191 0.284996 -1.076275 1.009609 -0.938708 0.544238 -0.048102 0.356626 2.369375 -0.064834 -1.412229 0.608609 1.375540 -1.723451 -0.384458 -0.434777 1.557265 3.017379 1.280844 -1.398261 -0.006632 -0.339286 -0.947294 -0.714526 -1.721255 -0.242951 0.082473 0.467008 1.308385 -0.897159 1.701337 0.204547 1.247722 1.150577 -0.370282 1.722861 -0.500631 -1.986620 0.495701 -0.971192 0.134767 1.517437 0.762288 2.202168 -0.084943 1.235559 -0.134577 -0.501285 1.059340 1.115978 
presidente 2.062514 2.961650 -0.225370 -2.394893 -3.094936 0.821995 -1.408328 1.792058 0.107582 -0.844387 2.365941 0.866558 -3.145523 -1.894214 -1.089865 -0.613309 1.785131 2.388837 0.489845 1.708725 2.897127 -1.399250 0.707517 3.785408 0.251121 -0.606892 0.477690 -1.474108 -0.492843 2.100396 2.678645 0.070311 -0.903728 -0.580572 -0.579958 4.280804 -2.669888 -0.306442 0.476951 2.689337 3.510760 2.710193 2.066286 -3.268259 -0.050010 -4.221559 2.119587 2.755800 1.069562 0.606080 
protagonista 0.569853 0.653536 0.859826 1.472774 0.078064 -1.716288 -2.667506 1.887889 0.892145 -0.205074 -0.275903 -1.327837 1.092606 -0.800223 -0.092019 2.075805 -2.223729 -0.445111 -0.758065 0.584818 1.940370 -3.275802 -2.767205 -0.666055 -0.806979 -0.226698 -2.927984 -0.044809 0.252969 -0.972561 0.004083 -0.334207 0.303546 -1.404332 0.292698 3.712296 1.535008 -0.292235 3.521966 -3.539874 -0.538502 -2.930171 -0.136399 -2.120112 0.524329 1.246007 -1.058796 -2.043533 -1.455076 1.304973 
posto 1.635800 -0.792732 -0.235714 0.822910 -2.560035 0.854515 1.110314 0.181518 -0.325429 -0.893248 -1.128224 1.210436 1.467229 1.232835 -0.890845 -1.872000 -0.464900 1.452520 -1.287020 0.133204 -0.111350 -1.690047 0.436488 -0.572700 -1.043204 1.387045 -1.311271 0.230037 -0.462138 1.350256 -0.575654 -1.268857 -0.794153 -0.571006 -0.978597 0.863076 2.214198 0.334594 -0.332209 1.768904 0.484573 2.873301 0.565394 0.242745 1.755653 -0.672390 0.261547 1.093183 -1.406573 1.407945 
capo 2.494130 3.533598 -0.522144 -1.726286 1.542881 1.459248 -0.340135 -0.363639 -1.590694 -4.740802 2.588264 1.287081 0.672179 -1.102329 -1.941534 -3.045428 0.790864 2.958694 -0.117996 -2.613950 1.157872 0.086334 1.326235 1.612117 -0.066053 0.387311 -0.039721 0.661876 0.388897 -0.163540 0.529784 0.042602 -0.045761 -0.499008 0.193210 3.316808 -1.478554 -1.173312 -1.201205 -0.248223 2.651585 1.679395 -0.030642 -1.331992 -2.037396 -1.548928 -0.043032 1.759126 0.309456 -0.002460 
società 0.075827 2.884894 1.535580 0.532285 -1.976226 0.643204 -0.022621 1.209632 2.408969 -0.129598 0.271955 -1.180251 0.098143 -0.418923 0.485429 0.824160 1.142707 1.431559 -1.631084 0.640459 -2.263935 -1.448160 2.413973 0.179355 -0.072731 -3.425377 0.560775 -0.321738 1.220027 0.558170 4.904070 1.034411 1.038654 0.603770 -1.282093 2.946463 -0.862655 0.807817 1.493761 1.619895 0.930336 2.237844 0.017721 -0.135037 4.094847 0.225899 -1.808927 1.442411 2.936114 -1.521245 
dipartimento 2.577393 -0.465094 -4.762109 -0.409794 1.328077 4.054148 1.292483 -0.198433 1.120247 -0.652399 3.894184 2.963968 3.235027 2.451891 -2.922016 -0.464709 2.504998 -0.817544 1.151970 2.076720 0.695917 3.072857 1.406046 -1.820258 3.111148 -3.193933 0.871925 -2.363534 -0.311604 -3.543693 0.998861 1.360308 -1.316733 -2.932270 0.165550 0.168172 -4.476118 0.236279 3.375232 6.066131 -1.436383 -2.059768 1.507682 -5.534766 1.421849 -1.447265 -1.016308 5.807737 2.225564 0.970508 
brano -2.246245 -1.474723 0.618556 2.414010 -0.186925 -2.046323 -0.898002 -2.258721 1.239550 5.417284 -0.585634 0.527571 0.061488 -0.121390 4.822382 0.408934 0.637615 0.361378 1.876244 0.755531 -0.813949 -2.244772 -3.058770 0.986879 2.716231 3.879733 1.531072 0.488740 -0.692407 -0.958169 -3.394491 -1.802186 -3.600811 1.316550 2.321329 -1.467861 2.502138 -0.484655 0.328796 -1.184617 -5.159330 -0.351932 -2.337821 1.277733 -1.518204 -3.189499 -4.924763 0.173586 -2.627842 0.248583 
rispetto -0.272612 0.541382 1.053683 -0.265148 -2.479527 0.641836 0.699060 -2.012268 2.170640 0.712347 -2.363014 -0.344661 3.266834 0.625396 0.812786 -1.305624 1.864927 0.936628 0.100992 -2.314630 -3.262877 -0.111325 -1.978077 -2.298038 -1.146776 1.020871 -0.373866 0.598811 1.087970 -1.587355 1.298806 1.050726 0.529984 1.291840 -0.051646 -0.707212 0.187279 0.057328 -0.678736 0.644448 -1.351906 -0.978934 1.858102 2.478444 0.830051 0.543102 1.697091 0.886326 0.772415 1.055550 
giocatore 3.453504 0.461367 0.424215 0.059856 -3.597454 -1.208620 -1.055642 3.018689 2.619473 -1.398442 -2.944509 -0.274774 -0.869254 1.269188 1.194929 1.202038 2.548152 0.038446 -1.974093 0.667121 -3.654691 -1.057334 1.492220 -3.393243 -4.206772 -0.982809 -0.782400 -1.485843 0.396888 4.342191 0.746159 -4.282400 0.507706 -5.283515 -0.068250 2.713919 0.502262 1.598501 -0.939531 -1.621836 -0.154103 1.433238 -0.764983 1.433110 1.210582 -0.166776 -1.916729 0.219439 0.144041 1.275762 
“ -2.727500 -0.262409 -2.560587 0.337459 -3.599162 3.564126 1.170242 -3.478704 2.440780 -0.600824 0.103531 -2.809296 -1.003317 -1.262008 -2.358005 3.419745 0.812205 1.329964 2.242287 1.854143 0.815536 -2.260048 0.210037 1.627404 2.534683 3.042601 1.757675 -2.247919 -0.183657 -4.016691 -3.071781 1.841499 3.346428 2.947431 0.406785 -1.610224 1.330062 0.036504 0.700777 0.044967 3.638979 0.871730 -2.524988 -2.213080 -1.037481 0.176460 -0.226864 1.836923 4.314345 -1.269379 
” -1.011098 -0.057373 5.168366 3.748962 2.007077 -2.185067 -0.917832 -2.254158 -0.314744 -2.615490 -2.023985 1.315869 -2.626046 -5.467247 0.109919 0.642957 1.776237 0.399913 -2.032991 0.852659 -0.937483 -0.415266 -0.878533 -0.041643 -1.376767 -0.044955 0.831816 0.585160 0.342477 0.816140 -1.013702 2.594851 1.293384 0.684094 -3.303529 1.326885 5.325842 1.265277 -3.549656 2.317988 0.757719 1.051604 -0.248655 3.068860 -4.264495 1.543839 -1.048787 2.286327 0.264396 -6.063533 
fiume 1.138303 1.239134 -2.657277 -1.453209 3.979335 0.328686 0.924813 0.680994 -0.330223 -5.243558 -1.090752 -1.489905 2.300344 0.066028 -1.426621 0.029451 1.519443 0.744603 3.528391 -2.269327 0.511203 2.443781 0.471502 -3.112247 -0.225543 -2.126960 -3.724591 -3.464047 -1.437418 0.112796 -2.804525 3.137026 -0.201877 2.463334 0.049490 -2.686583 -1.793997 -0.185197 1.121177 1.643790 0.047182 -0.138286 -3.596449 -0.911876 -0.293639 0.669617 3.347950 -0.976185 -2.573178 -4.799761 
scuola -0.992786 -1.337073 0.460449 -3.002802 -0.540419 0.778335 1.013239 2.325053 -2.871934 -0.759517 1.732000 -0.425099 0.183603 0.098915 -1.137534 0.477109 0.342638 2.422772 -2.256557 -0.453429 -0.742346 -2.759878 0.040837 -4.021061 1.755551 -1.704456 2.323346 -0.263209 -0.329234 -2.169610 2.605452 1.913186 2.213813 -2.586369 -0.845796 -0.734372 1.270854 -0.277038 3.326336 0.964827 -0.982671 2.377292 0.070010 -0.259259 -2.557506 1.127522 -1.095940 2.714992 -0.015433 0.532909 
band -2.274929 0.113631 -0.619069 2.582000 -2.400971 -3.168162 -0.040557 -1.196707 -1.083723 5.322866 1.222319 0.830225 -0.000689 -0.145084 0.387932 -0.603270 2.547492 -0.603798 2.492180 -0.823747 -1.157896 -4.695895 1.685437 1.383814 2.621067 1.106273 0.683866 -0.077697 -0.050606 -0.252945 1.760641 -1.448141 -3.856717 1.838113 3.393272 -2.137959 1.440059 0.194818 -0.094579 -1.535406 -4.354434 1.533489 -4.039560 1.078293 -0.559903 -3.851435 -7.139086 -0.538227 -1.347046 0.946467 
partito 4.145497 0.856005 0.803436 -2.865810 -3.329620 1.985115 -3.860634 0.819167 2.090647 -4.063098 2.121953 -0.426854 0.192164 -3.452244 1.109614 -1.093101 2.812280 -0.981414 -0.585350 -1.252363 -1.008569 -2.622378 0.943612 0.714831 0.449051 0.363946 1.509632 -2.238281 -0.749814 3.050548 5.139712 2.142707 -4.034284 3.227085 0.249400 0.448657 -3.259809 -2.873631 2.905295 2.074357 3.309827 1.042154 -0.339103 0.576182 -1.842157 -4.547601 2.469319 4.075855 0.760436 -1.169450 
esercito 2.890248 1.955514 -0.952365 -0.794914 1.420959 6.732778 1.079042 1.532376 -2.252498 -2.149525 3.755820 1.361297 0.979483 -0.614158 0.143356 -1.074982 2.380697 1.982949 -1.380253 -4.422969 1.048717 2.176197 1.585879 -1.838978 -1.810546 0.210303 -3.184633 -0.381389 -1.129616 -1.229482 0.494750 -1.288963 -2.972426 -1.033297 3.536455 0.279680 -2.132764 -4.172607 -0.460721 0.140777 3.075410 1.448459 0.184483 0.186245 -1.074018 0.707662 2.205720 1.076108 1.295727 -2.459635 
santa -0.150879 -2.464586 0.085653 -2.136897 1.311079 -1.497250 2.024498 -0.994926 -1.871474 -0.448915 3.844588 -0.489744 2.327689 2.029504 0.815365 -0.267725 -3.976130 1.488719 1.070717 -1.508657 3.921671 1.667426 0.866359 -2.325011 0.348425 -0.929381 2.167225 0.458771 -3.126729 1.070187 -0.924586 1.709319 0.131843 3.994460 -1.726540 0.215775 -0.354614 2.872572 -1.270087 1.567993 0.786356 3.349374 0.228647 -1.861719 -1.004115 1.205672 0.415518 2.345212 0.589957 -1.492098 
torneo 1.852861 -4.687388 2.489898 -1.549532 -0.156393 1.131513 0.104047 4.523435 3.588234 0.338228 -0.081174 -0.191637 0.732643 4.591166 -2.055382 3.618496 -2.361354 0.014033 -1.300963 2.422684 -3.106782 -1.934127 2.431891 -1.611761 -3.110260 3.635427 0.927830 -0.159970 2.198234 6.058755 0.265108 -3.638660 -1.677839 -4.843952 0.471147 0.333834 1.475736 1.820385 0.837382 1.864836 3.010191 1.405820 -0.117528 0.500843 2.645668 -1.424651 -0.139399 -3.422680 -1.655592 -2.315407 
potere -1.992934 2.458538 -0.259415 0.735475 0.151551 2.554715 -1.820160 0.595180 0.260753 -4.229227 0.841101 1.778832 1.084206 -2.465196 -1.923828 1.238454 1.446744 1.790124 1.351006 -3.567667 -2.522848 -0.664811 -1.416440 -1.644338 -0.282840 -0.207270 1.277414 2.015193 -1.310279 1.719320 3.118328 -1.497325 0.201922 1.214218 0.227405 3.636981 -2.484505 -1.145671 -1.272035 -0.887069 3.467051 0.033454 3.330606 0.859699 -0.774741 -0.009153 1.101815 -0.758403 2.770246 2.608045 
piano -0.430997 -0.936156 1.512769 0.769172 -1.858863 1.637226 -4.103664 -1.694863 -1.739133 -0.921928 -0.117200 -0.356650 1.032004 -1.661554 -1.128989 -2.391082 0.737222 2.161005 0.036963 -1.827174 -1.514896 1.418750 -0.757512 -0.511416 -0.708955 1.317348 -1.114600 2.106092 -1.873073 0.268207 -0.161960 0.535517 0.247138 -0.476257 0.789097 -0.324556 -0.929596 0.453518 0.735774 0.570914 -1.178075 0.824107 0.813468 -0.348219 1.904100 0.750777 -0.313859 0.807301 0.560554 0.402741 
epoca 1.705633 0.912036 0.167188 -0.060094 -1.031606 1.169045 0.855894 -0.585271 -1.030658 1.922554 0.445700 0.815391 1.504352 -1.029548 0.208247 0.526294 1.487422 0.680063 1.622353 -0.813710 0.285151 -0.666299 -0.742933 -2.145280 0.742192 -0.344255 -0.364001 1.075049 -0.179206 -0.849967 -0.391961 1.219612 2.329143 1.065034 -1.996037 1.045010 -1.536520 0.146707 1.712609 -1.078713 -0.638898 2.088782 1.272815 2.443789 0.556085 2.050439 -0.560773 -0.584699 -1.020047 -0.620728 
repubblica 2.179029 2.039436 -0.668329 -3.872281 1.917327 3.439891 -0.920773 1.142680 2.176505 -0.767849 4.881323 1.046338 1.037901 -0.221860 0.080728 1.125703 2.068290 2.701000 0.404296 2.508786 -1.804141 0.528860 1.162231 0.520113 -0.299012 -1.438175 1.305543 -3.414246 -3.589311 1.959701 -1.653842 3.772728 -4.760455 2.895233 -0.764658 3.193090 -3.696185 -3.348504 3.289709 1.725260 3.036210 1.897029 3.615736 1.625151 -0.373091 -1.554343 1.758140 1.482298 1.676094 -1.505836 
terra -1.409768 -0.889171 -1.137148 0.535247 1.545418 1.394784 -1.015698 -1.021849 -0.605464 -2.031384 -0.883187 0.660943 2.089014 -0.353418 -1.785820 -0.111949 0.060142 0.122679 1.433537 -3.151002 -1.595034 1.769435 0.102261 -1.441996 -1.806757 -1.580498 -0.288261 -1.104553 -1.314419 -0.259868 -1.309375 -0.105031 0.742731 -0.412384 -1.333752 -0.110031 -1.479678 -1.415034 -2.200133 -1.145558 1.805349 1.444007 -0.360714 0.833584 2.332565 0.527242 2.536351 -1.977927 0.376176 -1.885196 
km -0.367935 0.169426 -0.782962 -5.861958 3.810371 -0.559943 0.166240 1.351225 1.518368 -0.772274 -1.154140 -1.704348 5.331686 1.100337 -1.728778 -0.380906 -0.750009 -3.255541 0.413989 -3.683500 -0.942675 2.123502 3.483553 -0.353302 -1.329610 -0.564164 -3.104786 -2.262086 -0.587210 1.369214 -3.816187 3.491618 0.976591 -1.027593 0.692791 -3.703071 0.070169 2.788357 0.178935 3.678802 -4.120282 0.612466 -0.163222 1.811930 1.443167 -0.717676 4.827961 0.803637 -1.298133 -1.382324 
figlia -2.371961 1.600010 -1.233406 0.864889 2.743494 -0.707491 -1.202085 2.648257 0.993444 0.418541 1.969716 1.741323 -2.115277 -0.389113 -2.277863 -3.265468 -2.009060 2.717698 -1.638678 -2.069027 4.238662 -0.302089 -1.391910 -1.621246 1.637616 -0.708054 0.329811 0.244878 0.273112 2.611629 1.309032 -2.257088 0.200504 0.400628 -3.620095 -1.808845 -0.819587 -2.306824 2.037152 -1.649373 2.705843 -1.037597 -0.053740 -1.774733 -1.423970 1.619036 0.494165 -2.120064 -0.240565 0.195980 
finale 0.262446 -1.867956 1.654108 -1.928335 -2.012095 -0.058828 0.887032 2.613372 3.172104 -0.611722 -1.050083 -2.010034 -0.817297 1.312375 -1.483882 1.528317 -3.438043 0.305079 -0.293800 2.574986 -2.687741 -3.180698 0.833314 -1.236358 -0.794290 4.416492 -0.541495 0.910204 -0.868031 4.163406 -2.825382 -3.964247 -1.378783 -1.719270 -0.242692 1.589496 1.735708 -0.139593 -1.192223 1.978959 0.499525 2.086216 0.042694 0.963452 2.173930 -1.045753 1.427119 -3.940901 -3.168388 -0.438114 
— -0.305386 1.079520 0.734543 -1.107470 0.882479 0.200436 1.486853 0.086963 0.875783 -0.374900 0.830304 1.316628 0.024701 -2.414524 2.613256 -0.874872 1.790272 -0.131336 -0.353047 -1.358990 -3.629112 2.504459 2.888720 2.687122 2.005861 1.516661 3.387788 -0.806080 -0.065027 -0.040400 -2.281952 -0.763595 -2.200341 -1.408376 -1.483564 -0.051670 -0.142144 -0.365310 1.561997 1.736831 -0.620636 -2.396650 -0.693966 -0.525605 0.597903 -2.338076 0.287047 -2.515354 -0.622337 3.385164 
tour -2.055444 -3.250537 1.729321 1.298048 0.624682 -2.045712 0.548961 -1.039051 1.018088 3.149805 2.612381 -0.021634 1.916191 2.907104 -1.280524 0.264550 0.328385 -3.957287 1.820058 -0.461413 1.747113 -2.240719 1.760885 1.738978 1.402926 3.215715 -1.171811 -0.638609 3.220670 4.115765 0.883232 -2.047178 -2.894935 -0.548312 3.138798 -1.297790 1.570529 0.617541 -0.100750 0.114527 -1.740949 1.508735 -1.839202 0.464873 0.379550 -3.089121 -5.325925 0.118005 -3.831707 -1.153783 
ordine 1.779714 0.116264 0.810193 0.371430 0.429165 2.694813 -0.426212 0.338848 0.067308 -0.146501 0.717887 3.235863 1.146171 0.432499 0.698797 -1.636227 -0.488945 2.901444 -0.962035 -2.604359 -0.297073 1.154892 0.741598 -0.545243 -2.894940 1.172165 1.524309 0.881227 -1.395228 -0.832177 0.739857 1.162363 1.278710 0.272868 1.486756 1.671629 -0.417435 -1.020636 -0.956511 -0.865617 0.733883 1.011840 0.668850 1.309177 -1.240341 -0.115110 2.393751 2.094853 1.561923 0.850894 
struttura 1.959963 -1.465370 -0.062149 0.434545 -1.204850 1.363650 -1.523645 -2.705862 -2.440324 -0.992048 -0.748992 -0.063068 2.238256 0.064560 0.105762 -0.378203 1.869764 2.350135 0.147192 0.605874 -3.106839 1.062145 -0.881120 -1.446721 -1.404089 1.329481 1.247874 2.099207 -0.059885 -0.280270 1.858442 2.343688 3.069037 1.338096 -0.516301 -1.733759 -1.834909 1.766074 -0.493627 1.747594 -2.159893 0.907661 0.570165 0.411214 2.325600 1.542210 0.404028 0.861319 1.271388 -0.678864 
metro 0.511273 1.496079 -0.245918 -2.316425 0.915623 -2.424624 -2.182601 -1.091659 -0.645016 0.006886 -4.824454 -0.126908 3.639544 0.993483 -0.674235 -1.256066 0.690754 0.146972 -0.064452 -2.851847 -2.642644 0.802448 2.421074 -1.178512 -3.386058 4.142109 -1.635659 0.628597 -2.498264 0.360420 -5.126365 0.878062 1.989828 -0.962113 -0.702607 -2.443115 0.638127 4.420270 1.076385 4.232151 -1.588834 0.392751 1.443789 0.618590 2.607905 0.617900 4.620755 -0.148479 -2.432238 -2.368551 
uso 1.270279 -0.495407 -1.470062 0.501847 -0.319129 1.169278 1.620057 -0.782538 -1.240050 0.659826 -2.182854 -1.369112 0.349822 0.206453 1.374655 1.131775 3.048285 2.169749 0.347887 -1.039656 -2.058095 0.493744 -2.545506 -0.910418 1.242948 0.835251 1.516618 0.807686 1.384663 -2.463706 0.822443 2.210289 2.575154 -1.224684 -0.734092 0.061033 -1.167899 -1.129646 -3.082565 -0.925924 -0.844465 1.282746 1.889674 3.322027 0.365735 0.929318 -0.369800 -0.143394 1.652150 -0.300752 
musica -2.493757 -1.230443 2.848064 0.107331 -0.434303 -1.351191 -0.235392 -2.242380 -0.360796 3.597641 0.728873 -1.230419 -0.846882 -2.715944 1.260272 3.592632 0.650505 1.629755 -1.496189 -0.902248 -0.822313 -3.122550 -1.500325 -1.964361 4.220712 0.938332 1.836985 1.095351 -0.340023 -2.761563 -0.765501 0.324164 0.060434 -1.079114 -1.386481 -0.202868 -1.396676 -0.857412 0.521129 -1.095244 -4.874321 0.022915 -0.874182 1.034995 -2.109491 -2.468044 -4.325614 1.770337 -3.374364 -0.051455 
modello 2.209095 1.869693 2.008477 2.110346 -1.763674 1.810958 0.928607 -1.991520 0.321062 1.297972 -0.198564 -1.711017 0.081903 -0.293704 0.782743 -0.790647 1.295756 0.494680 -1.896762 -1.180594 -1.045932 -0.885811 -1.835993 -0.285446 0.620619 1.928175 -0.455595 -1.858113 1.258165 -2.647348 2.279690 2.638832 0.706819 0.602413 -0.931731 -1.654296 0.304965 2.103744 0.551599 0.621997 -1.656578 0.316512 3.817252 2.530517 1.845366 2.383583 -0.461152 -0.000722 2.468781 2.073630 
vescovo -0.126664 -1.721237 0.854626 -2.586689 -1.714220 -0.484965 0.553783 2.797573 1.328442 -0.936817 2.231802 5.431130 0.041280 -0.675071 1.597430 -1.554796 -2.468137 0.585514 4.647652 -2.489304 3.674669 1.124844 2.583607 -3.382037 2.961710 -1.633910 3.237332 0.894501 -2.541509 0.668991 1.780060 -0.267721 0.987474 1.030409 0.639202 0.786195 -2.387244 1.098713 -2.595607 -0.116593 1.711162 2.521050 2.065108 -0.718836 -2.162563 0.597840 2.414109 -0.742622 2.845246 -1.307856 
strada 0.167522 0.815877 -0.507223 0.196210 1.470797 1.364741 -1.105772 0.668839 -0.342731 -1.413557 -2.246418 -2.660576 4.221783 1.197597 -1.182848 -0.201417 -0.734958 -0.677828 1.012211 -2.589561 0.873120 -0.237784 0.969130 -0.980620 -0.579953 -1.495871 -1.993496 1.517532 -1.295541 0.054921 -1.698556 3.338436 1.054653 0.583452 -0.316277 -1.970814 1.447132 -0.363225 1.002356 0.757400 -0.657698 2.889369 -1.552570 0.988585 0.773973 2.064016 -1.818606 2.456039 -1.231693 -1.551689 
classe 1.440396 0.800507 -0.570293 1.679220 -0.787568 3.692230 -0.171943 1.182271 -0.430011 1.214466 2.300688 -0.298548 1.423709 0.888471 -0.851422 1.789935 0.206478 1.692893 -2.352521 0.504048 -2.268231 -2.156317 1.728365 -2.727821 -1.344447 0.618231 1.117603 -1.767257 4.082569 0.106146 1.385883 3.465897 2.053678 -0.101307 -0.463217 -0.174699 2.765372 -0.543882 0.651222 -0.180167 1.053589 -1.640644 1.008901 1.923133 0.989814 -0.027860 4.173187 2.024630 1.586431 2.467279 
risultato 1.842145 -1.577122 0.441699 -0.280862 -3.596892 0.223888 2.145247 -0.215407 2.962115 0.525191 -1.361785 0.083001 0.006669 -1.196000 -2.329814 -0.553289 0.176527 0.286814 -1.445065 0.549109 -2.075749 -0.072921 -0.965227 -0.633153 -2.610574 1.692780 -0.789139 -0.330797 1.873062 1.123814 2.098934 -0.445874 -1.144175 -0.935001 1.615932 1.940438 0.669224 0.883971 -0.088059 1.663457 -0.803809 2.485074 0.867163 2.780871 1.369938 0.289160 1.281844 0.362727 -0.662814 0.103495 
moglie -2.910176 0.913692 -2.341663 1.596495 1.248936 -0.449271 -1.998183 1.943254 0.246282 0.542399 0.580620 1.365304 -1.951095 -0.846401 -1.929960 -3.319588 -1.610285 2.704066 -1.086241 -1.298310 5.232936 -0.596503 -0.929516 -1.478153 0.890409 -0.811288 0.021087 0.801858 0.363869 1.641888 1.333297 -1.875938 0.078486 1.038628 -2.496400 -0.758872 -0.785338 -2.489124 2.719388 -1.657158 2.477525 -0.686265 0.003719 -0.724704 -1.009808 1.454437 -0.292550 -1.101148 -0.298959 0.250934 
ricerca -0.987943 -1.135981 -0.965168 -0.827852 0.726951 1.416665 0.135660 -1.681017 -1.677401 -0.052213 -0.325056 -1.051643 1.273398 -3.593333 -2.857687 -0.611427 1.554324 -0.182612 -2.808428 1.659448 -1.901315 2.010971 -1.057939 0.263723 -0.179299 -0.662942 1.865081 -2.451579 2.225498 -1.100171 4.357074 -0.236888 3.622354 -1.169995 0.373641 0.500440 -0.349267 0.385553 1.648345 0.120566 -1.686829 3.268020 -1.267411 -0.586949 -0.593488 1.827416 -0.431737 0.317507 1.153090 -0.331054 
università -1.063672 0.247650 1.698303 -2.717517 0.138358 2.647239 2.612939 3.094557 -1.338072 -1.747536 2.734334 0.839447 -1.239080 -0.054322 -2.306078 -0.189319 -0.056702 -0.139453 -1.336820 4.576304 0.794955 0.069214 -0.599635 -2.902232 2.655472 -2.744343 3.359344 -2.713670 0.033541 -0.799608 4.351090 0.440521 1.062102 -2.865172 -0.176681 -0.413174 -1.867263 1.630438 2.253985 3.986648 -1.949276 3.594832 -1.696960 -1.215329 -2.293600 -0.533853 1.404059 1.866732 -0.892458 0.250960 
problema -0.099937 -1.367944 -0.988927 1.320310 -1.307340 1.042799 1.545878 0.478845 1.011222 0.839273 -3.319372 -1.985381 0.256558 -1.127940 -1.660087 -3.398121 1.548117 1.958066 0.304535 -0.504327 -1.637934 0.085751 -2.032372 -0.516318 -2.567379 -1.454984 0.596443 0.376408 1.669779 -0.148501 3.728635 -0.246481 0.557027 0.509225 -0.045023 0.835230 0.362516 -1.812220 0.179676 1.267528 -1.124829 1.086761 1.775651 1.280300 1.177194 0.472722 0.227758 0.482397 1.551976 0.854066 
oro 0.426378 2.611208 0.676068 -2.801796 2.163133 -0.662381 -1.624480 -0.162576 -2.195636 2.414296 -1.255376 1.226141 0.150769 3.329700 -0.798883 1.672297 -0.261003 -3.405245 -3.320612 -1.057871 2.554116 0.661414 -2.660926 -2.278560 -0.936028 0.844436 2.231132 -1.543065 1.306115 2.572075 -3.899620 -1.406611 0.057449 -0.921892 -2.127761 4.437800 -1.766091 1.332615 -1.471002 0.853554 0.808035 1.585495 0.305202 4.229681 1.371817 0.214968 1.183451 -1.306324 -1.751552 -0.396169 
sviluppo 0.662002 0.013730 1.569564 -0.217627 -0.363739 2.008148 1.827055 -2.260355 -0.127884 0.076542 1.097234 -3.819204 1.255458 -2.648692 -0.771682 -0.667197 3.146071 -0.390399 -0.106792 -0.635005 -4.686710 1.016498 -2.232313 0.375111 -0.589072 -0.332570 0.567759 -0.384072 0.561741 -0.328354 5.614064 2.410142 1.954814 -0.323590 0.386427 -0.066498 -0.384171 1.809413 1.664756 0.749172 -0.592497 2.152427 2.494576 0.549179 2.187973 2.433489 -0.566316 0.722491 -0.252654 -2.279536 
diritto -0.325012 2.779014 2.265862 -1.046688 -0.825529 0.454166 -0.765677 1.438089 3.984060 1.262742 -0.324370 0.625709 0.077419 0.961269 0.791905 -0.113366 -0.907268 1.630340 2.251907 0.964614 -2.293274 1.143225 -2.003603 -0.384516 0.930501 -1.566166 3.266446 -0.159604 -1.049951 -1.500201 5.335055 -1.157019 1.998503 -0.398898 -1.141555 3.565602 -2.322246 -3.006973 -1.270327 2.034840 3.795954 1.162247 -0.742584 2.317274 0.131012 0.517201 1.366602 3.151787 2.061620 -1.098743 
scena -0.784372 -1.249316 1.115271 1.774728 -2.634913 -3.973805 -2.754576 -1.086262 -0.967623 0.200328 -0.445444 -2.239679 1.268774 -0.506400 0.804140 1.189610 -1.098481 1.138472 -1.131961 -1.432455 2.562795 -2.962720 -0.780839 -0.804377 0.613206 1.661327 -2.421855 2.358565 -1.917223 -1.173777 -1.623669 1.966775 0.254204 -0.003090 1.188166 1.914952 0.030740 -1.858706 2.202901 -2.556686 -1.355874 -1.958205 0.267634 0.335826 -1.457565 0.656786 -2.614799 -1.188229 -1.528867 1.250553 
nave 1.194296 1.780215 -1.761366 3.156809 1.548247 3.000641 -0.581256 -0.142259 -4.758509 -0.418722 1.600630 -3.245926 1.098629 -0.520462 -0.493889 -1.427187 0.780708 2.184416 -0.341280 -1.689928 1.855583 2.066950 6.144095 -0.367218 -3.597972 1.717672 -1.680745 -2.989992 1.581292 0.758223 -1.274336 1.740337 2.121298 -0.218818 1.017782 -0.258633 -0.492116 -3.306955 -2.572629 -1.834224 -2.158255 1.513650 0.208240 0.294206 2.079536 -0.950650 6.582454 -2.999783 1.974638 -0.679985 
stazione 0.017573 1.836168 0.160553 -0.843461 1.345508 0.591049 -1.449121 0.706905 -1.247899 -2.073302 -0.362002 -1.433861 4.780712 1.216482 0.870448 -1.820144 -0.346566 0.496668 0.812086 -0.163240 0.691485 1.543394 1.892216 2.773643 1.597393 0.156031 -2.331468 1.684677 0.395617 1.945450 -1.220860 4.328303 2.658140 -1.837663 0.545878 -5.442657 -1.456291 0.707745 -0.106435 0.484863 -3.446874 4.266455 0.606436 -1.776914 1.566830 0.435207 1.156910 1.251669 -0.411049 -0.067660 
colore 1.748562 2.272612 1.658636 -2.021297 -2.251411 -2.798920 -1.044548 -3.013443 -0.395012 -2.134620 -2.212827 0.030219 0.819638 2.142272 -0.020602 -0.023418 1.144658 0.834709 -4.025192 -0.102866 -2.424464 -1.818489 -1.739890 -0.555038 -1.083455 -0.791500 0.564940 -0.304357 3.056000 0.001325 -3.632078 2.449626 0.642689 0.687814 -1.275242 0.238498 -2.411039 -0.676103 -2.938560 -1.859907 0.037590 -1.946502 1.608524 1.847070 0.158722 0.761140 -1.921714 -1.841596 1.849871 0.266791 
disco -1.939003 1.450655 0.103073 2.093246 -0.389191 -1.444139 0.581281 -2.639884 0.209599 5.973762 -2.373788 0.932125 0.648929 1.542004 1.536747 -0.333837 1.776964 -2.144102 -1.427811 0.348268 -0.762645 -1.343137 -2.335891 1.801218 0.329188 2.696258 1.702160 -0.558729 -0.749777 0.333707 -1.718549 -2.541281 -4.369322 2.261432 0.942500 -1.564217 -0.235344 1.939100 -0.768344 0.024155 -6.431562 1.164556 -1.216283 3.716728 0.479283 -3.546072 -3.572934 -0.335082 -0.596762 0.272683 
mano -0.910507 -1.014472 -1.721367 -0.561839 -0.533689 -0.650763 -1.527914 -0.743835 -0.741138 -4.122441 -1.582574 0.616492 -0.077899 -0.384978 -0.095725 -1.214794 2.434694 0.379768 0.509635 -1.994733 1.320444 -1.675684 -0.567318 -1.939224 -0.250224 1.111084 -0.447013 1.640293 -2.076279 -0.037965 -1.467565 -1.585079 -0.343318 -2.098037 -1.141140 1.598386 -1.044515 -1.498498 -1.763805 -1.107057 2.416412 0.882471 0.360275 3.040692 0.584053 0.831217 -0.197368 -1.198840 3.021146 0.284614 
era 0.181220 0.933660 -0.022489 0.343903 0.058731 1.017202 0.952197 0.272816 -0.139290 0.030337 0.198286 0.300040 -0.073531 -0.188967 -0.526935 -1.146790 1.784402 1.186995 -0.012454 -2.406419 -0.459449 -1.388681 -0.202273 -1.476212 -0.894410 0.444518 -0.447749 -0.404743 -0.141273 -0.107586 0.105139 -0.551120 1.206527 0.399521 -1.403197 -0.419969 -0.751703 -0.509129 0.678273 -0.897634 1.133211 0.931950 0.019669 1.460873 0.768925 0.784282 0.900291 -0.760990 0.253544 0.762254 
comunità 0.455898 -2.354596 -1.069514 -1.091196 -0.401676 -0.140479 -0.484493 1.838773 1.223532 0.054595 2.166795 1.127847 4.636581 -1.324243 0.624032 1.106697 0.254229 1.155223 1.960295 -1.832914 -3.066162 2.235341 1.190611 -1.116694 1.378394 -2.090601 1.357213 -1.832037 -0.350949 -0.755927 4.574992 1.931091 1.535167 1.799515 -2.609764 -0.545844 -1.051958 -1.320159 1.039127 1.510120 2.129903 1.099536 0.345907 -0.189080 -0.513145 -1.597400 -1.185411 1.554454 1.284111 -0.802214 
nazionale 4.278074 -1.221377 0.917844 -6.617930 -3.720898 -0.595812 0.767123 -0.322964 -0.357243 -1.201974 1.832168 1.299903 -1.193483 2.215477 0.692048 2.578609 0.103245 1.106550 -3.031006 2.108985 0.158444 0.767238 1.343218 1.900435 -2.369690 0.249418 -1.538883 -2.316123 -1.506665 4.014421 2.793511 -0.818239 -0.939221 -2.433529 -1.264671 1.887462 -1.215765 -2.221653 2.882132 4.080819 0.815758 3.107334 0.137670 -1.224761 0.206594 -1.219952 -0.087601 2.773693 -0.491158 -1.882571 
metà 1.010270 0.586248 2.646280 -0.282869 -0.617341 -0.510841 1.646606 0.037319 -0.478120 1.288811 1.698879 0.019230 1.227460 -0.089762 -0.051489 -2.401128 0.611824 -2.925251 1.358786 -0.240767 -0.809198 -1.745164 0.072633 -3.322837 -2.466697 0.414174 -2.361989 1.869517 -2.965573 -1.751273 -0.027104 3.624945 0.432221 -0.042069 -1.762055 0.725537 -0.341198 0.884209 -0.695004 -0.993376 -0.501729 2.567802 1.090242 2.295001 1.259940 0.396108 -0.401920 -1.290565 -1.565035 -1.608745 
calcio 3.124945 -0.429528 1.097718 -4.739567 -0.951644 0.426123 1.074789 2.048225 1.444072 -0.685186 -1.949768 -1.364158 -0.838363 3.257885 1.535412 5.141104 1.159348 1.880306 -1.867413 1.118313 -1.711936 -2.087208 2.073937 -0.956753 -4.202892 -1.335421 -0.592665 0.678295 0.165660 2.894585 1.348128 -0.611046 -0.941371 -1.615416 -1.980018 2.893723 0.617334 1.783602 0.467558 3.659368 -0.160687 1.383323 0.341025 -0.259133 2.410180 -0.464015 -2.751094 -0.683188 -0.109617 -1.085707 
programma 1.164255 -2.137100 1.510309 1.951407 -0.477130 -1.761385 1.547191 0.389680 2.266906 2.530832 0.850312 -3.611524 1.966718 -0.600630 0.135990 -0.270166 1.991999 1.025309 -1.487756 1.841285 -2.197744 0.166923 -0.987326 2.428244 -0.218662 1.513749 0.460552 -1.831314 -0.601924 0.500157 2.119657 1.007527 0.724107 -3.208843 1.161244 1.057844 0.600009 -0.527832 1.315086 -0.836301 -2.469318 0.644513 1.921747 -2.277001 -0.532466 -2.038142 -0.392850 3.155046 1.385591 0.011573 
fase 1.624796 -3.253310 0.305372 -1.748240 -2.664153 1.172886 2.616936 -1.372900 0.491588 0.941107 -0.231565 -1.173530 -0.438395 -0.984254 -0.318935 -0.055696 1.380859 0.248048 -1.101636 -0.235699 -3.751361 -0.001474 -0.966036 0.054802 -2.991686 2.255843 -1.387918 1.115616 -1.108111 2.588133 2.487978 2.937327 0.040123 0.826553 3.152372 0.615168 0.489994 -0.907933 0.613490 0.250709 -2.432572 2.143009 0.144382 1.442566 3.665226 0.963619 1.218431 -0.852825 -0.210938 -0.077263 
classifica 1.561118 -0.992362 0.558661 2.399728 0.107398 3.365248 3.158916 -1.178066 5.793550 2.290081 -2.787045 3.626447 3.874030 3.400576 -0.479643 -3.467611 0.326760 -3.930247 -1.443982 2.216690 -1.418471 -1.690239 -0.984470 0.198312 -1.508604 5.090031 -0.059256 0.158934 3.408095 3.371186 -3.325495 -3.466646 -5.767475 0.493426 1.047436 1.192590 4.294973 3.045478 0.568113 2.150137 0.855324 3.927958 -1.023442 1.475069 -1.512334 -3.077824 -0.166932 0.944050 -5.749813 0.557170 
chitarra -0.582550 -0.877590 -2.210267 -0.402704 -1.638762 -0.269525 -0.556010 -0.681843 -1.074063 2.563984 0.947225 -0.403177 -3.255488 -0.925238 0.667354 -1.335559 1.061455 -0.725360 0.864141 -3.249652 -2.588985 -1.927801 -0.866214 -0.489982 4.333596 2.434441 0.465307 0.718963 -0.478330 -0.603383 -1.547549 -1.428671 0.911275 -1.005716 0.188990 -1.995751 1.672691 0.829874 -2.477445 0.350081 -4.385550 -1.080507 -0.987623 -0.591371 0.324967 -3.524245 -6.601223 -2.671190 0.810745 1.810789 
attore 0.120480 2.836726 0.565473 0.134781 -1.252875 -3.540806 -2.091516 1.300894 0.956876 2.436148 0.409281 -2.829561 0.244599 -2.636837 0.091449 1.251588 -1.715095 1.216010 -2.149047 -0.602450 4.029995 -3.311674 -2.851815 -2.111688 1.479207 0.713002 -2.722828 0.061082 0.927280 -1.477639 1.739831 -0.055442 -0.184833 -3.405198 1.210554 2.349075 1.395424 1.381072 2.930270 -2.926483 0.173401 -3.267467 -1.049315 -2.081240 0.217504 -1.242638 -1.811580 -1.877476 -1.181122 -1.045500 
costruzione 1.046722 -0.686258 0.775943 0.869087 0.528699 2.061823 -0.547296 -1.761613 -3.218230 0.495132 0.589173 -2.950042 1.709653 -1.509416 0.214049 -2.560611 0.765761 2.167850 1.201606 0.056526 -0.935459 1.226936 1.191049 -1.074350 0.414227 0.132538 -0.371226 1.762321 -2.873374 0.438149 0.902048 3.360310 4.512837 0.668859 0.269688 -2.479192 -1.854253 1.990373 0.374604 3.104666 0.157215 4.223131 1.044002 1.567290 3.863466 3.841985 1.354057 -0.179326 -0.114156 -2.252463 
uno 0.736033 0.110278 -0.294840 -0.374432 -0.424751 0.109196 -1.390768 -0.936432 0.272185 -0.235781 -1.901050 -0.146687 1.183915 -0.454585 -0.020244 0.507678 0.045115 1.206634 -0.063401 0.257010 0.075956 -1.754967 0.000178 -0.232285 -1.455543 1.673847 -0.888306 0.479307 -0.827761 -0.837407 0.847377 -0.400685 0.485565 -0.680395 -0.659826 0.289000 0.040261 0.442312 0.852533 -2.047328 0.070474 1.577930 -1.241063 0.856165 0.199574 0.855560 0.266834 0.945740 0.096062 2.065018 
autore 1.054868 -1.243111 1.767259 -0.116142 -0.750390 -0.215412 -0.056877 -0.774218 1.677789 2.193529 -1.975588 0.977600 -0.108829 -3.255856 1.949061 1.076354 -2.813682 0.362625 1.572651 2.480021 1.001120 -2.331756 -1.308902 -0.441529 1.302796 -0.027499 0.962676 -0.845415 0.557954 -4.082778 0.709843 -1.914275 1.952587 0.358719 -0.577804 1.562765 -1.623623 -1.787976 2.670935 -2.152885 -1.998275 -1.055739 -0.658504 2.112934 -0.829000 0.178932 -1.201505 0.255345 0.032731 -0.657163 
palazzo -0.712960 0.844116 2.306918 -0.686262 -2.047606 2.480746 -2.956649 -2.137061 -3.769314 -1.517986 1.095375 0.811798 0.152920 1.238264 -0.776358 -0.186436 -1.344567 3.375839 0.770648 0.807101 3.331727 1.827320 1.540691 -2.532427 -0.335139 0.737240 1.797792 1.781228 -5.863863 2.183163 -1.105090 2.509354 0.916708 1.936980 -2.241844 -1.154369 -2.379825 0.901927 1.472068 0.160823 1.668680 3.094449 3.363796 -0.277065 -1.280969 3.452811 -0.179594 2.056838 -1.288761 -1.674447 
unità 2.117243 1.176136 -0.023137 -0.085446 1.698848 4.044921 -0.550704 1.030938 -1.493287 -0.402698 3.600236 -1.438087 1.464984 -0.861776 1.994156 -0.581395 1.860605 0.984956 -2.955243 -1.677737 -3.089723 2.337787 1.563883 0.044613 -2.583921 1.803911 -2.376683 -0.682487 1.472167 -1.416024 0.895337 2.549204 0.558704 1.412113 2.034449 -0.183473 -0.592255 -0.898298 -2.580012 0.829826 -1.020349 0.316394 1.161483 1.873594 -0.059947 -0.358012 3.438199 1.980577 1.765850 -0.807190 
stile 1.505450 -0.465587 1.303535 -0.101144 -3.956890 -0.838523 0.043999 -2.287940 -3.296338 1.157340 -1.041140 -0.465849 0.586179 -0.729540 0.751162 0.649441 -0.139310 0.897298 1.465714 -2.523399 -2.699125 -3.591357 -0.670310 -2.597169 2.620078 1.326905 3.020820 2.675852 -0.015036 -1.636437 -1.725796 0.489503 1.225029 1.238383 -1.062614 -0.709939 -0.429148 0.323006 2.356484 -1.641349 -2.503935 0.254753 1.639617 2.466128 0.289648 2.209171 -2.028875 -0.077913 -1.916168 0.125644 
motore 2.099164 0.013501 0.486762 2.604408 1.097881 2.665886 0.406769 -1.684559 -0.092187 0.470637 -3.648557 -3.448292 -2.080626 1.760667 0.282710 -3.126656 1.030098 -0.825699 -1.764749 -2.048124 -3.262318 -2.589501 -0.655657 0.804094 -1.475194 2.776038 -3.205901 -5.939409 -0.109209 -0.377700 4.531886 1.363008 -0.370155 2.252656 -1.136662 -4.342578 1.700310 0.507655 -1.520820 1.126340 -2.626938 0.467507 4.934471 1.830750 3.107964 0.528823 2.537066 0.268533 1.379843 2.300874 
effetto -1.316825 -0.143687 -1.653820 0.276635 -1.877468 -0.000619 -0.410224 -2.326119 0.580617 0.211109 -2.698204 -1.329149 0.030085 -1.485056 -0.976581 0.561393 1.723893 1.304973 -0.350410 -1.239315 -1.306636 0.035026 -3.041499 -0.442154 -1.539589 -1.048280 0.005044 1.462418 1.068838 -0.877391 1.998356 0.992931 1.033070 -0.291600 2.347798 0.582375 -1.811024 0.382476 -2.074632 -0.722039 -1.581249 -1.438338 2.047891 1.185516 -0.298790 0.014781 0.309435 -0.966224 0.501824 0.495675 
movimento 1.759893 -1.205134 1.080259 -1.817860 -1.658116 0.532309 -2.073285 -2.836166 0.458991 -1.723350 0.233358 -1.209615 0.775210 -3.108564 0.210429 1.462515 3.446230 -1.125179 0.165106 -3.413740 -2.185796 -3.843967 -1.131018 -0.185664 -0.619978 0.644733 0.836283 1.197890 -0.703739 -1.051079 2.636272 1.791690 -0.920818 -0.108851 0.118701 -0.731588 -2.816770 -2.596293 0.268935 0.892883 -0.784945 0.759099 -0.342261 0.959154 -1.294045 -2.863599 0.591860 1.996728 2.029749 -0.118438 
divisione 4.551824 -0.669607 0.997152 -0.977232 0.957418 5.752519 1.146962 1.910150 1.879435 -1.151667 2.791184 0.832395 0.400735 2.835056 -1.091014 -0.652341 0.791045 2.199587 -3.436301 -0.952613 -3.033078 -0.004351 4.262583 -0.038418 -2.243604 0.200296 -3.339225 0.393654 0.933267 0.584617 0.112229 0.164457 -1.468125 1.494999 3.261190 1.217293 -0.581793 -0.389180 0.232887 3.346010 0.117005 0.044693 -2.825197 -1.476042 2.054320 -0.057819 0.285456 0.911529 1.911807 -2.156275 
legge -1.127231 3.073799 2.312329 -0.353981 -0.057282 0.855786 -1.557637 2.493119 2.953484 0.407718 -0.804670 1.383423 -1.153537 -2.139860 0.339216 -0.171679 -0.128271 2.379505 1.332545 0.287377 -1.765450 2.755911 -2.148502 -0.015429 0.910393 -1.140316 2.360374 -0.769885 -1.230121 -2.442379 3.960627 3.059584 2.072755 0.607036 1.558897 1.464874 -3.204156 -3.770478 -1.816712 4.138083 3.081953 0.255310 1.050939 0.824437 -0.868221 0.438904 2.203414 2.978338 2.537236 1.443553 
formazione 1.862560 -0.862213 0.180211 -2.182247 -0.796091 0.123253 1.289460 -2.025973 -1.152100 0.510047 1.071595 1.240445 0.040812 -0.643472 -1.227073 -0.542952 2.429251 0.411932 -1.070694 -0.397451 -3.101126 -2.112840 0.612735 -1.253964 -1.393327 -1.097389 -0.622929 -0.015749 0.533080 1.337572 3.320723 0.821115 0.277610 0.655362 1.824256 0.802934 0.432919 0.469347 -0.874412 1.491675 -2.003496 1.514158 -2.543130 -0.197315 0.705604 -1.499295 -0.997270 0.441338 -0.701228 -0.636740 
bambino -3.082090 -1.529757 -1.298609 -0.111374 -1.041674 -3.537617 0.004533 1.678504 -1.733980 -0.121367 -0.565160 -1.076111 0.862118 0.669391 -0.453128 -0.341693 -0.418818 0.567904 -2.226209 -1.404235 0.965751 -0.785460 -3.636853 -1.745055 -2.007555 -0.168544 0.424228 0.356713 -1.011045 -2.109696 1.651875 -0.094123 2.476077 -1.041780 -2.910982 -1.368660 0.362579 -2.207198 2.523686 -1.215431 2.809963 0.229860 0.402951 -0.350206 -2.111445 1.763671 -2.484355 0.013383 1.011035 0.581505 
papa -1.847739 -0.829116 2.323540 -1.900646 -1.420837 -0.648084 -0.102579 0.121729 1.542841 0.481550 2.378881 4.005362 0.331450 -0.319104 1.907394 -1.129194 -1.360268 2.190633 5.557446 -2.011495 4.400422 -0.095489 -0.205178 -1.718886 0.664795 -1.677245 2.359502 -0.183002 -3.209720 1.504961 1.604368 -0.924437 -0.917243 3.996247 1.653153 2.137345 -1.348937 -0.706798 -3.220906 -1.835434 0.982296 3.798475 2.291410 -0.944551 -3.133212 1.115252 3.557559 0.592863 4.230826 -0.981036 
