5154 50
year -1.749069 0.144693 -2.122885 0.973648 0.467606 -0.027646 0.230297 -0.784270 1.083443 0.684854 -0.081035 -0.164783 -2.068768 -0.524770 1.858677 1.377626 0.240781 -0.651248 -0.640463 1.328449 -1.925781 -0.695133 1.318751 0.707271 -0.432089 1.907817 2.827577 -0.360430 0.460950 1.109653 2.149399 0.242742 1.550311 -0.766543 0.227190 -1.024695 0.094316 -0.419403 2.151630 -2.382748 -0.375575 0.565262 1.771164 -0.368484 0.753488 1.346008 -1.008246 -0.597936 -2.142466 -1.591222 
time -1.088239 -0.250051 -0.364974 0.457770 0.015129 -0.745615 0.998827 -0.534948 0.335510 0.926761 -0.223957 0.362954 -1.274963 -1.262182 0.349612 1.392402 0.501491 0.092428 0.899370 0.470533 -1.065041 -0.927085 -0.874958 1.115914 -0.469661 0.177915 2.038957 -0.222244 0.843069 -0.794481 0.553821 0.969034 1.094671 -0.922304 0.119843 0.571985 0.310736 -0.708774 -0.144079 -0.694088 -0.799668 -0.293122 0.954655 -0.642901 1.907683 -0.037142 -0.332987 -0.991124 -0.950402 -0.865037 
city 0.534318 -2.710582 -0.004894 -0.950215 0.086741 -1.065822 -1.213935 -1.570167 -0.453799 -1.065950 -3.836375 0.406484 0.424322 1.103683 -1.208392 -0.443954 2.789571 1.921268 0.919821 0.941316 -1.281882 -3.329874 -1.254743 1.015760 0.534845 -0.330022 0.109719 -1.552523 -1.853098 1.151429 -0.514949 0.453305 -0.608702 -0.976280 -2.634517 0.217723 1.077223 1.200901 2.511019 -0.187327 -0.442607 1.723809 4.370035 2.835076 -3.149161 1.786209 -1.767068 0.921894 -0.924248 -3.400860 
area 1.752741 -2.121809 2.002161 -0.128155 -1.705040 0.331457 -1.413941 -0.023115 -0.639433 1.029036 0.640471 0.107377 0.119418 0.888460 -0.833478 0.376284 2.625490 1.800662 0.106836 0.615601 0.555026 -3.706672 -0.781336 1.318434 0.681028 -0.825619 -0.406391 -2.498375 0.609901 1.662803 -0.571696 0.043172 -0.545642 0.679858 -2.134925 0.032346 -1.076266 0.358624 2.741877 -1.552914 -0.079832 0.167181 2.034523 2.257034 -4.928195 3.339440 0.666310 0.652175 1.601972 -0.720234 
part 0.363438 -1.730257 1.342325 -1.153840 0.412757 0.336755 -1.037937 0.634086 0.461045 -0.650226 0.278789 -1.214618 -1.781620 1.505053 -0.029863 -1.539571 2.247159 0.125591 -0.232207 -0.058011 -0.911326 -0.904399 0.064094 0.955565 0.110383 0.793940 0.156093 -0.190141 0.454627 -0.080858 -1.263979 0.227294 0.225613 0.902373 -1.248565 1.134506 0.059302 1.951535 0.015735 -1.768743 -0.375943 0.256867 0.502694 1.521144 -1.166202 0.802549 0.010184 0.867443 -0.102278 -0.085529 
population -0.831197 -2.694327 2.553888 1.861399 -0.749579 -0.222626 -1.926214 -0.957521 0.775105 -3.942726 0.769557 -2.272006 2.644459 -0.793804 -2.265981 -0.031665 2.717704 1.687495 0.924860 1.614372 -0.210868 -4.244387 4.174029 2.904208 1.486464 -0.181335 -0.833564 -4.080357 1.421538 2.063994 1.191562 -0.011077 0.628829 0.252504 -1.163645 -1.393395 -0.771995 -2.281555 4.665354 -4.941005 -0.222131 -0.360285 4.230990 2.327132 -2.652068 1.766838 3.929279 -2.262523 1.066601 -4.808095 
people -1.208681 -2.925932 -0.242281 -1.320789 -0.646796 -0.364434 0.468138 -0.662324 1.452694 -0.553286 -0.269580 -1.981851 0.431088 0.491009 -1.822078 1.192857 -0.344112 1.234046 2.118922 0.722709 -0.552115 -4.796564 2.418537 -1.511135 1.776232 -1.653456 1.376024 -0.949847 1.494563 3.140246 -1.280551 -0.724362 -1.562895 -0.253863 -0.500466 -1.279608 -0.604012 -2.366217 1.864310 -0.378443 -0.582631 -0.412784 2.482011 0.960741 0.608720 -1.606960 0.441416 -0.424352 1.030680 -1.315065 
name -2.449606 -1.339447 -1.161691 -0.824319 -0.015715 2.584595 -2.291020 -0.878763 -3.114107 -1.716473 -0.809016 0.940765 -1.706354 0.649696 -0.691957 -1.384773 0.644128 2.918293 -0.571242 -0.070918 1.628910 2.316651 1.128228 1.664797 1.474410 -0.441911 0.185591 1.429699 3.388435 1.273797 -1.592312 1.555855 -1.657388 0.318928 -0.672494 -1.445544 0.564814 0.852808 -1.532519 -0.546102 0.403309 -0.126659 1.643082 -0.182022 -0.773321 -3.140184 -4.716417 -2.350550 -1.386426 1.840396 
number -1.501396 0.115739 0.006383 0.464823 -1.879286 -2.244676 0.762537 -1.126467 1.082237 -1.785707 1.954569 -0.776411 -0.090890 -0.651460 -1.520496 1.488455 -0.092874 2.245281 -0.161963 -1.053228 0.548352 1.538898 0.794584 0.011020 -1.418649 -0.124544 -0.720242 0.406603 1.021401 1.070009 -0.795276 0.870681 0.424801 -2.033276 0.725381 0.525011 -2.685232 -1.716945 1.334681 -0.708866 0.596771 -0.325950 0.729294 -1.052659 0.024511 1.610915 -0.507517 0.224818 -1.265805 -2.473623 
system 0.181682 4.585848 3.013173 -0.823469 1.173116 1.413796 1.208912 1.965101 -0.321289 1.055920 -0.942765 1.199782 -0.576466 1.954365 0.171894 1.423380 -1.590512 4.018958 -2.342566 0.332613 0.201256 -1.094132 -0.020024 -0.737331 -0.013549 0.066149 -1.542131 0.971911 -0.879704 -2.644875 -0.140026 -0.690852 2.221324 -0.486080 -0.804762 3.282950 -2.326692 -1.374967 -1.337197 -1.974486 1.917321 -0.789863 -0.071615 1.220257 -2.064836 0.337954 1.335136 -1.024346 1.847016 -1.002218 
town 0.779384 -2.920708 -0.302582 0.167840 -0.054844 -0.956936 -2.577365 -1.181153 -0.369566 -1.453568 -2.386648 2.067743 -0.147452 0.549881 -0.589159 0.073667 3.482870 0.756211 1.168801 0.197382 -0.593867 -3.768311 -1.215495 2.355515 1.098983 -1.407454 -0.242087 -0.958743 -2.376863 3.020148 -2.193891 1.495182 -0.852930 -1.187603 -4.083262 -0.572095 3.174226 1.640756 2.200668 -0.615215 0.391468 -0.411184 4.072416 2.588357 -2.937212 1.596274 -1.242414 -0.084350 -2.000873 -1.283331 
film 3.532024 -3.712441 -1.531699 1.258711 1.123695 -1.216690 -1.916451 0.889880 -1.450856 2.803146 1.779817 -2.002419 -2.396298 2.443113 0.367327 -0.519975 -2.085657 -1.504456 0.309766 -5.551190 -4.021931 5.011815 1.037403 -2.114931 -1.009965 1.029035 4.262545 4.750816 -2.253318 1.412027 1.663630 1.392077 0.803220 -0.559115 -0.639818 -1.675043 2.270561 -0.663813 -0.595152 1.830702 1.066689 0.601258 2.843229 -1.430399 4.297351 -0.128449 3.056472 -0.566906 0.098748 3.351769 
game -2.950549 0.095508 2.622518 1.271398 -3.369578 0.129202 0.952124 1.002310 0.910465 3.620508 -0.257841 -0.631018 -4.454746 1.068591 -1.939335 -1.445711 -1.475265 -0.687332 4.171085 0.434998 -2.389796 5.251381 -2.597517 1.809747 -3.163835 -0.239751 1.583656 -1.062506 -0.737648 -3.954032 0.102701 -1.335360 4.562013 -4.309092 -0.593790 -0.612663 -1.375956 -3.123184 1.815025 2.130098 2.585173 1.883843 1.487836 -1.194682 0.482701 -2.058682 1.433925 0.405113 0.744960 3.440137 
state 1.490448 -1.762379 1.822811 0.383248 1.585183 0.893832 -1.456548 1.809752 0.552406 -0.846451 -4.851837 -1.686683 0.456484 1.280435 0.041360 1.899326 1.695130 0.646182 -1.132907 0.461604 0.423535 -3.038849 1.998284 0.361949 -0.812796 0.661905 -0.916720 0.009982 0.770762 -1.253006 -0.990015 -1.341129 -0.277754 3.287677 -1.179442 1.395666 -1.329363 -0.489357 1.726757 0.718143 -1.658350 -0.261099 -0.909084 1.372355 0.062851 0.946696 -1.087801 -1.317940 -0.495573 -3.350477 
century -0.297697 -2.326547 0.485795 -0.072538 3.587683 2.237358 -0.416602 -3.128834 1.776603 -2.279327 1.298182 1.176496 1.036868 1.357737 -2.756162 -1.908634 1.664155 -1.081664 -0.203729 -0.398646 1.171838 -1.981111 -1.560526 4.301688 3.259452 0.659746 1.061354 -1.766626 1.575313 0.158046 -2.450832 4.419870 0.883876 -1.251973 -3.118696 0.987978 -1.306184 5.210337 1.099427 -1.182245 -0.502096 -2.945101 4.285147 -0.959264 0.016937 1.130121 -1.448786 -1.387451 -1.922793 -2.148498 
team -2.583545 1.140909 1.168157 2.393893 -1.498884 -2.075935 1.040189 -0.244677 -0.569823 1.795563 0.019839 0.067429 -2.176001 1.711340 2.082782 -1.634134 0.553192 -2.787284 2.606527 4.942319 -1.645371 4.803955 0.577265 2.848903 -5.054997 -3.503918 2.136128 -1.006939 -0.227102 -3.101075 0.298676 -1.467427 -0.006156 -0.080037 1.084666 -0.115295 -0.292743 -2.927304 0.252608 -0.639396 0.004825 1.201243 -0.950786 1.446308 -0.521267 0.920915 -1.083173 2.231727 -3.079287 1.351516 
family -1.974447 -0.774915 -0.642490 -1.274624 2.172619 2.502636 0.598225 0.344684 0.365563 -1.464208 0.426644 1.210309 1.420734 -2.283022 1.254747 -1.430534 1.617323 0.429043 2.286574 1.905169 -0.080032 -0.966971 2.301453 0.399648 0.613342 0.825818 -1.426638 3.340618 0.213928 1.984653 0.386833 -2.624395 -2.367172 -0.125917 -1.053924 -2.964888 1.678365 -0.238967 4.924436 -2.885154 -2.922851 -1.854282 2.421357 0.215472 -0.018061 -2.289600 -1.611210 -0.183825 -0.493347 0.646103 
group -2.390053 -2.634594 1.032163 -0.837828 -0.973166 0.810746 1.196524 1.361040 0.512407 -2.225899 3.066264 -2.053595 0.328017 -0.202236 0.306441 -0.964106 0.272884 0.750392 0.294765 1.120310 -1.891178 1.661102 4.134119 0.034384 -2.327871 -3.099970 -0.339660 -1.125813 2.344448 0.990634 -0.113918 -2.960523 -2.629555 -0.972226 0.494674 -0.057751 0.356234 0.756282 0.788411 -0.679687 0.223105 -1.820342 -2.215649 -1.877348 -0.353320 0.447239 0.244761 2.735879 0.368205 -1.454429 
day -2.585057 -0.035233 -3.581959 -0.688759 -2.101143 -3.350881 1.552253 0.663537 -0.511924 0.335402 -1.697879 -0.113127 -1.917199 -2.080064 1.270093 2.833161 1.412171 -0.360522 0.489802 0.612022 -1.786381 -2.900399 -0.118119 0.517300 0.411922 -0.581584 3.060611 -1.595016 0.184954 1.187549 0.556079 -0.112671 1.786079 -0.595365 2.099641 -0.354927 2.307946 -0.017902 0.250604 -0.702077 -1.392740 -0.047508 0.650268 -0.231842 1.065416 0.649087 -1.531896 -1.790191 0.704917 1.111311 
member -0.982413 -0.723700 -0.119761 -0.009457 1.584265 0.476449 0.611776 2.393743 0.040623 -0.691211 0.023750 -1.417948 -0.748335 -1.804152 -0.337906 -1.151614 -0.633156 0.000166 0.767751 2.172897 -3.135602 1.170025 4.551763 -2.481923 -4.242629 -2.152246 -0.431140 0.972728 0.379824 0.205220 -0.005404 -3.459168 -1.804417 2.193429 1.701000 0.609004 1.103783 0.199121 3.157062 -1.893727 -0.990915 -2.517326 -0.878675 -0.849255 -0.353008 -0.093727 -2.065542 0.446348 -1.700369 0.158181 
government 1.406975 0.000335 -1.588606 -2.052573 1.421448 -0.516623 -3.625473 2.502127 1.948111 -0.088106 -5.296738 -1.360913 -0.922565 1.336504 -2.366858 1.748143 -0.349950 1.107300 -2.948645 2.449939 -1.794458 -2.717769 2.811162 -0.581071 -0.793938 -2.352350 -1.209500 -0.289380 -1.567017 -0.849490 0.722611 -2.507962 -1.891127 4.311307 -0.156574 2.410331 -3.024209 1.407423 2.581761 0.373417 -1.595321 -1.685254 1.098484 1.189242 1.842580 2.459882 -0.373702 1.292978 0.136872 -3.273646 
school -4.527028 2.007794 1.632337 -0.063562 3.033060 0.190954 0.689438 2.260669 -1.026088 1.384607 -0.731083 -0.858494 -0.526769 0.619879 2.917096 -0.012819 1.125045 -2.836775 1.555002 1.102249 0.453623 -0.208068 1.494749 -2.249403 0.721073 0.218564 2.744722 0.763339 -4.021112 3.929234 0.289296 -4.804307 2.385421 0.775746 -2.595674 0.528637 -1.433420 0.249770 -0.228073 -0.727098 0.431402 -0.593706 4.117240 -0.908089 -2.861936 1.659791 -2.999532 -1.000337 -2.928856 -2.704825 
season -1.448033 -0.341644 -0.900786 3.027114 -0.920093 -0.281530 2.559968 0.851140 1.625188 2.535514 0.331376 -1.865663 -3.955792 -0.466369 4.502100 0.007240 0.764320 -2.792025 -0.621125 1.370964 -0.231238 2.832921 -0.608253 7.294257 -4.243579 -2.932116 2.257863 -1.137039 -0.429888 -1.420096 2.602843 1.265769 3.064051 -1.567402 2.503588 0.261798 -2.100219 -1.760299 0.736299 -0.684966 0.455021 3.408671 2.114352 2.586178 1.187825 0.736490 -1.523739 1.034427 -1.569067 4.972655 
work -0.464878 0.430623 -1.300815 1.117376 2.668881 0.296912 1.098323 0.112358 0.915129 1.095063 2.381879 0.078744 -0.232160 -0.880869 -0.348376 -1.579546 -1.808140 -1.169868 0.415095 -1.873204 2.489032 0.312981 0.066996 -3.380957 1.646070 3.353491 2.307685 -0.809741 0.493877 0.520733 0.229953 0.225051 -1.180696 0.010591 -1.652261 1.641806 -1.083083 3.305459 0.171056 0.434857 1.747221 0.250245 2.007817 -2.483810 3.805679 0.543168 1.616703 2.028706 -1.807522 -0.756319 
series -2.358609 -2.157736 -0.774454 -0.878154 2.818279 0.934860 -0.338271 1.084608 0.985474 0.136678 -0.078939 -0.799774 -2.561836 0.716347 1.606696 -2.996393 -1.919232 -0.442154 0.597485 -1.779228 -2.535364 3.513593 -0.856929 -1.161343 -3.096227 1.239263 1.126439 2.611631 0.431356 -0.698739 0.834762 2.461133 3.602170 -1.974334 0.050589 -0.711126 -0.351393 -0.684024 -0.501659 1.204199 1.479380 1.361575 1.129098 1.986156 1.849415 -0.391617 1.685871 1.872340 2.141687 2.664846 
country 0.255639 -2.617787 1.099077 -0.292149 -2.444344 -0.224355 -2.054170 -1.239211 2.216834 -1.168270 -1.221523 -2.119561 1.668426 2.497609 -0.857810 3.362971 0.876296 -1.011941 0.009817 1.011404 -2.247910 -1.747958 2.554474 -0.028833 0.572246 -0.854859 0.958079 0.916849 0.702363 -1.222257 0.698595 -1.045778 -0.064991 2.802514 0.462013 1.409649 -2.892010 -0.062352 1.563483 -1.326903 0.395330 -1.049638 1.531458 1.337478 0.213634 -0.246295 -1.251607 0.780807 -0.510103 -3.051536 
age -1.051460 1.353492 -0.161163 -0.256984 1.763883 0.719710 1.465408 1.263493 0.183609 -0.646704 0.643043 -0.682640 -0.334093 -0.230334 3.177948 -0.758220 1.143726 -0.314333 1.011101 2.356732 -1.688367 -0.754649 2.500947 -1.183293 1.686831 4.156556 3.421214 -1.710478 0.438938 3.097889 2.490343 -0.339434 -0.733785 -2.762764 -0.014932 -4.200616 1.843580 -3.930877 1.456263 -4.691905 1.066666 1.808532 2.617285 -0.279221 0.083721 -0.196534 -1.487687 -1.986665 -3.140893 -2.943536 
place -0.076993 -0.997765 -1.539431 1.317067 -0.348326 -0.997688 -0.118736 -1.780481 0.853776 0.967014 0.503200 -0.265150 -2.302241 -0.180904 0.527999 0.511653 0.562641 0.395581 1.208095 0.020464 -0.667670 -2.029192 -0.743852 2.217153 -0.522633 -2.649393 2.535737 -1.363796 1.225384 -0.443314 -1.912857 -0.349207 0.592747 -0.870820 -0.559299 -0.583926 1.887439 -0.027357 -0.223857 0.693901 -0.307263 0.584298 1.120809 0.900582 -1.017825 -0.498888 -2.302957 -0.211747 -0.702796 -0.712396 
apos 0.522871 -2.567216 -3.966008 0.217293 0.260614 -0.542031 -0.542193 -0.156649 0.204844 -0.154448 -2.230568 -0.702048 -0.222953 1.721039 1.370755 -2.345481 1.222767 -1.867363 0.840221 -2.328769 -1.317051 2.229301 2.069834 0.019427 -2.200058 2.142389 -1.107381 -0.337828 -0.247489 1.447579 -0.709759 -0.749423 1.231827 0.149355 0.767112 -0.221356 -0.416269 1.371048 -1.557930 -1.376120 -0.258303 -0.104184 -0.658444 -1.897626 -0.307478 0.574058 -1.127183 1.669852 -0.425340 -1.104987 
player 0.678771 2.220054 3.256965 -0.309314 -3.209323 -0.296779 2.477467 0.527334 1.682440 1.053350 -0.773672 -0.971478 -2.772757 0.190070 -1.102873 0.940327 0.426069 -1.293555 5.084578 3.578737 -0.920256 4.967842 -2.041455 1.362547 -4.811069 -1.319034 0.503321 -0.145910 -1.803948 -3.948248 1.265205 -0.541369 2.167432 -2.639641 0.955715 0.404527 -0.963650 -3.571641 -0.460031 0.660150 2.074970 0.653201 1.694816 -3.511636 0.675568 -1.813840 0.469776 -0.414865 -3.060726 1.757590 
line 0.826002 0.523062 2.064967 -3.095900 -0.082235 0.003569 -1.860827 2.053395 -1.260633 -3.513754 -0.209023 1.615308 0.089823 -0.724291 -0.657179 0.173753 2.366033 2.975825 1.087433 -2.380566 0.520151 0.977341 -2.687481 0.188149 -0.038348 2.624744 0.882797 -2.023626 -4.213848 -2.048711 -1.327029 1.352205 -0.251671 -2.609982 0.126292 0.741535 0.800792 -2.196409 0.040717 -2.926011 0.170140 0.304097 -1.045444 2.383902 1.011103 1.019315 -1.193438 1.201599 0.995991 1.177455 
world -1.044414 -3.853857 1.529730 1.392323 -0.937459 1.537074 0.954788 -3.936844 1.827553 1.131811 0.197189 -1.176325 0.736607 1.662352 -0.121669 1.436995 -2.338486 0.223803 2.872830 0.180370 -0.445380 -1.308017 0.081139 -1.323855 1.062096 -0.543904 3.596099 0.142583 0.748993 -2.306701 0.372152 0.454023 1.189775 1.406830 -0.258397 0.028328 -0.814343 -0.509096 -1.032743 -1.302673 0.102214 0.829986 0.148358 1.050774 0.267137 -0.630719 0.617462 1.029438 -1.372974 -1.302261 
region 1.235112 -4.701020 2.857504 -0.038975 -0.734137 1.031787 -1.468183 -0.656979 0.083782 -0.159002 0.206112 -0.963562 0.336744 1.898880 -1.174241 2.120558 3.494928 0.205982 -1.458035 1.923082 -0.078248 -2.704558 0.493132 3.195765 0.365533 1.346717 -1.406962 -0.504817 0.868166 0.455044 -1.098273 2.052275 -0.824205 1.457871 0.089734 -0.417351 -0.778305 2.078990 0.438830 -1.934360 -0.656035 -0.661183 2.004461 2.456089 -2.449131 0.258179 0.296686 0.171618 1.460802 -2.243906 
service -1.992499 1.714217 -0.131022 -2.976351 -2.954586 -3.599560 -1.620353 2.093673 0.374902 0.008620 -1.709779 -0.264598 2.123227 -0.793839 2.812863 2.240258 -1.189855 2.104107 -3.797020 0.518188 -0.891226 -0.616052 -0.059535 -3.554654 1.563794 -0.211718 -0.666586 -0.358036 -2.874333 -2.144570 -0.244608 -1.925008 0.224375 -0.373344 -0.898829 1.463946 -0.312784 1.101575 2.962026 -2.616884 1.583219 -1.069417 2.269378 3.011777 -0.717690 0.235310 -1.361092 2.156889 -1.060859 0.915247 
text -2.129322 2.493972 0.119712 1.209895 2.472231 0.204851 0.451733 0.373661 -2.242091 -1.854420 0.247904 -1.716735 -1.529581 -1.181471 -2.387467 -1.421798 -0.573416 -0.557453 -1.584358 -2.508232 3.569474 0.178509 -0.884113 -0.324916 0.933748 3.849158 0.821309 -0.864130 2.020861 -2.653364 -3.190036 -0.315443 0.190426 -2.130688 0.533903 -2.296312 -2.436142 2.244278 -2.601308 1.097155 2.980796 -2.656518 0.508644 0.614601 1.680895 -2.337344 0.137386 -3.276976 -0.873388 1.484512 
end -0.467908 -0.657032 -0.646610 -0.877909 1.369584 -0.182636 -0.140028 0.212110 1.359272 -1.608775 0.058580 0.208770 -1.878351 -0.371716 -0.227454 -0.427846 1.940661 -0.036569 0.055608 -0.536806 -1.736172 -0.408871 -2.333046 2.501363 -0.699305 -1.376287 2.304388 -0.652185 -0.559218 -0.696114 0.919236 2.044565 1.786438 -1.409585 0.229504 0.824132 -0.653655 1.421215 -0.075834 -1.783182 -0.864318 0.483908 0.246455 0.423729 1.217941 1.401863 -1.203908 0.627855 -0.727560 1.230830 
list -1.664272 -0.512365 -1.515984 0.404801 -1.401266 -0.432877 -0.749324 -0.991817 0.684023 0.655026 -0.334009 -0.714238 -2.607744 0.161822 -1.222945 2.139141 -2.413987 1.300463 0.853071 -1.900959 0.525383 0.844769 1.371548 -2.200648 -2.093983 -0.298330 -1.728509 0.556440 1.211481 -0.065155 -1.416496 1.381543 0.774766 0.107330 0.294356 0.300363 -1.169334 -0.412093 -0.132448 -1.536356 1.380189 1.065184 0.709188 -1.210548 -1.553684 -0.770656 -0.835641 -0.663700 -2.278754 -0.923940 
point 0.758368 -1.720474 2.895612 0.236420 0.176528 -0.250208 -0.440102 0.823904 0.683625 0.878558 -0.271878 0.215697 -1.388314 -2.816714 0.801765 2.412841 0.338399 -1.316230 1.937912 -1.669149 0.698871 1.515905 -4.378797 2.176706 -2.073823 -2.562281 -0.324003 -2.688136 0.832154 -3.539099 -0.677229 0.080927 0.537117 -3.374750 0.171039 -0.791231 -0.862191 -2.936614 -1.008574 -0.344647 0.590110 0.373316 -1.235111 -0.435175 -0.109580 1.410534 -0.339308 -0.582868 0.080712 -0.532801 
power -0.374380 -1.724930 1.857767 -2.964372 3.021724 1.757598 -0.331132 1.053172 2.723577 -0.176558 -3.877094 1.667066 1.131326 -0.320978 -2.570138 0.152686 -3.708894 3.107626 -0.158154 2.641441 -0.731411 -5.159000 -0.382375 2.093516 -1.227686 1.150137 -0.226282 1.970330 -0.290624 -3.071431 1.245152 0.420999 0.848145 2.074478 0.844973 2.977913 -0.178756 -2.640599 0.111199 0.674525 -0.716661 0.052475 -2.236250 0.443430 1.143951 0.227287 0.170568 1.001936 -0.136492 -1.034619 
water 1.537567 2.562441 0.395290 -1.123165 0.171017 -0.440147 -0.576782 -1.031019 0.902089 1.736898 -0.191187 0.462567 0.117705 -0.107708 0.391689 -0.284806 1.232706 1.336491 0.194836 0.775483 3.341020 -5.189427 -2.087633 2.761226 2.467573 -0.664258 1.131662 -2.279162 1.469263 2.469215 3.310532 0.547586 0.414136 2.038182 4.020038 1.243276 1.157214 -0.946291 -0.431304 0.746027 2.198635 1.921353 -2.599711 1.365903 -7.855832 -0.145205 2.428665 0.215804 1.636346 1.853178 
language -4.967272 0.875146 4.617617 -1.098550 -0.208484 2.600721 -0.873907 -0.338750 -0.417834 0.597919 1.650816 -2.364625 1.837253 1.644625 -4.030360 -2.303217 1.587816 0.303498 -2.961190 -2.524595 2.130848 -1.395682 1.747723 -0.731042 0.779551 0.330485 0.975367 1.646334 2.740349 1.619847 -2.301887 -2.834367 -1.900886 0.487664 -1.894971 -0.725990 -3.234604 0.583516 -2.830760 -1.554911 1.039337 -3.350631 3.490814 0.172030 2.058999 -1.812724 -0.802771 -2.476364 1.527125 -2.721176 
municipality 0.086385 -3.672249 3.442853 2.599837 0.960961 -2.604143 -3.832438 1.017011 -1.264776 -0.770578 -1.899476 -0.765173 -0.608560 -1.488258 -0.247872 -0.703334 4.534619 0.062792 -2.115348 -0.085261 4.771920 -3.870887 0.337618 0.302447 -0.442617 -1.974820 -1.602387 -0.514606 -0.188171 5.837756 -1.017607 -1.717879 2.075255 2.140590 -2.401285 1.157889 1.707229 -1.034638 1.892683 -2.069976 1.425826 0.605729 3.324193 3.044165 -1.679204 2.097656 0.668214 0.040809 -1.994673 -1.982716 
form -0.887415 0.774105 1.397370 -0.958819 0.690330 1.838737 0.892588 0.447360 0.717454 -1.590712 1.734354 -2.655793 1.182279 0.744616 -0.401313 -1.922309 -0.916870 2.332589 -0.099998 -0.353128 2.827530 0.783419 0.322998 1.335658 1.552187 -0.004281 0.847962 0.238408 2.126180 0.099588 -0.798128 0.401713 0.217121 -0.132215 0.057324 1.517971 -1.305542 1.508530 -1.891341 2.444485 -0.213487 0.873605 -0.857888 -1.206753 -0.103048 -1.368020 -0.166820 -2.066504 0.587033 0.057555 
specie -0.036773 -1.065707 1.190978 3.444472 -1.389610 4.502403 2.267262 -1.606513 -0.444963 -2.148470 5.198024 0.653899 0.730984 -0.514705 0.262102 -0.419621 2.631201 0.374341 -2.434183 -1.881325 2.592737 -1.499305 2.698360 3.109897 1.221709 0.501671 -0.320755 1.496177 0.626471 -0.893294 0.912319 1.201881 -3.503928 3.335762 4.937634 -2.363047 -1.283381 -1.492569 3.731482 -0.947736 -0.913768 1.974187 -1.244936 -1.255930 -4.850986 0.413233 2.030977 -1.397976 2.786134 0.150682 
example 0.499108 1.273152 1.159133 -0.007390 -0.429612 0.669956 1.066064 0.356925 0.278618 -0.383047 1.348452 -0.474179 1.478305 0.237412 -0.731219 -0.289776 -1.302985 2.607316 0.082196 -1.671073 2.671609 0.574870 -0.021256 -0.547199 1.168879 -0.418346 -0.645046 1.212796 1.730844 -0.071834 -1.522272 0.435963 0.054404 -0.748615 -0.355712 0.343876 -1.456722 -0.286924 -1.469040 1.569196 0.734091 -0.452694 -0.274038 -1.481748 0.804655 -1.222844 0.196357 -1.084333 0.789736 -1.689602 
life -0.732699 -1.625367 -1.164889 0.427698 3.388757 0.599300 2.261780 0.121639 2.361849 1.176154 1.175476 -1.158073 0.966627 -1.825877 1.808173 0.672472 -0.842170 0.037827 2.596946 0.608109 0.055903 -3.355420 -0.077883 -1.454158 2.099145 -0.130864 3.488433 1.395605 0.103100 -0.110585 1.204003 -1.219019 -1.098535 -0.488825 -1.876641 -1.094431 0.587330 0.123175 0.666362 -1.352817 -1.075401 1.867689 1.633316 -2.137578 2.247723 -2.391709 1.907379 -1.330583 0.029721 1.326325 
company -1.486672 0.691283 -0.364836 0.085018 -3.163195 1.233029 -2.357902 0.097728 -0.476254 1.602101 -3.303533 1.441751 -0.413972 1.412876 0.816798 0.931648 -2.026298 3.929344 -1.483984 1.739534 -2.752066 4.260664 1.966018 -0.845313 2.637448 -0.754223 0.093267 2.347311 -2.884471 1.544420 1.224543 -0.137285 -0.475976 1.260980 -0.950786 0.384551 1.558811 0.971051 2.887453 -1.641526 1.359172 -0.628859 -0.479779 3.250512 1.885803 1.109264 1.885159 4.692589 -2.972226 1.362386 
order -0.775209 0.375187 -1.233653 -1.505424 0.734928 -0.893772 1.220625 1.065356 1.601365 -0.638744 -1.240942 0.459060 -1.156945 -1.972899 0.438161 -0.678956 0.009040 2.363881 0.079723 1.469787 0.025420 -0.986185 -0.520988 -0.447487 0.067485 -1.061612 -0.699217 2.403475 -0.562592 -1.798578 -1.187049 -1.092422 -1.136975 0.417637 0.808049 0.115073 -0.558908 -0.928376 0.073706 0.480214 -0.777390 -0.902101 -1.580929 -1.466395 0.761799 0.088574 -0.698389 -0.589823 -0.375956 -1.055577 
use -0.493441 3.086034 0.670150 -0.000855 -1.717275 -0.052441 -1.161296 1.126637 0.136008 0.319852 1.781950 0.969541 1.501752 2.253189 -1.727648 -0.754355 -1.431609 2.150861 -0.877661 0.316440 0.801987 -0.312294 -0.920312 -1.338900 3.117475 0.072343 -0.061897 0.933104 1.938080 -0.992690 -0.644554 2.108902 0.353578 0.118518 -0.636301 2.567050 -1.896912 0.268397 -0.213935 1.998739 1.347056 -1.621999 -0.596099 -1.094079 -0.877432 -0.117682 -0.319637 -0.857438 1.127000 0.247386 
district 1.235450 -2.065186 2.538632 0.608182 -0.533641 0.107152 -2.912627 2.097785 -2.195486 0.426379 -4.327796 -2.727718 -1.868765 0.289014 0.524578 0.252798 2.328123 0.890558 0.282223 -0.749303 1.324382 -2.715435 0.924297 1.272771 -0.318050 -0.383446 -0.819268 -0.817578 -2.272754 3.349477 -2.089362 -0.882092 1.253695 0.818812 -3.444727 0.301489 1.625704 1.300027 3.320630 -1.402999 -0.353246 -0.251799 1.597410 2.840624 -2.530495 2.963695 -1.682223 -1.355878 -0.051393 -3.410236 
building 1.518497 0.993082 -2.764875 -1.965400 1.207810 -0.135028 1.278944 -0.704208 -1.600080 2.144274 1.364578 0.448057 -0.466491 0.424803 -2.468979 -2.385814 -1.511795 1.365189 0.918326 -0.384788 2.044348 -1.815767 -2.684211 -0.861803 1.486673 -2.593811 0.247581 -0.080864 -1.121130 1.377870 1.381627 -0.934148 1.961527 0.609828 -6.581274 1.836719 0.571174 2.396785 3.169325 0.516172 -2.011920 0.759695 1.660440 1.085154 -3.630706 6.010271 -2.588467 3.020216 -1.514629 -1.947691 
force -0.642320 -2.145184 -0.142310 -2.732059 -0.055591 -3.570694 -0.433319 1.355398 2.571313 -2.142843 -3.862846 -2.297484 -0.957661 0.521618 0.034578 0.203415 2.505460 2.515388 -0.400828 4.291611 -3.342743 -4.432742 -3.151847 1.219608 -2.062422 0.906173 -1.938642 -1.620922 -1.635779 -0.680358 0.221523 1.046376 -3.958339 1.855478 -0.109531 0.744255 -0.042993 0.183388 -1.515046 0.468776 0.048611 -0.879682 -2.443080 -2.405616 1.002489 4.069740 0.460560 1.924946 3.201671 -0.944986 
period -0.397393 -0.335335 0.333696 0.183739 1.620117 0.741703 0.668259 -0.351040 0.253893 0.371176 0.720716 -0.895247 -1.178787 0.291111 0.609441 1.188008 0.571012 0.947488 -1.842884 0.699046 -0.498600 -2.473309 -0.060584 2.969483 0.742611 1.322935 2.107572 -1.857442 2.097028 -0.430526 0.423543 3.122203 2.399357 -0.652075 -0.324919 -0.115571 -0.412007 3.255047 1.363192 -1.458807 -1.285816 -1.140554 3.140603 -2.274244 2.061504 1.465283 -0.766555 -1.935025 -0.267129 -2.984986 
home -2.747670 -0.252952 -1.344119 0.637019 -2.259893 -1.763423 1.149521 -0.999381 1.306599 1.356970 -0.599175 0.139129 -0.188983 0.016306 0.485527 0.213434 0.609743 -1.275466 4.783505 0.478388 -1.391276 -1.067498 -0.559580 1.727721 -0.646913 -0.103515 -0.313224 1.282573 0.027254 2.569583 1.674181 -3.180023 -0.173501 -1.972891 -2.363693 -0.802244 0.331741 -0.120387 3.133881 -0.975596 -2.342897 1.496018 2.886401 2.190008 -1.562518 0.609472 -1.549934 1.713915 -0.784229 1.911037 
station -0.969101 -0.271640 -0.767515 -5.595036 -1.717187 -2.557024 -1.232260 2.323231 -4.439466 -0.688530 -1.362062 3.642863 1.654728 0.884828 0.188552 1.100328 0.099007 0.819946 -0.121006 -4.102905 0.370129 -0.364104 0.442313 -0.104589 -2.100204 -0.557025 1.502519 -2.110815 -2.601074 -1.113895 -0.078453 0.926198 2.024141 0.433471 -2.520840 1.925357 0.446782 -0.324717 -0.780927 -1.715146 0.955957 -0.556385 2.288804 4.766840 -2.992745 3.444523 -0.768343 4.874921 -0.237643 0.908265 
term -0.351909 -0.362856 0.586763 0.590997 -1.501201 2.602649 -0.696867 1.181094 -0.738751 0.973319 -1.434532 -1.580546 1.805303 -1.553440 -1.467954 0.532309 -1.477260 3.249011 -1.748272 0.296709 1.086288 1.089506 1.892797 0.591257 1.453783 -0.213639 2.101212 -0.345646 3.028343 -0.091771 -0.784152 0.661139 -1.730220 1.124234 -1.410038 2.705653 -1.723620 -0.094517 -0.240595 -0.240860 1.881164 -1.209698 -0.580393 -1.861259 2.173518 -0.345507 -2.191530 -2.872280 1.209057 -1.747572 
child -2.116307 2.233984 -1.374351 -2.456572 1.216176 0.583980 0.928844 1.247028 2.330559 -0.997027 0.249329 -1.570103 1.552744 1.008958 3.737015 -0.441190 0.548366 -2.775565 2.056151 0.718973 0.316843 -1.277190 3.340956 -2.381853 1.857563 2.045237 1.884206 2.795429 -1.172758 4.065643 0.311316 -4.849088 0.235679 -0.899923 -2.114908 -3.739389 0.717756 -2.947767 0.290209 -0.975873 -2.548853 0.123996 2.899053 -0.865326 1.011292 -2.265471 2.265603 -1.831921 0.664718 0.929667 
character -0.488086 -1.864007 2.350568 -0.854962 3.142946 0.353500 -0.028313 1.787708 0.669230 -0.133985 0.779695 -1.610891 -2.279542 0.365359 -0.888359 -3.994726 -1.780127 1.570485 1.822888 -1.979711 1.687495 4.459610 -1.196657 -2.058544 -2.601289 -0.903832 1.421548 4.024106 0.311347 -0.324546 -0.065242 1.766372 0.742295 -2.366451 -0.625279 -2.374003 -0.573422 -1.970817 -1.975968 2.701982 0.933074 1.262351 3.070265 -2.131285 2.601645 -4.729172 0.798963 -1.742328 1.392284 3.002115 
death -1.506480 0.487866 -5.825831 -0.241608 3.413920 0.517519 -0.253789 0.370493 -0.354083 -0.953408 -1.985813 -0.921359 -0.066025 -1.867301 -0.307398 0.900224 0.783645 -1.306543 1.954260 1.936878 -2.236201 -4.193724 0.451662 -0.365784 0.696988 0.829438 0.304379 0.599647 0.365362 -0.728530 0.502251 0.545940 -0.603316 -1.126598 -0.258507 -1.203592 1.905954 -1.739640 1.358447 -0.882762 -4.551381 1.540080 0.676125 -3.383073 3.695844 -2.173465 1.132344 -1.353876 -1.135866 0.595531 
version -2.105547 1.147620 0.814886 -0.145383 -0.302951 -1.484064 -1.607903 0.678353 -0.032361 -2.478078 1.685019 0.669588 -3.266286 1.666531 -2.136175 -2.489956 -1.507817 0.001161 -1.413170 -3.148283 -1.261240 3.443016 -0.931813 -0.847371 0.841651 2.282470 -0.112933 3.024597 0.970647 -2.018713 0.935252 -1.173757 4.200980 -0.804814 0.105439 0.229333 0.740840 -0.785285 -1.828548 0.090479 2.372993 -0.862189 -0.305501 -0.932879 1.337154 -4.020016 0.158319 0.213437 1.492618 3.079596 
side 2.325299 -0.436595 0.199054 -2.126114 -0.587690 -0.094125 -0.540105 0.023769 0.259146 -3.603042 -0.027132 -0.375623 -0.904301 -1.909908 -1.774562 -1.472422 1.947935 -1.494760 1.147152 0.974592 0.051728 1.463754 -4.503369 2.326801 -1.705059 -2.986602 -0.744033 -3.170851 -0.729840 -0.240599 1.718549 -0.101599 -0.305268 -0.705360 -1.025505 1.129601 0.791941 -0.350742 -1.593769 -0.934686 -0.941051 2.155107 -1.689321 0.853552 -1.610727 1.565658 -1.090967 0.265855 -0.236292 3.035328 
student -4.114034 1.487484 1.806489 0.413180 2.758954 -0.636870 1.356645 0.990983 0.338451 1.118892 0.785395 -2.106498 1.420351 -2.616984 1.810525 0.959161 0.202914 -4.019979 -0.845735 1.892975 -0.419860 -0.097787 1.118400 -4.896665 -2.721084 -1.062441 4.162272 1.037828 -2.754804 4.140129 1.484351 -5.183794 0.709921 1.086578 -0.866504 1.604506 -2.135432 0.221637 -0.350137 1.963462 1.613761 -1.715150 2.962401 -0.742829 -2.699756 1.483660 -1.213878 -0.340072 -2.152529 -3.758080 
way 0.076290 -0.621037 0.991026 -0.733897 0.137799 0.061010 1.409602 0.484997 1.739537 -0.334673 -0.235692 0.209071 -0.286444 -1.142780 -0.289329 0.593823 -0.153397 1.045666 1.936919 -0.239204 0.904757 -1.154722 -1.383876 -0.523219 1.098126 -1.740298 1.788162 0.080330 -0.205587 -0.360901 -1.014745 -0.393761 -1.837590 -0.809578 -0.854602 0.600635 -0.406699 -1.024115 -1.883587 0.388100 -0.536508 0.072133 -0.392723 -0.218875 1.062516 -1.687371 0.327014 0.533909 0.685549 0.493629 
history -2.099071 -1.269428 0.159353 2.744110 2.000110 1.058671 -0.158597 -2.445026 0.234079 2.124827 0.734264 -0.755701 -0.727150 0.963351 0.291559 0.464471 -1.157738 -0.579627 1.866986 0.066627 -0.850339 0.039932 -0.664902 0.604850 -0.368165 1.073753 1.642051 -2.433320 1.585453 -1.701747 -2.414317 1.925463 -0.095558 1.103693 -2.267745 -1.223564 -1.531965 2.321428 0.357483 -0.742636 0.033823 0.282527 2.733019 -0.875918 1.631919 -0.885223 -0.581365 -1.434621 -1.474493 -1.732077 
event -0.400355 0.045589 -2.343655 -0.432258 -0.960816 -0.915838 0.768333 -2.533486 -0.438503 1.481974 1.738385 -0.590577 -1.124795 0.381853 2.170682 1.522543 -0.973591 -0.764067 2.625592 0.830538 -3.811718 -1.486704 -0.608483 -0.909549 -2.966997 -1.346777 2.989192 -0.855876 1.633234 -1.318676 -2.902292 -0.231150 2.487295 0.714983 0.855583 -1.744405 1.231184 -0.732114 -0.316636 2.217377 1.055876 1.089203 0.513930 0.934871 1.771464 -1.750955 -0.491050 0.615244 0.401649 -2.894529 
department 0.190722 -1.048808 -2.413357 2.149903 -0.281907 -0.361429 -0.501163 2.306081 -1.431490 2.382681 -2.198423 -1.908641 0.995515 0.086366 0.905160 -0.508064 2.079173 -0.412325 -1.979996 1.005214 -0.210657 0.976498 1.701681 -1.608894 -0.845877 1.145182 -2.793371 -0.646349 -2.913617 1.567371 -0.449194 0.692544 0.545285 2.882950 -2.923471 0.227140 -1.213117 0.564479 -1.870368 -1.054158 -0.750451 -2.624680 1.019182 1.744863 -3.355756 1.360052 0.030145 3.071580 -1.544963 -1.567776 
case 0.011103 4.401430 -0.590307 -1.238693 -0.805152 1.255036 -0.092623 2.407408 0.111680 -0.318398 -1.579193 -0.292780 1.482984 -0.683726 0.339337 -0.298044 -0.009841 0.582418 0.382890 -1.574736 1.005768 0.000661 0.894354 -0.585095 0.492035 -1.819515 -1.898749 1.314342 2.609818 -0.283734 -1.429272 0.297205 -0.973297 0.077622 0.409528 -0.072972 -0.821683 -2.669147 0.776183 1.388340 -0.892360 -0.082662 -1.456391 -1.416793 1.970789 0.873520 1.762388 -2.588267 0.655812 -0.896304 
level 2.556977 0.704254 3.983115 -1.471957 -0.590858 -1.401312 0.379213 1.768455 -0.975106 2.914100 1.258980 -0.726265 1.234377 -0.372786 1.290332 -0.996119 -0.845712 -0.322984 -1.272879 0.527987 0.672837 -1.037566 -0.479687 1.603600 -0.615413 -1.793128 -0.345927 -1.248288 -1.664256 -1.764048 1.949084 -1.225970 1.829771 1.393706 -0.029500 1.003158 -2.100434 -2.785705 -0.101248 -1.493171 1.398455 1.734674 -0.785014 -0.680879 -4.276797 -1.316750 1.923067 -1.863763 -0.736531 -4.099391 
war -1.009629 -3.267245 -2.020834 -2.597881 1.807288 -2.121159 -1.860414 -0.957276 3.326189 -1.027145 -2.318639 -1.753388 -1.371166 1.845901 -1.404946 -0.684900 2.059638 -0.466604 1.570213 3.518080 -2.852507 -3.717681 -2.275172 -0.125952 -0.519623 -0.999826 2.010167 1.080896 -1.290471 -2.508149 1.743762 1.922659 -2.721903 1.361965 -0.933941 0.112266 -1.645431 1.945439 2.643964 -0.966536 0.181131 -1.121141 -0.694420 -1.137520 4.525448 2.883343 0.253216 -0.987287 2.188197 -1.234173 
result -0.950168 1.164599 0.147457 0.444754 1.233264 -0.879401 0.791638 0.995292 0.967407 1.039058 0.458623 0.546977 -0.604694 -0.706765 -0.590378 1.066291 0.762246 -0.381262 -0.635089 1.419622 -1.034863 0.404105 0.100351 1.728098 -0.570530 -1.640677 -0.494709 -0.690596 0.853084 0.075096 -0.185019 0.552036 -0.041992 0.238679 0.561302 0.652628 -1.223281 -1.787757 0.377812 -0.011506 -0.539880 1.240231 -1.537696 0.473448 1.775762 0.030178 2.660816 -0.784284 0.960447 -3.101948 
club -1.223904 1.781999 -0.930019 2.153591 -2.231287 -0.771375 1.385183 -0.672370 -1.700412 0.627330 -0.864401 -2.260495 -0.668572 -1.023364 1.704631 -1.242064 1.420394 -0.881998 1.789639 4.916939 -2.191721 5.243425 0.691246 6.380976 -1.817487 -4.050015 1.679016 -2.424459 -1.605304 -0.777959 2.035224 -3.856871 0.391431 2.689095 -0.264305 1.522105 -0.844075 1.016388 0.714284 -0.341307 1.027703 2.962063 3.124352 0.439199 1.005442 -0.561769 -3.267776 1.982231 -4.711849 1.035844 
book -3.621720 0.380140 -3.348737 1.012156 2.809074 1.290899 -0.565729 -0.764526 0.593254 -0.113847 -0.142271 -1.647375 -1.065490 -2.746549 -1.299631 -0.342652 -3.152487 -2.318835 2.098454 -2.707088 0.855411 3.145348 -0.070454 -2.813967 2.108736 3.156697 2.834006 1.413901 1.285157 -0.327642 -2.415458 0.722475 -0.192474 0.193116 -1.590057 -2.558730 -2.960623 2.103886 -1.333017 -0.147178 2.028005 0.092308 2.104005 -2.184929 2.038036 -1.429207 1.970717 -0.354551 0.606860 1.613637 
island -0.394159 -4.912419 0.415054 -2.715789 -2.137907 0.384560 -1.112670 -2.260975 1.316480 -0.471836 -0.470484 1.310536 -0.441661 0.704821 -2.265090 0.232700 4.636672 0.442093 -1.501790 -1.952803 0.341307 -2.526828 -0.906147 1.987351 -0.358244 -2.374679 0.356961 -2.778919 2.678020 0.700224 0.780057 0.066651 -1.357872 2.384449 -0.044742 -2.887061 -0.301665 0.926093 0.951168 -3.687674 -0.545667 -0.132268 1.012714 -2.342157 -3.633644 1.736559 0.773236 1.739310 -0.000572 1.608099 
village 0.008458 -2.528668 -0.027781 -0.741878 0.374370 -1.063492 -2.660699 -0.367008 -0.497290 -1.314768 0.567935 1.428500 -2.080297 0.196300 0.609123 0.423071 3.716449 0.154182 1.926025 0.266117 1.103648 -4.411539 -0.514175 3.115203 1.544302 -2.024880 -1.168902 -1.165992 -1.694866 3.959559 -3.209459 0.155391 -1.461839 -1.464631 -3.926482 -0.236056 2.237206 1.503081 1.980169 -1.295439 -0.333850 -2.711251 3.497872 1.390216 -2.346006 0.583456 -0.931171 -0.433014 -1.880658 0.544879 
son -1.390505 -0.678791 -3.266065 -1.731078 3.248597 2.589489 -1.452694 -0.036869 0.826878 -0.665655 -4.341502 1.840156 -0.773161 -0.624806 1.598513 -0.726339 1.570020 -1.884399 0.313782 3.107056 -1.506626 -1.299529 -0.505970 1.250358 0.138184 3.749950 -0.828059 1.933642 -0.616798 0.925538 0.567874 -1.633485 -1.835438 -0.814346 -1.552900 -3.187432 2.567529 -0.791527 -0.256148 -1.597733 -3.940249 -1.599150 1.272588 -1.833551 3.037434 -3.207515 -1.763172 -0.492696 -1.521520 1.907982 
party 1.927575 -1.227392 0.006540 -1.637046 1.964259 -0.395080 1.869027 2.051708 0.661357 -2.197346 -3.883075 -0.995294 -1.495161 -1.570335 -2.352962 3.248102 -2.685458 -1.657788 -0.854332 1.798781 -3.306052 0.707475 2.447845 0.880562 -2.553679 -3.971599 -0.031533 -0.564501 -0.179824 0.778286 -1.409912 -3.421057 -1.574690 3.042057 0.392378 1.516238 -0.127912 0.831210 1.422481 -1.157540 1.369389 -2.123340 -2.296530 -0.305822 2.332923 -0.380656 -2.061224 0.375202 2.094749 -0.360255 
title -1.339610 -1.185002 -2.101166 1.740789 -0.391938 1.859544 -2.759096 -0.327968 0.244097 1.064928 -1.670811 -2.240095 -2.131871 -1.108781 0.246031 -2.617704 -1.039267 -0.866398 -0.771234 -0.113726 -1.739902 2.525803 -0.761264 2.373098 -2.966122 3.926000 0.552612 1.844408 1.834606 -2.680328 -0.600038 0.517779 1.291471 -0.624238 -1.343652 -0.833661 -0.373065 -1.912778 -0.021702 -0.161338 0.396743 1.146158 0.268774 -1.100804 3.155288 -2.708273 -4.000899 -0.880996 -3.537666 1.752948 
land 1.875323 -3.469413 -0.625779 -2.856622 0.008234 2.568723 -4.203205 -1.358238 0.779554 0.945776 -1.027895 1.401838 -1.889533 -0.241758 -0.351059 -0.648603 3.037159 3.174387 0.663679 2.820395 1.507675 -4.066297 -1.705308 3.691160 2.584828 0.706653 0.046589 -1.303146 2.248359 0.618120 0.219310 -2.567809 -1.193972 1.640747 -3.603050 1.202798 -3.010401 0.110893 4.653352 -1.225444 -0.023632 -1.667341 0.146909 0.529249 -2.782664 1.673652 0.940188 -0.174384 0.582246 2.332940 
role 0.612541 -2.428897 0.383136 0.222126 2.408859 -0.816882 -0.292490 2.729002 3.766920 2.376199 0.240007 -0.669794 0.314379 2.672200 2.072254 -2.352382 -1.924574 0.358609 -1.465344 -0.341027 -2.247967 1.383275 2.298262 -0.272540 -3.131444 -0.419790 0.924582 1.756252 -2.543579 -1.011313 1.107227 0.918742 -1.862970 -0.277168 -0.255781 0.307487 1.724750 1.615216 -0.554654 -0.280698 0.083583 0.249457 1.712219 -1.485609 3.401158 -1.611768 0.868493 -0.736439 -0.006702 0.953929 
type -0.189118 3.262156 3.164947 -0.411471 -1.800906 0.287740 1.371661 0.013573 -0.690044 -0.449393 2.972244 -0.374967 1.218407 0.824807 0.887217 -0.331809 -1.723520 3.129997 -0.454543 -0.237169 2.784811 1.266863 -0.710118 -0.665907 1.744510 -0.466628 -1.914404 2.039946 1.593353 0.512242 -0.994465 2.032146 0.642488 0.350332 1.067582 0.255979 0.483211 -0.449679 -0.397492 0.216054 0.467161 -0.901876 -1.661369 -1.203124 -1.116623 -0.203730 0.906736 -1.381190 1.655850 -0.579516 
law 0.118933 2.429693 -0.794353 2.502529 1.895870 2.123849 -0.734298 3.458115 2.929274 -0.210870 -5.706133 -0.648162 2.347123 1.355759 2.375477 0.165181 1.034754 1.495380 -0.538474 -2.447007 -1.367310 -2.056297 3.125625 -1.317276 2.311544 -0.067048 -1.292230 -0.155868 0.865639 -0.414074 -2.527679 -2.849196 -0.815978 4.369555 -1.586984 1.409067 -3.677582 -1.273309 1.462085 1.819403 0.483485 -2.823738 -0.961499 -2.789242 1.505710 1.834445 -1.015903 -2.382805 -1.927949 -1.866550 
woman -0.983644 -0.438058 -0.692757 -0.827267 -0.586538 -1.912045 -0.976992 -0.082157 4.133323 -1.305611 -0.949647 -2.237910 6.010830 0.233841 2.008037 -0.769365 -1.836433 -4.547926 2.039219 0.025919 0.316379 -1.061464 2.260289 -1.427913 -1.721742 -1.125704 3.592969 -0.337550 -0.942066 2.509050 -1.519917 -0.729439 -0.636455 1.640265 -1.740837 -3.818583 2.035997 -2.196260 -0.103706 -0.429173 -1.218528 0.070504 -1.195163 -2.426788 1.426515 -2.639045 -0.301144 -2.069288 -1.858799 -0.174871 
development -0.061195 0.083286 2.849434 1.428537 0.781281 2.009012 -1.921711 1.088730 2.364458 2.696938 2.707717 2.662811 -0.241163 4.010632 -0.589620 -0.869184 -0.298783 2.333715 -2.326856 1.792586 -0.440785 0.529939 0.265364 -1.211272 1.677838 -0.158783 1.886748 -1.547618 -2.029258 -1.003957 0.660340 -1.201105 -0.008766 -0.699314 -2.980778 1.632863 -1.321753 2.347275 0.857877 -0.958094 0.899535 1.202269 1.440731 1.343990 -0.560786 0.704557 2.069705 1.879780 1.077885 -3.191385 
song -1.261434 -3.883284 -2.411162 -0.826490 -2.156646 -0.381108 1.378305 2.077428 -2.171618 -2.292623 4.180031 -2.842429 -1.220609 0.525155 -1.415751 -0.384450 1.376501 -1.859849 1.297239 -5.350721 -1.961989 1.038429 2.303540 -0.305815 -0.529459 2.710179 1.716167 0.061277 0.800862 1.608752 2.079337 -0.666498 2.372851 -0.463130 0.460516 0.861059 0.190023 -1.779101 -1.156876 1.613405 2.737726 -0.217516 -0.254475 -1.860291 4.144546 -5.413685 -2.090092 3.728196 -2.023061 3.528900 
music 0.416538 -1.979562 1.005801 0.300922 -2.107013 2.481878 3.286849 1.624087 -2.253854 1.440094 4.495976 -3.382447 0.719070 0.795113 -0.954078 0.007373 -0.970306 -1.187818 1.957661 -3.622021 -3.970025 1.863269 1.969842 -1.643040 1.521934 3.337653 0.610777 -1.504079 -0.374057 2.008438 1.139097 -1.499308 2.949616 -0.388869 -0.695552 2.366327 1.274093 2.529191 -1.962254 2.200333 4.367545 -2.574414 3.397214 -2.225787 2.833388 -3.718811 -0.590746 3.159583 -2.981162 0.535797 
church 0.151002 -2.101403 -3.225328 -1.167548 2.443281 -0.162307 1.835752 1.193325 0.531635 -2.942646 2.103201 0.876862 0.361074 -0.886331 -2.801083 -2.292102 0.091998 -1.724665 -0.191580 -0.146070 1.582359 -3.276162 0.960552 0.351797 3.720698 -2.750602 -1.952059 -2.104094 -0.519840 -0.923804 -2.462253 -2.635070 1.435663 -0.539192 -4.126704 0.088212 2.948372 3.055070 1.740660 -1.264125 -1.104571 -1.089696 1.905253 -0.002705 0.212920 2.663022 -3.051163 -1.237870 -4.712057 -1.667136 
position 1.058460 0.095081 0.222152 1.213052 0.316544 0.306774 0.404564 1.316513 1.692534 0.034475 -1.671799 -0.152554 -0.368038 -3.031305 -0.848162 0.995994 -0.604150 0.860280 -1.567021 2.183038 -1.339956 0.313310 -1.642479 1.442204 -3.564141 -1.348402 -1.616194 -1.995521 -2.134045 -1.097575 -0.577959 -0.247193 -2.647503 -0.552117 1.456601 0.293712 -0.062757 -2.057122 -1.773924 -1.472615 -0.241244 -1.146521 -0.887543 -1.080135 2.375170 2.429296 -2.718994 -1.184010 -0.912477 -0.196187 
program -2.393703 1.851970 0.525984 -0.121243 -1.525554 -0.820002 1.093063 0.508482 0.376033 3.147211 0.740102 0.618812 -1.212563 2.848562 2.262186 0.716477 -1.070981 -1.653055 -3.664275 -0.282913 -1.296142 0.781432 1.176642 -4.345192 -2.932200 0.770435 0.421034 2.275691 -1.988288 0.316647 1.532943 -4.702177 2.687966 0.580886 -0.576718 0.059844 -4.857683 0.805938 -0.596837 0.667792 1.604487 -1.933791 -0.035262 2.663875 -1.031248 0.009455 1.463916 0.703037 0.350989 -2.151305 
body 1.384615 0.913045 1.449274 0.389632 2.020139 0.690189 1.092308 1.741471 -0.799204 -1.555169 -0.154887 -2.532253 0.790572 -1.060984 0.246196 -1.527169 -0.209594 0.565272 0.053145 3.308193 0.863570 -1.767893 0.517203 -2.404313 0.424294 -1.231792 1.024522 -0.069568 0.662207 -0.269480 -1.210165 -0.390272 1.007021 2.148883 2.517247 1.971015 3.329138 -1.193764 -1.858238 0.408849 -4.093221 1.588302 -2.675604 -1.172621 -2.194770 0.995297 2.104046 -2.806270 -0.079652 2.192443 
site -0.552971 1.086232 -1.700425 -0.919508 -2.003019 -0.985121 -1.273349 -1.918548 -1.992753 1.329394 2.424921 2.793425 -3.179172 1.274113 -1.614489 0.862905 -0.539700 0.641539 -1.451177 -1.427171 0.129229 -1.720269 -0.935037 0.417019 0.311587 -1.100861 -0.288536 -2.235600 1.584533 0.285874 -2.188610 -0.367638 -2.100790 -0.001093 -2.263409 -2.830188 1.231898 2.822230 1.654845 1.426481 -1.845653 1.599712 1.999054 1.646074 -3.800435 2.289626 1.231549 1.807804 -1.596525 -1.241953 
file 1.182526 4.252202 0.405185 -0.017481 -2.500127 -1.275318 0.163420 -0.229095 -1.940321 -4.162290 -0.047012 1.525432 -2.256732 -0.223930 -1.793818 0.929346 -1.370582 -0.138160 -0.535924 -1.315652 3.556599 -0.368346 -1.902009 -0.466953 -1.809482 -0.099699 -2.521367 1.152150 -0.087966 -0.302825 -0.251009 -1.934607 2.838663 -0.776842 -2.552990 -1.690747 0.629885 3.285147 -1.588969 -0.033083 0.625846 -1.165498 -0.497032 0.813429 -2.243479 -1.499203 0.497666 -1.256996 0.601496 1.936341 
word -2.547682 -0.192762 -1.115147 -1.064175 -1.464966 1.911943 -0.552984 -0.626694 -2.448196 -0.000717 0.328689 -1.659461 1.081029 -1.551354 -2.997631 -1.619422 0.579994 3.369342 0.648338 -1.401858 4.269880 0.111172 0.040074 1.815617 2.138802 -1.145612 1.899891 1.536668 2.159698 1.682608 -1.946481 0.975369 -2.172670 -0.358330 0.293088 0.620437 -0.851852 -0.812993 -4.481777 1.295926 1.414005 -1.636536 -0.523843 -0.767904 2.279784 -3.157890 -2.679502 -3.904682 0.170490 1.769019 
county 1.596987 -1.884723 1.890756 1.300334 1.822846 -0.035576 -2.295045 2.004890 -2.737650 -0.502587 -4.877774 -0.713262 -1.416374 -1.152729 -1.679712 -0.950275 2.719798 0.468324 -1.704423 -0.468580 -0.265944 -2.850840 0.811111 2.018531 -0.228284 2.070661 -2.751304 -2.126879 -0.050776 2.880498 -2.785088 -0.146686 -0.953389 0.134968 -1.358781 1.175841 -1.417091 -2.017260 7.147561 -1.768402 0.882301 0.632425 1.879132 3.117350 -4.177533 0.409238 -1.272542 -1.058845 -1.008527 0.042818 
production 0.954876 -1.037373 1.145609 1.893474 -0.847711 -2.313083 -2.380493 0.472018 1.727142 3.040611 2.064376 0.905789 -1.275950 3.773967 1.196610 -1.240207 -2.096070 1.720463 -1.540942 -0.647791 -0.166173 2.095723 1.871020 1.455857 2.915663 2.146416 2.208524 3.652790 -1.894005 1.295901 1.871105 3.038473 2.271380 -0.361271 2.029701 2.426892 1.920217 1.655820 1.795345 -0.495890 1.345638 -0.783750 0.024405 1.941650 2.447267 1.492612 3.154299 3.224992 0.116715 -0.615633 
unit -1.636286 -1.012310 0.754774 -0.736994 -2.911278 -3.353182 -2.084857 2.453688 -1.862083 -0.737401 0.724964 -1.286898 -0.015858 -0.427642 -0.383952 -1.130230 -0.125989 5.217196 -2.007359 4.427171 -0.468987 -0.788801 -1.511583 -1.114553 -1.066890 0.819198 -2.486895 1.768879 -1.267864 0.380246 1.076799 1.043634 1.791467 -2.244627 -1.383386 1.603954 0.303134 -1.168819 0.953642 -1.151908 2.945045 -1.567338 -2.729277 -0.868083 -0.497098 5.170912 0.686595 1.589891 0.591329 -1.295862 
men -1.957522 -1.691883 -1.232945 -2.055640 -2.240007 -3.451767 -0.822979 -0.829832 3.040676 -1.503719 -1.548849 -2.243461 3.181712 -1.301743 1.187954 -1.266132 -0.364491 -2.659938 2.541691 2.265120 -0.699944 -2.541229 -0.325857 -0.257046 -2.394255 -0.811212 2.565653 -1.555662 -1.949738 1.172909 -1.999614 1.346294 -2.172574 1.208941 -0.757214 -3.402838 1.708256 -2.669738 0.070173 -1.409157 -0.192225 -1.468013 -3.061311 -2.886774 0.100986 -0.239597 -0.846175 -0.979207 -1.821384 -0.010523 
month -1.904234 1.555802 -4.264553 -0.120125 -2.666968 -2.200293 0.265513 1.586399 0.930488 0.773544 -1.513539 0.193195 -2.667844 -1.941366 1.855175 2.091746 1.437074 -0.934825 -2.005134 1.377274 -2.194346 -1.247275 0.481789 0.784272 -0.213354 0.818100 2.683017 -0.055127 1.100718 0.813559 3.301022 0.069918 1.707227 -0.868339 2.114226 -1.181252 0.888261 0.424988 1.519469 -1.865256 -1.260851 1.488910 1.051111 -1.165054 1.616284 1.403949 -0.663678 -0.770202 0.337595 0.289033 
river 1.949448 -1.210041 -0.296612 -1.422310 -0.257724 3.119403 -4.033737 -3.736091 -0.846199 -1.256017 -0.833306 -0.416486 -3.343412 -1.677142 1.312174 0.419332 3.624354 1.203956 -0.552250 -0.897039 2.557180 -5.566670 -4.064854 3.975954 1.127378 -1.010814 1.006104 -1.876331 -2.160250 2.374698 -0.413299 2.802194 -2.159071 1.102641 -0.297587 0.601765 -0.150037 0.749853 -1.643756 -1.659369 2.409702 -0.022075 -0.064269 2.590542 -4.885559 -0.719297 0.552508 -0.051182 0.280527 1.543289 
house 0.781116 0.664503 -3.939312 -0.805560 0.539796 0.364272 2.077324 -0.683771 -0.156960 0.017695 -0.694742 1.001554 0.679572 -2.131001 -1.505728 -1.284692 -0.225289 -0.306933 3.299166 -0.829254 0.529742 -2.269276 0.032234 1.183512 1.085430 -1.239472 0.182203 2.123059 -0.343397 4.068157 0.029217 -1.559850 1.124673 0.348906 -4.382088 -0.366358 2.854231 1.955938 2.940848 -0.045790 -2.730997 -2.031512 2.589958 -0.278298 -2.078976 1.697685 -2.647574 2.348722 -1.306456 1.020433 
right 3.311089 0.179029 -1.251757 -0.221340 -0.656320 1.958397 -2.978109 1.109501 3.860137 -3.623640 -3.121044 0.319731 1.144674 1.168203 -0.565154 -0.794794 -0.912613 0.341386 1.030865 -0.742216 -2.514647 -0.193458 2.028301 0.165125 -0.135293 -2.148266 -1.248353 0.036564 1.169814 0.222368 -2.781679 -4.280596 -1.317360 1.250692 -1.440589 0.362503 -2.157626 -0.266947 1.191278 0.991654 1.891625 0.069532 -1.368194 0.864631 2.366742 1.282157 1.346688 -3.127203 -2.822776 2.485499 
value 2.237573 -0.723700 1.416348 0.700233 -1.843141 0.768943 1.086215 -1.090037 0.231675 0.253944 0.248643 -0.714261 0.756457 -1.173046 0.540184 2.273964 -1.295307 3.724904 0.583640 -0.362619 3.541533 1.776909 -0.831187 0.576714 3.488153 -0.673778 -1.393725 2.233675 0.724387 -1.302947 0.932809 -2.217338 1.226595 -1.286266 0.813300 -1.721525 -3.842127 -1.255248 -0.115951 1.727085 1.551450 -1.742927 -2.022625 -0.491674 2.907851 -0.057276 2.381976 -1.896726 -0.763222 -4.343864 
record -2.466487 -0.583370 0.314660 2.870942 -3.271576 0.417337 0.655773 -1.647501 -2.375620 1.238268 1.006345 -0.239348 -2.701792 -1.162835 1.286665 3.067802 -2.230971 -2.345616 1.726081 -1.464886 -2.015157 -0.429566 0.118193 2.376407 -0.348236 0.769003 0.158111 -0.969335 3.428241 -1.830210 0.035016 1.633210 2.397974 0.048214 0.456969 -0.817159 -1.070392 -1.543791 1.516895 -2.123677 -0.335820 -0.435262 -0.431079 -0.120402 2.175720 0.524137 0.013547 0.179774 -5.484462 0.429850 
community -0.864591 -1.810227 1.962798 -0.720823 0.414126 0.704448 -1.353554 1.331094 0.907900 0.278968 1.733684 0.141480 1.228395 0.944445 -1.156038 0.848785 0.824211 -0.400060 0.887027 0.809832 -0.710118 -2.763035 2.688299 -1.252216 1.434366 -2.959224 0.468196 -1.492539 -0.734501 1.564737 -3.077231 -4.607494 -2.444814 0.110777 -2.524312 0.134683 -0.413302 2.162781 2.990641 -0.324763 1.960925 -0.905849 2.982262 2.627526 -1.580117 -0.520541 0.026745 1.215443 -0.675960 -1.801694 
album -0.513904 -4.376412 -1.923874 1.097751 -3.077232 0.260914 2.013787 3.127719 -2.873596 -2.052877 5.207140 -2.608279 -1.889731 0.236285 -2.586441 2.343732 0.106197 -4.261083 -1.541576 -3.564958 -3.170555 2.988310 2.525591 -0.281964 1.032538 4.058314 2.124882 1.778784 2.298024 1.139757 3.196794 -0.021342 1.676351 -0.493103 0.322547 -1.072646 1.255377 -1.889013 -0.654776 -0.631922 3.447795 1.413862 -1.845358 -2.035603 6.468595 -0.767239 -0.778764 7.273236 -4.028185 3.106235 
control 1.467950 0.160550 2.127959 -1.283849 0.119828 -0.014487 -0.006188 2.373277 1.425528 0.400088 -3.557243 2.028324 -0.468975 1.066973 -1.531439 -0.526888 0.557501 1.850037 -2.297257 2.140740 -3.441439 -3.788030 -1.867495 1.289928 -1.688992 -0.721598 -3.484351 1.788553 -0.164299 -2.211410 0.267534 0.824791 0.958733 1.003673 -1.231670 2.601366 -1.863781 0.235047 -0.620057 -1.427050 -0.893643 -1.706580 -1.013852 -0.195715 -0.634573 0.136946 2.430938 1.159518 1.671693 -0.349286 
household -4.199946 0.134876 -1.387371 -0.777623 -1.552859 2.816833 1.851687 0.486974 5.504074 -0.937403 -0.619225 -5.629744 -0.389098 -3.567118 2.856314 -2.109753 -2.528169 2.731866 2.746383 3.600624 2.724503 -1.386784 4.921633 -1.465607 2.869862 2.514962 -2.608143 -0.233336 3.715489 4.238128 7.880907 -0.084971 -1.357328 -2.756984 -3.156631 -1.774481 5.508278 -5.543278 7.242568 -1.230999 -0.105835 -4.320271 5.142722 6.920724 -1.007223 2.875775 -1.128846 -4.075781 0.162857 -0.191002 
process 1.125665 2.647282 2.143428 2.431148 1.672369 0.320672 2.141873 1.937030 1.213080 2.040880 0.755194 0.352021 -1.363520 1.271171 -0.849039 1.354140 0.278679 2.011817 -3.403482 0.867033 0.460614 0.096057 0.561371 0.093167 1.686912 -1.037665 1.585274 1.382920 1.097568 -0.521245 -0.679123 0.117003 -0.725610 -0.496852 -0.800350 1.806731 0.826188 0.950007 -0.798338 1.210395 0.288698 0.271177 -3.540518 1.232905 1.502081 -0.548617 3.622880 -0.167945 -0.036783 -1.918410 
field -0.006408 0.775416 1.769894 1.953978 -1.661251 0.122461 0.147610 -0.137812 -0.168954 2.950613 2.623355 1.800536 2.554452 0.911002 1.378684 2.065749 0.163876 -0.092982 2.626307 2.833990 2.019415 0.965235 -2.111767 0.820368 -3.151597 3.268373 -1.217459 -2.723714 -1.495677 0.458917 -1.640154 -0.935416 -1.877435 0.324102 -1.402147 1.060671 -1.790993 -0.732928 -1.206805 1.138170 1.379693 -0.956842 -2.753806 0.105478 -0.992718 2.984922 0.129157 -0.053328 0.352103 0.097910 
design 1.317783 2.975816 2.729219 1.570505 1.193631 0.191870 1.234858 -0.481420 -0.020192 -0.117419 2.062303 3.512101 -1.337755 2.633380 -1.723209 -4.340980 -3.494284 1.701488 -2.544975 0.805401 0.741274 3.898298 -4.331730 -4.327388 1.535438 0.444215 0.310602 0.316797 -0.743077 -0.994847 1.862310 0.916736 2.234575 1.429742 -1.384092 1.763509 1.128769 -0.095067 -0.531461 2.012959 0.343992 0.778432 -1.384947 0.605794 0.825401 1.881796 -2.179163 1.972865 0.574518 -1.773291 
election 1.653564 0.143949 -2.077428 0.260001 2.906283 -1.967319 0.733781 1.884325 0.412261 -0.501577 -5.115370 -1.959730 -2.742540 -1.191921 -3.092215 3.783570 -2.020483 -3.159734 -3.011017 1.797619 -3.883336 0.333435 3.591184 3.206866 -3.618334 -1.838846 1.636691 -1.982628 -0.278700 1.228163 -0.666141 -1.629451 -0.344193 1.748823 -1.589472 3.564651 0.512363 -2.697803 3.748786 -0.488499 -0.012388 -0.625427 -1.637371 2.099530 3.286277 0.562420 -2.256991 -3.070780 2.908411 -3.650605 
study -2.414540 1.280442 0.320624 1.899764 1.478228 2.575746 2.088817 0.678688 -0.078931 2.864858 4.391912 0.749168 3.641573 -1.703627 2.446418 0.463445 0.173940 -2.716377 -2.956586 0.835576 1.249833 0.347441 1.906481 -2.747389 0.799525 1.538916 0.938454 -1.733188 0.170779 1.110248 -0.690088 -0.495107 -1.720418 1.570529 -0.527406 -0.720686 -2.408518 0.141068 -0.362145 -0.256042 0.045378 -0.365222 0.299862 -1.563826 -0.741314 0.813767 3.649956 -1.805136 1.304422 -4.640906 
model 0.793503 2.799935 3.208021 2.160520 0.575041 0.188004 1.488418 0.436455 1.177397 -2.485649 0.901233 2.594207 1.051090 1.634467 1.485912 -0.183000 -4.351623 1.593016 -2.214763 0.310198 0.786998 4.049809 -0.069511 -1.807424 0.786723 1.719684 -0.612990 1.980749 -0.115330 0.157632 1.270472 0.727666 2.620003 -0.215268 -1.026733 -0.102006 0.961343 -0.509101 -1.865629 -0.636441 0.401700 0.417361 -0.112934 0.097403 2.647525 -0.060383 1.226924 1.503558 2.924269 -2.824106 
race -1.490239 -2.520517 0.849322 4.138456 1.136961 -0.816728 -0.306562 -1.515192 0.314453 -1.526982 -0.344262 2.692077 0.486372 -0.146233 3.054473 -2.713519 0.715534 -1.545507 0.725174 1.686252 -3.487118 -1.454522 -1.223917 0.180128 -1.711762 -1.942641 4.241015 -2.640563 2.130678 0.424019 -2.898876 0.667136 -0.626753 -1.751346 0.940563 -0.210541 0.020245 -7.471601 1.813547 -0.067036 1.317741 1.063245 -1.542348 3.239815 0.484132 -0.977037 -2.917438 -0.709390 0.976334 0.355432 
province 0.455924 -4.605608 2.075059 -0.741971 -0.039164 -0.113156 -3.315857 0.316399 0.026404 -0.405299 -3.258249 -1.856505 -1.201180 1.313449 -1.534478 -0.638999 3.835147 -0.639018 -2.171080 1.528576 0.127038 -3.889415 0.537778 2.625789 -0.204336 1.703862 -2.249224 -0.248229 -0.051247 1.103598 -1.069520 0.563144 -1.628011 1.439506 -0.030661 0.983108 -0.421372 1.153962 0.744503 -2.182296 -0.489578 -0.861114 2.481489 0.935526 -1.247787 0.607218 -1.478232 0.432088 -0.597020 -2.632170 
class -2.090632 1.499012 4.828656 -2.127464 3.233829 -1.425054 0.253020 -0.373080 1.843930 0.089342 0.177618 0.289277 2.697196 -1.093461 3.231105 -1.493183 -1.615214 1.594071 -0.006021 1.144024 2.230553 1.231876 -0.724785 -1.825687 -1.524973 -1.892457 1.973453 2.858701 0.047001 1.431148 -0.380625 -2.758978 1.584011 0.504688 0.525594 0.413088 -0.360563 -0.500437 2.269974 -1.315075 1.942044 -2.340695 0.555947 -2.651221 0.314606 0.113357 -2.333000 -0.910807 0.234616 -2.742036 
image 2.560079 -0.692574 0.275551 0.211571 -0.962287 -0.246113 1.677963 -0.108629 -2.110330 -2.831627 2.026197 1.390999 -0.424404 0.231368 -1.844736 1.396355 -2.970063 -0.403241 0.594449 -1.386473 1.835388 0.662686 -2.161900 -2.459416 -0.574110 0.902584 -0.968364 -0.433246 0.904527 0.938318 -0.224120 0.094554 2.059779 -0.310121 -2.241643 -1.382769 1.326349 2.561202 -2.135145 2.998118 0.531235 0.480545 -1.668412 2.023057 0.583621 -0.463483 1.795383 -3.499357 1.072878 2.170713 
source -2.160738 0.317955 0.347324 -0.253457 1.334456 0.071044 -2.344293 -0.017799 0.017333 0.483314 0.844024 2.080669 -0.672125 0.057086 -2.311797 2.512572 -0.790454 0.992988 -0.769858 -1.161374 2.214047 -1.120085 0.312039 1.218296 2.247752 2.950678 -1.599183 -0.761410 0.559106 -1.585536 -0.765240 2.075963 -1.448367 1.491110 0.579156 -0.717034 -0.973097 -0.013175 -0.664589 1.807564 1.824946 -1.030613 0.078529 1.033054 -1.649178 -3.637623 2.213228 -1.009725 0.089502 -1.194399 
story -2.203148 -2.089564 -2.283318 -1.982825 4.591344 0.439827 -1.472505 -0.852392 -0.216265 1.199323 0.998658 -1.092648 -1.458604 -0.811259 -0.291888 -1.961985 -1.696980 -1.352046 3.876533 -3.343946 0.410027 2.101807 -1.687966 -1.630196 -0.039597 0.319206 4.198781 1.301771 0.523227 -0.453950 0.207771 1.219694 0.530888 -0.247607 -1.983840 -3.922040 0.350713 0.173628 -1.333700 0.715701 0.315943 0.531744 1.808079 -1.961366 1.507614 -3.746140 1.946269 0.117878 1.815570 3.099043 
size 1.433892 2.733120 4.537127 -0.089514 -2.234974 0.629368 1.786744 -1.613748 0.394495 -2.955148 2.750523 0.130507 -1.442072 -2.150453 -1.174595 -1.161009 -0.435693 3.328101 -0.322663 1.015317 1.867581 0.370464 -1.344373 0.288183 0.237052 2.495263 -0.891107 2.315516 0.650941 2.013963 2.478148 0.064988 1.553538 0.509595 2.915233 -1.668257 1.263167 -2.178474 1.472765 -0.805743 -0.987187 0.670497 -0.457786 1.246730 -2.249737 3.774954 1.746432 -3.583184 0.921701 -3.381550 
center 1.467289 -1.461652 1.894779 0.505269 -0.093556 0.373723 -0.830703 -0.088902 0.872184 1.345516 -0.853073 0.296828 2.101465 1.711082 -0.277181 0.451160 1.096996 1.274337 1.343883 0.415722 -0.624915 -0.797465 -1.815429 -0.314330 -0.752981 0.219055 -0.728603 -2.107809 -2.800529 0.821046 -2.150749 -0.407780 1.018244 -2.173307 -0.457368 -1.685100 0.880296 2.862257 -0.571461 -0.596687 -1.248789 0.743081 2.593198 3.776901 -4.595152 4.005225 -0.629527 0.869031 -1.371625 -1.550379 
rate -0.626758 1.815691 0.076116 1.048203 -1.355476 -1.073045 -3.671979 0.430101 1.266752 0.053100 2.087818 -0.861965 3.747440 -1.921762 1.443776 4.582529 0.691833 1.924864 -3.189556 -0.287127 -0.611065 -1.783585 -0.087729 1.547527 1.210118 -1.056557 -0.479270 -0.568435 -1.517278 2.072185 5.901717 0.841688 4.613999 -1.683034 -0.690000 0.502734 -1.231230 -3.662508 1.293934 -1.031556 -0.803500 0.033593 -0.650346 -0.278653 0.385125 0.150642 5.406933 -3.214382 0.208137 -5.560317 
head 0.767785 -0.901610 -0.480827 1.119256 0.400197 1.316458 -0.768482 1.975575 -0.845453 -1.353629 -2.975008 -1.784761 -0.766672 -1.196677 -1.198376 -0.932798 -1.067660 -0.499979 -1.078231 2.790005 1.146529 0.015297 0.267438 -1.221887 -3.064409 -0.593800 -1.163558 -0.291123 -2.247873 0.541871 0.207521 1.021503 0.343060 1.422222 2.075130 0.368843 1.820850 -0.986052 -1.830201 -0.027764 -5.970151 -0.284671 -1.400268 0.605863 -0.725044 1.080751 -1.811096 -1.137978 -1.231094 3.593207 
father -2.884238 -0.283083 -2.046664 -0.327657 3.500472 1.888480 0.269640 0.631327 0.109249 0.530927 -3.326437 1.518846 0.426843 -0.839279 2.101748 -0.925947 1.661287 -1.993911 2.067648 2.735556 -1.119469 -0.217022 0.005606 -0.288597 1.113005 2.312097 0.073066 2.504380 -1.446207 2.106799 1.768496 -2.172931 -2.088451 -0.777003 -1.865477 -2.760908 2.236583 -1.061661 -0.276794 -1.953647 -4.390689 -1.267293 2.123069 -1.982180 2.813584 -3.445949 -1.537075 -0.068522 -2.341149 2.209845 
plant -1.138556 -0.306266 0.096251 1.094903 -0.620310 1.593009 -0.115250 0.451635 0.048159 2.948286 2.778946 3.652457 1.281286 1.693684 -1.324699 0.049011 -1.305793 2.302864 -0.178172 0.507320 3.600626 -3.520595 2.392588 3.032047 2.256636 1.718996 2.088248 3.706779 -0.584140 0.484016 0.678334 2.310123 -1.893493 2.411176 2.290546 1.423226 1.717885 0.884871 4.443163 -1.516887 -1.380328 3.072750 -3.402068 1.847104 -4.050470 1.551412 0.595365 1.760944 1.678123 0.373632 
capital 0.627925 -3.320842 -0.034696 -1.472670 -0.879312 0.255382 -3.118608 -1.892905 -0.007272 -0.752925 -5.969246 -0.968525 -0.893683 0.288630 0.000648 -0.577448 2.715850 1.597423 -1.520918 1.624066 -0.397597 -2.783794 -1.190451 2.683628 1.188354 1.448899 -1.665746 -0.716658 -1.721590 -0.569870 0.496810 0.641791 -1.060325 0.284637 -0.484605 -0.850555 -0.008409 1.236285 0.638081 -0.656427 -2.110905 -0.050240 2.731210 1.752332 -0.601802 1.010416 -1.463798 1.556445 -1.115931 -6.178596 
others -1.027605 -1.039658 0.322160 -0.504176 0.363353 0.615652 0.918843 0.604699 0.571085 -0.598388 0.606962 -0.174122 0.214352 -0.618804 -0.691570 -0.374652 -1.058981 -0.034916 1.529363 0.095634 0.376862 -0.850618 1.030444 -1.492051 1.161323 -1.176633 0.391209 0.369900 0.391603 0.113159 -0.956663 -0.315466 -2.237017 0.423765 0.162392 0.263808 -0.216387 -0.405995 -0.225219 0.409387 -0.233206 -0.253314 0.467857 -1.563345 0.921066 -1.432613 0.456974 0.060937 -0.006606 -0.125782 
business -0.472034 0.715559 2.038294 1.226325 -1.891070 2.056665 -0.355961 0.451986 1.041554 2.840537 -3.782502 -0.141162 1.076439 -0.154274 2.023689 2.787332 -1.561319 2.715793 -0.549756 1.264829 -1.221835 1.921003 0.694888 -2.041464 2.537159 -2.309606 -0.126822 0.388741 -2.754236 3.792755 -0.042160 -2.559109 -0.679559 0.086961 -2.922294 -0.363063 -0.249787 1.961149 3.662934 -0.783909 -0.077420 -1.233970 2.040052 3.200057 0.735222 -0.311029 0.452437 4.109731 -0.984405 -1.500022 
goal -2.107241 -0.725819 1.571246 4.594330 -2.220410 -1.445207 1.654132 0.268387 2.552375 0.918477 1.451034 -3.197107 -2.103940 0.834043 0.627440 1.146290 0.718286 -2.117193 1.688997 1.898758 -0.293725 2.421746 -1.239049 3.249542 -1.628635 -2.097544 0.505165 -4.236507 -1.797271 -4.540451 3.148057 -3.774894 -0.403829 -2.332316 -1.365223 4.060301 -3.099808 -0.402256 -0.100121 1.177079 -1.665060 1.254442 -1.152772 1.102260 2.367955 0.318785 0.483487 -1.750927 -0.647774 0.435716 
change 2.803604 1.495917 1.605604 1.801866 2.217211 0.389561 0.177219 2.649772 0.621067 0.296276 1.334466 0.828099 0.019904 -0.388757 -1.737149 0.705405 0.847000 2.383784 -2.766349 1.364254 -0.550103 0.115812 -0.065686 1.364965 0.383206 -1.692108 0.862102 0.342429 0.536088 -0.532178 -0.377741 0.944137 2.295994 1.467398 1.566940 0.329199 -1.584851 -1.031707 -0.675600 -0.190730 2.226904 1.940913 0.874439 0.314367 1.399746 -1.712432 0.174002 -1.059661 1.950895 -2.514943 
shift 1.267795 -0.789074 1.627118 1.149776 1.389715 -0.202134 0.901896 3.123742 0.252332 -0.014833 0.861348 1.579290 2.975075 -0.824435 0.986493 -0.447604 -0.072056 2.954707 -0.863579 0.852823 -1.276625 -1.006987 -0.293466 2.602443 0.247325 -1.510285 0.151338 -0.611920 -2.023670 1.494408 0.463518 0.984941 1.495571 -0.228391 2.177624 -1.563050 -0.349071 0.716022 -1.367853 -0.435926 1.332832 -1.446081 -0.864342 2.293543 1.858972 0.341118 0.868439 -0.176892 1.592210 -1.811281 
effect 2.937819 0.388834 -0.206651 0.009642 0.755557 0.403560 0.810915 2.935865 1.008861 1.919638 1.627247 1.314654 2.398358 -0.326544 -1.296817 1.084007 0.863728 0.380168 -0.698697 0.714195 -0.905900 0.294146 -0.423386 -0.458729 1.045348 -0.539262 -0.621870 -0.111567 0.671806 0.649177 0.944227 1.541118 1.298221 1.166092 0.787500 1.887443 -0.299666 -1.648495 -0.966768 2.080611 1.282077 1.501397 -1.067865 -1.517097 1.053009 -0.612408 4.178460 -2.089188 2.798409 -1.299279 
project -0.203375 0.513140 -0.532492 -0.233540 0.720341 1.014672 -2.100425 0.295687 -0.159194 2.235655 2.358604 3.075220 -4.705848 2.099790 -0.901659 -0.787344 -0.293844 1.004556 -2.777928 0.111128 0.649879 0.968608 0.516021 -3.497337 -0.261742 0.698128 2.411698 -0.379040 -1.341386 -0.759356 3.551368 -2.922018 -0.713273 0.661990 -2.296723 2.707123 -1.348072 1.671029 1.011065 -0.041081 0.486507 1.597427 0.267445 3.005392 0.417212 1.478267 2.493981 4.618406 -0.850728 -1.628633 
support -0.216258 1.474114 0.704572 -2.462763 -0.159404 -1.888914 -0.290200 1.805259 1.974228 -1.876012 -0.538565 0.275429 -1.361684 0.859482 -3.298648 0.567424 -1.995311 -0.468495 -2.170038 2.597954 -3.023227 -0.625448 0.275487 -1.471210 -1.927117 0.003402 -1.546265 0.532523 -1.315079 -0.904687 0.891473 -3.970617 -1.806855 0.753308 -0.489852 0.956810 -1.422135 1.407215 0.981765 -0.927648 1.015132 -0.521470 -2.264364 0.638916 1.172120 -1.163559 0.190566 0.665395 1.650083 -1.085115 
person -1.056725 -0.387157 0.386468 -0.007043 -1.070153 0.160415 1.202909 1.057062 0.650967 0.418096 -1.494804 -2.666501 2.376900 -2.348418 0.959717 0.186245 -0.793139 1.605975 1.365340 0.665172 1.414924 -2.579338 1.464231 -2.777657 1.165699 -2.713685 0.186604 0.974235 3.196203 1.362194 -1.489756 -1.597065 -1.968837 -0.180464 -1.378951 -0.537322 0.544237 -4.620167 0.717439 1.088821 -1.159851 0.100888 1.230570 -0.651520 2.487010 -0.465657 1.298160 -3.822597 -1.304709 1.315877 
color 2.131522 -0.124928 3.605255 2.249704 0.314608 -0.911646 3.536813 2.524507 -2.802859 -3.584991 1.798912 1.064752 2.103360 1.498915 -1.044907 -0.947579 0.410422 0.020014 1.206462 0.703900 2.010812 4.259879 -1.263255 -0.725104 0.517621 1.432278 0.451025 1.876355 0.684174 0.269917 0.444984 1.649549 2.736471 -0.573676 2.503490 -1.998653 -0.612588 0.268899 -0.089083 2.826593 3.206519 1.241916 -2.670194 1.926565 -1.118190 -0.641695 -1.252975 -4.550557 0.775641 2.264607 
army -0.645353 -2.768360 -2.257859 -3.977515 -0.298269 -2.856080 -0.328916 0.378152 1.785880 -2.634211 -4.018989 -2.498858 -2.332018 -1.083455 -0.278811 -0.854581 2.740806 -0.227858 -0.241402 6.829769 -2.197793 -4.253074 -3.204907 1.836251 -1.883112 2.832216 -0.983722 -0.383037 -3.564100 -1.029553 -0.001990 2.305365 -4.861394 0.231122 -1.016789 -0.683063 -0.523579 -0.106222 -0.023654 -0.799156 0.150245 -1.989562 -1.163942 -1.835723 0.685346 1.865558 -1.817490 0.555012 2.194643 -1.410172 
addition 0.063791 0.859734 0.430600 -0.511632 -0.626285 -1.061546 -0.261407 1.002028 0.642204 0.770031 1.240415 -0.337096 0.392015 0.588194 -0.314863 -0.995042 -0.236895 0.895809 -1.128569 -0.246421 0.005992 1.038149 0.030032 -0.755404 -0.462621 0.330680 -0.757538 0.720698 0.111136 -0.052874 -0.262071 -0.417977 0.812767 -0.349915 0.101291 0.859853 -0.888238 0.643858 0.719344 0.281350 0.931902 0.174995 0.234547 0.248385 -1.669763 0.416698 -0.051558 0.848632 -0.807856 -0.388052 
match -2.530349 2.777215 -1.090345 1.070915 -4.568315 -2.741236 1.532693 -0.910695 -0.099308 1.380541 0.503041 -4.653932 -0.821080 -0.013446 1.870630 -0.503298 1.978145 -4.562190 3.809805 1.723441 -1.646940 4.327569 -1.356087 4.937383 -4.174343 -2.349963 0.789188 -1.571847 0.824542 -3.893378 0.713676 -0.606821 0.273822 -1.824850 0.141851 2.805546 0.968930 -2.737465 0.628788 2.163698 -3.561788 1.302492 -0.544668 1.705102 3.232069 -1.193979 -1.661406 0.581086 -0.472113 0.909520 
leader -1.338060 -3.538915 -0.595810 0.026119 2.225149 0.001120 -1.073395 1.632672 1.444791 -1.367860 -3.098276 -0.660366 -1.826055 0.103755 -2.336273 1.290609 -2.440136 -1.704626 1.243953 3.914560 -3.288153 -1.645190 2.026270 -0.031319 -3.475879 -2.334995 0.374977 -0.491587 -1.282273 -0.621609 -0.793024 -1.712085 -2.448314 -0.347403 0.580124 0.812118 -0.139815 1.024742 0.228361 -0.987028 -0.788593 -1.921444 -1.202177 -1.294162 2.296970 -0.289266 -2.012970 1.088015 0.075226 -0.270636 
structure 2.251843 1.767450 1.553221 -1.421619 2.726144 1.500510 2.687348 0.674328 -0.471534 0.592146 3.533769 -0.530922 1.090228 0.197437 -1.518552 -1.679061 -0.754208 3.753023 -2.011111 -1.210090 3.160767 0.243062 -0.597947 0.802087 -0.904771 -1.166974 -1.385932 -0.621767 0.329039 -0.455930 -0.957698 0.128840 -0.246776 0.848670 -2.281996 0.855687 0.519464 2.385711 -0.431772 0.207038 -1.344877 0.866052 -2.500865 -0.656874 -1.776230 1.966315 0.529525 0.606955 -0.490072 -3.137791 
set 1.009571 0.859003 1.555858 -0.379979 -1.768914 -0.838569 3.502798 0.877823 1.495566 0.735953 1.566673 -0.756343 -0.293480 -0.601152 0.554586 -0.430011 0.048214 1.034194 1.036186 -3.085204 2.461432 3.707432 -1.311227 -0.895783 -3.025768 0.884247 -0.250939 2.880998 1.892249 -2.470258 -1.958964 0.443885 3.452890 -2.128099 -1.023240 0.596421 0.183042 -1.938169 -0.855741 -0.282385 -0.740154 -1.504819 -2.376310 -0.095315 3.332103 0.168746 -0.608576 1.338510 0.839533 -0.700147 
product 1.091916 0.378885 1.866247 0.750711 -3.805351 -0.552395 0.027229 1.007449 2.040278 1.105350 -0.379410 0.888656 1.524643 2.849887 -0.624005 2.037566 -1.983969 2.468940 -2.649279 0.297863 0.819256 4.470457 1.528165 -0.487425 6.338889 1.421747 -0.884608 1.879864 -0.220103 0.064893 -1.257362 0.754480 0.027795 -1.611894 0.650999 -0.161125 0.766660 -0.397656 1.812858 0.329704 2.550472 0.017706 -2.556230 2.854527 -0.978425 -1.155278 1.861972 2.125352 -0.252101 -0.828193 
show -0.394119 -2.087287 -1.798790 -1.496378 -1.291996 -0.019505 4.169209 0.885283 -0.348632 0.874315 1.456533 -1.045872 -2.026331 1.561925 3.584355 -1.979916 -2.470707 -2.653023 0.819067 -4.035092 -3.281027 3.289455 2.507921 -1.267904 -2.564666 -0.295398 1.746087 1.388330 1.326213 2.070946 1.138684 1.469523 1.683530 0.075740 2.864245 -0.534380 0.259724 -0.393029 -0.116962 2.894387 0.883634 0.878249 2.670088 4.221458 2.637698 -1.695887 -0.355545 3.613019 1.776578 2.315269 
range 0.025418 -1.249630 3.991970 0.752207 -3.454353 0.502079 -0.281032 0.515204 0.195810 -1.206207 4.533144 1.016259 -0.171706 -0.752678 1.458620 0.683324 -0.908113 -0.392674 -1.441788 -1.274116 -0.644064 -1.322753 -1.941333 0.954095 1.996037 1.415213 -2.906823 0.040331 -0.952018 -0.064515 1.272955 0.402700 -0.222970 0.548457 1.560144 0.103096 -0.327790 -2.540775 -1.486973 -0.980430 2.333498 -0.219490 0.036573 -0.507232 -3.473462 2.872984 1.263439 -0.579785 2.496347 -0.977464 
attack -3.387147 -1.174774 -2.553250 -3.772066 -0.889854 -2.213828 -0.051048 1.022988 0.318361 -0.300179 -1.862219 -0.939035 -2.128082 0.678106 -1.083580 0.211916 1.212353 1.117872 2.071015 1.722265 -4.033655 -2.538300 -3.102495 -0.687852 -1.151684 -2.790620 -3.046110 -1.587259 -3.405455 -1.184675 1.829388 1.119377 -3.836041 -1.645766 1.293317 0.328667 0.979677 -0.774247 -1.770400 0.978417 -1.870260 0.968153 -0.830348 -2.393335 -0.188114 1.009144 1.430808 0.505853 3.516000 0.101417 
data -1.581056 4.483242 3.168719 1.031647 -2.466218 -0.794324 2.521246 -0.070634 -2.749461 -0.479740 2.116373 0.512938 -0.365399 -0.831638 0.555232 4.718907 -1.675195 2.919255 -3.008782 -2.047303 2.973356 -0.442685 0.189653 -1.420558 -1.716918 0.377231 -4.063616 0.563541 1.438502 -2.796792 0.168891 0.533321 1.420533 -0.436560 -2.463798 -1.538558 -1.863248 -0.264798 -0.865808 -0.382975 1.271024 -3.440089 -1.843932 3.254835 0.236203 -1.173906 6.115596 -1.144006 1.237496 -2.908870 
road 2.419493 -0.234506 -0.145010 -0.943139 -1.412684 -0.219166 -2.895148 -0.411778 -1.442124 -2.654442 -0.526629 1.048944 -1.753660 0.016321 3.921879 1.848823 2.700158 0.381689 1.282074 -0.140750 1.708280 -4.156460 -4.087912 0.017997 1.402666 -2.439694 1.723700 -2.606864 -0.861727 0.106256 -1.500041 2.087446 -0.682135 -2.009905 -4.784487 4.010376 -0.942001 -1.149377 1.826281 -1.798664 -0.946477 1.817276 0.425752 3.213259 -3.092014 1.672288 -1.685767 4.081172 0.595869 1.038694 
fontsize -2.829563 1.055313 4.350858 0.231313 2.690580 -1.965653 -0.116699 -0.546626 -4.814611 -0.751960 -6.005298 -0.340283 5.838921 0.591375 3.299109 -1.990458 4.144660 1.000539 -2.702155 -4.293887 3.805201 -3.424610 -5.021053 0.399621 -0.786344 0.773317 -4.303876 -7.426992 -3.299194 2.513340 0.436568 -2.410904 0.723599 -4.456241 7.136096 -4.431938 -1.499145 3.283420 4.084335 -2.582733 5.498249 -1.766130 -2.000366 3.634738 6.272480 -3.341888 2.041267 -3.909885 -3.341676 -0.960838 
office 1.943566 0.501247 -3.907315 0.736888 -0.966889 -0.890069 -0.685554 2.823092 -1.404787 3.567701 -5.550862 -1.255072 0.639274 -1.645427 -3.021615 1.590881 -2.570238 1.010610 -2.701922 -1.657948 -1.356143 0.397054 2.183619 -0.493114 -1.779322 -0.694814 0.438180 1.351045 -2.343949 0.440817 0.333890 -1.080580 -0.354440 0.349719 -3.694700 0.633435 0.626262 0.524597 2.727096 -1.435830 -3.636790 -1.154005 1.636546 1.365863 -0.033746 3.878094 -3.212935 0.580451 -2.629965 0.092620 
market 1.537955 -1.521166 0.912883 0.461466 -4.356550 0.902013 -1.733723 -1.238063 2.803025 -1.728082 -1.730035 1.875832 0.624577 0.201475 0.476183 2.628124 -3.465579 1.750416 -0.218847 0.284696 -1.655415 2.647259 0.862727 2.300825 5.076994 -2.505508 0.352865 1.421512 -3.208848 0.454020 -0.051302 0.213949 3.465539 -0.553100 -0.735244 -0.125005 -0.035287 1.043002 2.424619 0.093803 2.439855 -1.467109 0.597699 4.201185 0.040097 0.395460 1.751651 2.111550 1.177297 -3.909415 
operation -1.572185 1.285794 0.178423 -1.299563 -2.465367 -3.093141 -0.259607 1.327340 -1.410183 1.756930 -2.436755 0.633640 -0.800499 1.672198 1.108523 0.939025 1.143064 4.070838 -2.333481 1.284609 -0.758625 -1.383711 -1.536295 -0.783151 -1.082255 -0.978182 -1.447757 0.708617 -2.148179 -1.512568 0.464800 0.452453 -0.524758 0.255204 -0.258127 0.715709 -1.162235 1.664801 0.498539 -2.087801 0.089029 -0.998821 -2.532209 0.383243 0.594607 3.589150 1.868515 3.630254 1.194439 -1.147278 
career -1.289121 -0.834587 1.080026 1.968470 0.648667 0.867385 1.303468 1.289907 0.827331 2.931531 0.719132 -1.837328 -0.596594 -0.026144 3.521949 1.252898 -1.751014 -4.137495 1.630321 0.180326 -2.295001 2.275014 -0.236223 0.604466 -3.080632 0.895248 1.144037 -0.510223 -2.318835 0.435648 3.306838 -0.626299 -0.450941 -2.640261 -0.554958 -0.127422 -0.580150 -0.100759 0.867270 -2.599834 0.564033 0.850046 2.355026 -1.915307 4.155402 0.441876 -1.762579 0.805760 -3.873462 1.390763 
television -1.121253 -1.401650 -2.088698 -2.799757 -0.765286 -0.407974 0.315544 1.067988 -0.371922 1.268296 -0.313385 0.237012 0.540463 3.791018 3.590837 -0.723058 -4.326024 -1.379048 0.182175 -4.486431 -4.357308 3.448023 3.305909 -1.307204 -4.268394 1.905840 0.605173 2.793967 -0.788643 1.560255 1.448580 1.963820 2.201267 -0.215706 0.242149 0.095750 -1.387774 1.099608 -0.289698 1.336722 2.632336 0.043461 3.272023 5.639037 2.117282 -0.598713 1.512725 0.507230 1.592456 2.324484 
problem -0.500890 3.242074 -0.085070 0.348419 0.913344 0.003412 1.404213 1.886843 2.760748 1.855427 0.262181 2.051572 0.334787 0.115802 -0.076268 0.506537 0.582515 0.169394 -0.217463 1.398799 1.480942 -0.451625 -0.998083 -1.910278 1.047510 -1.755612 -0.041217 0.208696 0.416949 -0.211010 1.379861 -0.061239 -0.730567 -0.788292 0.414142 1.114721 -2.988344 -3.086043 -0.582031 -0.978605 0.612006 1.547941 -1.562825 0.663093 2.026852 -1.184612 2.188061 1.429931 3.183397 -2.238929 
construction 1.350741 3.229128 -1.166878 -1.916781 0.343124 -0.322530 -1.555711 -0.979636 0.387655 1.040638 1.617696 3.589327 -1.655917 1.897109 -0.643788 -1.324025 1.155254 2.761433 -1.841173 -0.511613 3.210831 -1.644215 -2.634271 -0.870488 1.374143 0.275812 2.047013 -1.838992 -1.466733 0.811429 1.714249 0.715880 -0.119044 0.299427 -3.270808 2.801452 -0.114108 1.968973 2.645044 -0.872090 -1.348166 1.660942 0.176824 1.993623 -0.037880 4.272316 -1.058762 4.233397 -2.606589 -2.898817 
aircraft -2.303394 0.622878 1.694214 -0.066720 -1.452755 -6.049320 0.726491 -3.227862 -2.894842 0.525794 0.257234 3.092464 0.191616 2.366108 0.854931 -0.899019 -0.855617 2.667240 -4.499856 0.065687 -2.739481 0.470955 -5.204905 -0.856483 1.701628 -2.093278 -2.911299 0.522406 -1.618776 -1.405298 1.970145 -0.996364 -1.057535 3.072186 1.997044 4.325913 -0.466400 -1.172868 1.569257 -2.780172 -1.321628 -0.086569 -0.436807 -1.487959 2.109366 4.560803 1.177474 1.767838 3.936649 2.414629 
research -2.731566 0.726650 -0.249240 2.925488 0.567735 2.684939 0.372660 0.390765 0.672924 4.569344 3.647616 2.405575 2.668284 0.820391 0.116661 1.081628 -1.166669 -1.576218 -2.803963 2.655569 0.693242 1.913747 2.120229 -4.530771 -0.105302 1.332259 0.372939 -0.997801 -1.988201 -1.340138 -0.392040 -0.842757 -3.240868 1.740923 -1.358819 0.445533 -2.791539 1.571197 -0.220558 0.529028 0.335523 -0.164822 -0.310496 1.574576 -2.353176 3.801100 4.524708 0.692042 -0.403212 -3.922207 
information -1.346136 3.542302 0.745396 0.898833 -1.669873 -0.314035 1.611113 0.577538 -0.722456 1.175890 -0.277856 0.276010 -0.216808 -1.450725 -0.583766 4.331042 -2.804261 2.284616 -1.118051 -0.352439 0.705713 0.047325 0.266019 -3.736933 -0.421542 -1.315205 -2.397650 0.472445 0.594702 -3.059227 -2.259591 0.177542 -2.526342 1.471718 -1.663191 -1.671424 -2.191175 1.180679 -1.772225 1.519080 1.434028 -1.286681 1.150702 2.088921 -0.068956 -1.768499 4.909369 -0.581572 0.461925 -0.914312 
ship -2.614906 0.415430 -0.169727 -4.349174 -0.089881 -2.981800 0.639998 -4.765273 2.424016 0.980952 -2.490039 3.032568 0.298922 0.084281 -0.031202 -1.243924 2.597459 2.066946 -0.927649 -0.286815 -0.388628 -1.262545 -6.324688 -2.547587 0.434351 -1.606501 0.333508 -1.617779 -0.657413 -1.972996 2.527426 1.733679 -0.761921 2.005053 3.044650 -1.425606 2.352991 -0.289334 2.603492 -2.345046 1.467407 -2.115591 -0.944009 -3.284081 -0.070703 2.738438 0.854034 0.865090 -0.365638 2.867776 
art 0.746450 -2.697405 2.342063 1.851163 -0.011408 1.935787 2.501143 -1.421549 -0.022557 1.470474 1.225439 -2.130846 0.590832 1.143585 1.171231 -2.421134 -4.541919 -1.588775 1.803658 -0.070468 0.214722 1.310882 -1.463954 -4.027344 1.661251 4.246065 1.979625 -0.929452 -0.219461 1.932948 -1.061818 -1.211735 0.973915 1.230710 -3.479721 0.545912 -0.232004 6.068940 -0.272566 4.614530 -0.151968 -0.533316 3.167233 -2.825955 0.725451 0.230072 -0.454973 0.630262 -1.602951 -1.632264 
km -0.065013 -3.818979 1.832971 -0.422660 -2.253638 0.735026 -4.038558 -1.380725 -4.288577 -1.472853 0.207035 1.796745 -1.484319 -0.715281 4.235827 1.851049 2.785711 0.362116 -1.276093 -2.932041 0.649690 -3.460839 -3.195560 -0.724872 1.413101 1.480042 -0.607366 -4.744499 0.594547 1.677581 1.370766 -0.660851 -0.903211 -0.434716 0.886095 -0.484453 2.387748 -2.110022 -2.365732 -1.998556 -0.762436 0.515554 -0.819191 4.973822 -3.399362 4.918524 0.152211 1.205244 0.190715 -0.879553 
football -1.522657 2.180965 0.399462 1.350655 -1.546818 -0.769077 -0.429283 -0.134334 -2.319770 1.443268 -0.144133 -0.402494 1.474897 2.647952 1.459430 -1.590767 0.747024 -2.456339 4.693840 4.555936 -1.243338 3.381549 1.888243 3.880495 -3.546163 -0.864414 0.928274 -2.101434 -2.175347 -1.349207 0.170674 -3.432584 0.799912 2.897545 -0.260268 1.948713 -0.983694 -0.232549 -1.800438 -1.597567 0.051340 3.138173 2.583687 0.682460 -1.009383 -1.295747 -2.334593 -0.092391 -3.915828 0.097896 
space 2.520722 -0.004706 0.610844 -1.331873 -0.638320 -1.439489 3.482419 -1.138394 -0.351560 2.587269 0.860357 1.085218 2.255480 -0.104475 -0.751318 -0.532363 -1.689272 4.305663 0.902288 -1.462859 1.741872 1.798105 -1.874132 -2.522617 -2.171048 0.852461 1.639452 -0.637257 2.665812 -1.845819 -0.005028 -3.665798 1.775488 -1.146363 -1.889446 0.367173 -0.628920 -0.293167 -1.371447 -0.248181 -0.792239 0.169409 -1.043235 1.134083 -2.181266 4.325895 1.972253 1.221293 2.130335 0.418797 
industry 2.082747 -0.667677 3.028137 3.164928 -1.519931 -0.819241 -2.232098 -0.784630 3.585916 3.714086 -0.534858 0.728573 2.848608 4.355797 -0.904156 3.080880 -1.834002 2.740180 -0.521368 0.209476 -0.599752 1.212275 1.034216 -0.330054 2.822224 0.756601 -0.309766 -0.209528 -3.662728 3.221219 0.990439 3.492766 -1.113298 1.230595 -0.029543 0.993791 0.413815 3.420706 3.775855 -0.922542 0.958382 -0.765338 2.369872 3.961671 -0.357308 0.676696 1.411834 3.291083 -2.450431 -1.244951 
feature 2.352853 0.288343 2.756079 -0.250327 -0.854963 0.963990 0.395892 0.185998 -1.209173 -0.450640 4.010054 0.339493 -2.187269 0.668368 -1.886413 -1.268354 -2.208803 0.904618 -2.578513 -2.438976 0.036009 2.492873 -1.849249 -1.568320 -0.567426 -0.224264 -0.553408 1.173974 1.220996 -0.287657 0.361728 0.420850 1.458605 -0.351147 -1.353417 -1.264558 0.430286 0.192443 -1.756398 -0.339065 1.937357 1.094995 0.944288 0.770581 -1.362386 -1.390038 1.062205 -0.700350 1.945091 1.606476 
performance 1.389651 1.130341 1.148910 1.760924 -1.485598 -2.434602 3.508028 0.837580 -0.358827 2.316579 3.812404 -2.017214 -2.278473 0.106975 2.615193 -1.407047 -3.567630 -0.993586 -0.579444 -1.852544 -3.361956 1.228100 -0.124069 -0.999184 -0.448626 0.875572 -0.307813 0.914258 -1.012724 -0.718819 2.596698 -1.509907 1.473621 -1.461621 1.611136 2.954927 1.855608 -1.589312 -0.408284 1.505800 1.768641 0.704998 0.849607 0.108692 3.987750 -1.838428 -0.053407 1.465924 -1.187780 -1.657460 
action 0.981735 -0.272172 -0.795015 -1.455709 0.168868 -0.970204 -0.893104 2.793533 2.016528 1.922328 -1.534342 -1.131994 -1.438608 0.364649 -0.218992 -1.015971 -0.400775 1.875006 0.996794 0.574821 -1.801291 -0.652784 -1.113066 -1.276180 -1.661966 -3.069162 0.121496 0.549341 -1.219934 -1.074806 -1.388200 -0.369696 -1.391626 0.411478 1.271363 -0.024151 -0.225558 -0.783627 -0.649171 2.823516 1.030599 0.342750 -1.954419 -3.065110 3.926725 -0.104797 2.378946 -1.136059 2.061342 0.448182 
car 1.573089 1.803787 -0.305812 2.879478 -0.170592 -3.135861 -1.077804 -0.421140 -0.794981 -3.247355 -1.371790 2.464430 1.058496 -0.092230 3.143020 -0.462821 -2.937133 1.018429 1.437946 1.012853 -1.061278 0.655304 -1.299782 -0.952677 1.015885 -3.380614 1.499648 1.709787 -1.106562 0.799440 -0.351607 1.531064 3.372243 -1.019139 -0.594369 1.783011 2.501064 -6.318692 1.777384 -1.319525 -0.741096 1.319400 1.414738 2.810558 0.391976 1.328873 -0.669121 5.834513 1.917780 2.731879 
band 0.398765 -1.933397 0.004282 -1.320603 -1.338303 1.725375 3.459602 3.786708 -4.272248 -3.653849 4.631896 -1.595712 -0.991407 0.525056 -0.831920 1.372546 1.274910 -1.299595 1.406923 -0.460726 -5.726371 1.342217 2.030751 -0.312098 -0.404514 0.958652 0.609142 0.765250 1.442187 1.035911 2.756846 0.376375 0.065724 0.368557 2.178489 1.084437 2.351551 -0.137176 -0.507423 0.506349 1.740526 0.350941 -1.636477 -1.067793 1.647517 -0.529796 -3.072943 5.007961 -2.681480 2.663928 
style 2.684201 -0.300765 2.940244 -0.232826 0.693569 1.649981 2.070733 1.783264 -1.364951 -0.860441 3.695601 -1.548908 -0.360610 0.622203 -2.548574 -4.903618 -2.979537 -1.639675 1.305340 -1.134379 0.874704 1.911252 -2.478806 -0.063041 2.347857 1.113595 0.340191 -0.128260 -0.112514 0.852125 -0.287253 1.203900 1.890626 -0.747386 -1.402670 1.395966 0.863612 3.050725 -1.485399 1.747524 0.213316 0.445174 2.861639 -3.567004 1.714225 -1.148362 -4.404277 1.040261 -0.711659 -1.195767 
education -1.175023 1.626180 2.200047 0.895411 2.412109 1.226660 0.173532 1.193885 3.413913 2.284392 -0.300348 -2.477365 3.094854 1.559774 2.408837 0.289792 -0.695483 -2.110042 -1.973125 2.466821 0.027539 -1.959113 2.045173 -3.942307 1.408941 2.271876 1.669581 -0.246181 -5.591296 1.632106 0.378525 -5.475450 -1.545648 0.352368 -3.033096 0.161353 -3.907558 0.426245 -0.072740 -1.630694 2.042794 -0.936503 4.173553 1.142648 -2.622485 0.675455 -0.446481 -2.231175 -2.107800 -4.049880 
rule 0.813411 1.609483 1.583363 0.683813 0.154610 0.750659 0.095766 0.904299 2.291210 -1.044259 -2.937922 -0.137941 -1.214761 1.762319 -0.671357 -1.598411 2.237423 0.993849 0.686800 1.166457 -0.932148 -1.186872 0.128378 3.561453 -0.412661 -0.902924 -0.201748 1.132604 2.135810 -2.753737 -3.988468 -0.954079 1.042201 -0.096810 -0.150551 1.079079 -3.469143 -0.659733 -0.111056 0.820227 -0.851131 -1.642785 0.836083 -2.168057 1.641502 -0.220600 -2.385644 -1.600469 -0.477511 -3.336416 
activity 0.982678 -0.200276 0.813661 0.200057 -1.371544 0.107237 0.042266 1.417267 0.821873 2.890826 1.787727 -0.053440 1.495742 0.758968 1.874330 2.559625 -0.067966 1.183555 -0.998220 2.035830 -0.970742 -2.659747 1.923018 -0.756190 -0.101517 -1.735118 0.702863 -1.376325 -0.772658 0.942199 -1.680274 -1.407421 -0.032649 1.615377 0.914948 -0.648914 -0.096299 3.212409 0.976168 1.224013 0.345467 0.222571 1.633726 -0.034845 -1.729981 0.388091 3.018564 1.406841 -0.148555 -2.147540 
today -0.000001 -0.689642 0.441034 0.279001 -0.108605 1.018590 -0.152028 -2.113603 -0.150088 -0.456830 1.085305 0.588158 0.460595 1.986784 -1.366976 -0.415287 -0.066548 0.918477 0.593984 -0.438248 0.592601 -1.171689 0.340252 0.957259 2.833749 0.210584 0.652109 -0.291269 0.605057 1.145514 -1.853740 0.768006 -0.157671 0.323883 -2.352116 0.490459 -0.065100 2.028694 0.538681 -0.987932 0.111513 -1.167598 2.526875 0.801482 -1.238082 0.849553 -1.728923 0.299292 -1.410542 -1.356829 
male -0.770648 -0.571142 4.104663 1.723136 -4.325367 0.630822 1.178495 1.722075 0.147125 -4.901765 0.356344 -1.096300 2.254583 -1.407630 2.544593 -2.945016 0.092697 0.556849 -3.538636 -0.752690 0.968350 -1.064607 2.268638 1.603593 -3.811523 2.922562 2.703624 -1.840875 -0.165741 1.671336 2.923624 -1.145565 -0.836720 0.553042 2.249735 -2.960101 1.266579 -2.035868 1.060131 1.721208 -2.923965 3.034167 -0.510370 -3.271902 0.059215 -0.821598 1.957528 -3.567243 -1.148134 1.428133 
female -1.858741 0.441802 2.148084 1.937982 -2.866750 1.496969 -0.176940 3.144080 1.392081 -3.910404 2.052600 0.887926 1.614035 -1.098984 0.659961 -3.070756 1.254302 -0.232317 -1.844413 -0.722524 1.123343 -0.592520 3.360297 1.089993 -3.387549 2.617546 2.705840 -2.855541 -2.065249 0.518313 4.989341 1.024419 0.224983 -0.345551 2.244367 -2.764606 4.350824 -3.405786 2.522782 2.039159 -2.472183 1.933607 1.029262 0.034662 -2.514937 0.001161 0.093137 -3.517787 -0.778126 -0.896392 
theory -1.595372 0.842933 1.428997 1.121530 3.804960 4.000279 2.982167 0.535317 2.104283 0.853440 0.909955 2.047335 2.839855 0.287266 0.412892 0.539461 -0.789594 1.873357 0.741329 -0.300925 2.853860 2.821021 1.172246 0.357122 1.180903 1.314041 0.745981 -3.642400 1.155693 -1.467474 -2.448304 -0.244227 -2.038777 0.899083 -2.006625 1.023593 -2.706449 -0.754956 -3.132362 0.376448 0.821980 -1.024599 -2.522704 -3.349744 3.744863 -0.473031 2.725873 0.293358 2.817319 -5.017529 
man -0.734759 -2.410059 -2.253947 -0.235507 0.673219 -0.287511 0.497768 -0.141512 1.220454 -0.224536 -2.040557 -1.203587 1.589514 -1.641198 1.049670 -0.671990 -1.444874 -1.410887 3.528916 -0.194590 1.266657 -0.304062 -0.333662 -1.071912 0.089992 -0.944883 2.785506 1.000990 -0.865313 0.755026 0.038935 0.516190 -2.342153 0.741704 -1.613505 -1.800711 1.676595 -2.272517 -1.787220 0.217555 -2.890087 -0.474051 -1.190353 -1.878012 2.822770 -2.671523 -0.580668 -1.532804 -1.265978 4.293438 
university -2.866435 -0.363650 -0.217126 1.854439 1.889939 2.615229 0.097261 -1.099567 -0.638623 2.334852 -1.088607 -1.293075 2.867570 -0.438491 0.195721 0.323111 0.125004 -2.796206 -2.983725 1.428446 -1.365901 0.533895 1.049754 -2.868638 -1.740355 0.485751 1.521914 1.216106 -3.243700 1.011044 0.588983 -3.530446 -0.687480 2.210133 -1.614651 1.678187 -3.357373 1.597764 -0.475701 0.702406 1.075671 -0.510489 2.205977 1.973147 -3.974526 3.818636 -3.191518 -0.298743 -4.756334 -4.724399 
star 1.267467 -2.442377 0.622599 -0.644379 3.151066 -0.029232 2.562874 -0.426834 -2.837030 0.317149 3.204278 -0.752831 -0.348456 1.628339 3.171043 5.157396 -0.574987 2.380887 2.247609 0.438633 -0.609393 5.380548 0.916886 1.012675 -2.317442 2.204601 -0.355380 0.844778 -1.288616 0.415523 0.792988 -0.889026 2.876645 0.019399 3.367266 -2.313523 3.367942 -1.640443 -3.254086 0.568902 0.108441 -0.157356 1.197639 -0.243413 1.775763 1.195430 -0.708517 -2.342222 -0.144439 1.814280 
air -0.500106 0.159191 0.659798 -1.513132 -0.988279 -4.513764 1.337361 0.443220 -1.840112 0.195699 -0.904693 -0.871370 2.405565 0.331547 0.161064 0.310110 -1.407954 0.956014 -0.995331 0.380014 -2.097159 -2.037361 -3.707341 1.108228 -0.013699 -0.121157 -2.783843 -3.294381 1.229923 0.243022 4.185580 1.313928 -1.096476 2.534392 2.394150 4.022606 -0.117625 1.000913 -2.022494 -0.784249 0.407553 1.395741 -2.270976 0.071376 -2.964431 2.844638 2.169240 2.816197 4.589909 3.603762 
hand 0.429722 0.150846 0.631371 -0.597412 -0.524064 0.760235 0.850535 -0.066388 2.596456 -1.313323 -1.216585 -1.369489 -0.558327 -1.348854 -2.574453 -0.400295 -0.135852 -0.900092 2.196901 2.062639 0.259271 -0.753646 -2.966561 0.281497 0.384587 -1.250586 -0.718622 1.221039 -0.282518 0.771635 -1.138798 0.761960 -0.170920 -0.729501 0.560744 1.192735 0.092928 -1.081307 -2.090820 1.658476 -3.710735 -1.561188 -1.782169 -1.672219 1.942210 -0.466758 0.249277 -1.617415 -0.780575 2.362561 
commune 1.288919 -3.036337 -1.988302 3.054936 0.919373 -0.022107 -1.146717 0.639508 -2.289664 -2.557646 -0.030204 -2.588543 -1.017084 0.668043 1.529362 0.257122 6.160421 -1.015443 -1.180668 -0.794637 0.959380 -0.779772 1.940289 3.026437 1.168128 0.349985 -3.073578 -1.297276 -2.089884 1.696962 -1.970627 2.178346 0.060882 0.068338 -4.542542 1.269235 -1.284559 -0.130695 -2.925802 -2.696312 -0.606537 -3.007421 1.736530 2.241859 -3.367887 0.789568 1.965052 1.142132 -1.278856 -1.202289 
seat 3.422071 0.498405 1.044109 0.315425 1.763679 -2.572943 -0.161200 -1.247085 -0.519428 -1.117607 -3.761644 -0.673375 -0.749729 -2.403540 -2.384527 -1.744758 -1.496096 -0.738860 -1.510520 0.868086 -2.439108 -0.078569 -0.438486 2.994399 -1.863145 -0.831885 -1.565658 -0.777851 0.227324 1.947767 -2.418981 -1.323880 1.145805 0.888995 -1.568082 3.350045 2.579348 -2.180947 3.237750 -3.328387 -1.271586 -0.050148 2.292398 2.980964 -1.548321 1.657874 -3.006634 -0.845537 0.179626 -1.131534 
movement 1.963686 -1.597170 1.560040 0.769638 1.544594 1.135747 0.746327 0.608203 1.395218 -3.680441 0.862604 -2.120917 1.490292 0.629014 -2.866190 0.039085 -1.119656 0.301177 0.510625 1.500858 -2.790386 -2.611998 0.268186 -0.880049 -0.405801 -1.057792 1.521876 -2.685645 -0.866828 1.093297 -2.643171 -1.412531 0.448486 0.043889 1.994716 3.724246 -1.802239 3.420221 -2.529758 0.103300 1.121391 -0.169612 -0.419099 -3.799831 2.328160 0.597546 1.150425 0.997353 1.226752 -0.558719 
material 0.730087 3.435338 1.459201 0.111553 1.303367 -0.087347 0.610441 0.414246 0.490553 1.602878 4.131643 -1.352118 0.298588 0.496218 -1.544478 1.372476 -1.368239 1.149381 -0.023900 -0.642657 1.393645 1.077543 -1.553359 -0.999155 3.478022 3.171298 0.462137 1.020544 2.879380 0.663306 0.213528 2.334122 -1.145458 1.620201 -0.430142 0.658430 0.657390 1.121762 0.578507 1.786731 0.522506 0.258774 -3.131641 -0.026243 -1.328911 1.793902 2.791778 1.921608 -0.572874 0.017639 
individual -0.429854 -0.621339 0.592652 1.492814 -1.424093 2.447310 3.658336 2.500935 3.349931 -2.929483 2.478241 -1.653725 0.767794 -2.009095 1.949410 -0.989861 -2.154021 0.680883 -1.835146 2.499932 0.984405 -3.608494 4.148139 -2.732666 1.305792 -3.678234 -1.350406 -0.035101 1.324619 0.210611 0.080282 -1.451591 -1.721087 0.534956 -0.354261 -2.326400 -0.120635 -2.051596 1.732852 0.150763 1.092094 0.803425 -1.065708 0.086546 1.756512 0.590759 3.036845 -2.523297 -1.960045 -2.909613 
brother -2.413430 -1.827469 -2.121089 -1.821592 2.441977 1.989999 -0.721540 1.043136 0.293134 -0.429770 -3.196917 1.696601 -1.072341 -1.495753 1.531940 -1.684115 1.492677 -2.241991 2.057334 3.319548 -2.308502 -0.237622 -0.650809 0.776061 -0.257305 2.213540 -0.527011 2.751412 -1.519215 0.513232 1.507067 -1.453252 -1.885268 -0.973462 -0.416142 -2.070168 3.076347 -1.195542 -0.899971 -0.492047 -4.020039 -0.766891 1.270369 -1.765017 2.276979 -2.176359 -1.265326 0.792173 -2.087515 1.724795 
round -1.646349 2.210153 -0.641959 1.600110 -3.242328 0.448459 0.503530 -1.713352 3.795158 0.877929 1.813043 -2.372993 -2.760244 -0.221141 1.074468 0.557059 0.924264 -3.953396 1.606875 0.015256 -1.709968 2.373344 -2.383904 3.507075 -3.358555 -1.761333 1.001508 -1.819165 -1.410008 -1.540421 1.776750 1.462351 2.740894 -1.516576 1.040387 1.612759 2.991075 -4.332197 0.477264 -0.099038 -1.462301 -0.726096 -3.954106 0.686822 -0.457182 2.059798 -3.127341 0.011027 0.681783 -1.292994 
issue 0.242391 2.097793 -1.373438 1.017028 1.686914 1.565455 -2.578108 2.859861 3.342775 -0.501748 -0.649390 -0.619415 -0.413439 -0.523254 -2.106569 0.923829 -1.334244 -1.657001 -0.563106 0.061683 -1.995462 1.121990 0.700694 -3.321985 0.462588 -1.021907 0.228290 0.191578 0.437858 -1.112949 -0.045880 -1.405018 -0.733569 2.744257 -0.219077 -0.994291 -2.507580 -1.021065 1.187348 0.360184 2.608578 1.405139 -0.482943 1.163600 2.779419 -0.540857 0.996749 0.376659 2.343578 -0.516184 
method -0.609066 4.155979 2.260794 2.098138 0.897819 0.285626 2.703939 0.951271 0.487624 0.762396 1.923024 1.537796 -0.340686 1.358240 0.268522 0.956555 -1.041055 0.324217 -1.292737 -0.252948 2.744010 0.535959 0.107817 -0.854570 1.942615 0.419175 -0.304386 0.186939 1.327741 -0.273363 -1.013552 1.247391 -0.811221 -1.667475 0.262507 2.340898 -2.767142 0.205804 -1.305282 2.114155 0.374755 -2.866987 -2.737919 -1.114952 0.022441 0.073606 3.087963 -1.033259 1.614829 -3.020809 
ground 1.153810 1.693781 -0.375277 -0.782517 -2.359233 -2.241740 0.968841 0.143490 -1.697972 1.012364 0.886211 1.489980 -0.286803 0.306380 -0.491920 -1.337308 -0.255883 0.228840 1.629258 0.528566 -0.240360 -2.367858 -1.914475 2.762899 -0.554323 -0.927672 -0.029360 -2.518404 -0.711750 0.093876 -0.047153 -1.869720 -1.386538 2.202519 -0.253421 1.456240 0.100733 -0.636110 0.155520 -0.137310 -3.162969 1.007277 -1.875018 -0.415008 -3.073628 2.660095 -0.887107 0.216418 1.263294 1.397973 
stage 0.198041 0.221348 0.801342 0.728690 -0.120995 -0.278024 1.973245 -0.133850 -0.439272 0.538918 4.428586 -0.419264 -2.462372 2.128840 2.378234 -3.589331 -0.589747 0.572239 -0.406604 -0.896105 -2.471581 0.777146 1.088583 1.979923 -1.319548 -1.425603 3.594055 -1.325014 0.081664 -1.006811 2.062031 -0.486294 -0.066108 -3.600551 0.424550 2.346717 3.267304 0.279164 -1.018442 -1.507406 -0.711379 0.396039 -1.140875 -0.020401 1.602786 -0.828603 0.430259 0.969134 1.191440 -0.525675 
battle -2.316617 -3.219813 -1.261872 -3.681233 0.814817 -2.497732 0.483966 -1.464746 0.809055 -0.816663 -1.117985 -1.459759 -4.590965 -0.217089 -0.054317 -1.661774 1.570387 0.826966 2.381549 4.825738 -3.066844 -1.342840 -5.367660 1.724112 -2.042458 0.407732 0.340039 -0.919021 -2.338255 -1.957013 -0.732776 2.619823 -2.073905 -0.509471 -1.745232 -1.235945 2.019870 -0.958609 -0.482359 0.833325 0.347279 0.486722 -1.566553 -3.184306 1.320748 -0.537733 0.359282 -1.434793 2.163105 1.854375 
food 0.090316 0.575003 -1.529624 -1.328458 -3.892766 -1.755368 2.483943 0.239694 4.118331 2.276297 -0.922199 -1.238151 1.017986 -0.210166 -0.857265 1.350536 -0.514527 0.346484 0.567303 1.691692 1.407646 -1.606823 2.370607 0.372021 5.396497 1.034091 0.237540 0.981913 -1.992372 1.666468 -1.147634 1.035617 -0.523371 1.177002 4.361853 -1.426571 -0.092550 -0.414543 2.682506 0.597901 -0.359024 -0.757668 0.138965 0.711345 -6.064403 -2.764447 1.922411 2.327407 2.475272 -0.723068 
court 2.382181 4.227587 -0.912381 -3.093480 -1.611964 2.485714 -0.217452 3.159510 -0.016850 1.572810 -5.649300 -0.181477 -1.008423 -1.824818 1.096790 -2.463607 -0.540159 -2.648457 2.835035 -0.871127 -1.334519 -2.381742 -0.294031 1.498727 -0.528867 0.641213 -1.848968 -0.126380 1.722668 -1.554493 -2.723742 -1.815216 -1.165694 2.136697 -1.300439 -1.100786 1.280150 0.032040 3.078923 1.921221 -0.947747 -0.749314 1.378175 -2.051673 2.025085 1.144857 -2.731449 -2.055087 -2.533265 -1.843749 
interest 0.139255 -1.133380 0.908543 -0.045041 0.665898 2.858348 -1.649773 0.412107 2.754549 1.577373 0.333816 0.594372 0.864348 -1.376414 0.966182 2.134197 -1.428589 0.155195 0.805392 0.438005 -0.922366 1.266681 0.400404 -0.449902 0.853263 -1.793646 0.695975 -0.479205 -0.230710 -0.218146 1.996045 -2.373005 -1.596572 2.237356 -1.469342 -0.382513 -0.880077 1.725062 0.781636 1.566265 0.736564 -0.387784 1.858470 -0.660337 2.668805 -0.760126 1.676686 0.893222 -0.973837 -2.289735 
episode -2.792250 -2.516169 -2.658732 -1.574672 3.050035 -0.655782 2.155182 1.740200 -0.021828 1.862141 0.033256 -1.664736 -2.823166 -0.476141 3.309151 -2.013189 0.632450 -2.243160 -0.411355 -3.443814 -1.218126 2.960962 -0.127146 -1.229884 -3.540706 -1.393853 0.795435 3.598233 0.811931 0.708658 1.609470 2.940809 3.766129 0.108018 1.758300 -0.759551 -0.004419 -1.761483 -1.044071 1.839565 -1.821431 0.767414 1.312092 2.268120 1.933717 -2.960656 2.145322 1.328423 1.802797 5.389845 
start -2.041691 0.847419 -0.229844 1.792889 0.144209 -1.421061 0.632622 0.902257 0.061625 -0.073158 -0.096986 0.572360 -1.761118 -0.178378 1.252008 -0.598942 1.052240 0.361370 0.007330 0.427612 -0.790856 -0.248362 -2.130048 2.363903 -1.723030 -1.088373 1.477596 -1.398086 -0.299778 -0.679628 0.494437 1.555731 1.898015 -2.946100 1.493962 -0.125144 -1.404240 1.232507 0.746832 -1.017610 0.950008 0.290575 -0.619931 1.205440 2.527593 0.124838 -1.410303 -0.268461 -1.449510 1.138517 
culture -0.032014 -3.681817 3.784226 0.522394 0.480399 2.566300 1.184237 -2.240350 1.347698 1.142055 2.635974 -2.987497 3.452147 3.807819 -1.168774 -0.108367 -1.531428 0.066233 0.138798 -0.002141 -0.765442 -0.938680 1.061050 -0.210734 2.749759 0.127704 2.393199 -2.243904 2.224725 0.397099 -3.548542 -0.114605 -1.433476 0.632227 -2.030900 -2.361920 -0.541798 3.962851 -0.457707 1.495083 -0.421367 -0.709335 3.934043 -0.024123 0.105611 -2.865779 -0.353141 -1.476120 1.445757 -2.731655 
location 1.413810 -0.975457 0.166297 -0.522898 -2.054612 -1.025078 0.275164 -0.525372 -1.887285 1.447491 0.425655 2.410858 -2.040269 -0.357103 0.027798 1.802188 0.969050 2.140524 0.397063 -1.360520 -0.213334 -0.959143 -1.925065 0.032197 -0.473588 -1.700698 0.238120 0.728518 0.588041 -0.065317 -1.595843 1.256933 0.064459 -0.322756 -1.621060 -1.957335 1.050447 1.437144 -0.357463 0.030493 -0.403255 0.607813 2.638252 1.837398 -3.448297 1.856230 0.739767 0.381375 0.526720 -0.536585 
b 2.575475 0.085678 -0.873996 0.548548 0.055711 -0.058048 -1.431233 0.243539 -1.510613 -1.053088 -1.880092 2.948310 1.327992 0.084498 2.790908 -0.740607 -0.514984 -0.362517 2.728458 0.700228 2.475262 2.087705 1.698457 -0.583100 -2.674805 2.123287 -2.939104 1.171637 3.002009 -0.077131 1.102398 -1.753013 -1.745173 -3.788104 3.193735 0.138007 -0.187935 -0.292039 -2.971481 -1.441603 0.153217 -2.441196 0.364961 -1.942256 1.010059 -0.503586 0.112787 -1.076437 -0.449983 -0.950392 
element 1.487739 -2.069127 1.316998 -1.379654 2.914312 -0.451659 1.941313 0.892516 -0.375696 0.657966 3.436966 -2.234687 0.649445 1.607855 -1.743358 -1.347520 -1.523225 4.106889 0.520362 -1.128713 1.995209 1.749174 -0.734916 0.430613 -0.209496 -0.181135 -1.115155 0.892285 2.380316 -1.351110 -1.538262 0.364591 0.427226 -0.929816 -1.089648 -1.023545 0.460831 -0.107303 -2.351121 2.303597 2.413460 -1.329688 -2.888816 -2.819725 0.395667 0.380799 -0.057260 0.753619 0.656772 -1.182042 
income 1.097376 -0.236900 2.062830 -0.236376 0.653917 -2.946866 -4.275928 1.363363 2.554024 -0.910195 -0.176708 1.810851 2.219228 -3.232854 1.586148 -0.614828 0.296088 2.778944 1.470777 -1.435365 1.866226 1.729402 2.660671 2.298261 2.143159 4.247941 -2.846994 0.078015 -1.263255 1.731205 4.246840 -2.400568 -1.850409 0.736967 1.947371 -0.292884 -2.781153 -0.467994 7.967124 -1.667302 -1.711285 -0.220282 2.448892 5.414587 -0.080268 -3.234294 2.038067 -0.888780 -4.521586 -4.686227 
plan 0.635162 -0.253434 -2.580163 -2.378654 1.180461 -0.410294 -0.643079 1.676121 1.465128 0.644849 -1.977635 2.788346 -3.584532 -0.394499 -1.021222 -1.736670 1.619984 1.538446 -1.050604 1.639743 -1.074838 -0.350666 -1.172806 -1.779944 -0.353517 -1.339700 1.911039 -0.345159 -3.104015 -1.933313 1.311250 -2.332880 -0.709489 1.172363 -2.242891 1.118871 -0.413593 0.847359 1.020639 -0.158342 -1.435973 1.493662 -0.281236 1.869472 0.226903 1.925709 0.811540 3.322707 1.208734 -1.925908 
video -1.405625 -0.025105 0.271333 0.922438 -5.196130 -0.644085 0.588676 2.811329 -1.809700 0.326181 1.686972 -0.313440 -1.674088 0.948664 -2.021020 0.585771 -3.228083 -0.410365 1.952853 -3.286792 -4.654761 2.814786 1.170799 -2.513199 -3.122055 1.556042 -0.055226 -0.124881 -0.031582 0.628682 1.190019 -1.057903 4.240089 -1.490714 -2.578463 -1.006239 1.794711 0.136102 -0.161664 3.439396 3.440476 -0.483468 0.755686 1.263614 1.017252 -3.661803 4.388462 0.079357 0.849453 5.229321 
network -1.434211 1.483089 2.701400 -3.160281 -2.922522 1.515329 -0.028963 0.989819 -1.551363 -0.535410 -0.840622 0.392507 0.746239 1.375811 2.373280 3.155501 -1.934587 2.757706 -1.746332 -2.131894 -1.567766 -0.179803 1.069365 -1.570493 -2.822629 -0.177800 0.268227 1.116246 -1.150723 -2.702829 0.251325 0.241841 -0.685616 -1.633209 -1.908593 1.896817 -2.205811 1.921862 1.074051 -0.895324 1.503657 -0.093573 0.306533 7.022294 -1.474519 -1.768911 1.612949 3.141915 2.059910 -0.647434 
