3349 50
人 0.012217 -0.579654 1.988544 0.132328 1.280667 -0.276969 -1.887831 0.733245 0.397462 -1.290814 1.288635 0.392891 0.680709 -0.163337 0.569782 0.035036 0.881943 -0.431131 -0.944277 -1.831064 1.439049 0.305049 -0.051984 0.447709 0.905250 1.123111 1.204643 -0.367874 2.319399 1.236608 0.939884 -1.032602 -0.348845 -0.069095 1.112851 -1.815122 1.756306 1.294965 -0.256023 -1.502745 1.755328 -0.681818 2.116920 -0.791432 0.866960 0.711055 -1.434573 -0.051504 -0.001101 -1.353112 
人口 -1.429113 -1.228641 1.716828 3.337767 1.658613 -1.059213 -3.727374 0.739680 -0.734595 0.487600 3.162126 -3.100183 1.120887 0.310286 -0.553269 -2.164341 0.734095 -0.497910 2.709396 -1.785421 1.149346 -1.188122 -1.761518 1.514156 5.589374 2.644162 3.636015 0.427547 1.638397 4.417856 2.966557 -1.826843 -0.088832 2.199201 0.651958 -2.600019 -0.653764 1.064530 -2.134594 -2.915211 -0.048956 -1.382643 0.297620 -0.869010 1.603577 2.149071 -2.949527 -2.838823 -1.447391 -3.692794 
小行星 1.774250 -1.829273 -1.963653 -0.245385 -1.227436 -0.631311 5.393667 2.613360 -3.025829 0.388221 -0.286014 -1.011856 -0.461792 -0.131502 2.563951 0.855666 3.958714 -0.618503 1.986820 0.343192 1.895311 -1.916794 2.062021 -1.599306 3.049129 1.523049 1.850304 0.965510 -2.136594 -0.064642 1.431785 0.663557 -2.606873 -1.204019 0.784121 1.071865 0.134991 0.169380 -2.974415 -2.129607 1.417480 -1.001333 -2.604621 3.230338 -0.454770 -0.284294 -1.824211 1.089250 -1.391911 -2.602590 
大学 -1.521537 -3.457377 2.441155 1.790547 -0.194337 -0.349749 2.923177 0.856350 -2.081311 2.607964 1.216125 1.757567 0.208379 -3.178997 2.093079 1.765671 -0.925700 1.665793 1.558579 0.548186 0.209018 -1.165743 -1.336084 4.549257 -2.412712 1.400370 0.561913 0.850281 -0.253214 1.010707 2.723767 0.763002 0.953317 -1.846275 1.457416 -0.058515 1.123051 -1.699367 0.030479 1.567102 -3.685264 0.435622 -1.840850 1.032247 -0.578479 0.853454 0.242307 -2.108688 0.225635 0.491905 
国家 1.064403 0.789136 0.147716 3.601964 0.727396 -2.616609 -0.548891 0.330219 -1.148435 -1.983038 2.272602 0.123988 -0.556357 1.594550 -0.533571 1.871992 -0.060136 1.307332 0.187201 0.453456 -1.856155 0.161745 -1.771232 1.105225 0.794480 -3.047710 -0.294999 -0.639949 0.128125 -1.537708 2.923064 -2.923931 0.210797 -0.338008 -0.337300 0.823108 -2.025489 1.864137 -0.953901 0.917559 -3.123712 -0.170446 -1.151891 1.624527 -1.616696 0.274861 -0.417260 -1.436882 0.244547 0.538725 
公司 -1.699838 3.408852 -0.576946 4.484283 1.556992 -0.386288 1.201089 0.358868 1.309153 2.245458 -1.621032 0.523809 0.166661 -1.156253 1.221268 -0.896517 -1.289066 -0.545467 3.541840 0.213109 -0.831362 -0.420735 1.062650 0.873502 1.113473 -1.515728 1.713330 -1.475515 0.285135 -3.838913 -2.896518 1.453078 1.391733 1.206872 0.442336 0.935283 -2.176477 0.763561 1.523344 1.124655 -0.406244 0.379883 0.041573 1.676242 2.092494 -3.465248 1.707366 0.508431 -0.253853 -0.750875 
地区 -0.791631 -2.099231 -0.339254 0.498371 -0.642181 -2.006347 -2.052418 -0.926506 0.326410 -2.067386 3.180864 -0.402057 1.442923 3.208627 -1.660598 0.552526 -0.597373 -0.747894 1.351478 0.714662 -1.249807 -0.816934 -2.434914 -0.075681 2.247864 -2.060323 1.814799 1.343569 0.369876 0.909050 0.163249 -0.467520 1.482160 2.197139 0.336786 1.271739 -1.665908 1.421945 -0.665056 0.130316 -1.680909 -0.092339 -1.947703 -0.437539 0.340611 0.178181 -0.994329 -1.420262 -2.197237 -1.957273 
世界 0.135236 0.489432 1.441520 0.361416 0.526705 -1.494751 -1.824164 1.265370 -0.822915 0.311591 -1.465646 0.687483 2.375786 -1.850605 -1.076642 0.397339 0.275844 -1.225586 1.483952 1.013273 -2.614944 -0.756015 0.251254 0.806138 -0.265421 -1.972072 -2.317917 -0.242549 0.375032 -1.159935 2.934577 -1.625244 0.279922 0.401444 -1.905666 0.468549 1.499056 1.758340 -1.056236 -1.213932 -3.580663 -1.950669 1.362041 0.364301 -1.600507 1.333774 1.296843 0.062851 -1.660790 0.240889 
政府 -1.678050 1.709804 -0.132814 3.331330 -0.094839 -2.588495 1.302392 2.121465 2.102767 -3.247542 3.402606 -0.372208 0.919588 4.000302 0.663364 0.883717 -1.017885 2.669597 1.376627 -1.073801 -1.778819 0.209951 -2.810148 1.994444 0.260133 -0.579674 -0.133750 0.944517 -1.474120 -0.143839 -0.054817 -1.067148 -1.397206 0.573617 1.131536 0.721314 -2.291500 2.567810 2.701222 3.053474 0.816522 0.460653 0.587481 1.430313 -0.040696 0.372145 -1.572489 -1.574993 1.562822 1.047855 
国际 2.519906 -0.171095 -2.351118 2.842233 0.814957 -0.802823 -0.439073 1.940835 0.220238 1.330129 1.011120 -0.381052 -0.366177 0.627917 1.490665 1.442603 0.528323 -0.830995 0.095343 0.994533 -1.804261 -0.269209 -0.393817 3.351593 2.099801 -0.663086 -1.368868 0.422169 -0.758345 -2.548653 2.392508 -0.582714 1.085464 -1.301552 -1.209480 -0.337726 -0.141748 1.658816 1.705616 1.902649 -5.009100 -3.025114 -0.109033 1.555328 -1.426337 -1.354653 1.704011 -0.204986 -0.786193 2.106809 
系统 -0.438680 -0.614704 -1.888084 0.373956 -1.886771 1.133897 2.261759 2.922665 -0.932640 -1.360507 -3.397521 -2.111593 -2.018173 1.126001 -0.375064 -4.060484 -0.152178 0.857918 1.746610 0.886290 -1.144876 -1.072112 1.621784 -0.459623 0.050189 -1.007206 -1.055173 -1.064141 -1.290321 1.537410 -0.809720 -1.427465 0.468767 -0.022189 1.727468 1.259045 -1.254457 -1.432885 1.348884 -1.299047 -1.858142 -0.877184 -1.650171 -0.264823 2.088417 -2.036837 1.970814 -0.742363 -0.356902 0.346553 
电影 -1.423920 3.162798 -0.997232 0.910628 1.224331 1.910114 -0.426266 -1.825156 0.059393 2.543573 -1.730743 3.826414 0.658628 0.242635 -0.295506 1.218637 -1.433127 0.665388 -3.333598 -0.520022 0.866455 -1.921450 4.602693 1.423097 -0.210429 0.116358 0.368426 0.175686 1.181995 -4.885637 -2.298885 1.115919 -2.480714 1.010640 -3.083920 -1.147106 0.641360 0.497904 -1.633928 2.909583 -0.324492 -0.610237 0.468975 0.506999 1.303738 0.340190 1.464508 -1.329324 -2.242629 0.022724 
市镇 4.744278 -3.277082 0.340908 6.129994 4.444847 1.088114 -1.006918 3.787578 -1.169431 0.314241 2.281779 3.222447 0.856107 3.117526 -0.234274 -0.340652 2.257714 0.446228 -0.848806 -2.394243 2.814454 -1.284553 3.585116 2.499530 2.428248 -0.323387 -0.227881 3.305575 5.438791 5.316656 0.439232 1.045970 -0.790493 3.701908 6.302250 0.334807 -2.333324 1.249144 -3.174958 -3.514823 3.310192 0.683629 0.489539 -4.166018 0.170171 1.376353 -3.383610 -0.625756 -1.528280 -2.812794 
时间 -0.892884 -0.022839 2.242865 -2.838617 -0.060597 0.202805 0.434753 -1.750189 1.027202 -2.302121 -1.277325 0.553037 -1.545121 1.024252 0.520736 0.836504 -0.815285 1.244523 1.279564 0.308035 -0.149285 0.511914 1.497578 -1.491571 0.919672 0.687162 -0.642376 -1.974081 -0.942862 0.509467 0.023899 0.056215 0.631913 -0.170242 -2.259121 2.182154 0.368874 -0.584624 -0.239134 -0.536267 -0.214562 -1.810325 -1.150537 -0.506173 1.152005 -1.451214 0.081410 0.179159 0.146087 1.773142 
总面积 -1.602824 -2.810208 0.663408 0.944516 -1.860237 -0.261148 -5.254345 3.391979 -1.423896 3.087398 4.837756 -1.649550 1.749552 2.084323 4.432957 -1.021053 0.353987 2.745514 2.581468 -2.577737 3.568897 -4.354259 0.472101 -1.739416 2.688170 0.215602 3.032861 1.558232 7.700078 1.280151 2.816301 -4.379048 0.688224 2.678088 -0.872940 -6.673307 -4.357634 -1.882748 -3.076072 -1.436051 2.845793 -1.075567 0.830284 -0.450248 -1.434063 0.811159 -2.409740 2.324986 1.708513 -1.915083 
车站 0.276893 -1.851918 -2.872855 -1.708216 0.729106 -1.266375 0.327548 2.196457 2.553073 3.318533 1.143869 -2.179845 0.085663 1.456359 -1.769531 -1.021910 -0.005274 2.993299 3.823436 -0.684477 0.812120 -1.910923 -0.696206 0.083228 2.198403 -2.867456 0.517567 -0.296163 1.528525 3.845137 -3.364268 2.693527 1.047708 1.151191 0.165133 -0.587245 0.962961 -2.715133 -0.353100 -0.199264 -1.542904 -0.287603 -0.330993 -0.574719 -0.341748 -1.441303 -2.747959 -0.044806 2.695084 -0.594109 
中心 -1.541644 -1.968652 -1.055107 0.837373 -0.131885 0.573235 -1.308469 1.054972 -1.365601 2.198990 1.809383 -2.543545 -0.673397 0.093155 -0.779840 1.150953 -1.858857 2.359875 3.546876 1.968654 -2.449517 -2.565886 -0.946944 0.101325 1.495157 -1.036777 0.775178 1.324158 1.302327 1.637412 1.878685 -0.178403 -1.729720 0.566589 0.909817 0.463862 1.673522 0.366350 1.724268 -0.327171 -3.030952 -0.791172 -2.578271 0.960412 -1.111269 0.895365 1.506607 0.451105 -1.756218 1.645324 
世纪 -4.171458 -0.073017 0.810735 -1.970754 1.633842 -0.521534 1.792755 -2.758292 0.477023 -0.256828 0.818628 0.668014 4.991697 1.294725 -1.042480 0.928752 -1.352413 0.345946 -0.071552 0.284529 -3.330303 0.027066 -0.188727 1.265788 1.501464 -1.833277 2.150364 -0.821881 -0.715607 -0.461396 0.266163 -2.203301 -1.052025 0.246911 -0.697393 -1.243251 -0.308382 -0.360640 -2.721302 -3.494171 -2.491127 3.217292 -2.555811 -0.105697 -1.233324 -0.063249 -0.426066 -0.126691 -2.306144 -0.255866 
城市 -2.851535 -1.718305 -0.867921 0.102164 3.332999 -1.966963 -2.396488 1.228974 -1.401194 0.292471 2.675836 -0.568477 1.039496 2.295257 -1.052177 0.271231 -1.500509 -2.131291 1.651334 -0.738994 -3.007699 -3.686302 -0.229235 1.451838 2.704299 -0.857131 0.560206 1.110103 1.116409 2.835168 0.178370 -0.340250 -1.600208 -0.746470 -0.454112 0.714128 -0.902149 0.529507 -0.532052 -1.352156 -3.343540 0.203185 -1.347769 -0.084993 2.446960 1.633654 -1.775588 -1.110602 -1.495434 -0.492587 
作品 -2.780178 1.554742 -0.158054 -1.738690 0.912322 1.033654 1.029584 -1.385477 0.383956 2.702953 -0.976593 0.453974 4.216903 -0.029023 -0.673595 -1.445687 -0.444423 0.919614 -3.900383 1.504955 0.422904 -0.351964 1.956977 2.291954 1.221851 -0.111690 -0.662696 -2.549283 0.254286 -4.179444 -0.636807 -0.001273 -1.725678 0.010791 -2.363350 0.704586 1.163620 -2.453482 -3.969300 1.062597 1.850873 -1.119814 2.438077 -0.037632 -0.347130 0.675868 0.856147 0.301234 -0.094868 -0.690378 
历史 -2.203269 0.204941 -1.284508 0.193055 1.627903 1.031994 0.367987 -1.633755 -0.346079 -2.208212 1.912152 0.625312 3.245855 -0.090403 -0.579547 0.784466 -0.427524 1.432844 -0.816923 1.164119 -0.600421 -0.755116 -0.033472 1.047922 -0.765047 -0.879835 -0.523873 -1.814013 -0.772722 1.103511 1.815777 -0.492336 -0.532723 -0.968997 -2.138740 1.704674 1.467860 0.204822 -1.359752 -1.808663 -2.934060 2.250024 -0.844394 -0.500135 -2.073891 2.140453 0.423970 -1.993067 -1.150126 -1.101514 
时期 -2.265176 -0.858381 0.474889 -0.846144 1.022052 -1.694595 0.964424 -2.994248 -0.298932 -1.255517 2.346072 -0.186352 2.817151 0.402473 -1.091353 1.062918 -0.756191 0.944829 -1.827933 -0.015481 -1.088421 0.485935 -0.663357 0.375547 0.278748 -0.658524 1.155181 -0.691827 -2.144646 -0.642371 -0.063534 0.480075 0.305423 1.099210 -1.538263 -0.161594 0.460429 -1.166195 -0.939725 -1.850037 -0.281844 2.238587 -1.683329 0.049021 -2.583512 1.900826 -1.158306 -2.631567 -0.126160 -0.214067 
音乐 -1.873808 0.308163 1.947982 -0.154145 1.471330 3.373322 1.951792 -2.779633 -2.302301 2.674744 -0.650047 -0.392356 2.937981 0.787275 -1.416618 -0.913068 -2.567627 -2.699336 -2.436098 2.246971 0.393380 -0.999069 -0.444585 1.310234 0.405566 0.140711 1.363441 -2.488614 1.025451 -2.153446 2.489303 3.527376 -0.823277 2.673118 -1.824735 -1.203470 1.291171 -2.964969 -2.414547 4.655428 1.049044 0.115152 0.314992 0.786248 0.229136 -1.692954 3.341414 0.115783 -0.689176 1.917657 
问题 0.172490 1.862641 1.430262 0.665290 -2.498298 -1.172668 0.443821 0.663854 -0.290211 -3.230834 -0.441733 -0.485175 -0.497580 1.277795 2.295189 -0.492256 -0.908364 1.057991 0.034635 0.056206 -0.676934 3.052656 0.715222 2.085135 1.819028 -0.398028 -0.339478 -2.810467 -1.641374 1.232810 -0.168590 -2.084066 -2.949660 -1.307830 -1.525717 1.129460 -0.157095 1.165974 2.131635 0.395331 -0.090539 0.202542 -0.033583 -0.505385 1.589458 -1.532284 -0.117952 -0.267588 0.347714 0.907957 
足球 2.085512 1.133563 -1.702317 1.481042 2.761558 -0.977363 -1.325708 -1.881775 -5.859844 1.182678 2.646107 3.070871 0.797929 0.663066 2.743994 -0.186687 2.384052 -3.137308 0.178510 -2.409874 -1.911045 -1.065313 0.501205 -0.931394 -1.561861 0.075636 -1.870195 3.451209 -0.383143 -1.176568 2.068000 1.144670 0.336432 -0.772323 2.615822 0.338798 1.144304 1.296824 1.313348 0.158662 -2.488492 -3.529531 -2.230191 -1.257226 -3.473645 -3.872484 0.597640 -2.491227 1.764009 -1.291026 
文化 -0.777073 -1.325904 -1.388712 3.183515 1.120584 1.309654 -0.152215 -1.516484 -1.568158 0.479508 2.821887 -0.335990 3.610231 2.376792 -1.223672 -0.608610 -1.673499 0.125008 -1.305696 2.887149 -1.833304 0.049053 -2.169477 1.729746 0.651441 -3.299929 0.345413 -0.596794 1.172217 0.667564 1.295003 -0.447149 -3.831227 -0.040193 -2.014896 1.672040 3.675618 -0.501709 -0.932273 0.697640 -1.486436 1.154588 0.930948 0.193316 -3.605676 2.745291 0.522985 -2.035326 -3.581403 -0.628373 
密度 0.568382 -1.449801 1.440123 0.810881 -0.255352 3.775213 -1.921975 5.118803 2.286700 1.259203 2.686323 -2.822468 -2.439567 2.623178 2.528744 -2.948415 2.179623 -4.085185 1.950784 0.854690 0.636915 1.051103 6.974326 2.683270 6.355952 2.989341 3.466746 2.127549 5.141706 2.695350 0.168751 -2.900993 -0.090603 -1.551646 0.967114 -5.494785 0.134238 -1.041741 -0.750058 -4.423736 3.397051 -5.208850 1.254491 -1.596775 -1.694275 2.565364 -2.004725 -1.371858 -2.949813 -1.738874 
冠军 2.323569 1.122753 1.496131 -0.371907 3.173144 -0.859169 0.026273 -1.536364 -2.702309 0.573753 -2.013654 1.154673 -0.048114 -2.489939 0.599901 0.101604 -1.135207 -3.930039 -1.112324 1.211718 0.289863 0.595857 1.542842 -2.412343 0.048499 1.223851 -1.681395 0.255828 -0.847348 -1.760503 4.228261 1.623405 2.570720 1.883630 0.393830 0.303017 1.999180 2.990378 -1.642072 1.246816 -4.709432 0.067626 -0.167156 -2.244164 -1.828257 -0.016921 0.005688 -1.049504 3.057965 -1.503439 
游戏 0.674873 -0.187713 -1.949843 -1.706224 -0.101752 0.484151 0.143296 -0.686455 0.558430 0.714088 -3.375877 1.151349 3.673540 -1.508397 -0.395924 -2.908978 -4.386018 -1.808079 -1.825416 1.364303 1.459986 -2.118933 2.321614 0.586659 0.463807 -1.679892 -2.048773 -2.065641 -0.081298 -1.355298 -2.196579 1.999018 -0.586125 0.721624 0.761966 1.134606 -2.059155 2.584630 -2.405914 -1.587004 3.084636 -5.096423 0.395391 1.038508 3.373764 0.090826 4.329996 0.315980 -0.442405 0.501630 
面积 -0.417093 -1.854698 -1.391921 -1.184491 -0.706649 -2.103992 -3.523642 1.361888 0.599156 1.617809 3.271231 -2.206565 -1.805171 -0.633608 -0.668487 -2.261981 1.032094 -0.111123 3.416101 0.560363 -1.237683 -3.076307 1.227930 1.044156 1.630624 3.322667 0.946165 2.278977 4.034395 3.897321 0.616153 -1.021602 -1.974583 2.796107 -2.043451 -2.008373 -3.002988 1.339863 -1.784826 -0.919824 -1.429146 0.683578 -1.366598 -1.921410 -1.675906 0.533206 -2.437628 -2.124591 -2.190606 -2.368365 
联赛 1.109363 -1.639282 -1.163895 -1.506369 3.765566 -0.121470 1.206878 -4.108180 -3.468563 -0.223761 1.324858 3.910712 -2.001245 0.129051 2.883541 -0.311387 0.397488 -0.799710 0.736956 0.760881 -0.830744 1.097750 0.371031 -1.348988 0.530078 -0.933773 -3.343971 2.894119 -1.553034 0.181601 0.539157 -0.714736 0.788095 -0.293196 3.372049 1.714471 -1.668817 2.832242 1.218997 -0.107233 -5.632431 -0.430925 0.072928 -3.170347 -0.071548 -2.235622 -0.404703 -1.782132 4.810623 -3.099271 
线 3.003775 -2.267000 -1.151001 -1.156094 -1.632946 -0.825410 -0.544967 2.629939 1.466511 1.479319 -0.567859 -1.823149 -1.207536 0.344709 0.854125 0.269726 -2.096813 1.047583 1.114774 -0.018692 0.404367 -2.187953 1.954822 -0.817362 2.255363 -3.166258 0.009087 -0.003724 -1.756280 3.071381 -3.501655 2.134408 -0.277776 0.765690 0.126177 0.663825 0.152200 -0.802962 -1.516534 0.905939 -1.098464 0.331957 -0.499955 0.072310 1.200994 -2.221748 0.220527 -0.538630 1.522557 0.529960 
学院 -3.093979 -3.275717 0.924923 0.853150 0.775080 0.733530 2.736165 -1.013965 -1.435251 4.919586 1.815774 1.012669 -1.639943 -0.604629 1.660527 1.892385 -1.408846 1.457833 -0.346595 0.637120 -0.008390 -0.983320 1.804298 4.561428 -2.931046 1.509354 0.369857 0.276593 1.521768 -0.833724 3.486190 0.247751 1.453717 -1.687845 2.110163 -1.256755 0.575149 -1.107585 0.673725 3.403379 -2.355532 2.515348 -1.588480 3.226280 -0.097071 1.415620 1.691427 -1.825696 -0.388750 1.916940 
计划 -0.072999 -1.100780 -0.006152 1.910893 -0.698876 -1.982804 1.309958 3.202374 -0.187521 -0.759095 -1.410777 -1.103368 0.066681 -0.455517 1.912303 1.329199 -1.394833 3.849286 2.706293 -1.460862 -2.611187 0.282627 -0.021969 -0.304875 1.220395 -0.288764 -2.018135 0.172680 -0.278739 -0.595113 -0.303653 0.265175 -2.162317 -1.276402 -2.213679 0.814801 -1.023907 1.414384 1.632955 1.289668 0.525321 -0.692403 -1.755267 3.495788 2.633426 -1.436508 -0.085158 -0.606547 1.048115 -1.157773 
战争 0.382357 0.166225 0.895080 -0.860459 1.479047 -1.828607 -0.398557 -0.336949 0.392002 -5.312911 1.770923 0.870949 2.505534 0.113288 -0.980450 1.930639 -1.639601 1.581284 -2.190637 -0.619852 -3.411668 1.450048 2.422957 1.820258 0.518452 -0.320127 0.425638 -1.726982 -1.139447 -0.949213 0.865688 0.139406 0.512764 1.799472 -0.355464 -0.037104 -1.926066 1.071380 0.594359 -1.608263 0.845631 1.456019 0.535714 3.692869 1.381386 2.548537 -2.216636 -1.194038 -0.237736 -0.369730 
学校 -3.190264 -3.037626 1.176383 -0.392995 0.453341 -0.631483 1.434259 -1.903299 -2.242276 2.677141 2.855929 2.011217 -0.540698 -1.602677 -0.211125 -0.576466 -0.655219 1.322877 -0.202592 -1.504995 0.281689 0.397993 -3.015418 3.822839 -1.572960 1.091437 -0.503844 0.726635 0.919275 0.077604 2.945809 0.797001 0.288782 -0.258642 0.033278 -0.262156 1.642723 -0.389332 3.235426 1.470479 0.724708 -0.529153 -2.124744 2.397793 0.966132 -1.238450 0.173015 -3.642545 1.518073 1.018458 
镇 -0.468953 -0.579764 -0.519991 0.806042 -0.237138 1.803838 -4.005922 2.812324 0.809212 0.757920 6.128022 -0.896916 1.362941 -0.014970 1.269477 -1.236747 -1.271844 -0.594884 -1.516888 -0.790078 2.098739 0.018419 3.005807 -0.177578 2.403659 1.185694 1.503240 4.692496 2.157104 4.153481 -2.248308 -0.555392 0.841766 1.323502 3.235444 -0.536228 0.470159 3.726259 -0.391681 -0.865768 0.398144 1.233253 0.154169 1.036960 -0.694390 3.129292 -2.231736 -0.084926 -0.758845 -4.050784 
总人口 2.876944 -0.227973 -0.961220 1.085946 1.412585 2.282696 -3.740887 1.350254 0.104726 2.185636 6.361362 -6.266074 1.284406 -0.897273 2.690540 -1.261130 -0.491129 -3.809673 -0.050631 -1.524943 6.262808 -1.071016 0.901440 5.822013 3.450252 2.446578 4.019212 1.053350 0.895708 5.047659 4.108914 -0.952044 -1.234742 6.017023 6.666587 -5.715626 -1.102471 1.491656 -2.531515 -3.270457 -0.666847 -2.606308 1.670555 -0.755911 -0.652466 1.701037 -1.797059 -0.265046 -1.111231 -6.371097 
关系 1.343988 -0.003101 0.350598 1.436205 1.117340 -2.057065 -0.772328 -0.893089 -0.579799 -2.650013 -0.803189 0.356958 0.627233 1.890461 0.059305 0.402389 0.789490 -1.641936 0.721044 0.463122 0.856715 2.905812 0.325810 3.774403 -0.762274 0.460610 1.801877 -1.653994 -0.334301 -0.113462 -1.164674 -0.488382 -0.167176 -1.689844 -2.320259 0.231947 1.637452 0.291616 1.229324 1.738027 0.122738 0.687581 0.705730 1.846715 -0.056392 1.895487 0.621898 1.402716 0.242907 0.823793 
技术 -0.897809 -0.901316 1.219595 2.721006 -2.508077 1.331768 1.223466 1.025742 -1.208886 0.485692 -1.064119 -0.035350 -0.989321 -0.487740 0.576578 -1.621250 -2.068127 -0.191686 0.952901 -1.176067 -2.454220 1.614162 3.033851 -0.016017 -0.345539 -1.997764 -0.263871 -2.743327 2.013603 -1.361691 -0.245264 -1.418802 -0.382936 -0.977886 1.200155 1.173303 -1.474025 -0.567710 0.353111 -0.279714 -1.158681 1.105551 -2.082116 0.188186 -0.704877 -1.400615 4.295547 -2.421966 -0.593911 2.479129 
成员 2.530122 1.122110 1.097396 1.912932 1.906114 -0.550603 1.735867 -0.907333 -0.787177 0.782622 -0.070120 -1.055476 0.165125 1.254871 -0.384082 0.891260 2.539443 -0.641311 0.470085 -1.001809 0.095022 0.436206 -2.034931 0.057113 -1.600320 0.176954 0.183766 -0.506647 -0.906446 -2.975805 3.222717 1.668843 -0.400587 -2.285352 1.315611 -3.110839 -0.543758 0.945540 0.373380 1.919853 1.054348 -1.950867 -0.028434 2.291191 1.100994 0.491774 1.879075 1.978292 2.937015 -1.746761 
经济 -1.807631 -0.732203 -0.357775 4.375350 0.218884 -3.282170 -0.662286 0.469011 -1.096541 -1.039137 1.539917 0.707960 0.261462 2.676314 1.515544 -0.467848 -4.292464 -0.639004 2.691668 -1.600130 -2.924232 2.841006 -1.557509 3.471204 3.471359 -0.777589 0.468944 -1.313471 -1.977219 1.536327 1.316050 -3.013385 -2.756437 1.365306 -0.773723 1.762230 -1.524745 -0.149593 0.313147 0.570335 -2.909369 1.846815 0.784742 0.897623 -1.170623 4.681288 -0.159115 -2.714961 -1.703190 0.250794 
社会 -1.587208 0.249351 -0.696246 3.869289 0.596926 -1.603337 0.974750 -1.598686 -0.748297 -0.917577 -0.979239 0.553580 1.100018 4.623624 0.375401 -1.034859 -0.654132 0.211633 -1.893057 0.524271 -0.619051 2.186389 -1.630027 3.572126 1.090459 -2.332202 0.024000 -0.968537 -2.094548 0.200578 3.507113 -2.935253 -6.593618 0.345016 0.004904 0.780297 2.727376 -0.607456 1.888604 0.115318 -0.957944 0.440761 2.552666 0.246929 -0.292134 2.644380 0.420514 -2.525992 -0.307649 -0.433974 
委员会 0.611436 2.491609 -1.819115 4.193692 -2.361786 0.408188 2.199434 1.431465 -1.089239 0.565554 5.098767 -2.481031 -1.993170 1.509062 1.850805 2.006868 -0.041592 3.238052 -0.106238 -0.528681 -2.535227 1.900456 -3.000386 1.617799 -0.520725 -0.585072 -0.406400 0.392592 -0.934950 -1.065038 3.360504 -0.369067 -0.162977 -3.896208 0.193211 -0.433836 -3.551430 1.593566 2.047715 3.248146 -2.536038 -1.827374 -0.749559 -0.035742 1.282262 0.799884 -1.325400 1.408348 0.316615 -0.541299 
电视 0.235383 0.265474 -2.281968 3.160651 1.246263 1.724096 0.063424 -1.437289 -0.040258 2.285325 -0.631680 1.761346 -1.395804 1.228459 0.400451 -0.294998 -0.334532 0.818073 -0.011973 1.323017 -0.133934 -2.269376 2.842322 -0.240570 -0.900336 -1.015387 1.750216 -1.030497 0.255583 -6.161282 0.233947 1.772729 -1.331150 1.918444 -1.146322 1.095753 0.837156 2.541864 -0.113056 2.584693 1.075187 -1.167552 -1.252392 -4.812572 2.394732 -2.302065 0.520752 -0.271107 -0.567905 1.450694 
小组 2.190114 0.207650 -1.491421 0.824770 -2.999839 0.793482 3.496592 1.035711 -1.725415 0.006550 0.701099 -0.120310 -1.501721 -0.417682 1.188515 2.057786 1.544856 0.758965 0.394342 0.591637 -0.429670 0.796538 0.539241 0.903365 1.078775 0.238450 -0.495780 -1.104276 -0.561042 -0.337328 1.891716 1.670583 -1.909180 -3.247614 2.195563 -0.526340 -0.738947 3.007511 1.701248 0.180331 -0.215094 -1.778253 -1.806274 0.224665 1.852660 0.668281 1.307160 0.119101 1.881324 -2.368985 
部分 0.208300 0.688791 -0.072381 -0.738050 -1.000264 0.631754 -0.780528 -0.567356 0.567737 -0.459692 0.011069 -1.424284 -0.199872 1.273988 -1.798216 -0.807633 -0.435642 1.689183 1.440781 0.522998 -1.472342 -0.902659 1.393610 2.053674 -0.854657 -1.032300 0.467043 1.192852 -0.413857 1.819422 0.406823 0.007724 -0.785982 0.088891 -1.300351 -0.385297 -1.501819 -0.194549 -2.448107 -0.191834 0.900268 1.074328 -0.683084 0.186192 -0.847792 -1.781804 0.147394 0.546115 0.007092 -1.210148 
铁路 -1.204103 1.187532 -1.260508 1.755962 0.353685 -2.223799 -0.484586 2.627934 0.889136 1.572627 0.505588 -2.233739 -0.411136 3.715426 0.272357 -0.720697 -1.683967 1.438751 1.989751 -3.085541 -3.253825 0.035675 0.681191 0.848543 1.526790 -3.622566 0.334095 -0.522067 0.824029 1.353392 -4.156840 1.824843 1.583215 1.651242 0.679762 2.265219 -2.377276 -1.038292 -0.965726 -0.905566 -5.143633 0.430312 -0.705546 1.753495 1.778993 -1.989552 -3.743435 -2.139476 1.547194 -0.656714 
机场 0.112377 -1.944218 -4.325298 0.608026 2.093396 -1.920661 -3.794245 3.955303 2.535487 0.620274 0.214647 -1.548390 -0.948641 2.256439 -0.744129 2.034794 -1.862019 1.012575 1.469692 -1.601932 -0.226268 -2.504621 0.644796 1.270634 4.015464 2.908182 -1.205541 1.524890 0.606408 1.266784 -0.908120 0.046507 3.544525 0.402254 -0.547484 1.422174 -0.607499 -0.257726 3.512731 0.713003 -3.203588 -1.188507 -1.241804 0.784725 0.656744 -3.328262 -1.182826 -1.191131 -0.134960 0.892565 
总统 2.308030 3.665241 2.056095 3.460464 1.555030 -0.971264 -0.152769 2.384097 0.279871 -2.765931 0.763910 0.863443 -0.212749 1.386043 1.159696 2.266024 -1.625693 4.116190 -1.064671 1.786808 0.350503 -0.225431 -1.656499 0.793504 0.228791 2.690412 -0.555142 -0.138162 -1.294741 -1.199468 1.261355 -0.914031 2.060572 -0.467226 -0.000442 0.416418 -1.740461 2.316970 2.109276 0.427984 1.117252 0.856410 -0.582574 -0.633468 0.909970 2.602962 -2.238380 0.650654 2.728205 2.018247 
女性 2.713215 0.094714 1.744228 1.560272 2.413282 0.432261 0.695514 -0.743461 0.806529 1.140037 -0.074981 -0.728818 1.387641 0.366523 1.691501 -1.519902 1.203752 -1.610530 -1.917084 -3.641181 2.331459 0.196703 0.617590 4.574068 1.300476 -0.811740 2.901913 -0.250524 3.544885 -1.474330 2.424672 -2.490009 -1.278524 1.233949 0.738945 -2.095380 1.931795 -1.519111 -1.405897 -2.960475 3.080317 -2.069429 2.300696 -3.769722 0.895222 2.640204 -1.250745 2.319977 0.865777 -1.672991 
政治 -0.433701 0.215814 0.793094 2.659832 0.831487 -1.241567 -0.422945 -0.055973 -1.617508 -2.999192 1.007881 1.266601 2.746045 5.365718 2.378439 -0.247096 -2.480120 1.925621 -1.780613 0.984551 -1.111382 0.423344 -1.942331 3.842963 -0.410969 -0.776568 1.253917 -1.594914 -3.887766 -1.407756 1.683953 -0.507655 -2.576581 -0.942557 -0.453620 1.291866 0.425367 -0.516693 1.434947 0.031649 -0.887551 1.358865 1.168774 0.648014 -2.013834 5.401409 0.853015 -0.687330 1.066654 0.992355 
事件 -0.134115 1.998469 0.280546 0.135913 -0.883319 0.366342 -0.001488 0.190076 2.541229 -3.738695 0.796522 0.354023 1.412120 0.793969 -0.383058 3.539202 1.078128 1.312549 0.613667 -0.580308 0.949317 -0.941309 0.426260 0.647967 -0.643640 1.478717 -0.632006 -2.833452 -2.546078 -0.611122 -0.668301 -0.023846 -1.012067 0.239025 0.738380 1.104018 2.584523 2.403127 3.582634 -0.265362 0.049472 -1.337933 2.038017 0.148545 1.494121 1.246647 0.062122 -0.032187 0.836604 0.382353 
方式 0.441161 0.893393 0.602273 0.096544 -1.173012 0.599488 1.146203 -0.481189 1.155107 -1.554945 -1.461053 0.468609 -0.771373 1.847490 -1.052429 -2.419747 -1.164076 -0.316508 0.083869 1.080788 -0.356771 0.509399 0.230344 -0.040123 0.550047 -2.211293 0.355697 -2.489166 0.021325 1.528551 -0.398849 -0.636791 -0.187765 -1.324738 -0.481381 -0.449522 0.152329 -0.777880 0.047604 -0.347617 1.597976 -0.385988 1.388059 -1.174443 0.284386 -1.145339 0.921563 -0.933721 0.367820 1.585993 
地方 -2.745700 0.505812 -0.081579 -1.301824 -0.698826 -1.699879 -1.046784 -0.728522 1.083658 -1.357166 2.588967 -0.128578 0.315435 3.495951 -1.303532 -0.884256 -0.922229 0.481617 1.785693 0.299534 0.476047 -0.977531 -3.273526 -1.194187 -1.644741 -0.960442 0.509887 1.200158 0.017438 1.588704 -0.332467 0.129788 -0.591496 -0.156462 -0.117035 0.821025 -0.503024 0.259743 0.951804 0.178815 0.740429 -0.424235 -0.197546 -0.673375 0.362394 1.050056 -1.714178 -0.341815 -1.128932 -0.391915 
球队 2.480798 -0.155850 0.258017 0.383416 3.616584 0.139838 0.592503 -3.484756 -3.541191 -0.723227 1.515982 3.814168 0.763103 -1.024801 1.998959 -0.586873 -0.324742 -2.393996 2.851005 -0.473717 0.486459 1.033493 1.784829 -2.859614 0.957314 -0.384831 -2.614937 1.747432 -2.396114 0.020271 1.164456 0.945157 0.626082 -2.843981 2.160957 1.514334 -1.129760 1.797767 1.959239 0.502472 -3.216710 1.211626 0.153123 -0.699465 -0.731233 -1.772848 -0.896980 -1.472994 3.028899 -2.326217 
语言 -1.680978 -2.683448 0.331916 2.237423 -1.567807 1.591469 -0.200374 -2.406443 -3.330471 -1.728206 1.614479 -0.340418 3.167915 3.055634 -2.928342 -3.459348 1.092389 0.819462 -0.677839 0.945142 1.957148 0.579332 -1.019410 4.137253 1.359596 -0.384417 -0.672367 -2.790945 0.466652 1.727674 1.351953 -3.508344 0.280045 -2.664792 0.061576 -0.056223 1.568567 0.776163 -2.921355 0.431252 0.114540 -0.867398 -0.880561 0.564896 -0.099574 -1.966756 0.777518 -0.999136 -2.770230 -0.216548 
组织 0.558592 1.224743 -1.003237 3.236964 -1.191362 -0.861199 -0.668140 0.823616 0.593495 -0.707859 0.698768 0.254698 1.836436 2.653746 -1.108330 0.435613 1.985602 1.286635 1.320789 0.572113 -3.992397 1.526181 -3.340837 1.734589 -0.009013 -1.325034 -1.282977 1.408258 -0.527178 -2.492716 3.726562 -1.700572 0.243533 -1.388501 1.074946 -1.401194 -0.495218 0.840954 2.500170 0.396712 -1.731391 -3.883823 1.782212 3.631670 -0.030732 1.369626 2.347483 -0.159788 1.244375 0.597815 
学生 0.100048 -3.595815 3.284647 -1.090319 -0.774430 -0.309641 1.553862 -1.063273 0.034657 2.812419 1.517709 1.292890 0.842853 -1.464200 0.913763 -0.143769 -0.351123 1.490474 -0.574683 -1.567893 1.404625 0.861566 -3.708423 4.026375 -0.602473 2.168062 -0.879368 -0.635801 0.120365 0.431844 2.465209 0.641677 -2.602372 -2.427711 0.648259 0.301891 2.472625 -0.454256 2.447621 1.712975 0.537043 -3.225290 0.844542 1.606199 1.265194 -0.337632 0.388720 -3.987532 1.957336 2.552748 
航空 1.671200 0.084538 -1.944279 4.325277 3.184314 -0.204535 -1.503487 2.124786 2.216931 1.242393 -0.359659 0.032857 -0.638244 0.234832 0.302288 0.742577 -1.902310 1.404040 3.898515 -2.513626 0.694397 -2.174197 1.130712 1.643931 1.241711 1.180127 0.933178 -0.946311 -0.269089 -3.087507 0.813400 -1.132689 2.640466 -0.327022 0.785652 1.592905 -3.355614 -1.296334 2.439140 -0.337001 -1.865867 -0.221149 -0.673992 3.381142 -0.478860 -5.024709 -0.532653 -1.344161 -0.992439 -0.023321 
中央 1.081738 0.398195 -1.652108 -0.278537 -2.387753 -0.340908 -0.031393 1.657829 -0.527223 1.836165 3.463209 -0.944553 -3.709972 1.543776 -1.216428 0.860563 -0.205946 3.707642 2.029111 -0.787953 -1.802761 -1.604762 -0.717074 0.566108 -0.966686 0.123886 1.130002 -0.663192 -2.785500 -0.892672 1.432984 3.008030 0.191942 -1.384640 2.025164 0.336665 -0.698000 -0.947672 -0.248750 1.792884 -0.496663 0.720028 -0.855075 -2.220917 -0.765788 1.779035 -1.054169 0.139362 0.923904 0.115331 
联盟 2.554527 -0.455143 0.885364 1.983693 1.469736 -1.938189 -0.913860 -0.452115 -0.444661 0.710299 0.889982 1.246344 1.528296 1.028817 1.951501 -0.650476 0.797605 -0.445264 0.759473 0.472965 -1.237203 -0.686659 0.464280 -1.711784 -1.226472 -1.582560 -1.219259 0.181791 -4.331666 -2.291865 4.166974 -1.174300 2.053835 -1.918087 -0.371422 -2.641492 -2.836462 2.624787 1.871061 1.289082 -4.206452 -0.552464 1.207572 3.133377 0.298898 0.301317 -0.792659 -1.399511 1.387248 0.624257 
时代 -1.058107 -1.198660 -0.213783 -0.610008 1.317097 -1.868383 1.301079 -2.059153 -0.881654 -0.987014 1.113440 -0.563107 3.535268 -1.426229 -0.539309 0.045206 -0.434865 -0.358786 -1.277483 0.059487 -0.829098 -0.206914 -0.670668 -0.051715 -0.942309 -1.982541 1.894944 -2.789518 -1.374002 -0.989046 -0.369806 0.713118 -1.906348 1.213616 -0.886744 0.609404 2.187424 -0.746287 -1.163132 -2.810698 -0.328005 1.121598 -0.899572 -1.515135 -2.106099 1.789716 -0.658511 -0.969798 -1.053508 -0.864641 
情况 0.186283 1.029434 1.241357 -0.776250 -0.774220 -0.371141 -0.240853 -0.886279 0.729646 -3.587281 0.031880 -0.399630 -1.398526 1.912361 0.493119 -0.535700 -0.281247 -0.278929 0.786402 -0.766630 0.515615 1.741918 0.499746 -0.632660 1.262993 -0.314958 0.098480 -1.322269 -0.518789 1.732367 0.213535 -1.391225 0.040691 -0.431410 0.462798 1.431056 -0.079687 0.503105 1.175110 0.044400 0.673531 -1.047365 0.822313 -1.268557 1.215595 -0.861179 0.014918 0.091073 1.034796 1.283093 
海军 2.750466 -1.279071 -0.296615 0.306228 1.841375 2.185477 2.764241 -0.407890 -0.732442 -2.408119 -0.558764 0.318544 -1.536606 -0.476428 -1.794519 0.824134 -2.038408 3.894214 -1.651627 -4.620787 -2.703537 0.510861 -0.807913 0.914246 -1.150069 4.005577 -0.184406 -0.227039 0.272071 -0.782315 -0.023004 -0.115213 1.324947 2.071792 -0.283440 1.318414 -4.425046 1.358256 3.012787 -0.075565 -0.244147 2.769037 -0.758135 4.553834 -0.513718 -0.238246 -0.017090 -0.524205 -0.009265 -1.492918 
全国 -0.922372 -1.149223 1.462656 2.663486 -0.205024 -0.507678 -1.944513 0.409037 -0.862282 2.333182 4.307760 0.277144 -3.067162 0.147332 0.699831 0.732622 -0.741859 -0.264251 -1.369933 -0.229835 -1.833293 0.190715 -3.275454 0.011347 0.555054 0.130756 0.386936 0.241670 0.519369 -1.269592 2.474201 1.011373 -0.697244 0.681413 0.127829 0.428652 -2.097001 2.634901 -0.973172 -0.027445 -3.178983 -2.037806 0.643231 -2.852197 0.063134 1.758880 -1.196823 -2.463234 1.093133 0.196919 
方面 -0.271633 -0.149164 0.034736 0.349036 -0.817246 0.062311 0.207157 0.243117 -0.859636 -1.871493 -0.118734 -0.381702 0.054936 0.872210 2.133347 -1.075538 -2.215596 0.909782 -1.116814 -0.057076 -0.926114 2.737282 0.163250 2.253022 0.922425 -1.321358 -0.051322 -1.827099 0.732655 -0.436285 0.192931 -1.133323 -0.259231 0.020924 -0.493451 0.390276 -0.219000 -0.642709 0.765442 0.923910 0.265437 0.616521 0.592807 -0.113341 -0.477056 -0.342399 1.657302 -1.940493 -0.246499 0.155390 
系列 -0.289141 1.197200 -2.203058 -0.626744 1.262265 1.256233 -1.075162 0.812109 0.017418 2.571694 -2.563978 0.333343 0.485642 -1.676193 -1.482531 -1.279154 -1.990010 -0.230027 -2.047919 1.816959 -0.636123 -0.978202 2.750151 -0.348779 0.664285 -0.760235 -0.732876 -1.269767 -1.605855 -5.885351 -2.255967 -0.892862 -0.348402 0.410128 -0.059293 0.486628 -0.905147 -0.297818 -2.783597 -2.240239 0.960569 -2.116727 -0.971796 0.279550 1.694133 -0.834389 2.386432 -0.302601 0.071050 -1.906612 
能力 0.544241 -2.005243 2.816830 -0.786604 0.007184 -1.474589 -1.347855 -0.557584 -2.415969 -2.342592 -3.085143 -0.812372 -1.164001 -0.682734 -0.493769 -2.000592 -0.567458 -0.410772 0.369003 -1.966757 0.264767 2.443964 2.020998 -0.925472 -0.705425 -0.930374 -2.583966 -0.445951 1.192626 -0.255531 0.015014 -3.064764 -0.073764 -1.053656 0.658269 -0.145897 0.179815 -1.299678 1.565508 -1.215950 1.868214 -1.055612 1.811776 1.207117 0.600858 0.953992 2.360305 -1.841091 0.174032 0.616784 
角色 0.068133 0.825550 -1.446697 -0.595951 1.948241 0.096436 0.117435 -1.752652 -1.255087 0.547893 -3.017456 1.541603 1.363886 1.257414 -0.261145 -0.697787 -1.692593 -0.806785 -3.138702 -1.830784 2.457747 -0.505362 3.195936 0.786072 -0.543963 -0.756110 -0.801669 -0.545711 -0.535797 -2.418190 -1.990342 -0.582798 -1.636106 -0.759210 -1.752910 -0.867426 0.080581 0.526761 -0.285935 -0.625708 3.566290 -2.247748 -0.587846 -1.049698 1.854897 2.732207 2.392969 1.325493 0.785566 -0.276118 
大陆 -0.183473 -1.657907 -0.163146 2.703173 -1.941041 -2.142034 -0.610644 -0.409779 1.316662 -1.622756 -0.065064 1.424795 0.632787 2.072035 -1.606740 2.101172 0.167468 0.151540 -0.646819 0.864053 0.241740 -2.145596 -1.311943 1.982151 1.360743 -1.291317 0.920590 0.239003 -2.103780 -1.709034 -1.522544 0.305388 1.269061 1.470029 -0.768686 1.030659 -1.352679 1.684602 -0.144490 1.196315 -1.066225 -0.444093 0.805581 -1.880435 -0.485257 -1.194770 0.420261 -1.736843 -4.004592 -1.908015 
县 -2.406569 -1.526392 -0.513130 1.381176 -0.552388 0.262782 -3.120425 1.939324 -0.548298 -0.948665 4.948455 -0.427054 -0.171091 -0.068872 -0.246823 -2.330594 -0.030697 0.305956 -0.682260 -0.137628 1.570684 -0.346157 -1.400118 -0.620996 -0.058704 1.517357 2.803553 2.989872 1.246923 3.379412 -1.885286 1.580651 0.913244 1.990127 -0.792915 -1.297856 -2.446687 3.097793 -0.029138 -1.735939 -0.940887 0.189222 -0.864886 -1.925083 0.011532 3.174059 -2.706005 -1.925498 -0.358977 -1.357190 
节目 1.218168 0.170838 -1.096655 1.850003 0.029926 2.493078 -0.202629 -3.508625 -0.694073 1.681920 -1.844174 2.464518 -0.856910 1.946822 0.716079 1.046026 -2.221072 1.531808 0.535849 1.653774 1.906385 -1.459294 0.126652 -0.458580 0.274499 -0.335416 1.894619 -3.187768 -0.072192 -4.177967 2.291657 1.705582 -0.538389 1.805230 -2.727165 0.272449 1.808415 3.228609 -0.194159 2.600155 1.900304 -1.742463 -0.385981 -4.353219 1.627531 -2.145450 0.938133 1.438657 0.367013 1.502527 
专辑 -0.234761 3.205266 1.316951 -0.572329 0.871494 1.151615 1.234794 -1.860687 -2.783608 -0.983097 -2.424281 -0.657584 1.744447 -2.687835 -0.665842 -0.136593 -0.508779 -1.803706 0.118359 0.653324 1.958218 -2.231504 -1.535274 -1.516877 2.293660 -0.256380 -0.253082 -0.287276 -0.809660 -2.502316 1.166328 2.069222 -0.227138 3.493382 -3.887623 -0.715682 0.244478 -1.634478 -3.201214 4.581096 0.471038 0.389411 3.104039 0.080415 0.684378 -2.761040 3.067669 1.692985 1.536277 -1.087811 
故事 -2.388869 1.019166 -0.678086 -1.529378 -0.210051 0.799472 -1.085565 -2.623061 0.808368 0.347926 -2.457386 1.700554 1.896234 0.218439 -1.578327 0.297626 -1.672876 0.648798 -3.150424 -0.901711 0.518169 -2.044205 3.059388 1.969113 -2.449018 0.641170 -1.252480 -1.184534 -1.327297 -1.109283 -1.238918 0.937364 -0.988521 -0.484049 -4.088443 0.667598 4.068055 0.192284 -1.187121 -3.219421 2.313350 -1.177690 1.293627 1.376724 1.894640 1.789690 -0.022925 1.286821 -0.091424 -2.312732 
版本 -0.427025 1.095935 -0.459351 0.594284 -1.531906 1.206160 1.020403 -1.281993 0.483040 -0.609732 -1.196642 -0.397194 -0.438861 -1.194578 -1.869967 -3.183549 -1.336475 0.303067 -2.264768 1.698154 0.113385 -2.690458 0.093465 0.202803 0.577197 0.546380 -1.358227 -0.469323 -2.776830 -2.227118 -2.063138 -1.122165 0.484519 -1.271381 -1.791020 0.648411 -0.382127 1.384385 -3.436075 0.905419 1.776239 -0.022921 -1.011132 0.263796 2.332659 -4.331260 2.791739 0.851450 0.006476 -1.922220 
列车 1.677287 -1.458277 1.502734 -2.238429 1.228903 1.756884 1.172848 2.265633 2.071375 0.512561 -1.799206 -3.196422 -3.824245 3.893724 -0.943357 -0.279347 -2.103887 1.087835 1.998570 -0.683732 1.088172 -1.160704 0.073192 0.396277 1.539035 -2.290595 -0.745944 -1.928758 0.602472 0.321819 -5.492016 -0.040894 1.763107 1.560861 0.857245 2.128054 1.157423 -2.341868 -2.274199 -0.320447 -3.763036 -0.245737 0.233680 0.234207 1.906749 -3.515334 -2.590829 -1.366749 2.135792 0.214962 
代表 2.066438 0.506747 1.357993 -0.016778 1.903508 1.008030 2.057616 0.699702 -1.292739 0.803405 2.308347 -0.875115 1.599011 1.666722 -0.052422 -0.548373 2.707299 -0.676928 -1.355909 0.827151 -0.435345 0.978135 -1.822983 0.781699 0.305562 -2.063121 -0.580174 0.107842 -1.664100 -1.856110 -0.195528 0.494072 1.265642 -2.317428 -0.638834 0.815336 -2.268318 1.937565 0.511576 0.026978 -0.450301 0.395077 1.466913 -1.051437 -2.006521 2.324817 -0.610525 0.186507 1.407498 1.204182 
球 4.332564 0.812461 0.519269 -3.489571 0.727434 -0.493774 -0.228354 -2.314458 -2.098035 -2.067024 -0.378463 2.329492 -0.631056 -1.492134 0.983836 -0.328732 0.805834 -1.867591 1.952579 1.502148 0.379387 0.887443 3.973036 -4.352604 0.400935 -0.154911 -1.521205 0.987664 -0.067607 0.659989 -0.886752 0.790084 1.251417 -2.523231 1.662229 -0.041800 0.484937 -0.401349 -0.045121 1.256213 -2.247069 -1.061319 1.235979 -2.689857 -3.418238 -0.945708 -0.010597 -2.102603 1.819769 1.679091 
结构 -0.549444 0.175724 -2.578953 -1.164751 -2.491055 1.568392 0.293859 0.567394 0.824577 1.255697 -1.427384 -2.942972 -0.330176 2.413787 -2.065121 -1.887598 1.117934 -0.498245 2.644961 -0.213236 -1.751739 1.839966 2.079829 2.262065 0.414911 0.650661 0.525437 -0.639903 0.221964 1.682270 0.204212 -2.799063 -2.330524 -0.788139 0.161908 -1.273099 -0.821153 -1.595387 -1.138547 -1.622786 0.783942 2.064950 -0.377393 -0.517464 -2.652231 -0.184131 2.747991 -1.099482 2.774105 0.112814 
人类 0.168562 -1.355819 1.255465 1.224056 -0.762044 -1.564304 -0.621704 -1.292406 -1.633026 -3.294383 -3.575490 -0.916447 2.427479 -0.172510 -2.403750 1.357421 1.939828 -0.303403 1.086574 1.298646 -0.885595 1.957086 2.522624 0.021482 -1.815055 -2.715385 -0.822269 -1.023976 1.153118 1.020532 2.070393 -3.519919 -2.774286 -1.053342 -1.424639 -0.035023 1.508849 -1.793050 -0.271736 -4.578156 0.574346 -0.519712 1.154074 0.279899 1.377632 2.512188 -0.528559 -1.419140 -3.484601 -1.044685 
父亲 -2.689122 1.383010 4.055574 0.504241 2.787272 -2.657686 -0.397654 -1.461977 -1.886772 0.599639 0.096707 1.075848 -0.074091 -1.523033 1.357484 0.166081 1.734636 -1.068917 -1.896361 -2.155780 0.588824 2.638205 1.347271 0.341832 -3.129773 2.253138 1.954918 0.117535 0.173181 -0.078425 -0.392680 2.013191 1.963745 0.509332 0.048172 0.075549 3.958067 -1.193325 2.626127 -0.521278 1.179255 1.425335 -1.677794 2.380565 1.140398 0.498752 -0.464727 2.032917 -0.717187 0.282405 
男性 3.415195 0.522238 1.137230 1.586515 2.585921 0.744373 -1.986462 0.881466 1.168263 0.258458 1.312025 -1.466922 0.401929 -0.069866 1.163362 -4.208468 0.939580 -0.941648 -2.125563 -1.529921 4.251025 -0.239576 1.397894 2.819809 2.483617 1.258364 3.405450 1.856688 3.707553 -1.808205 3.771876 -2.985234 0.203797 -1.053850 -0.022104 -2.548575 3.552232 -3.118093 -0.017049 -2.581343 4.169022 -4.178223 1.391521 -2.450639 1.467900 4.416408 -2.528410 0.049272 -0.842567 -1.875960 
方法 -1.544362 -0.113079 1.503927 -0.596921 -3.264644 1.514507 1.738295 -0.246039 0.056287 -1.382276 -1.462823 1.662251 -0.011602 -0.182954 0.120936 -1.873637 0.254384 -0.316597 0.621242 0.625342 -0.169202 3.282330 0.155421 -0.215822 0.616745 -0.561515 1.043734 -2.007111 0.881090 3.092899 0.093439 -2.355181 -1.130319 -2.459504 -0.989265 0.348012 -0.913156 -1.398387 0.014821 -2.089314 0.620236 0.107257 0.103192 -0.745148 0.364671 -1.155365 2.130930 0.171482 0.292774 3.141994 
人民 -1.517523 -0.195258 2.270503 3.566018 -1.194932 -1.468533 -0.348804 0.216731 -0.562687 -1.278751 2.934496 -0.642413 -1.854478 2.390912 -2.308913 1.495534 -0.982067 1.925877 -4.331523 0.395503 -2.845364 -0.149797 -1.334933 0.644597 0.296465 -0.520228 0.379543 0.243514 -2.425860 -1.111300 3.172400 -0.077287 -0.732542 -0.336797 1.156037 1.377332 -2.058999 1.355955 0.896704 1.113254 0.454058 2.369532 3.869552 -0.261580 -0.054285 2.038522 -2.486916 0.358225 0.952609 1.135104 
国 1.193696 -3.073064 0.169048 1.195308 -0.030814 -4.002193 -2.103996 1.227054 -0.022555 -3.418082 2.758294 -1.043903 1.731177 -0.568800 -0.381937 1.049491 -0.984794 0.429587 -0.700833 0.085184 -1.550504 2.052122 -1.728424 1.610633 -0.261895 -1.189202 0.424388 -1.226378 -0.848070 -0.649921 -2.207660 0.430607 2.389792 0.130371 -1.486772 -0.341692 -0.395628 2.153738 -0.481044 0.449242 -0.793874 0.898097 1.342760 1.653451 -1.827413 0.344052 -1.831797 -0.462545 0.864302 0.671329 
传统 -0.332989 0.309022 0.289061 -0.233354 0.939025 1.740180 1.449858 -1.826186 -0.205256 0.247247 0.917570 0.753518 0.966166 2.158464 -1.388363 -2.609111 -1.338976 -1.426300 -1.616412 2.766551 -0.603537 0.290083 -2.322472 0.646198 1.383094 -2.333584 0.608862 -0.924800 1.026812 0.585657 0.727082 -0.658803 -0.932016 -0.804821 -0.960754 -0.397330 1.513023 -0.946485 -0.232490 -2.135939 0.802250 3.278822 -0.301572 0.201996 -1.239204 -0.099175 0.769816 -1.697567 -1.209522 0.672941 
建筑 -3.060091 0.362477 -2.003059 -2.911794 2.512127 -1.026110 1.551490 1.501171 1.460670 2.831171 1.880597 -2.181862 2.690555 -0.201154 -3.316703 -1.421546 -0.594198 1.146519 2.192322 1.123199 -3.095197 -1.814237 -0.559140 3.004147 0.458403 1.200418 -1.506872 0.664294 3.469764 1.789038 1.172035 1.216188 -3.635403 -0.329193 -0.424878 1.738597 -0.866529 -1.097331 0.341207 -0.176170 -0.729443 4.956309 -1.567817 -0.656239 -3.192454 1.198157 0.178953 -2.725020 0.363920 0.993186 
月 0.000037 0.575314 2.427773 -0.981130 0.194638 -1.282134 0.738158 -1.502793 1.691154 -1.649911 0.162616 -0.111342 -1.889104 -1.364195 1.840084 1.804205 0.967354 1.288295 0.726504 0.400483 0.585632 0.713333 0.807235 -2.195498 0.572084 1.491580 -0.940201 0.170555 -0.581198 -1.299454 -0.030398 1.504117 1.155703 0.485976 -1.705272 2.050903 -0.063983 -0.145684 0.891515 0.478708 0.878199 -1.375497 0.439374 -0.014917 1.555538 -1.231224 -1.070434 1.087537 0.848901 -0.109452 
演员 -0.315676 0.610644 0.608610 1.988060 2.381922 0.101314 0.589456 -2.806208 -0.713630 3.858478 -2.169058 3.215808 -0.534071 2.022192 0.607382 1.432693 0.528408 0.386597 -3.796087 -2.304556 2.723838 -1.225254 3.066388 0.269393 1.677596 1.698869 1.302175 0.933615 1.734955 -4.309573 -1.730571 1.960420 -0.812586 0.804184 -2.749661 -2.678725 1.265274 -0.217931 0.593749 2.659440 0.893018 -0.823770 -0.377809 -2.629549 -0.566847 0.441763 0.691170 1.379532 -0.013340 0.098084 
地 -1.415881 -2.450306 -0.384382 -0.450431 -0.971281 -2.729781 -1.786022 0.136919 1.270658 -1.087870 1.018167 0.970111 -0.001227 1.159215 -1.370646 1.549158 0.078201 -0.366781 -0.125995 1.396413 -0.158448 0.111154 -1.554314 -0.794211 0.771793 -0.540817 0.838176 1.080628 0.511412 1.117789 -1.688490 1.602314 0.908452 1.278410 -0.524049 -0.153356 -0.352586 0.943703 1.191581 -0.971901 0.130805 1.444101 0.080939 -0.270168 -0.926059 -1.457822 -0.961655 -1.147061 -2.475682 -1.682127 
名称 0.276384 1.295089 -4.534003 0.726008 0.377757 1.679082 2.172770 1.146010 -0.439086 -0.351138 1.388868 0.787852 1.735649 0.250696 -1.483698 -0.098491 0.815031 -1.248522 1.223526 -0.298110 -0.077915 -2.476247 -3.012064 -0.481618 -1.573273 -2.799359 0.954888 0.541782 -1.212701 0.013235 -0.796913 -0.274372 2.891767 -1.664890 -1.644259 -0.420796 -0.834560 0.720167 -2.200362 -0.540382 -0.524547 -0.052100 -1.738503 0.062155 -0.022860 -1.387914 0.482115 1.754298 -0.723065 -1.083036 
动物 2.312872 0.528011 -1.489545 1.114547 -3.814683 -1.827452 0.186247 -2.169331 2.117599 0.393404 -3.566651 0.597085 1.302070 2.165278 -3.221921 0.716417 1.443267 0.100928 -0.128209 2.270110 0.973123 2.426725 -0.531867 -2.228265 -2.724003 -0.409926 -1.489137 0.228755 2.437678 0.639328 1.181783 -3.705492 -0.237111 0.137047 -1.206518 -0.760473 -0.532935 -1.977598 0.153686 -1.135236 -1.118651 -0.964033 -1.149585 -0.644732 1.589171 1.478083 -0.454177 -0.257631 -3.020809 -0.023608 
动画 0.016299 0.181706 -0.195326 -0.466471 -0.819242 2.000772 -1.026267 -0.038724 -0.643796 2.838380 0.149620 1.704662 1.609856 -1.914875 -0.873021 -1.896868 -0.756256 0.414503 -0.708992 -0.334803 1.938133 -0.274917 3.636031 0.346149 -2.892142 -1.869354 -0.554647 -1.664558 1.093117 -5.651618 -3.408995 -0.165041 -1.307588 0.605374 -2.355543 -0.211364 0.271869 0.656058 -2.447778 2.280688 4.028482 -3.018672 -0.512564 -1.310912 2.885302 -0.550247 1.186130 0.981804 -0.113102 0.128764 
过程 -0.891373 1.747200 1.183108 0.662629 -2.421320 1.626916 0.458620 -1.237787 0.743495 -1.948231 -2.037694 0.360677 -0.917395 1.787519 -0.617225 0.768710 -0.347608 -0.449969 0.722430 0.847177 -0.428558 1.726779 2.186211 0.387150 0.275419 0.070488 -0.175239 -1.539294 0.103380 1.499520 0.261312 -0.567782 -1.065085 -0.612843 -1.216201 0.887246 -0.479667 -0.552575 0.547232 -1.947578 1.210488 -0.137459 0.530846 0.092546 0.232274 -0.099401 1.848507 0.256297 0.895762 1.253373 
人物 -0.555860 1.011026 -0.244055 0.015592 1.379994 0.979333 -0.410204 -0.260164 -1.057424 0.759422 -0.404166 0.698335 4.246147 1.264767 0.984753 -0.200662 -0.791783 1.018053 -3.658908 -0.192206 1.370293 -0.939317 0.703459 0.823344 -1.555435 -0.932547 -0.471132 -1.543454 -1.799503 -2.657089 -1.230399 -0.304552 -0.455908 -1.879229 -1.461803 1.274165 1.536958 0.142687 0.170414 -2.052723 1.597888 0.767764 0.679573 -1.198838 -1.037909 4.615923 1.863609 0.938014 1.677466 -0.189518 
军队 0.116207 -0.561358 1.075592 -1.699524 1.366352 -2.505065 -1.375600 0.179050 0.506681 -5.592459 2.425047 -0.179623 0.357787 2.442479 -0.301555 2.240407 -2.007453 1.512762 -1.957983 -1.911819 -3.576410 1.271481 -0.496530 -0.214501 0.555851 0.456176 2.245828 0.817731 -0.037089 -0.338829 1.796758 0.732861 1.825673 -0.571064 3.257183 0.118777 -2.331573 1.515409 0.330076 -0.461755 1.706193 1.173371 0.273703 3.032414 1.897854 0.147467 -1.875106 -0.925527 1.433467 -0.419404 
版 0.918148 -1.185747 -0.269396 0.615048 -1.755284 0.616479 0.285461 -0.421779 0.292673 1.016081 0.502711 0.335631 -1.219260 -3.139982 -1.024217 -1.995633 -1.658810 0.225108 -1.544242 1.389673 -0.059056 -2.277439 0.980808 0.758310 -0.758548 -0.112064 -1.901431 -0.306392 -3.263161 -2.833161 -2.126722 -1.788504 -1.011054 -0.882680 -0.544586 0.458887 0.465449 0.868894 -2.697182 1.396108 1.834822 -1.705550 0.529292 -0.695628 0.764216 -2.086242 2.267141 1.928497 -0.514244 -1.949570 
职业 -1.142268 -0.887505 1.210286 1.155330 2.037656 -1.499540 0.913840 -2.707754 -2.536037 1.967940 -0.793805 3.794422 -0.460028 0.581834 2.762830 -3.630630 -0.225631 -1.891050 -0.544081 -1.788428 -0.675342 -0.606417 2.610256 -0.221987 -1.749058 -0.283774 -1.164113 0.284532 0.021384 -1.086318 2.340492 0.460330 2.870209 0.396754 0.715022 -0.699615 0.546877 -1.244645 2.976244 -0.674642 -1.814867 -2.787882 -1.205376 -0.083421 -1.360907 0.915683 1.331454 -1.225387 1.489386 0.218035 
位置 2.280991 -0.822001 -0.096755 -3.953303 0.706074 0.780519 -1.703393 -1.210460 -1.637494 -1.410207 -0.354631 -1.532748 -0.371807 0.032567 -0.525146 -0.659676 0.294300 0.082039 3.090456 -0.726429 -0.073364 -1.865071 1.253766 -3.107456 -0.562760 0.102669 2.144415 -0.677814 -0.819489 3.184189 -0.184449 0.064341 1.011146 -1.497236 0.393067 0.584372 -0.688474 -1.085270 1.022962 0.334056 -1.840858 1.072130 -1.398233 -1.661761 -1.369322 -0.575823 2.027983 0.780901 0.363051 0.970967 
工程 -1.688322 -1.226929 -1.404351 1.503219 -2.474982 -1.081700 2.473062 3.193853 0.729765 2.681265 -1.702867 -3.108424 -1.464548 -1.060220 0.972393 2.389805 -2.236596 1.984804 2.368271 -1.379708 -1.546896 0.591321 1.035441 1.267525 -0.328668 -1.099000 -1.763118 -0.264194 3.357046 2.101355 0.349089 1.331712 -1.674880 -0.020190 -0.367177 1.253417 -2.803880 -0.337007 1.297516 0.376009 -1.983966 3.107335 -2.323741 0.105531 0.640203 -3.420874 0.739330 -3.277474 0.946665 1.670843 
球员 3.982095 -0.128102 0.634682 1.082131 3.167665 -0.689338 0.188584 -4.410172 -1.220739 -0.221880 0.096056 3.686848 2.550148 -2.190758 2.833915 -1.488181 0.324178 -0.436190 0.095424 -2.038589 1.694528 1.691634 3.349996 -4.336101 1.750948 0.061638 -2.321064 0.156650 -0.717041 0.600915 1.790760 0.797381 -0.417211 -2.092721 0.783716 -0.255219 0.067894 0.137557 1.987661 1.180777 -3.328400 -1.088165 1.560739 -1.798353 -3.770192 -1.228795 0.534004 -2.165293 2.796161 0.244901 
结果 1.186822 1.110285 1.685958 -0.192140 -0.958678 0.703228 -0.172625 0.627293 0.509514 -3.506711 -0.779479 -0.078163 -0.247637 0.304087 1.860632 -0.090224 0.718002 0.062195 0.554001 -0.105997 1.080172 2.245320 0.935955 -1.017559 0.294550 1.126953 0.739857 -0.824920 -0.512466 1.443267 1.022111 -0.982452 -1.022075 -1.591582 -0.647555 0.578250 -0.492449 2.239686 0.111997 -0.048716 -0.013382 -0.594112 0.652512 -0.900972 1.474245 0.539491 0.233066 0.150858 1.946357 1.062841 
国王 -0.021554 -0.749554 1.410079 -0.715617 3.449029 -3.979232 -0.007517 -1.472042 1.235636 -2.783479 2.280334 -0.324260 1.552195 1.792168 0.519544 0.862575 -1.263634 0.410602 -1.789324 -0.587593 -0.012483 0.216193 1.105727 0.571799 -1.221185 -0.294234 -1.221322 1.413013 -0.707354 -0.425412 2.739252 0.842812 1.805354 -1.252986 0.707836 -0.783115 -0.574332 0.792534 -1.900813 -1.564903 0.256602 4.616255 -0.714316 2.225465 0.668155 0.368662 -2.209903 4.375072 0.691663 1.982383 
部队 0.748529 -2.121622 -0.985942 -2.286130 0.168586 -0.614955 -1.485328 0.752274 -0.213109 -4.111623 0.627608 -1.058895 -0.920486 1.827663 -2.673138 3.213222 -1.394029 2.104352 -1.433724 -2.843504 -2.427994 0.291267 -0.158274 -1.578509 1.014810 0.837056 2.102012 0.157980 1.098019 -0.796281 1.498620 1.097333 1.662038 -0.498944 3.216585 0.502863 -3.443112 0.628663 2.890833 1.286930 1.441968 -1.205416 0.815963 2.640621 2.457371 -0.267174 -0.404617 -1.234891 2.661026 -2.152966 
主席 2.054334 4.970784 0.564756 4.379230 0.917281 0.308926 0.385847 2.054418 -1.769022 2.679315 3.069940 -0.587663 -0.581544 0.918758 2.609901 3.085038 0.860354 1.440976 -1.216831 -0.007002 -1.626900 2.555667 -1.931780 1.089428 -1.180526 0.950417 -1.670541 1.496716 -2.817846 -1.391893 2.370122 2.514187 0.115763 -2.584759 1.920325 0.206338 -2.048482 1.074350 1.852658 2.429672 -2.673023 0.331858 -0.199390 -1.349203 0.821924 0.529739 -0.460634 0.514571 -0.087136 0.308526 
人员 -1.518348 0.621791 1.214219 0.914422 -0.606921 0.807738 1.335084 0.999454 3.030054 -1.197286 0.542404 -0.202871 -2.572392 1.496878 -0.681833 1.288000 -0.989842 2.857354 0.155763 -2.313615 1.051946 0.413906 -0.113905 0.505703 1.007593 0.178717 -0.621203 -1.913662 3.333797 -0.715238 1.115160 -0.656891 0.239745 -1.144618 2.589259 0.158824 -1.022842 1.135400 3.923737 1.517169 1.352951 -2.217580 -0.473640 -0.489288 0.721674 -1.109742 2.542277 -0.090650 0.824025 -0.740839 
个人 0.019202 3.453995 1.397826 1.705571 1.449963 -1.358255 1.740739 -1.506565 -1.502337 -1.736382 -2.172808 0.714082 -0.345258 -0.413820 1.193737 -3.132574 0.143096 0.629177 -0.759216 1.411125 1.179705 0.301786 -0.533467 0.263756 1.011911 -2.004271 -1.137902 -2.034605 0.309632 -1.207799 2.799159 1.656327 -1.045924 0.080491 -0.079279 0.714281 1.730282 -0.186935 -0.336702 2.159522 0.351017 -1.413007 2.406133 0.508925 -0.886708 0.249684 3.056678 -0.679329 2.001512 -0.792506 
环境 -0.313303 -0.571767 0.227759 0.570829 -3.347089 -1.502149 0.156272 -0.184552 -0.903250 -0.603375 -0.460824 -1.521611 -0.568430 2.436817 0.243287 -0.214009 0.305669 -1.362621 2.124117 1.668206 -0.621266 0.848901 -0.257765 0.683538 -0.288278 -0.203289 -2.710067 -0.877662 0.888006 2.699353 1.114424 -2.567303 -3.243515 1.093633 -1.031031 2.283884 -0.889396 -2.451825 3.419683 0.508914 -0.144873 -0.564348 -1.297506 1.379325 1.877736 0.562590 1.604110 -2.756394 -2.068980 0.418809 
年代 -2.950667 0.775788 0.917351 -0.734987 0.531588 -0.243542 2.385497 -2.801463 0.781152 0.971206 -0.473308 1.210307 3.920521 0.376255 -0.387026 1.842882 -1.352705 -0.400307 -0.169192 -0.677206 -3.149127 0.101691 0.669465 0.548823 2.069838 -1.039045 2.038140 -2.241457 -1.517115 -2.048300 -0.787518 -1.561886 -1.362259 1.332668 -1.202529 -1.250985 0.194090 0.144210 -0.846131 -1.018255 -3.146536 2.556169 -3.050542 -1.369904 -0.467551 -0.666571 0.825673 -1.925484 -0.174517 -0.612493 
资料 -0.982419 0.210811 -0.733880 1.694857 -0.704286 1.295630 1.162018 0.959655 2.649104 -3.501182 0.783892 -0.497723 -0.570428 -0.702186 0.111308 -3.475274 0.756619 2.411843 2.252542 -1.162768 0.651240 -0.645394 0.561886 -0.804637 -0.654730 0.682428 0.387695 -3.180501 -0.196268 1.283641 1.543178 0.224750 0.197886 -1.506044 -1.099091 0.047925 1.413884 -1.158417 -2.117593 0.202065 -0.099477 -1.772465 -0.931282 -1.111855 0.448409 0.294969 2.832038 0.042045 -0.754224 -1.182407 
理论 -1.438726 -0.121527 0.533243 0.349221 -1.896871 1.744055 1.733839 1.601161 -1.323325 -1.779470 -3.944195 0.477490 1.095685 0.974616 0.027771 -0.332536 -0.130803 1.140703 -0.964031 1.351592 0.411887 4.587877 1.256457 2.708460 1.155013 -0.032907 2.993896 -2.705101 -2.704586 2.001708 2.106506 -2.980076 -4.010273 -1.536093 -1.324219 -0.616124 -0.941812 -2.011667 -1.296755 -1.989841 -1.578046 0.448628 0.649364 0.350500 -2.790924 0.692972 1.602407 -0.776639 -0.230498 1.037866 
时候 -0.100667 1.342717 2.724026 -2.380714 0.189307 -1.037501 -0.089680 -2.223236 -1.429567 -1.362465 -0.634577 0.950403 -0.289940 0.018115 -0.180637 -0.143025 0.493210 -0.666835 0.040578 -1.237273 0.290295 0.791242 0.502140 -0.965647 -0.471565 0.890936 0.098219 -1.522666 -0.098343 1.092118 -0.381492 -0.150172 0.385857 -0.827003 -0.374902 0.351487 1.616544 -0.551781 0.845625 -0.509311 2.284590 0.151216 0.198871 0.165934 1.686365 -0.966743 -0.417038 1.649737 0.264543 1.566502 
艺术 -1.861385 0.116555 -0.264214 -0.160296 0.518727 0.885979 1.763292 -1.550722 -1.432569 4.929750 1.288039 0.111502 3.003513 0.998080 -0.920647 -0.760740 -1.656803 1.797073 -2.742098 3.385300 -0.631927 -0.735017 1.260106 2.167835 0.717801 -1.128989 -0.397788 -1.652740 4.000923 -2.151205 1.758983 0.542089 -3.375246 -0.444337 -0.806624 1.324383 1.842057 -3.187297 -1.806447 2.529096 0.092956 1.460063 -0.035390 1.253378 -3.492660 1.984692 0.922435 -1.091314 -1.455360 3.361080 
内容 -0.716019 0.833983 -1.464679 0.656713 -1.873291 1.137325 -0.003886 -1.784499 2.107293 -1.971586 0.095233 1.330851 0.313912 0.817167 0.851968 -2.129625 -1.062230 2.785892 -2.036619 1.191878 0.376961 -1.326499 0.229507 2.630573 -1.565587 -1.090219 -0.526276 -3.177354 -0.879551 -0.618290 0.116959 0.324961 -2.108699 -0.884932 -2.626298 1.006430 0.685975 0.256904 -1.977260 0.154485 1.980076 -1.359338 2.227113 -0.526006 0.817578 -1.802097 2.334794 0.474460 0.567442 0.485893 
海拔 -1.149607 -0.613997 2.150525 0.144259 -2.364389 -6.027430 -1.718901 1.439757 -0.187989 -2.004865 -0.387902 -1.459688 -3.439211 1.472199 -1.371631 1.370638 0.677609 -2.297908 3.111305 0.663604 -1.081709 -5.603700 -0.026057 0.991231 2.379243 4.079822 2.569880 4.161460 1.193916 6.365717 3.008297 0.142162 3.820737 2.420794 0.223282 1.033173 -1.103470 -4.084328 -3.881275 -0.040574 -1.735835 1.990778 -2.394932 -3.889457 -5.209586 0.481305 -0.233571 0.076274 -1.611641 -8.065835 
飞机 1.076075 1.535413 0.471011 -0.543252 0.643631 0.802151 -1.779232 3.567691 2.271321 -1.255004 -1.921074 -0.581188 -1.064275 -0.137514 -2.217184 -0.239027 -1.518380 0.614441 2.530253 -3.624921 -1.086940 -0.482270 1.882606 -0.300452 3.353810 3.970039 -0.251947 -2.862892 0.326813 -1.117808 0.062198 -2.013566 3.618957 0.488910 0.150998 2.392830 -1.826604 -1.257098 4.285511 -1.063290 0.549315 1.256782 -0.005642 0.990525 -0.291412 -3.541161 0.290190 -0.161219 -0.451081 -0.963484 
功能 1.151692 0.949487 -0.939293 1.146523 -1.838961 1.437954 -0.330966 -0.371990 -0.010851 -0.751488 -1.352522 -2.042167 -1.437933 1.155721 -1.909966 -4.641549 -0.610429 1.360035 -0.225366 1.306915 -1.338049 -0.281247 0.413217 -0.441183 0.439826 -0.414937 -2.391286 0.714775 0.477353 2.487339 -0.988563 -1.000215 -0.725877 -0.113145 1.640275 0.052795 -0.071835 -1.086553 0.017990 0.260044 1.444062 -0.521738 -1.189024 -1.610371 1.681517 -1.553805 4.657796 -0.452758 0.642255 0.701468 
水 -0.202790 -1.393858 0.282866 -1.690211 -4.117595 0.733820 0.082128 0.130337 0.689640 -0.326214 0.260735 -1.007890 -0.995537 1.231930 -0.513740 0.987035 -0.069677 -3.284950 1.246446 -0.455542 -0.825913 0.655141 -0.835048 -2.942555 -0.722080 1.366804 -1.573740 1.714423 1.744041 2.794762 -1.607904 0.072385 -0.553429 2.453402 -1.251121 -0.542157 -0.930479 -1.547339 1.574379 -3.228477 1.282161 1.257417 1.780947 -0.517919 -0.300800 -1.736403 -1.983326 0.541542 -1.251803 0.359564 
机构 -2.827996 0.585482 -1.440604 3.750584 0.051710 -0.740572 1.361948 1.453120 0.114608 -0.588688 1.915682 -0.343081 -1.316689 1.462078 -0.544997 -0.572281 -0.799658 2.927705 3.303557 0.932338 -1.490911 0.411271 -3.367225 2.169878 -1.330668 -2.128036 0.959248 1.525250 0.755571 -1.963714 2.793063 -1.555924 -0.761191 -1.159292 2.381902 0.544049 -1.361601 1.807709 1.498599 2.692213 -1.983647 -2.340842 -1.101579 1.852540 -0.697671 0.013255 1.760101 0.022872 1.007260 1.277794 
轨道 0.637760 -1.123983 -1.329033 -0.272435 0.101131 -0.260966 1.747704 3.682190 -0.002305 1.324019 -2.873146 -3.928227 -3.989443 2.263279 0.901360 1.517122 0.372194 -1.046691 2.710052 0.628745 -1.598633 -2.638484 3.377169 -3.326702 1.745313 -0.282523 3.562402 -2.340917 -2.285062 2.842136 -0.873575 0.217208 -2.647286 -1.901248 -0.777609 2.284303 -1.542555 -2.485215 -0.344192 -2.050556 -1.780772 -2.064978 -1.281613 0.007389 -1.119509 -1.071626 -1.307334 0.316972 1.410309 0.553474 
联邦 -0.341766 2.974076 0.295728 3.177179 1.513640 -1.733567 0.286565 1.307719 -0.262341 -1.525387 1.438271 -1.972621 0.197928 2.588350 0.282569 -0.123233 0.228916 2.971908 1.355436 -0.630183 -1.110134 -1.664344 0.252278 3.130104 -2.035743 -0.809875 2.387067 1.491574 -0.585646 -0.115653 1.383151 -2.074638 0.894515 0.611358 1.278415 0.884980 -4.552562 3.390198 -0.429414 0.217273 -0.762307 -1.825113 -2.210945 2.214476 1.135378 1.022428 -2.970049 -0.918701 2.536817 0.406296 
标准 0.917930 0.891725 -1.081887 0.589635 -2.241975 1.393581 0.954955 0.692655 0.114232 -0.750153 0.891914 -0.921455 -2.240324 0.510051 -0.009478 -4.432388 1.519616 -0.538411 -0.614680 -0.609336 -1.634000 0.595331 -0.615986 2.002908 1.858146 -1.223709 -0.001904 -0.083480 -0.450566 -0.659992 0.026719 -2.773592 -0.143524 -0.946589 -1.112025 0.406261 -1.347520 0.735018 0.063693 0.213913 -2.417658 -1.999359 -0.297262 0.648231 0.153660 -4.294808 1.471978 -2.181746 -0.953709 1.881267 
单位 -1.684174 -0.919606 -4.032226 -0.218363 1.236073 0.748721 0.724554 1.707625 0.556516 -0.398858 0.538570 -2.259772 -4.147578 -0.011713 -1.669997 -0.217454 -0.580157 1.279450 1.149947 0.370889 -1.503393 1.425622 -2.024077 -1.845871 1.344792 1.851135 2.561836 1.393189 1.303446 1.565990 1.845185 0.360238 -1.801926 -1.322371 -0.411275 0.592168 -2.090497 1.793712 -0.270857 1.478899 0.818651 -4.008272 -0.654386 0.105642 -1.541409 -0.221992 0.445004 -2.656934 0.492263 0.267836 
项目 0.425309 0.308551 -0.545115 2.387966 -2.503029 -0.694412 1.823439 0.236623 -1.430105 2.437062 -1.869513 -1.164510 -0.666307 -1.058358 1.558655 -0.756223 -2.016159 0.582049 1.909864 0.194726 -2.474601 0.026091 -0.294968 1.386192 1.582937 -0.436651 -2.167839 0.183253 4.150737 1.041427 1.211339 0.766285 -0.766485 -1.426368 -1.484604 1.624269 -0.522941 3.611631 -0.050894 0.562677 -2.073363 -1.544055 -1.155436 2.550414 -0.707444 -1.953830 1.389967 -1.850625 2.778374 0.648716 
学名 2.672326 -3.131523 -0.531028 0.208713 -5.064430 -3.303007 2.052814 -1.087150 3.096779 1.550001 -2.605779 3.735288 -0.557398 1.814818 -2.280667 1.475975 4.127943 -0.679392 0.749022 2.747590 3.363563 -0.508052 -1.991560 -0.561216 -0.093663 -0.399601 0.628922 3.910720 1.491300 -1.740664 -3.029903 -1.794114 5.193552 -0.013126 0.250225 -0.913610 -2.303470 -1.893479 -0.111795 -1.233772 -2.581073 2.535316 0.245453 -1.850168 -0.315125 0.778861 -0.195551 1.670484 -4.626638 -3.014068 
话 -0.448913 -0.077006 1.684747 -1.911871 -0.526222 0.854095 -1.619442 -0.776480 -2.250473 -1.054821 0.492610 1.237815 -0.230388 -0.105313 -1.076048 -0.839363 0.324247 0.004760 -0.405078 -1.444571 2.133727 0.656889 -0.059024 0.232848 -1.988005 0.102809 -0.009064 -0.411764 -0.737984 -0.923559 -1.722324 -2.284335 -0.551541 -0.854369 -0.304782 0.076370 1.517771 1.578841 -0.270018 0.568631 3.457811 -1.305364 2.207172 -2.044531 1.515449 -0.646200 -1.205766 1.757354 -0.867243 -0.385504 
词 -1.140719 1.678576 -2.355525 -0.224627 -0.177770 0.632149 1.834326 -1.061127 -3.091373 -1.654346 -0.699030 0.819655 2.097555 1.709090 -1.451337 0.342327 1.137616 -2.071662 -1.361452 1.215213 1.887649 -0.136625 -3.148771 1.494665 -1.179548 -0.077335 1.966693 -1.933263 -0.765021 0.941840 -0.964334 -1.526721 0.943433 -0.902246 -0.696208 -1.770578 0.485469 -0.720464 -3.069234 0.464033 1.810186 1.132997 2.417016 -1.161096 -0.290515 -1.488239 -1.233078 -0.295908 -0.718642 0.171196 
会议 1.892516 -0.005649 1.219616 1.103075 0.139510 0.077560 0.877081 1.725741 -0.200179 -1.664642 3.688377 -3.674136 0.041009 2.201526 1.207966 1.739578 -0.839261 2.938468 -0.026929 1.318354 -2.945242 1.375989 -3.845042 2.987849 1.054521 -0.062526 -2.996671 -0.858242 -2.345258 -1.508507 2.233001 1.890854 -1.516683 -3.109514 -0.079165 0.225197 -3.446124 2.012600 1.173017 0.094151 -2.164598 -1.297359 0.781817 -0.357534 0.643924 0.104383 -0.090197 2.275765 1.218849 2.222970 
集团 0.573601 1.196973 -1.242413 4.242967 1.683632 -0.839504 -0.935519 0.632522 1.210805 2.025955 -0.616794 -1.122254 0.306040 -0.877973 0.820884 1.230760 -0.523112 -1.378445 3.513109 1.475460 -2.864032 0.860012 -0.824655 0.399254 -0.385523 -0.774027 2.685592 0.847977 -0.900450 -3.760860 -1.090114 2.231740 -0.522318 0.651749 2.595103 1.749034 -1.141058 2.167039 1.954587 0.104890 -1.512753 1.470805 2.591641 1.533940 -0.233912 -0.587081 1.527380 0.263572 1.365348 -1.092019 
交通 -2.126294 -2.165708 -1.509973 1.872936 -0.950437 -3.442256 -0.444785 4.043403 0.680671 0.009594 0.875042 -3.044255 -1.201185 2.251368 0.218896 -0.149715 -3.543001 -1.221859 0.246890 -3.060299 -1.511346 -2.991555 0.295751 0.214059 1.299793 -2.627503 1.357012 -2.033291 -0.081624 4.478674 -0.814933 0.606778 -1.485865 0.944809 1.070017 2.876404 -0.163590 -2.815419 2.087037 0.334443 -3.850407 -0.692440 -0.457769 -0.320801 1.743648 -2.080727 -2.466437 -0.802680 -0.219666 1.196019 
模式 -0.384964 -0.960743 0.150759 -1.897062 -2.302289 -0.520351 0.209125 -0.652387 1.551169 -0.724869 -3.239105 1.866691 -3.007452 1.091608 -2.838210 -2.300071 -1.702583 -0.635485 -0.742365 1.420117 0.296907 -1.292285 1.357142 1.350883 1.354162 -1.436208 0.039655 -1.437343 -2.889820 1.869865 -0.931869 1.163240 0.275563 -1.176339 0.931408 -0.112316 -1.486943 0.062007 0.347682 -2.112876 0.134107 -1.656414 0.223360 1.470585 0.846165 0.149972 4.134238 -2.109119 -0.395681 -1.512245 
小说 -2.876769 0.628837 -2.009386 -0.763927 0.349187 1.328641 0.790156 -2.080111 -0.424285 0.838077 -2.614113 2.136730 3.660417 -0.349237 0.626863 -0.511131 0.370127 2.095347 -4.810302 -0.220932 -0.946225 -1.208757 2.255264 2.781866 -1.454761 1.477812 -0.831441 -0.678306 -0.902879 -2.176240 -2.538766 -1.097401 -1.541866 0.260949 -1.960198 1.467823 2.304072 -1.305265 -2.544190 -2.115642 -0.189704 -1.273907 2.817127 -0.079102 1.797331 1.779523 0.055535 0.342125 -0.370531 -2.290591 
奖 0.518981 0.812517 -1.839575 1.913312 1.367651 1.092075 3.199172 1.593482 -0.649986 3.026376 -0.190080 1.287828 -0.765283 -1.650149 3.248646 2.783752 1.739320 -0.757958 -5.339176 1.174609 0.577210 -0.450975 2.170081 -0.448620 0.733205 0.776366 -1.788914 -0.323835 2.170214 -2.252172 2.742153 -0.450898 -1.179265 1.493508 -1.192638 -2.420398 0.463479 0.024056 -1.870440 2.720385 -2.878888 -1.637245 1.868373 -1.092136 0.344809 2.095978 0.878640 -1.802670 -1.183042 2.951034 
名字 -0.774729 1.321467 -2.055993 0.209268 2.240526 0.462807 2.157494 -0.062662 -1.314504 0.208599 -0.453942 1.260533 3.090213 -0.234229 -0.313540 0.014190 3.006126 -1.767091 -0.081796 -2.085158 1.393151 -2.230583 -0.807167 -0.980226 -2.030431 -0.095240 0.455210 0.203359 -0.063700 0.481286 -0.107026 -0.416048 2.581258 -2.453098 -1.543881 -0.596763 1.553378 0.159716 -1.578058 -1.781035 1.689568 1.093564 -0.931862 0.466337 1.334864 -0.905546 -0.157651 3.257962 -1.276400 -0.100121 
军事 -0.347315 -1.412490 -1.565408 1.270572 0.480878 -1.025431 -0.264951 1.860883 -1.264696 -4.615138 2.149468 -0.440506 0.647248 2.343509 0.061406 1.380171 -3.966876 2.995195 -1.706876 -2.426995 -4.421619 1.778562 -0.565891 1.406853 -0.919654 0.586425 1.109638 -0.844877 0.624147 -1.920860 2.380086 0.637330 1.443887 -0.892700 1.836485 0.427673 -2.756990 -0.409367 1.429449 0.017088 0.658349 0.976316 -0.111512 2.957894 -0.936805 2.661463 -0.177423 -1.188292 1.249045 1.100828 
范围 -0.100485 -1.656973 0.036774 -1.339745 -0.766931 -1.421016 -1.407294 0.386232 0.997555 -2.606705 0.361620 -0.806285 -0.452618 2.144928 -1.253458 -1.585853 0.300164 0.611391 2.644922 1.412884 -0.174560 -0.723256 -1.151643 -0.305726 1.036756 -2.163999 2.053634 0.299756 0.343833 0.996287 -0.246695 -0.976124 -0.454246 1.927409 -0.692978 0.277367 -2.656199 0.333542 0.301752 0.445142 -1.820781 -2.059445 -0.859442 -1.050244 -0.789444 -0.031434 0.610912 -1.162415 -1.241091 0.312826 
太阳 0.444203 -0.118346 0.324308 -2.984528 0.312195 0.606501 1.818563 -0.282766 -2.514912 -0.456769 -1.911363 -1.761782 -2.034668 0.107366 1.352323 1.067906 2.743941 -1.867858 3.413783 2.082551 0.642350 -1.911603 1.522581 -3.325723 -0.086676 1.308753 2.018589 1.931108 -2.538770 -0.588103 0.963858 0.451373 -2.174020 -0.108349 -1.482920 1.619130 0.303684 -0.042335 -1.362349 -3.196425 0.795794 -0.185672 -0.225967 0.649423 -1.685737 0.163626 -1.065465 0.672600 -1.670380 1.417224 
字 -0.042922 -0.779204 -2.771068 -0.346923 -0.519227 1.455808 1.185161 0.295060 -0.180664 0.249293 1.028425 -0.547744 1.408554 0.064682 -0.467416 -2.749220 2.430753 0.496957 -2.114337 -1.639316 2.327593 0.051814 -1.927653 -0.901486 -0.791840 -0.264159 0.731244 0.283284 -2.268492 1.142981 -2.042329 0.165315 2.176214 -3.129241 -0.693820 0.085791 1.882067 0.133969 -2.288700 -1.172113 1.800977 2.449011 2.552019 -2.058137 -1.488915 -2.283135 -0.906035 -0.692675 -0.551304 1.962153 
形式 -1.026234 0.960980 -1.251463 -0.783407 0.222550 1.288372 1.715607 -1.866786 0.057803 -0.163253 -0.203769 -0.259572 0.512633 2.303916 -1.250045 -1.849760 0.088961 -0.983765 -0.353304 2.512730 -0.995825 0.734894 0.263341 1.654775 0.306755 -1.707044 0.186045 -1.726287 -0.743961 0.818798 0.641259 -1.106258 -1.053427 -0.554202 -0.860951 -0.023198 -0.014906 -0.631999 -2.260116 -0.155017 1.575286 -0.334641 1.753225 -0.856745 -1.813629 -1.614850 0.345343 -0.318941 1.533110 1.242502 
银行 -2.495043 3.292921 -1.806460 3.573141 0.992948 -4.290136 1.314925 -1.127081 0.801544 3.122807 -0.229350 0.163200 -0.333263 -1.394463 -1.993438 -1.701424 -1.728078 1.778373 4.371675 -0.712482 -1.768134 0.920332 -1.784477 1.262512 0.788860 -0.447078 1.067541 1.441095 -3.743478 0.011314 0.683257 0.537826 2.146766 0.560874 2.767797 2.123475 -0.676881 1.895964 1.177423 3.010082 -2.221154 0.870308 1.069963 0.309153 0.250183 0.533706 -0.813646 0.417097 0.883750 2.094198 
运动员 2.450324 1.024315 2.286641 0.656513 -0.056651 -1.589381 0.592046 -3.079413 -4.656017 2.186029 -1.357424 -0.858468 0.533094 0.690956 2.757840 -0.191509 0.546944 0.534066 -1.751401 -1.777356 0.952104 -1.768484 0.514457 -1.935732 0.851525 -0.005110 -0.347777 2.431000 2.514555 -0.236833 1.778748 -1.666633 4.626377 -1.004891 0.999257 -1.320076 0.768329 1.102007 0.410922 -0.399626 -3.166086 -1.721795 -1.475767 -0.512440 -4.002400 -2.284253 -1.191666 0.141149 3.317004 0.676008 
女子 0.982092 0.167964 1.167860 -0.251908 -0.200901 -1.557352 2.032020 -2.612983 -2.785005 1.518988 0.694357 -0.221198 -1.679571 -1.984878 -0.083533 -0.128765 2.103614 -2.176443 -1.270165 -1.514767 1.472448 -1.426668 -1.044593 1.680245 -1.126450 0.333319 0.008164 0.552681 3.463664 -1.567679 2.054645 2.113952 1.599718 0.780494 0.368318 -1.206050 4.623185 1.814384 0.050321 -0.430596 -2.413349 -1.135944 0.387559 0.542881 -2.207400 0.968738 -0.745487 0.636927 3.066347 -1.000164 
协会 0.184121 2.574646 -1.768541 2.168281 0.558786 0.268393 1.961168 0.309926 -1.731099 4.268570 1.576502 1.310043 0.635447 0.003262 2.234950 0.252132 2.960882 0.668584 -1.480970 2.424917 -2.184921 0.689496 -2.620725 0.963897 -0.977553 -0.532076 -2.335901 0.402795 1.184296 -2.912954 2.455430 -0.942530 0.992482 -1.310614 1.242614 -1.999943 -1.084172 1.010963 2.575029 2.716640 -4.819061 -3.305155 0.659739 0.618032 -0.159605 -1.328856 0.989025 -0.599612 -2.396878 -0.604486 
电子 0.607265 -0.071713 -0.231564 3.694456 0.817692 3.124639 2.287978 2.400328 0.172553 0.816296 -2.075480 -1.971815 -1.976991 -2.217169 -0.508511 -1.115441 -0.956343 -1.550097 1.223484 0.312038 -1.040689 -1.224431 0.212216 -0.720203 -0.308133 1.056489 1.280713 -2.227351 -1.288169 1.401960 0.016121 -0.738267 -0.581296 2.751492 2.740589 -0.950542 -1.313366 -2.216830 -0.597404 0.126093 0.208353 -1.346504 0.304327 -1.250960 -0.744814 -2.841115 4.939198 -1.067412 0.670926 4.415227 
任务 0.712231 -1.225116 0.420444 -0.103758 0.429212 -0.393753 0.435327 1.162442 -0.190924 -2.121771 -2.975338 -0.995034 -2.036006 1.141254 -1.468419 1.571119 -1.024741 2.434502 -0.085373 -1.729363 -1.068564 -0.794574 1.366292 -1.824466 0.246875 0.510357 -1.924837 -2.312672 0.445086 -0.639915 0.560853 0.157322 0.735730 -1.986946 -0.558804 1.778901 -2.629891 0.532354 2.664646 -1.392902 1.127752 -3.357435 -0.395036 3.471213 0.506487 -0.393618 1.628157 0.753617 0.720638 -0.818759 
市场 -0.643285 2.431637 -1.960426 1.755317 1.122803 -2.399385 0.185777 -0.767680 1.072470 0.530640 -1.217538 1.625833 -0.456522 -0.620257 -0.198596 -2.519525 -3.747631 -1.627507 1.943692 1.751996 -1.957269 1.081791 -1.841717 -0.433133 5.468624 -2.055382 0.923262 -0.628905 -0.335956 -1.834404 -1.851508 -1.170150 -1.950601 1.193634 0.585746 1.442870 -1.183426 0.839039 0.009219 1.121115 -1.906643 1.667760 0.495426 -0.358556 2.115464 -0.691648 2.432427 -1.425651 -1.532358 1.359565 
行为 1.240609 3.327561 -0.012502 1.416806 -0.651869 -2.318081 0.281677 -2.014449 0.860250 -3.835845 -2.089893 0.924203 0.265841 1.973301 0.148413 -0.654024 1.171108 0.934360 -1.627282 0.610644 2.546090 1.822240 -0.030507 2.181094 -0.035740 -1.910238 0.585765 -1.832245 1.399359 1.808242 1.603446 -1.717383 -2.126188 -0.247035 0.938662 0.090164 1.445012 -0.256504 2.378841 -0.613306 1.063323 -1.380886 3.133705 0.917575 1.106866 0.830885 0.379188 -0.409611 0.801303 2.161028 
赛事 4.174779 1.285214 -1.298763 -2.024489 1.319144 0.288988 -0.175858 -0.270612 -0.841094 -0.381224 0.364497 1.888308 -0.222020 0.517754 2.651766 -0.044020 -1.004761 -2.315070 1.020968 1.493707 -0.288937 1.126303 1.167599 -1.242931 1.612534 -0.838036 -1.639248 0.861454 1.081310 -1.608389 2.245998 1.905641 2.928526 -1.965244 -0.195964 1.536250 3.253228 3.079440 0.731087 0.699954 -4.684074 -2.085687 -2.027424 -1.197294 -1.156080 -2.075215 -0.863071 -1.381499 3.044237 0.119000 
军 1.184809 -3.026590 -0.350441 -2.212897 -0.226272 -1.128091 -3.148286 2.016305 -0.911861 -4.038430 2.376354 -0.793337 0.457030 -0.579711 0.083440 2.151806 -0.898990 2.189448 -2.096739 -1.721047 -1.710196 2.673533 -0.399985 -2.510155 0.516447 0.862540 1.900722 1.223829 0.308731 -0.292647 0.251995 3.732904 3.032260 0.300816 1.430326 0.196002 -2.771874 1.109989 0.945668 0.930697 1.671405 1.199279 2.778380 1.134221 0.817361 0.155555 -1.727274 -0.954641 1.703840 -0.946687 
区域 1.106038 -1.867059 -0.586822 -0.745604 -0.496391 0.168860 -2.092952 0.329103 0.096120 -1.060643 1.494768 -2.192301 1.645303 3.276750 -2.292231 -0.559026 -0.010870 0.023113 4.271538 1.314517 -1.501391 -1.785760 0.311501 -1.488073 0.798733 -1.839118 1.036517 1.567996 -0.255884 3.749473 -1.393611 -0.417243 -1.029585 0.475118 0.397499 1.175513 -2.556332 0.481721 0.881189 0.688809 -1.830281 -1.690643 -2.321461 0.094007 -0.316081 1.065843 0.568380 -0.965689 -1.582302 -0.327999 
区 -0.037616 -2.455850 -0.497534 0.475662 0.502692 1.107894 -2.071231 2.060421 -0.785956 1.595810 3.546544 -1.502978 0.335041 1.684139 -1.218628 -1.478822 -0.787729 0.121546 2.094814 -0.074646 0.109513 -1.644584 -1.223847 -1.156702 0.985184 -0.824419 0.243618 3.640951 0.027513 4.652616 -0.821330 0.274805 -1.198889 1.182621 0.681997 -0.774360 -2.119175 2.107123 0.734701 1.793259 -0.998570 -0.567206 -1.811354 -1.893102 0.891638 0.901092 -1.015628 -1.035796 0.350117 -1.616142 
歌曲 -1.128561 1.969059 1.448564 -0.556936 0.468727 1.350057 1.118746 -2.097324 -2.603482 0.120424 -1.527735 0.618265 1.650347 0.069270 -0.855949 1.597152 -0.486655 -2.482029 -2.331548 1.360897 1.328146 -2.761044 -1.182732 0.009434 0.373369 -0.685399 -0.213731 -0.592852 -0.245887 -1.839313 0.832691 1.698750 0.197290 2.051707 -3.788965 -1.451244 0.525936 -0.773158 -3.791962 4.322215 2.022938 0.737802 2.367763 -1.934422 2.015209 -2.139130 1.666649 -0.714220 2.167739 0.007031 
地球 1.359080 -1.494968 0.839365 -0.705200 -0.492832 0.177813 -0.431156 1.589668 -0.965609 -2.366287 -3.326765 -2.232381 -0.865769 0.336746 -0.582023 3.706380 2.048064 0.116119 3.522280 1.139720 0.413212 -1.473005 2.869790 -2.399838 -3.069458 1.636184 1.083196 -0.761344 -2.589560 -0.546606 0.637739 -1.538504 -3.007387 -0.282533 -2.103554 1.200020 -1.000932 -1.167188 -0.506703 -2.421983 -0.304263 -2.965842 -0.735048 2.122233 -0.680390 0.868732 -0.515253 -0.339968 -2.757716 0.463078 
议会 -0.165134 0.154026 1.240025 1.109954 3.110590 -1.070161 0.726666 1.133378 0.234361 -0.802891 4.963664 -1.017267 1.069118 3.171159 0.794637 -1.307917 -0.069160 1.200321 0.489967 1.265994 -0.257511 0.666001 -3.164766 0.973330 -1.361827 -1.191934 -2.038501 3.666404 -3.022205 1.314139 1.101742 -0.990826 -1.851377 -0.700449 0.928117 -1.628897 -4.388109 1.543725 1.693538 1.765667 -1.044849 0.955579 -0.882657 -0.971633 3.653674 2.019780 -2.935096 0.384261 4.344450 0.541902 
电视台 -0.420705 -0.565088 -1.918586 1.021270 -0.617632 0.769546 -1.317622 -1.292062 -0.402640 2.013071 1.370275 1.834399 -2.002677 2.254919 -1.033423 1.674322 -0.745015 1.430027 2.116178 1.735819 0.366594 -2.037071 0.363906 -0.155376 -1.593312 0.134351 1.637054 -1.748005 -1.991177 -5.770250 0.709931 1.689596 0.182775 1.122901 0.341466 0.846157 1.937410 2.403685 -0.453567 3.221365 0.669450 -1.595260 0.027399 -3.594782 1.646424 -0.745847 -1.578355 1.198382 0.155785 -0.489344 
小时 -0.598462 0.189459 2.290783 -2.767388 -1.393439 1.366140 -1.041990 0.108745 1.368592 0.140739 -1.625478 -1.057824 -3.880324 2.224723 1.295864 1.622419 -0.907366 1.456399 1.417326 -0.952528 -0.864830 -1.139352 1.038586 -2.534228 2.286948 2.131313 -0.264193 -0.342982 0.169004 -0.249914 0.011563 -0.521207 2.560390 2.505341 -1.162631 2.516372 1.165796 0.529754 0.544571 0.123516 -1.045805 -3.258061 -0.015239 -0.797961 2.292336 -2.204766 -1.064226 -0.136363 0.265462 1.306763 
工业 -2.643604 -0.551630 -0.228309 3.590818 -0.022122 0.209716 0.020351 2.261714 -1.706971 2.262268 2.427057 0.219521 -0.606903 -1.947723 -0.421077 0.204024 -2.758194 -3.015040 2.217373 -1.229558 -4.460658 0.526212 -0.751834 1.658280 0.765178 -1.079978 1.693406 -0.637516 1.749559 -0.021747 -0.018475 -1.396784 -0.655306 2.237540 0.926141 -0.202963 -3.264039 -2.302990 1.738242 -1.268239 -2.270883 1.973124 -1.223034 1.817572 0.572047 0.044528 0.846473 -3.921123 -0.807486 0.196752 
行政 -3.000009 -0.619833 -2.161542 4.246154 1.528543 0.745198 -0.016464 1.470973 -1.589394 -0.630429 4.148609 -2.856778 -1.039818 4.388505 0.072797 -1.479236 -3.215265 3.875495 2.205702 -1.401967 2.050862 0.104947 -2.776972 1.113073 -0.661241 0.162052 0.553057 4.076122 0.751865 1.191502 0.738804 1.419877 -2.511290 -0.737237 2.711985 -0.204701 -3.821361 2.185920 1.901620 1.503500 -0.477797 -1.718720 -1.717543 -0.555830 -1.655389 1.640081 -1.257082 0.796387 -0.012343 1.822137 
书 -2.908588 0.852397 -0.465229 -0.571152 -0.278203 0.484842 0.200234 -0.860438 0.828936 -1.661155 -0.472724 2.404204 1.949200 -2.812437 1.163732 -0.687310 0.311922 3.469110 -2.988080 0.442927 0.222232 1.377890 -1.422258 0.815653 -2.107364 1.612852 0.287260 -1.664842 -1.818028 0.503662 0.404585 -1.702978 -1.106067 -2.295599 -2.281445 0.844033 1.969550 -1.311334 -2.252091 -2.600365 0.650988 1.421054 2.672673 -0.840522 -0.073343 -0.927214 0.002883 1.105888 -1.047924 -0.338325 
法律 -2.059667 1.633256 0.231308 3.992033 0.728061 -2.893775 2.316059 -1.932747 0.499447 -3.039250 1.373394 0.615395 -0.294561 1.896106 1.368780 -2.682313 -1.124080 1.025103 -1.965087 1.797649 1.779370 0.229520 -1.512946 5.449211 -2.100814 -1.676859 1.906901 0.900564 0.103991 1.015406 1.704199 -2.159756 -1.802734 -2.165797 0.804805 1.382550 -2.240711 -0.440641 2.189376 1.110143 -1.747509 -0.972950 1.069452 0.422878 -0.712104 -0.513465 -1.661360 0.914825 0.692466 1.176903 
植物 1.662923 -2.764503 -2.310189 -0.364816 -4.508745 -0.852581 0.469192 -0.396434 3.091713 0.132691 -0.494600 3.059571 0.907065 1.150646 -1.087773 0.147898 1.819029 -2.220279 1.257094 3.558250 -1.009996 2.580002 -0.565409 0.197579 -1.673844 1.915797 -1.193019 2.027039 2.087394 1.322700 1.887874 -2.357591 1.433876 0.658419 -0.623867 2.735850 -1.968280 -3.547839 -1.688613 -0.701755 -0.176396 0.699782 -1.158440 -1.763264 -0.237224 0.635367 1.000550 0.546048 -3.126113 -1.981399 
基础 -1.615042 -1.394307 -1.288049 1.386802 -0.726319 0.119423 0.596947 0.998602 -0.862952 -0.362542 -1.023196 -0.637896 -0.630715 0.819490 -1.153179 -2.314833 -2.083622 0.921619 -0.695222 0.872913 -2.346197 2.150292 0.252741 2.658528 0.281051 -1.613768 0.040828 -1.278272 -0.418373 0.404013 0.677641 -1.352734 -1.543189 -0.620333 -0.786896 -0.459447 -0.821824 -0.438221 0.385922 -1.122463 -0.698252 0.894681 -1.090780 0.860864 -0.789821 -1.204289 1.162280 -2.023548 0.470284 -0.008465 
原因 -0.215056 1.719341 1.627127 -0.196797 -0.869077 -0.615772 -0.392111 -0.898783 0.362537 -3.213467 -0.207979 -0.264893 0.689166 0.960244 1.256185 0.794629 -0.178972 -0.215163 1.246261 -1.157583 0.869565 1.685054 0.591007 -0.114238 1.214234 -0.514421 -0.116548 -1.511172 -0.722033 0.230448 0.024361 -1.913502 -0.454580 -0.145608 -0.996388 1.227349 1.176625 -0.610682 0.992325 -0.720933 0.528526 0.251055 -0.124037 0.001229 1.323385 0.025497 0.387754 -0.338679 0.078623 -0.260908 
年度 0.796922 -1.057187 -0.980354 0.484781 2.013342 0.351358 2.013251 1.376258 -0.471260 2.099292 1.099269 0.030266 -0.103475 -3.114829 5.415687 0.444366 -0.514665 -1.365463 -1.071857 -1.077198 1.203373 -1.085348 -0.536928 -0.862526 1.162926 -0.568825 -1.685124 -0.099683 0.234427 -2.590293 1.920370 0.033712 -0.525918 2.034411 -1.012071 -1.059971 -0.680547 1.298927 -0.785472 2.709230 -2.568207 -1.765297 1.994112 -2.480744 0.558867 -0.468633 1.293433 -1.713087 0.378045 0.245578 
科学 -0.988118 -1.270870 -0.346240 2.662708 -1.959467 2.403498 1.634617 2.309001 -2.070878 1.303437 -1.314408 0.081227 0.744275 -1.174726 1.503522 1.946070 0.064181 3.241027 0.914445 2.100418 -0.325120 2.146953 0.815152 1.903402 -2.808111 -1.522565 0.193384 -2.934130 1.843193 0.375156 4.235463 -2.383902 -2.283228 -1.128909 -0.748648 1.492199 -0.853845 -2.309636 -0.846684 -0.763707 -2.587005 -0.388086 -0.884709 2.126347 -0.662931 0.289090 1.551496 -0.809588 -2.866913 2.242794 
路 -0.666335 -1.633691 -0.090379 -1.282582 0.135820 -2.214891 -1.152262 2.011443 -0.008973 0.347186 0.129679 1.539655 0.652308 0.564408 0.544367 -0.480193 -0.351705 0.469222 -1.419739 0.741802 -1.502068 -0.893904 1.580709 -1.920319 -0.243650 -1.297551 0.253653 1.201647 -0.562604 2.647944 -0.955809 3.098892 0.147138 0.978927 1.063905 -0.796291 2.480749 -0.289559 0.434167 0.810512 -1.050096 2.602993 -0.800659 0.525594 1.060279 -1.340492 -0.129874 1.463836 1.139856 1.922824 
产品 1.066892 2.237235 -1.481264 4.181260 -0.544726 0.136192 -0.155928 0.146368 0.651770 1.151921 -0.879011 1.557840 -1.431134 -1.884211 -0.085164 -3.224412 -1.697909 -1.788557 1.017045 2.071489 -1.558879 0.874855 -1.760943 -1.624744 2.928040 -2.709590 0.083211 -1.081318 1.135626 -1.869415 -2.468642 -0.889654 -1.457355 1.388593 0.330933 2.172788 -2.550174 -1.645660 -0.963407 -1.837620 -0.506314 -0.039320 -0.420946 0.932128 2.327982 -2.086025 4.306298 -1.481969 -0.585940 1.893402 
公园 1.564773 1.140851 -2.355231 -1.404337 0.118586 -2.254777 -0.688493 0.663119 1.092079 2.721576 1.478610 -0.488871 1.947141 0.493678 -2.664257 1.578785 -0.228665 0.895031 1.060324 2.607856 -1.289311 -2.466418 0.142742 -1.911224 -1.716500 -0.851944 -3.384768 1.941549 1.564397 3.600956 0.706091 2.287614 -1.125117 1.480920 -1.759777 1.206964 1.239466 -0.209066 1.449523 2.937379 -2.333451 0.314347 -3.004493 -0.169785 0.184275 -0.886262 -3.005026 -1.331459 -1.192800 -1.738802 
站 1.125294 -2.454104 0.025392 -0.765494 -0.554001 -0.781555 -0.070175 2.224694 1.884595 2.655545 0.347410 -1.286054 -1.183732 0.514945 0.011367 -0.358546 -1.798052 0.946882 2.067738 0.950528 0.763917 -2.593799 0.260319 -1.807905 3.033075 -1.742131 -1.295947 -1.094268 0.676675 2.891404 -1.862191 2.274214 1.534306 1.993699 -0.343437 -0.314061 2.892819 -0.614595 -0.467939 0.511424 -3.467233 1.054045 -0.362048 -0.366142 0.102003 -1.356057 -1.693538 0.234959 3.767787 0.242490 
空间 -0.111578 -0.709753 -0.323858 -3.536351 1.410036 0.582134 -0.921430 0.881401 0.273541 -0.077156 -1.915619 -1.796147 -0.216508 1.543109 -1.729711 -2.540429 0.513572 1.105802 3.008039 3.081607 -1.414514 0.412379 1.644064 -1.445102 -0.483677 0.706163 -0.558025 -1.949242 0.780340 2.579373 -1.106790 -2.508645 -3.940250 -0.762605 -1.006818 0.240159 -0.412211 -1.199682 0.524308 1.837807 0.324331 -0.521405 -0.067475 0.563937 -0.832851 -1.900561 1.811965 -0.511579 0.725235 2.591308 
母亲 -1.860542 0.858567 4.069181 0.937147 1.735776 -2.200309 -0.505730 -2.097477 -1.389425 0.747547 0.213619 0.751019 -0.770551 -1.066333 0.393783 0.303034 2.672839 -1.240270 -1.882874 -2.071272 1.661363 2.050898 0.956321 0.399893 -2.002106 2.093498 1.376478 0.725822 0.762832 0.120307 0.026274 0.925493 1.443970 0.921727 -1.036887 0.414634 4.896694 -1.955778 1.985211 -0.449895 1.862402 1.285755 -1.183414 1.773578 1.892526 0.486827 -0.499385 3.021301 -0.924114 0.804126 
武器 1.207507 0.223446 0.237642 -1.327945 -0.855047 -1.345597 2.285744 1.016022 -0.283802 -4.297401 -1.974714 -0.407024 -0.920184 -2.165804 -3.273320 -1.419557 -2.659432 -0.839419 -1.180943 -1.817627 -3.071522 -1.016255 1.587338 -1.047042 -0.183606 -0.781486 0.216418 -0.114661 1.142015 -1.955058 -1.012097 -2.092653 1.104721 -1.420524 2.241342 -1.611760 -1.145985 -0.097649 1.931249 -2.114650 2.648239 -1.717375 0.651357 2.413433 0.318911 1.561605 0.757821 -1.024810 1.562778 -0.305972 
速度 0.410134 -0.207044 3.032543 -3.276406 -2.100090 0.232196 -1.700864 1.278697 -0.985538 -1.129723 -3.708398 -1.987795 -2.892289 1.972317 0.454853 -2.132839 -1.069691 -1.069490 1.805124 -1.636310 -1.411554 0.330443 2.947398 -4.166959 2.042791 0.663941 0.230147 -1.909511 -0.705319 0.240334 -1.274076 -2.781238 1.565950 0.989632 -0.513693 0.410083 -0.817054 -0.999149 -1.416332 -1.206522 -1.361627 -1.974308 0.045667 -0.546730 -0.443990 -0.983642 0.817386 -2.705384 0.304397 1.056468 
高度 2.377936 -0.176761 0.353112 -3.078690 -0.888294 -1.999317 -2.680341 1.737973 -0.794591 0.513099 0.048322 0.349680 -2.281928 -0.087157 1.888157 -0.953797 2.158886 0.837196 3.437225 -2.247281 -3.802651 -1.425250 1.406380 4.082652 1.664611 1.102695 0.689843 -0.376359 0.317294 1.484101 1.434419 -4.022679 -0.877525 1.113075 -2.559364 0.032355 -1.676683 0.028686 0.293371 -6.178536 -0.337223 -0.479299 -3.317964 -3.837881 -0.943053 -0.762929 -0.117718 0.804646 -1.124135 -3.174382 
全球 0.163654 -0.395769 0.806891 2.915050 0.109846 -0.911214 -0.209076 1.574986 0.657774 -0.448199 -1.760345 0.060033 1.135777 -1.135935 1.013111 0.766761 -0.325292 -0.996456 3.438470 2.140487 -0.635875 -1.551587 -1.867460 0.855080 2.860637 -1.309079 -0.132995 0.036316 0.197876 -2.667130 1.545476 -1.982149 -0.780516 2.246272 -0.676137 1.043737 -1.732125 1.493196 -0.606634 1.394025 -3.843032 -1.844214 0.343717 -0.149029 1.651996 -0.165714 3.471165 -1.224514 -3.061381 -0.052862 
市 -2.587776 -1.881657 -1.456962 1.630558 0.816368 -0.344416 -1.342077 1.713439 -1.185632 1.012592 4.177215 0.853860 -1.566365 0.674985 -0.914607 -1.388819 -0.468120 -0.421378 1.444432 0.260136 1.908071 -1.203783 -2.637580 -1.115119 0.855856 -0.609085 0.235387 2.101833 -0.229265 3.272099 -2.568757 1.765224 -0.858733 1.265799 -0.437183 -0.882237 -2.369198 1.969975 0.338293 -0.173449 -1.917191 0.344576 -0.915733 -2.284997 1.803863 2.472187 -2.161452 -0.991483 0.620817 -1.155694 
教授 -1.686197 -0.803525 2.814717 1.577498 -1.267505 0.904388 2.809334 0.993115 -2.445998 1.686428 0.315247 2.148338 1.012688 -2.659029 1.607632 2.887159 -1.054862 1.960570 -1.021482 1.204355 2.636676 1.563848 -0.140082 4.041667 -2.109285 2.912657 0.318238 -0.919103 -0.734129 1.576302 2.629884 -0.364508 -0.156612 -3.292463 3.132565 -0.389750 1.371628 -2.589919 0.280911 0.636664 -1.038394 -0.671947 -1.565740 0.330510 -0.868588 1.373637 0.876917 0.179248 -2.122848 0.783815 
城镇 -2.025604 -0.229434 0.287087 -1.031065 2.607764 -3.230174 -2.206752 1.419415 -1.226221 -1.238855 1.982855 1.567376 -1.243307 1.831851 -0.877407 -0.408866 -0.783857 -0.438832 1.108186 -1.522608 -3.206160 -3.132806 -0.878533 -0.493814 1.753034 1.171002 1.577986 1.689619 1.044105 4.147596 1.290864 -0.469538 0.447885 2.232658 -0.565083 -2.218801 -0.818203 -0.064296 -1.018545 -2.247100 -0.467838 0.078444 -3.870790 -0.979693 1.306848 2.090759 -1.223286 -1.203943 -1.554013 -1.425334 
数据 -1.245267 -1.435187 0.536339 2.372631 -1.476888 1.642428 -0.775489 0.263623 0.635792 -2.068608 -0.033392 -0.814816 -0.964604 0.555186 0.417382 -4.363621 3.501006 0.010013 3.337559 -2.132161 -0.723717 -0.008496 2.406925 -0.583431 1.270782 1.263396 0.634563 -2.754338 0.221324 2.269849 1.663188 -1.828094 -0.333296 -0.041029 -0.874055 1.596575 -1.949628 1.526975 -1.724751 -0.637354 -3.026057 -2.048429 -0.263908 -1.195289 1.107944 -0.431293 3.750912 0.160023 0.954276 1.407987 
宗教 -2.056088 -0.095753 1.882635 -0.194424 1.522436 1.362704 1.345600 -0.208821 0.526648 -2.898645 2.976053 1.190690 2.259388 4.311576 -0.937551 -0.781728 0.145547 0.963027 -1.044342 2.796030 1.192475 -0.345049 -3.109824 4.094923 -0.243970 -3.907598 0.584997 -0.811929 1.506587 -0.906598 4.380867 -1.620839 -3.197937 -0.710883 -0.834845 -1.031989 2.040407 0.328693 0.525053 -3.011499 0.465009 1.507661 0.927163 2.376897 -2.123936 1.102489 -0.531378 0.510463 -1.151243 0.319689 
教区 -0.481194 0.022909 1.319529 -0.771813 3.266805 0.333087 -0.123952 0.714324 -0.477960 -1.073526 4.646039 2.072271 -0.618121 -0.001885 -1.064230 -1.057381 1.330829 2.433029 0.960482 -0.438311 3.015429 0.027138 -1.901119 2.319484 2.292899 -0.632990 1.551846 2.675298 0.930111 0.604606 1.156793 1.896140 -1.731409 0.997630 1.103055 -4.189885 -2.211684 -0.333203 -0.343007 -0.712284 -2.513270 -0.441299 -2.150844 -0.934655 -0.633893 0.771561 -0.262947 0.929599 -1.573293 -0.012840 
政策 0.251899 0.045685 0.870705 3.268216 -1.102969 -3.339255 1.148162 0.536763 0.091808 -2.605898 2.755396 -0.231744 0.122379 3.308934 2.543287 0.179671 -3.104458 1.723459 0.433910 -0.401835 -1.520795 2.337611 -2.871016 2.652382 2.020665 -1.105792 1.389270 -1.881439 -2.260570 -0.256901 -0.073408 -2.554346 -2.521855 -0.741220 -0.101677 0.236140 -0.997259 1.088387 1.624124 2.062231 0.130011 1.259293 0.045652 2.303005 -0.273211 2.084497 -1.022227 -1.923981 -0.449172 1.474694 
主角 0.161364 -0.189094 -1.064990 -1.437389 2.578288 0.339428 -0.222210 -1.929696 -0.514991 1.720464 -2.342957 2.088278 -0.418109 -1.148566 -0.530561 1.010662 -0.296286 -0.934271 -3.802267 -2.329563 2.154403 -1.096247 2.961790 0.758206 -2.129871 0.461026 -1.133810 0.160855 0.686760 -2.688042 -2.310459 1.406500 -0.683730 -0.559499 -2.720597 -1.205432 2.410361 -0.512787 0.206156 -0.507230 1.526967 -2.526774 0.919290 -0.467254 2.796219 2.446515 1.146670 0.631535 0.019559 0.057499 
星 0.913805 -1.843884 -0.492961 -1.511358 1.442567 1.616968 2.067955 0.254318 -1.578513 1.720805 -3.051341 -0.302013 -1.227578 -0.782860 1.422027 0.241523 1.782433 -0.255878 1.201549 1.219413 1.055675 -1.320773 1.103471 -3.347274 -1.708091 0.542307 1.576172 1.946582 -1.902793 -1.435167 -1.126734 0.307045 -0.127588 -0.630954 -0.618709 0.381358 0.789209 1.288491 -1.574802 -1.020350 0.342562 -0.681659 1.296250 2.344314 -0.377931 0.567391 -0.703071 -0.338606 0.194230 0.622292 
生涯 -2.834289 0.126745 1.974252 -1.045670 2.327982 -0.847032 0.589317 -2.899547 -2.032148 1.159055 -0.311922 2.203136 0.441433 -0.469826 4.359816 -0.701902 -0.268623 0.371352 -1.464309 0.155355 -0.770922 -0.166938 4.187075 -1.436719 -0.562111 0.956721 -0.264624 -0.180296 -0.873769 -1.099048 2.996730 0.388040 3.068027 0.263173 -0.522707 0.006614 1.307354 -0.684959 1.945301 1.694172 -1.164462 0.201196 0.167711 -0.534364 -2.008176 1.377188 1.421177 -0.882903 2.889249 -0.973212 
目标 1.155053 -1.643866 0.912576 -0.590892 -0.540105 -1.682039 -0.036808 1.145327 -1.827975 -2.676096 -3.053892 1.815120 -1.420738 0.932137 -0.427321 -1.290024 -0.831554 1.242054 1.384976 -0.373321 -2.876926 -0.417080 0.084973 -0.534822 2.011399 -0.333607 -0.473950 -1.277266 0.211685 0.221012 1.011008 -0.784510 -0.979072 -1.328228 -0.550198 0.134286 -1.323824 0.503069 2.528331 -0.083337 1.002732 -1.535609 1.013438 1.802269 0.494898 0.687118 2.059984 -1.190554 1.093280 0.737553 
官方 -0.319566 1.398540 -1.340582 2.194877 -0.487100 0.803144 0.946063 0.448692 0.623410 -2.783366 3.719327 1.289324 1.728360 1.239450 0.869130 -0.277736 0.651719 0.681112 0.448402 -0.191212 0.931409 -3.591615 -2.408273 0.883052 0.665569 -1.022248 -1.293518 -1.808865 -1.565323 -1.606795 0.218409 -1.515192 2.103143 -0.854917 0.467172 0.381327 0.949832 3.074583 -2.456887 1.884397 0.647852 -1.486813 -0.204217 0.378773 0.274500 -1.762895 2.112178 0.393365 0.571546 -1.002564 
作用 -0.065803 0.969552 -0.535109 -0.596932 -2.217533 0.987874 -0.019959 -0.532738 -0.977451 -2.974719 -1.358852 -1.138930 0.168818 3.431103 0.227697 0.992425 -0.467640 -0.567309 0.593242 1.106911 -2.174090 2.272675 1.563367 -0.154146 0.359607 -0.201080 -0.004655 1.102514 -0.117943 1.706020 0.113977 -1.487236 -0.995692 0.555203 0.310424 0.154054 -1.586557 -2.916183 0.370613 -1.939126 0.582169 0.249778 0.529337 -0.950802 -1.376632 1.044227 1.267303 -0.493759 0.411213 1.270682 
电脑 0.218481 1.852584 0.365767 2.059806 -0.798527 0.731876 1.173006 1.071328 -1.530485 0.441897 -2.589207 -0.490821 0.747510 -3.721266 -0.698990 -4.579290 -0.067702 1.874217 1.924426 1.486777 1.199420 -0.893982 0.930362 -0.350507 -0.174037 -0.502473 -0.840989 -3.238124 -0.348934 -0.765568 -0.482693 1.291291 -0.359095 0.337561 2.063226 0.640569 0.709566 -0.423433 -0.640407 -0.458097 0.799759 -2.588370 -2.249899 -0.605402 3.272975 -1.178093 4.237144 -2.223911 -1.521122 1.984850 
企业 -1.795745 -0.025939 -1.005438 5.186789 1.613328 -0.705544 0.521452 1.063065 0.356939 2.167332 -1.393808 1.324967 -1.518398 -0.233141 0.003773 -1.516291 -1.758428 -1.188569 3.795355 -0.336970 -1.849623 1.676652 -3.094568 1.646209 0.465710 -1.290956 0.334221 -1.117454 0.068825 -1.238970 -1.074570 -0.338352 -1.603258 0.423715 0.899652 3.180991 -2.749334 1.731922 2.398336 0.471161 -1.634275 0.767910 2.594079 1.889035 0.609297 -0.134170 2.917090 -2.155618 0.028068 -0.384296 
居民 -2.179152 -1.901263 0.999643 0.378479 1.103906 -2.169777 0.674092 -0.626265 1.800505 -1.595811 3.174412 -1.882543 0.553354 3.045985 -0.985505 0.156203 0.308043 -1.167514 1.893304 -2.006214 -1.774963 -0.953573 -2.566212 -0.123755 2.371603 -0.410615 1.065203 1.275696 1.000992 4.357931 0.897011 -1.750446 -1.322059 1.924365 0.444178 -0.020695 1.567994 2.900215 1.054553 0.378665 1.487306 -0.925442 -0.772247 -0.662603 2.250830 -0.779036 -3.077592 -0.558900 -1.074951 -2.918773 
部份 0.570744 0.476791 -0.774235 -1.774547 -0.788457 0.146354 0.055014 -0.412631 2.079542 -1.105860 0.466347 -1.194729 0.648428 1.246824 -1.648144 -0.633612 -1.213147 1.426557 1.102837 0.065805 -0.054380 -0.121237 -0.653494 0.653121 0.142628 -1.999231 1.013840 0.789676 -0.658247 0.793844 -0.721896 -0.337872 -0.482722 -0.115031 -0.731400 -0.641436 -0.011755 -0.318286 -0.693696 1.327871 1.305193 -0.388296 -1.214718 -1.166239 0.657897 -2.133751 -0.094842 -0.938227 -0.866848 -1.599052 
儿子 -0.907025 1.440677 2.877392 1.084187 1.907135 -2.879553 -1.252651 -1.039599 -0.006090 -0.944628 -0.212778 0.766493 0.052832 -0.726484 1.593736 1.010766 0.484398 -0.639167 -1.861029 -1.210854 1.174318 2.036819 1.927667 -0.346108 -1.951187 1.405644 1.826444 0.921523 0.942827 -0.431158 0.692170 2.147290 0.995611 -0.934815 -0.018722 -0.175874 2.981411 0.806569 0.640966 -2.003100 1.542131 3.170805 -0.755881 1.871232 1.771449 -0.024232 -1.383058 3.984453 -0.521187 0.447204 
歌手 -0.552962 -0.432088 2.502883 1.437541 2.923788 -0.452054 1.683729 -1.347934 -2.248361 1.599559 -2.109942 0.200709 1.626515 -0.191496 0.488602 0.536563 0.276226 -2.675962 -2.086330 0.379321 2.463353 -1.993842 -1.649564 -1.110706 2.248444 0.830289 1.630158 0.663530 1.164481 -3.597083 0.563850 2.815448 1.121455 3.019433 -2.517035 -2.904838 1.326186 -1.091448 -1.196803 4.361008 0.686066 -0.243235 1.381647 -2.765444 0.185079 -1.095498 1.045140 1.105029 1.072618 -0.464557 
热带 1.119779 -2.172686 -1.651529 -2.883624 -3.055278 -0.108619 0.325014 -0.576672 -0.763376 -1.438341 1.302033 -1.464639 -2.990191 2.247853 -0.355801 0.042471 1.362142 -1.229248 2.338624 0.560731 1.566841 -0.358938 -0.248342 -1.074662 3.463669 0.778991 -1.381552 3.002321 2.095704 -0.489280 1.948732 -1.430775 2.009089 3.431250 1.537356 3.452208 -0.744921 -0.970873 -0.730388 0.998100 -3.513788 -0.332459 -1.437959 0.070395 0.331614 1.045648 1.997762 3.614292 -6.760329 -2.276857 
有限公司 -1.663501 0.520409 -3.883682 5.921073 0.988337 1.281499 0.905285 1.080157 0.682711 5.056760 0.483116 -2.712431 -0.855206 -1.788032 0.875002 0.966481 -0.478172 -2.074994 2.113869 3.083645 -2.842201 0.084251 2.692258 0.794283 -0.165918 -2.207211 1.498096 1.744308 -0.290513 -2.669081 -2.175013 3.024109 0.625045 0.316931 2.093853 2.248245 0.353723 1.338580 1.540949 1.450645 -1.056767 0.797906 1.799684 0.223652 -0.149139 -4.382898 0.738101 -0.300429 -2.228326 -1.105733 
议员 0.868781 1.660308 3.607335 1.382585 2.466550 0.945538 2.672678 0.602969 0.723165 1.102139 2.932878 -2.687014 1.376734 2.054954 3.070052 -2.305584 -0.353985 1.486102 -0.975415 -0.497076 0.761373 0.839774 -2.342472 -0.411023 -2.514495 1.059990 -0.384698 1.687062 -2.540294 2.415253 -0.782869 0.561531 -1.448245 0.322642 2.057867 -0.980584 -2.117051 1.616427 1.907027 3.578014 -0.896000 -0.042600 0.286415 -2.414005 2.473674 3.472292 -1.067405 0.787094 2.021860 0.170663 
纪录 0.257915 1.533636 1.392550 -0.993394 0.723433 0.945191 0.803451 -0.614733 1.219485 -2.031372 -1.086990 -0.090114 0.133364 -2.458438 0.929744 -0.930215 0.623696 0.979108 0.638416 0.087608 0.927231 -1.200331 1.924971 -2.974070 0.901156 0.871167 -1.674801 -0.877137 0.254925 -1.164885 2.403245 -0.203078 3.162264 0.477521 -1.762975 0.253474 1.929656 1.364585 -1.440153 0.250113 -3.937313 -1.810099 0.984850 -2.433833 -0.822293 0.380379 -0.360763 -2.125723 -1.170134 -1.444853 
成绩 1.197074 -0.837747 2.567456 -2.042397 -0.746335 -0.639303 0.703416 -1.999505 -3.198613 0.360785 -0.630216 0.882189 -1.421162 -3.235007 3.047844 -0.689390 -0.855381 -1.725441 -0.727343 -1.047176 3.154689 1.338855 0.680650 0.438064 0.689405 0.343724 -0.986370 -0.256633 -0.800153 -1.198056 2.883347 1.172708 1.270359 -0.851805 -1.138695 1.861160 0.715537 0.801116 -0.596113 2.403049 -2.920192 -0.918023 0.274518 0.164044 0.287166 -0.556198 0.860621 -3.755679 2.436287 -0.120650 
帝国 0.119409 -1.405280 1.613536 -0.734962 4.188649 -2.132652 -0.600647 -1.044337 -1.299647 -3.154141 2.383782 -0.846426 2.047262 0.575671 -0.728843 1.301699 -2.134536 1.998869 -0.298519 0.118491 -2.126637 0.286784 0.357585 2.154860 -1.363742 -0.963457 1.539194 0.941474 -2.610689 -1.471527 -0.250230 -0.702720 -0.825015 -0.515619 1.674014 -0.736380 -1.426205 -0.486120 -2.807538 -1.626545 0.090799 1.984279 -1.833918 3.523703 -0.208458 1.149902 -1.673314 -0.486646 -1.642561 0.132086 
机车 0.293514 2.186167 1.834684 0.231994 0.051356 1.238411 0.552406 3.108451 -0.042615 2.354378 -1.058070 -2.791591 -4.084833 2.592732 -3.175707 -3.294689 -1.244644 -0.805644 0.072055 -1.140804 -1.987070 3.422557 1.477263 0.719592 0.063281 -1.526371 -0.028201 -2.053685 2.177954 -2.187900 -5.053691 0.639713 1.648580 1.431478 1.075886 4.611054 -1.368103 -2.835007 -2.620586 -1.275328 -2.616631 0.595099 -1.731309 1.049313 0.572975 -2.882972 -3.031096 -2.459182 3.200499 -1.504105 
岛 0.054073 -1.368481 -0.361427 -1.564002 0.790299 -1.987241 -1.005379 0.518361 0.902522 -0.366626 0.221943 -0.698022 1.786290 1.015155 -2.305363 0.897931 -0.566432 0.602128 1.424725 -1.839350 -0.984356 -1.163194 -0.365089 0.701618 -0.829624 1.949953 -0.952140 0.435714 0.307885 2.428089 -0.537380 -0.173089 1.848349 2.332683 -1.764538 -0.787464 -0.306193 1.337694 1.445104 0.641108 1.634961 -0.831985 0.639283 -0.797650 -0.869064 0.748250 -2.684548 1.570648 -3.930216 -3.264915 
商业 -3.292866 -0.174652 -2.078681 2.814403 1.462007 -2.222545 0.460808 -1.674474 -0.158778 1.306145 -0.835994 1.253513 0.742668 0.536849 0.424610 -2.028861 -3.316929 -0.334319 2.800525 0.981177 -2.627112 -1.765593 -1.189076 1.153960 1.777921 -1.400241 1.837110 -0.349547 0.554682 0.159953 -0.047794 0.151564 -1.101909 1.483984 -0.941727 0.644635 -0.788123 0.213571 1.313939 1.601665 -1.205950 0.280298 -0.155428 1.156010 0.664778 -0.194262 2.110274 -0.573214 -0.957901 1.976118 
家庭 -2.627578 1.179958 2.534814 2.205984 2.656172 -1.604002 0.638901 -3.175117 0.163070 1.543830 0.939943 1.205178 -1.387884 1.565419 1.095174 -2.505476 2.047789 -1.204095 -0.631033 -0.932578 0.067495 2.050974 -0.406200 2.455363 1.002336 1.279384 1.956033 -0.045753 0.809188 0.628523 1.931887 -0.182660 -2.864216 2.170941 -0.230844 0.360199 4.525178 0.328802 0.798730 -0.264637 1.546934 -1.619443 -2.467455 1.977434 3.226533 0.306000 0.103091 0.022332 -0.211863 -1.233269 
条约 4.757680 0.823911 0.855694 1.754285 0.317297 -2.927466 1.316807 0.525712 0.794700 -5.098716 2.742478 0.962385 -0.006780 0.415593 0.472425 1.133762 -1.085284 0.236334 -1.568059 -2.388270 -4.860726 0.544420 -0.950718 4.690830 -1.651775 -0.679498 1.888387 1.013413 -2.628662 1.886783 0.590953 0.097227 0.655354 0.476780 -2.462996 -1.073267 -5.798361 2.085018 0.460221 0.435592 -0.936977 0.362111 -0.679568 2.983631 -3.793789 -0.870914 0.023980 3.958262 1.251261 -0.892095 
中学 -2.116237 -3.400992 1.809592 -0.081782 -0.158643 -0.958461 1.178946 -1.881903 -3.154952 3.355415 3.198007 1.576905 -0.691381 -2.659692 -0.519830 0.449550 2.091681 1.070202 -1.266776 -2.023842 1.252464 0.848918 -2.419836 3.339956 -1.078884 0.667368 -0.024072 1.590892 -1.468399 0.778615 0.584008 2.438594 -0.677358 1.546976 -1.296890 0.438217 1.982385 0.080580 2.100267 1.586879 -0.678889 0.297972 -2.302120 0.080954 -0.625382 -1.158690 0.279162 -3.259334 2.313639 1.045294 
赛季 2.696751 -0.594913 1.265441 -0.260899 2.308299 0.761982 -0.022083 -2.710285 -1.873384 -0.600715 1.298736 2.557956 -0.681639 -2.025328 2.695203 -1.529265 -2.070415 -3.076087 0.949506 -0.142124 0.992950 0.167377 4.019706 -3.066177 2.379920 1.620343 -2.960560 0.006739 -2.844747 0.187865 2.116956 -0.862286 1.209365 -1.241349 2.516244 2.110509 -0.130360 0.119229 0.964467 0.342340 -3.941885 0.707936 0.816258 -0.850717 -1.143663 -1.524097 -0.039976 0.813713 3.756827 -1.396911 
