2814 50
人 0.980700 -0.897421 0.687783 -1.218313 -0.416848 -0.010225 -0.090728 0.591860 -1.732022 -2.185206 2.251972 -1.024899 -0.831757 -1.101483 -0.505074 -1.384783 -1.574988 0.710806 -0.192203 0.243432 1.170634 1.185786 0.697895 1.271155 -0.253792 0.767490 0.445257 -0.472107 -0.592741 0.679389 -0.932391 1.178820 -0.554475 -0.167761 -0.108285 -0.572025 -0.906995 0.536993 -1.357712 0.699064 -0.369992 -0.852538 0.145629 -1.168553 1.395457 0.171851 1.211179 1.017354 -0.556207 -1.527197 
大学 -0.044947 -0.354320 3.103205 0.609250 -0.445320 -4.050381 -0.230737 0.160665 -1.306657 0.325748 0.870769 0.381657 -1.001816 3.174855 -1.684834 1.507610 -0.892514 -3.167207 0.798008 2.020527 -2.525409 1.786097 0.313459 0.312316 1.961196 0.779095 -0.918508 3.199422 1.521004 1.926009 -0.942348 -2.834505 -1.018144 1.422050 1.099200 -0.621103 1.229843 -0.051776 0.338387 -1.844799 0.791942 -0.973878 -2.095338 2.385849 -0.086793 3.247615 1.888520 -1.515566 1.890132 2.266552 
公司 -1.734470 0.557615 -1.646741 -0.003986 -2.713748 1.302352 -0.680577 -2.627784 0.826478 0.670651 -0.106108 -2.776290 -1.580675 -0.046954 1.984065 2.395504 2.060189 1.486770 1.513937 -2.151185 -0.445107 -1.992850 -1.203101 -0.372155 0.906866 1.335115 0.067957 0.798557 3.371049 0.568012 -1.100127 -2.003601 0.180810 -0.917923 0.548180 -0.891506 0.709812 1.829667 0.885528 -0.419081 -2.437799 2.653651 -2.257144 -1.778097 0.132812 -0.503762 -0.554765 -3.486796 1.973653 2.353378 
国家 -2.323534 0.381900 1.142483 -0.609539 0.868662 -0.332114 -2.057878 -0.845091 -0.932355 2.469526 -0.748558 -0.477676 0.241746 0.695821 -0.099289 2.541837 3.129162 -0.613478 -0.384019 -0.758866 -0.369265 1.358426 0.976472 1.946710 -0.362590 1.371731 2.603764 -1.476621 -1.144014 0.343866 -2.864336 0.355221 -0.358591 0.006367 -1.602061 -1.317220 1.335851 -0.696920 0.424063 -1.274504 1.619359 1.025863 -2.610084 3.686398 2.050845 -1.389551 1.126107 -1.029030 -0.332127 -1.029198 
世界 -2.219275 -0.645797 -0.091800 1.804019 1.167265 0.289698 1.317433 -0.871222 -0.321224 -1.151316 -1.207622 -0.799073 -0.876356 -0.447339 0.627883 -2.333219 1.009638 -0.714749 -0.472036 -0.100592 0.429694 0.504883 0.589395 1.420995 -2.238525 0.757104 -1.651758 1.374655 -3.316745 1.894356 -2.887094 0.024745 0.298163 -0.443589 2.044714 -1.382214 0.969954 -1.391312 1.079474 -2.142332 0.535555 0.564601 -2.118766 2.621373 -0.253949 -0.279288 0.839025 -1.017220 0.345366 -0.728926 
地区 -0.156607 0.223379 -0.392224 -1.194126 -0.226433 -0.691891 -0.693698 0.080032 -1.097654 0.203311 -0.229725 -1.811155 0.282141 1.284118 0.049541 3.587905 2.692701 -0.245857 -0.832133 -1.353959 0.961635 -0.496125 0.268102 -0.175575 -0.587537 -1.768568 1.521454 -3.163166 -2.349388 -3.657874 -1.270127 2.073389 -0.109605 0.473370 1.788460 -1.362583 1.897204 -0.322633 -1.014411 -1.624851 1.213253 -0.530813 -1.502078 1.769938 1.772069 0.741407 1.980584 -0.522025 0.604731 -0.276711 
人口 1.941908 -1.237495 1.494910 -2.025855 1.675237 -1.568534 -0.962400 -1.635468 -1.997285 -0.771276 3.920536 -4.041883 -0.172621 3.052759 -0.114070 -0.955061 2.287405 -1.198539 -0.845308 0.463483 2.023333 1.638692 -0.127993 -0.415896 -0.255167 -1.051519 1.586002 -2.870139 -2.727583 -1.285189 -2.922238 0.358038 -4.611017 -0.446988 1.923043 -4.622147 0.394205 2.193037 -2.462953 0.637306 -1.020180 -0.918176 -0.797603 -0.995173 2.124126 2.376596 4.891832 0.052481 -1.201812 -2.316902 
电影 1.852011 1.298721 -1.160766 2.201734 -0.035054 2.311856 -0.574078 -0.345782 2.639611 1.549852 -1.026837 0.657404 1.088081 -0.465083 -1.466172 -2.120698 1.632118 1.827846 2.795265 -2.544898 -1.007351 -1.478550 0.397158 3.094600 2.468641 2.354018 -0.435420 2.862484 -0.633383 0.414229 0.639040 -1.136677 0.461849 -1.909012 1.974430 0.520631 -1.723991 -0.500392 -2.597875 -0.672241 1.133776 0.163523 -1.997230 -4.339550 1.931189 0.396088 -0.288073 -1.929831 3.125491 2.445594 
系统 0.126297 -0.446303 -0.411783 -0.077580 -0.160039 1.466668 0.319862 -1.191309 -1.835356 2.074917 -1.752223 0.366086 1.431341 2.573277 0.865417 0.889442 2.148006 1.627019 1.714332 1.409793 -0.630223 -2.992167 -0.991852 -1.730407 -2.329847 -0.956436 -1.225556 -0.051428 1.648737 1.246979 2.071966 -1.021582 -1.179090 -1.475779 -0.885270 -1.479546 3.162352 -0.997934 2.984505 -0.753879 -2.811441 0.777871 1.329964 0.805824 -1.651938 1.110286 0.828220 0.751365 -0.308752 -0.813691 
车站 2.566023 -2.527036 -0.696700 -0.690589 -0.038949 -2.658593 0.460187 0.602748 2.082920 0.786813 2.535944 -1.387352 -0.627965 -1.588117 0.833005 3.375484 3.599569 0.227402 -0.884514 2.029594 3.666898 0.695530 -0.065966 -5.588822 1.509710 -3.235908 -0.058154 -1.235123 2.364158 0.709039 3.029212 -0.042803 -0.172584 -1.341666 2.530245 0.734207 0.498004 -1.398123 -0.329656 0.232708 -1.332936 2.193806 0.083540 1.202434 -0.302721 -0.028965 0.839044 -0.317806 -0.316511 -1.716253 
国际 -3.986428 -0.738075 -0.836844 0.727829 1.346568 1.063039 0.329241 -0.957657 -0.746161 2.367018 -1.990342 -0.713951 -1.898344 2.036334 -1.472743 0.882233 2.597667 0.105618 -1.297890 0.664807 -0.185398 1.894221 0.994850 0.946596 2.036753 -0.421490 0.124018 2.947136 -0.378407 0.612482 -1.609489 -0.163384 -1.302605 0.388583 -1.432033 -0.128151 1.029719 -0.870051 1.155624 -3.072961 -0.607100 0.632055 -2.955698 1.112845 1.049879 -1.108065 -0.569292 -3.643707 0.429367 -2.119464 
政府 -2.668765 -0.754121 -0.119153 -0.318482 -0.220853 1.951198 -4.224440 1.035022 -0.530920 1.756713 1.940133 -1.971080 0.072909 1.981347 -0.181709 4.404428 2.239929 -0.001403 -0.791916 0.960958 -1.216240 1.955895 1.770797 -0.590422 -2.272314 1.886597 1.485672 -0.573856 0.540116 -2.449338 -3.162734 -0.120462 -0.362951 -0.059786 -2.598511 0.782768 -0.005890 1.506717 -0.179091 1.495924 0.024251 1.911771 -1.168756 1.590699 4.050132 0.507926 -0.380064 -0.844521 0.355950 -0.773418 
作品 3.433519 -0.984731 -2.370073 3.035549 -0.012878 1.331463 -1.369740 0.495626 3.836036 1.054837 -2.339134 -0.744573 0.667788 0.357081 -0.302094 -3.374295 -1.069232 -2.048158 -1.331209 -0.930635 0.940528 -1.808268 0.102051 2.586178 0.991773 2.164053 0.459338 1.942695 -1.540378 1.888633 2.102395 -1.871867 2.104151 -2.080236 1.522533 -0.662667 -1.204591 0.620033 -1.029468 0.243713 1.321334 0.661616 0.693440 -1.303809 1.154287 -0.880989 -0.031522 -1.019816 0.698878 1.686843 
时间 -0.580005 0.422143 -0.341660 -1.679996 1.019951 -0.261898 -0.363763 -0.263364 -0.040490 0.721594 -0.957372 1.226290 -1.794922 0.233941 0.222472 -1.381440 -0.163564 0.519372 -0.173257 -0.377982 1.135103 -2.374099 -0.168045 1.495802 -0.900689 -0.765326 -1.861539 -0.698804 1.862642 -0.295347 1.220175 1.847875 0.867335 -1.141616 0.430383 0.036063 -0.762945 -0.168298 -0.333920 0.761635 0.479815 1.681580 0.617593 1.815030 0.211072 2.295594 -0.633507 1.009077 1.848084 -1.056613 
时期 1.205715 0.528634 1.698341 -0.674721 -1.581391 -1.486546 -1.287834 1.084275 1.034794 1.080672 -0.659255 0.568341 0.828943 0.835557 0.306316 0.834824 -1.654587 -2.175835 -3.295026 -0.057108 1.860960 1.300088 -1.243266 0.926755 -1.384258 -0.671983 0.034774 -1.224452 -1.821494 -1.984660 -0.727970 -0.563582 0.407574 -1.102749 0.431195 -0.230938 0.233255 -0.677271 -1.229349 0.134361 2.822552 0.358222 -1.906358 0.725637 1.620091 0.159291 0.763289 -0.921825 0.610498 1.901360 
世纪 2.325059 -0.673774 0.382853 -1.554811 -3.710706 -0.954559 -1.479042 2.346313 1.351324 2.343648 -2.708951 -0.299345 0.530955 1.088161 -0.753963 -1.798334 0.603454 -1.445146 -2.131706 -0.210426 0.624387 -0.072107 -2.550898 0.736513 -1.700027 -1.503327 -0.856997 -1.894900 -1.459610 -0.731178 -3.246221 1.012934 -0.602773 -2.646546 2.944568 -2.996272 0.920655 -0.472880 -0.776412 -1.507594 2.166225 0.431312 -1.662117 1.790914 2.789558 -0.722971 1.507571 -1.183877 -0.249064 2.879910 
游戏 2.382413 -2.847529 -3.652555 2.175026 3.266352 2.807317 0.004623 -1.675380 0.597871 0.067670 -1.618106 -0.304503 0.755899 -0.047014 -0.940494 -0.573870 -1.508989 0.990652 2.843635 -3.527521 -0.076195 -2.333309 -0.225832 0.228424 -0.446081 1.546156 -3.026440 0.672903 -1.634244 0.787428 3.383041 0.252259 2.663451 -2.191094 -0.264826 -1.842196 0.068419 3.990503 -0.744528 -1.348878 -2.184821 0.890445 -0.249472 -0.746264 -3.134703 -1.664235 1.746330 0.166532 1.814303 2.614899 
历史 1.458533 1.062632 1.290145 -0.445239 -1.992103 -1.276938 -0.961078 0.136388 1.957643 -0.238056 -2.940696 0.873660 0.850366 2.195868 -1.641026 -0.718621 0.653548 -1.541350 -1.990474 0.168461 2.426639 0.811093 0.010860 0.685715 -1.847604 0.703932 -0.918588 -0.636301 -2.200231 -0.194208 -1.777444 -0.778021 0.186187 -1.847747 0.801317 0.195672 -0.311846 -0.418778 -1.691811 -0.656848 2.213397 0.553764 -2.673220 2.769313 -0.333028 0.590210 2.565668 0.236579 0.085033 -0.411318 
音乐 3.929940 0.212581 -1.054743 2.091984 -0.755997 1.165244 -0.480485 2.891461 2.487920 2.109836 -1.378820 -1.515105 -3.482136 -0.142747 2.116201 0.194292 0.396831 -2.471522 -1.290466 -1.048130 -1.007723 -3.765773 -2.006498 0.814924 2.082747 1.768738 -1.991611 3.260451 -1.648800 1.075384 1.176102 -1.069965 0.949889 -0.257017 0.420866 -1.559374 -2.614120 2.203589 -2.315152 0.493841 1.019168 -5.068968 -1.185679 0.107141 -1.118607 -0.124619 -0.799935 -2.382663 3.102984 1.423018 
中心 -1.972057 0.390018 1.905246 -0.945521 0.672119 -0.647696 0.853381 1.439766 -0.050723 1.771360 -0.147032 -2.638697 -0.209625 0.679390 -1.187425 1.948000 3.572452 1.173709 -2.525860 1.777879 -0.919707 -0.285022 -1.542636 -1.094769 1.398984 -0.815470 -1.756821 0.480221 -1.982691 -0.226599 -0.378559 -0.893465 -2.375986 0.081356 2.174675 0.458961 1.191377 -0.370384 0.247753 -2.346748 -0.837171 0.323017 -1.871881 2.570836 -0.735488 2.658706 2.233162 0.106657 -1.136227 1.100541 
线 1.565118 -2.126950 -2.042566 -1.041890 2.145409 0.531662 -1.619362 -1.686038 0.617079 1.529541 1.894536 0.789996 0.601846 -1.089951 -0.115922 2.809313 2.420185 0.595706 -0.026062 -0.065079 0.356003 -1.300631 0.594113 -3.630693 0.495520 -1.326423 -2.045396 -0.880697 2.688000 -0.637970 2.623621 0.017845 -1.477659 0.105440 2.008354 0.931185 -0.461611 -1.322863 0.611981 -1.049734 -0.160301 1.449852 0.576599 0.708298 -2.917030 -0.434290 1.745477 -1.867313 0.075478 -1.756631 
战争 -0.660618 0.302816 0.884267 -1.080238 -0.291566 1.048025 -1.782657 1.076571 -2.410969 0.840616 0.507425 0.471018 2.587909 -1.151511 -0.857320 0.335570 -0.145937 -2.620780 0.341452 0.302794 0.574197 0.712611 -1.818191 2.911618 -4.451001 0.326345 -0.334424 -0.812667 -1.013646 -2.646113 -1.984542 0.735650 1.066813 -0.855581 0.106195 0.486604 -1.694480 2.399029 -0.567618 0.000383 2.799304 3.321912 -1.489854 -0.271160 2.758646 -2.349848 1.760188 -0.003547 1.784810 -1.074382 
城市 -2.504764 -1.666326 0.286341 -1.282211 0.457655 -0.130262 1.178182 1.750130 1.479821 0.771164 0.729029 -1.798604 1.983172 1.109798 0.362370 0.912209 3.278037 -0.476808 1.216672 1.118383 2.264084 0.500706 -0.745925 -0.108131 -0.949957 0.038270 -0.733877 -1.706844 -1.000861 -2.663146 -2.021608 1.794024 -2.258619 -1.089802 2.907810 -1.319089 1.743235 0.877573 -1.019994 -2.320640 0.623100 -0.652979 -1.608594 1.594360 0.972255 2.959691 4.591505 -1.891167 -1.446195 0.403386 
文化 1.179894 -0.011413 1.266294 0.380969 -2.993282 1.031168 -0.857600 0.172104 1.681559 0.660620 -2.375687 -0.116532 0.098677 1.571674 0.204240 0.917139 3.727432 -1.437377 -3.362352 -0.459874 0.062435 0.813767 1.322895 -0.087870 -0.117932 2.169059 -0.893862 0.408699 -6.077584 -0.723486 -0.481445 -2.782842 0.159851 -0.318097 1.125765 0.079537 -0.052252 -0.406982 -2.921560 -3.164505 3.039631 -1.725353 -0.888131 2.600601 0.804173 0.846667 2.701604 -0.526788 -1.666138 -0.212476 
成员 -0.513404 0.190024 0.034229 0.551618 -0.173654 1.192598 1.981375 0.233046 -1.185632 -1.047727 0.529524 -2.509748 -1.812905 -0.712263 -0.663567 1.990173 0.312455 -0.434866 0.976114 1.320156 1.288985 1.671022 -1.426802 1.806523 3.443095 2.591465 1.054057 0.375723 0.284669 1.922761 -0.242487 0.461938 -0.529356 2.419766 -3.138918 -1.897285 -1.613219 0.946821 1.096545 2.736350 -0.299716 -0.598343 -1.435440 0.991755 1.104782 -2.767230 -1.896280 0.802199 1.190141 0.974436 
问题 -0.554964 -0.389479 0.553332 -1.190374 -0.826860 2.747738 -1.541494 -1.253694 -1.392676 1.635978 0.816168 0.800127 -1.779628 2.494179 -1.495710 -0.763617 1.040402 0.834136 -0.899467 0.048779 -0.538787 -1.884374 2.336142 1.235355 -2.264132 -0.403690 -0.856481 -0.089605 1.441808 0.842244 -1.107213 0.489384 0.151662 -0.545562 -3.023619 -0.400372 0.150187 1.622598 0.676354 0.873971 2.140817 2.425821 0.998846 0.361650 1.312588 1.630099 0.790487 -1.195252 -0.944750 -1.697399 
关系 -0.878980 -0.959921 -0.408922 -2.219115 -2.038716 1.297156 1.739499 -1.184834 -0.475769 -0.393353 0.430751 0.763243 1.159017 0.424141 -0.665691 1.099836 -0.971284 0.118748 -1.017835 -1.582582 0.825994 0.136414 2.106568 1.158730 -0.486381 1.025243 -0.421260 1.442173 -0.666537 1.729188 -1.371936 -0.539604 -0.524833 1.718656 -1.666513 -1.110660 -2.070258 2.268047 0.261193 -0.599077 2.996174 0.230246 0.519964 0.367088 2.134765 0.411229 -1.693763 -0.479457 0.634426 -0.702597 
冠军 -1.347123 2.382395 1.026557 1.686237 1.083567 -1.576426 0.274295 -1.509773 -0.283420 0.054986 0.404884 0.880616 -2.522542 0.107283 2.102378 -2.571816 0.150754 -3.324893 1.197243 -2.665840 2.299983 2.162785 0.797793 1.856558 2.105053 -0.014408 -1.537287 -0.343362 -1.391082 2.445222 -2.248911 3.851994 -1.179409 0.490782 0.591760 2.002666 -0.534998 -1.416715 2.510530 -0.612600 -0.553625 -1.966546 -4.107598 0.806109 -3.715579 -1.523607 -1.060180 -1.005642 2.307697 0.922429 
时代 2.504118 -0.011776 2.399199 -0.378012 -2.271905 -1.236104 0.858227 0.444671 1.692176 0.255105 -0.439689 0.695190 0.579040 -0.097861 0.312386 0.207691 -2.178622 -0.552739 -1.698018 -1.580585 1.451113 0.094412 -1.264100 -0.465868 -0.658490 0.827382 -0.698887 -1.157127 -3.631021 -0.251355 -0.356983 -1.315671 0.866366 -2.869964 0.802623 0.253201 1.394209 0.186610 -0.289589 0.801427 3.035448 -0.015889 -1.050725 2.258868 1.023474 -0.578649 0.942033 -0.626486 0.134158 1.361218 
技术 -0.217041 2.501116 1.834174 -0.048016 -0.752604 2.372818 -1.821371 -1.114314 -2.467277 3.093089 -1.276319 1.691532 -1.600235 0.120427 1.124824 1.033490 -0.016720 1.832180 0.152634 0.629563 -1.939356 -2.620845 -1.560807 -1.072831 -1.192931 -0.145739 -0.996997 2.681479 0.252266 2.625757 -0.658722 -0.175207 -1.724099 -0.653899 -0.019910 -1.951760 2.603228 0.760168 0.124452 -1.267725 0.653990 1.242566 -0.312127 -0.227372 -2.063741 -0.369142 1.521905 -1.274696 -0.838904 1.496859 
事件 -0.429834 -0.187157 0.712387 -1.913438 -0.007225 2.404194 -1.086236 0.937853 -0.825878 -1.805501 -0.343109 -0.735621 -0.497771 -0.300553 -4.238335 0.720038 -1.060799 0.977512 0.087897 0.047987 2.057690 0.899742 1.229368 0.304312 -1.079619 1.796961 -2.068733 1.568538 -1.055845 -1.271094 -1.402014 -1.269347 1.588931 -0.565951 -0.535689 1.288937 -0.957165 0.484390 0.359957 2.551564 -1.089866 2.409301 -0.826599 0.473893 1.952616 1.040469 -1.165842 0.798936 1.271905 -2.388178 
学校 -0.731844 0.387837 4.797648 1.313027 -0.535712 -1.046394 1.417790 2.752230 0.035608 0.235165 2.079496 -1.265200 -2.130862 2.715812 0.469629 2.462992 -2.375526 -1.295514 0.650703 2.186536 -1.713597 2.729966 -0.475536 1.675601 0.991180 -0.539486 0.166448 2.096065 0.911559 0.344265 2.082864 -0.356653 2.067605 0.405508 -1.245832 -0.902016 1.133423 1.701904 -1.303657 -1.759037 1.248619 -1.478181 0.087503 0.589008 0.532426 3.824290 0.560321 -0.970015 2.251889 1.691636 
动画 0.507319 0.230043 -1.239601 2.587020 1.603009 3.731611 0.939606 -1.470980 1.905105 0.240918 -0.264720 -0.158737 1.367495 -0.746412 -0.029986 -1.851805 -2.336511 0.544930 0.804989 -1.442751 -0.914504 -3.585199 1.252908 1.189277 3.710965 0.625773 -0.546912 1.851692 -0.071382 0.723718 1.361917 -1.096973 3.425098 0.129709 1.134981 -0.527458 0.223841 -0.012463 -2.505529 0.092577 -1.142568 1.395414 1.690935 -2.177051 1.177415 -2.555184 1.615088 -0.386552 2.909730 3.799659 
铁路 -0.636319 -1.613506 -1.679890 -1.314667 -1.482160 -0.617220 -2.377936 -0.916856 1.720172 4.014900 2.221441 -1.647013 -0.334214 0.933357 2.551929 4.646307 3.345144 -0.412084 2.965988 1.118929 2.531231 0.615564 -1.566892 -3.784782 -1.721483 -1.379303 0.933494 -1.578817 0.996320 0.071496 -1.245659 0.515224 -1.323453 -0.700822 2.762112 -0.037711 2.178200 -0.719489 -0.616179 -1.187013 0.244808 4.716943 -0.607082 0.609754 -1.388947 0.652655 0.006929 -3.240077 -0.075278 -2.397764 
方式 0.964257 0.352183 -0.233230 -0.571714 -0.858455 1.780733 -0.995611 -0.132506 0.084581 0.712457 -0.127006 1.235159 -1.107305 -0.067777 0.684597 0.102435 1.974269 1.182445 -1.237240 -0.561593 0.574944 -1.520880 1.343983 -0.432700 -2.472942 0.686980 -0.464858 -0.030362 0.694025 1.006581 1.163496 0.438309 0.688060 -1.313779 -1.446546 -1.846307 1.015752 0.520259 -0.034732 0.087874 0.081868 -0.495348 2.312014 0.550674 -0.555396 -0.402540 -0.841918 0.978676 0.602242 -0.634548 
计划 -1.545085 -1.790738 0.069098 -0.055812 0.069701 2.228168 -0.750345 0.225092 -1.567912 -0.288951 2.150594 -0.809953 -0.375534 0.845956 0.901536 1.536461 1.624802 1.682379 1.557142 2.357534 -2.537817 -1.137755 -0.606948 0.168186 0.030519 0.294877 -0.039202 0.261371 2.136471 0.190888 0.156902 0.290214 -0.391614 -0.875483 -0.850770 0.054786 -1.280305 0.484786 2.149346 0.649321 1.789294 5.193387 -3.058427 1.277859 0.578612 0.999099 1.697431 -1.001508 -0.429015 -0.005786 
经济 -1.026454 -1.096523 1.285536 -1.305017 -0.418808 2.296757 -1.615808 -2.090524 -0.861150 3.665190 0.899467 0.151299 -0.602686 1.707706 0.689657 2.132119 3.467140 -2.283766 -2.143499 -1.042010 0.764870 0.125312 0.305252 -0.326014 -3.012380 1.765499 3.042923 1.014620 -2.641300 -2.178341 -4.670555 -1.064708 -3.528727 -1.172153 -0.750985 -0.799050 1.284589 2.171003 1.040843 -1.990767 4.165026 1.211495 -1.227113 1.368458 1.648034 3.969508 2.244307 -0.746277 -1.703296 0.645151 
社会 0.820375 -1.963974 2.669966 0.932867 -3.568090 4.431153 -0.699493 -0.154809 -0.168255 3.442951 0.383813 -0.023025 -1.154839 0.872690 -1.415365 -0.162444 3.123503 -1.413633 -1.967198 0.067706 1.374173 0.892569 1.353809 1.808532 -1.690722 3.235370 1.703900 -0.265962 -3.665204 1.309466 -1.322099 -2.440671 -0.646959 -1.153056 -3.044008 -0.759658 0.924005 1.278799 0.409356 -0.834910 3.366692 -1.673236 -0.502975 1.340706 2.913571 3.606290 0.768123 1.336662 -0.947648 -1.283337 
地方 -0.217880 0.298479 -0.723420 -0.156358 -0.181917 -0.662611 0.223856 0.902078 2.354637 -0.388476 1.086066 -1.672014 -0.001252 0.261687 -0.094575 2.567057 0.973371 1.650603 -1.210972 0.887205 0.219771 0.572295 1.149207 -0.943280 -1.371018 -0.353871 0.918286 -2.146558 -1.450110 -2.657676 -1.341524 2.013206 0.904083 0.456092 -0.387175 0.184402 1.074819 0.178641 -1.237028 0.883513 0.368736 -0.406410 0.953213 1.549774 1.539863 2.254118 0.233994 1.674579 -0.307835 0.260388 
电视 -2.348961 3.458660 -0.120406 0.728713 -0.438343 3.518859 -0.206588 0.216524 2.092626 2.032941 -0.066314 -0.386709 -1.518122 0.646958 -0.475275 -0.521020 1.862687 1.144593 0.945906 -3.043992 -0.637189 -3.696515 0.866207 -0.087232 4.372324 1.532206 -0.747553 -0.164972 -0.567852 -0.139184 0.999248 -2.164073 0.023631 -0.951709 1.383422 0.447059 0.544246 -1.415051 -1.086818 0.315696 -1.581167 0.119243 -0.128143 -1.072924 0.534488 -2.537141 0.591122 0.105450 4.830738 2.228838 
足球 -1.833109 1.360907 4.541641 -0.245829 0.863172 0.276955 1.262948 -1.886280 1.013789 3.336097 -0.604223 -1.939863 -2.563457 2.399708 -0.604534 -1.022397 -0.401957 0.358952 2.743261 -0.747909 1.365913 3.452157 -0.071051 1.446187 0.990798 -0.900435 0.957781 -0.570506 -1.253565 1.563422 -0.472667 3.323598 0.123078 3.419046 -0.036411 1.679828 -0.273814 -1.512762 0.407840 -1.533925 -2.810599 -2.968924 -1.014356 1.400400 -0.161052 -3.743148 1.120555 -4.941973 -1.094754 2.239586 
角色 0.650531 -1.671459 -1.573960 0.731104 1.200196 2.869915 1.135098 -0.375536 1.397415 1.777132 -0.592519 1.598850 1.990267 -0.842216 -1.185343 -1.781771 -1.661685 2.103965 2.215966 -1.320222 2.325460 -0.481084 0.519920 1.901812 1.828342 1.989153 -0.131363 0.759846 -1.744099 0.662571 1.948129 -0.294364 1.911564 -1.655801 -1.310433 -1.643055 -1.547085 1.121839 -0.519848 0.624899 1.210964 0.071052 0.686215 -2.580406 -0.770373 -0.998935 0.914768 1.462675 1.146269 3.460641 
能力 -1.072720 -0.063851 0.535359 -0.222901 0.010026 1.920196 1.366152 -0.823772 -4.228324 -0.003398 -0.129265 1.810362 -0.054757 -2.776746 2.736047 -0.578651 -1.659974 0.300990 0.688353 1.327129 1.011129 -0.148171 0.535336 1.600075 -2.331166 0.296958 0.169127 1.040444 -1.042279 2.358549 0.620155 0.769456 0.354753 0.537669 -1.480361 -1.599659 -0.712311 -0.254754 0.576875 -0.229966 -0.519706 1.303304 2.482372 -0.071983 -2.262228 1.995859 1.208070 1.917465 -0.646526 0.431476 
航空 -2.537392 2.214399 -1.808659 -1.600168 -1.257317 0.748911 0.144173 -1.383104 -0.702511 2.273149 -2.057061 -0.678562 -0.285588 -0.477455 2.347017 2.784154 1.990855 1.368869 0.189715 1.309910 -0.599291 1.751308 -0.456682 -0.566705 1.541119 0.169587 2.428452 1.289374 4.551870 -0.847344 -1.979219 -0.725778 -0.011881 0.703149 1.409691 -2.057530 -1.422335 0.946861 1.864287 -1.953218 -3.761187 3.679852 -4.142917 -1.395307 1.297559 0.361984 1.786782 -2.075385 1.280182 -2.402574 
系列 1.206011 -0.311157 -2.836352 2.342605 0.904740 2.419679 0.350124 -1.943025 1.821307 1.273898 -2.147101 0.523965 1.828894 0.274024 0.090673 -2.074168 -0.283035 -0.414509 0.872019 -1.155099 -0.342410 -2.201942 -2.549995 2.015445 2.026632 1.615798 -0.988896 -0.294525 -1.084894 0.224696 2.014695 -0.608427 1.914244 -1.471436 1.895249 -1.995647 1.243960 0.099692 0.880511 -1.022706 -2.200679 3.265426 -0.787843 -3.150860 -1.146204 -2.446134 -0.088008 -0.509967 0.986156 1.654058 
政治 -0.649172 -0.874468 -0.423870 -0.050837 -2.948164 1.797390 -0.971662 1.118245 0.033886 5.066399 0.560037 0.713138 1.595350 2.260362 -2.900524 1.368785 0.845752 -1.748717 -3.827840 -0.502308 1.263262 1.624093 1.257819 1.984655 -2.308373 3.987299 1.002449 1.327598 -2.279212 -1.355904 -2.542245 -1.406158 -0.249092 2.018431 -2.400538 0.629945 -0.507237 1.689275 0.864271 0.805689 3.161945 -0.049775 -1.709703 2.367241 1.482505 1.377294 1.805048 1.329497 -0.419556 0.047022 
故事 1.549906 -0.959826 0.333460 0.931409 -0.685792 2.431937 0.415086 0.054221 4.819154 -0.898188 -0.000570 1.077943 2.807017 -0.411017 -3.071399 -2.600733 -2.075490 0.718375 1.524237 -0.307715 0.986039 -0.552681 -0.166923 2.899748 -1.481734 1.062347 -1.196939 0.547713 -3.082767 0.867665 2.429182 -1.072046 2.004550 -0.822828 2.960951 -1.598206 -2.816832 0.840727 -1.130417 0.350241 1.465877 1.768363 0.107038 -1.383277 -0.281694 0.441213 -0.698592 1.253712 1.743540 0.313375 
联赛 -0.095346 0.510511 2.379837 -0.763834 1.156271 1.325780 -0.015965 -0.683342 -0.144593 1.371651 -1.867018 0.150236 -3.031578 3.124167 -0.261983 0.241063 0.751641 -4.353351 4.343353 -3.042954 2.787597 3.921328 0.359204 2.425954 0.285040 -2.599691 1.523887 -3.329849 0.935615 0.789203 -1.276585 3.461895 -2.042806 0.573512 -1.503899 4.419938 2.703517 -1.010765 1.400108 -1.350398 -2.000049 -1.217476 -0.701915 1.712059 -2.060419 -0.708115 0.847648 -0.476577 0.281332 2.807382 
机场 -3.566391 -1.626566 -2.461265 -1.469525 1.730043 -0.977611 -0.928516 1.215876 -0.312380 1.861283 -0.291238 -1.217907 0.253024 2.004545 0.831568 2.801871 2.826303 1.441065 0.391207 2.085258 1.908074 0.800214 0.695591 -0.963401 1.065049 -2.691321 0.024008 1.384646 2.571035 -2.408167 -0.040070 1.500424 -0.604713 -0.701822 2.705640 -0.089429 -1.359983 -0.136119 1.691447 -3.698742 -2.541473 2.033047 -2.067451 -2.820601 -0.146538 1.406489 1.604717 -0.579554 -0.433006 -5.050107 
中央 -0.883005 2.337905 0.668807 0.767084 2.302132 -1.492998 -0.288389 1.270880 1.100764 1.093246 0.593631 -0.722265 -0.179251 0.942145 -2.840948 4.729092 1.432538 -1.120644 -1.794092 2.607637 -0.685365 -0.113826 -0.107036 -2.563219 1.325269 1.509071 0.457881 -0.615010 0.118523 -1.146591 -0.021243 0.150298 -1.740519 2.421749 -0.967718 1.836865 1.422590 -1.994624 2.571496 1.358402 0.709887 1.702086 1.546566 -0.257370 -0.846430 -0.297938 0.282682 -0.762341 0.685878 -0.237468 
总统 -4.560633 0.387569 -0.363137 -1.010542 0.515283 -1.309168 -2.632017 1.532770 -0.990317 0.993118 2.682423 1.986423 0.974183 2.210514 -1.342982 1.421971 2.002815 0.250375 0.812035 -1.711913 -0.122666 1.841525 0.448100 2.515565 -0.232083 3.221043 -0.246809 0.973018 2.208650 -1.484212 -2.704315 -2.024061 0.498333 0.310934 -3.485415 1.457765 -1.677804 -1.375438 0.579125 2.843645 0.030054 2.083339 -0.619049 0.322695 1.577555 -0.513191 0.804345 1.960106 0.829802 -1.129032 
学院 -0.734340 1.778553 1.703402 0.463109 -1.071148 -2.238866 -0.096315 2.566024 -0.720455 1.909142 -0.801635 0.343974 -1.442759 0.849858 -1.480752 3.039186 -1.029796 -2.704704 2.039171 3.592536 -3.038636 1.702091 -1.295858 1.885892 2.378997 0.687896 -0.969944 3.670735 1.584611 2.618599 -0.296970 -3.047371 -2.830946 0.126606 0.569291 -0.028900 0.548616 0.678647 -1.267374 -2.951541 2.625287 -2.709015 -0.711654 1.299734 -0.540848 2.597305 0.523793 -1.124841 2.296899 3.527047 
语言 1.965593 -0.135684 -0.105805 -0.661341 -1.893598 1.312678 -0.810580 1.715553 -0.587424 -0.660993 -2.763289 -0.101423 0.907610 4.571105 0.119474 1.018030 -0.206394 -1.395782 -1.360552 1.233510 0.078078 -2.361700 3.631368 0.845855 -1.077354 -0.104889 0.676728 -0.636335 -2.005536 2.592020 0.589373 -0.292203 0.569561 -0.153648 -2.102337 -5.942036 0.047448 -0.798611 -3.613598 -1.777283 0.081477 -1.739809 -0.284090 1.777123 1.316306 0.951312 2.734531 -1.023213 0.185660 -1.587260 
列车 1.585850 -1.531259 -2.871744 -0.547630 0.612917 0.933408 -1.988105 -0.618790 1.080918 2.391559 1.181638 4.207910 -1.055693 -0.050269 1.747266 3.645104 2.326981 0.201579 0.900234 0.273788 3.285202 -0.899547 -1.307647 -1.875575 2.230261 -1.981280 0.103127 -1.911188 2.408626 1.846540 0.749890 0.524697 -1.142674 -1.256820 4.126733 -0.216253 1.454684 -0.706500 1.588201 0.730215 -2.060563 2.576439 2.570617 1.710004 -2.051115 1.778475 -1.400713 -0.506907 -0.065843 -4.708818 
父亲 -2.117745 0.095091 1.864821 -1.245015 -3.766839 -2.339134 0.631175 -1.617086 0.501502 -0.792418 2.487546 -1.482442 -0.362079 -1.066437 0.773297 -0.012028 -6.307352 0.225826 2.196889 0.709850 0.490136 -0.628202 -1.257429 1.950046 -1.043608 1.270639 -2.524052 0.556550 0.380312 0.364493 -0.669651 -0.612455 0.794399 1.442845 -0.406312 0.791511 -2.116790 1.072264 0.194391 -0.187337 1.417528 -2.769468 0.399469 -1.532937 1.351349 1.380264 -0.979617 -0.916013 0.793389 0.895992 
海军 -0.687250 2.260166 1.390510 -0.217160 0.136569 1.885179 -1.096951 2.834242 -3.248779 0.957949 -1.300393 1.591548 2.133741 1.955142 1.896368 3.545226 -1.600087 -0.465320 2.440597 0.621382 -2.535492 3.586761 -3.891705 1.213885 -1.450272 -1.072851 3.349759 2.480341 2.781937 -1.827540 -1.349237 0.191454 0.338967 -1.337503 1.737940 1.593264 -3.033448 2.778050 1.357026 1.416378 -0.017253 2.808020 -0.776245 -0.092336 0.824903 -0.715987 0.494984 0.397514 -0.852581 -0.928743 
学生 0.487470 -1.353760 3.143845 1.504000 0.335487 0.031272 1.624596 2.166517 -1.653987 0.024457 2.464687 0.687995 -4.149829 1.819030 -2.087704 1.340670 -2.555465 -1.979025 -0.523391 0.846357 -0.556414 4.320727 0.608525 0.276311 1.598706 1.591919 -0.339838 2.948072 0.929697 1.720560 2.507162 -0.499654 1.798138 0.339414 -0.977569 -1.912582 0.144324 0.787728 -1.780185 -0.857382 0.791722 0.793084 1.012773 1.757771 1.253687 4.524658 0.246888 -0.948974 0.654087 -0.151940 
组织 -3.503946 -1.457698 -0.049378 1.360459 -0.515217 1.530975 -0.137498 0.352022 -2.509082 -0.211075 -1.311912 -3.296915 -0.409327 0.795481 -1.657228 1.488536 3.269598 -0.572247 -0.323439 2.122472 0.169389 2.415937 -0.873455 0.732367 -1.628772 2.171118 1.639416 2.601017 -2.763011 0.928240 -0.370956 0.536248 0.110601 2.562370 -3.295803 -1.867217 1.444227 -0.060313 1.313116 -1.051904 -0.591104 1.417184 -1.614552 2.366113 2.718128 -0.549127 -1.572206 -0.227399 -0.337090 -0.390357 
人类 0.049457 -1.469793 1.262563 -0.257687 -1.128427 0.826375 2.154545 -1.005825 -2.753635 -1.820064 -1.476112 1.796047 1.168444 -3.071924 0.457785 -2.696504 1.021809 0.857175 0.061546 1.481308 0.104768 -1.673610 -0.696206 0.735050 -3.206311 -0.624869 -1.028854 -1.079932 -4.530435 2.804686 -2.209980 -1.981911 1.660118 -1.038633 -1.200098 -3.318002 -0.887870 -1.739069 -0.454832 -0.209390 3.438341 0.644418 -0.009060 0.829193 1.051872 2.126607 1.764975 2.094688 0.359590 -1.545592 
情况 -0.720775 0.425170 0.356052 -1.799084 0.425211 1.264748 -1.259119 -0.708731 -1.687703 0.240171 -0.048025 0.452317 -0.754489 -0.123147 -0.140369 -0.126905 0.275195 0.827938 -0.404963 -0.585827 1.438354 -1.269591 1.652506 0.198669 -1.558896 -0.696345 -0.109448 -0.862834 1.132852 -0.249880 -0.398104 2.227334 -0.252668 -0.493379 -2.281536 0.008545 0.349372 1.264045 0.316938 1.368643 -0.262684 -0.084166 2.118545 0.922192 0.366489 1.359374 0.072518 1.002819 0.179722 -1.620289 
联盟 -2.578305 1.428625 -1.903031 0.264351 0.391175 -0.079546 2.764088 -0.502919 -0.215026 0.824026 0.647819 1.467197 -2.688731 0.482885 -0.312295 0.246479 1.776707 -3.282134 1.516173 1.775825 0.821186 3.349024 1.002039 1.562625 -1.335368 1.034263 1.058945 -0.107437 -0.183092 -0.867988 -0.944691 0.365026 -1.941738 1.307825 -3.697794 -1.361031 0.479188 -1.255697 2.913076 -1.059670 -1.102553 0.412766 -4.138278 2.354405 1.642458 -2.356628 0.833891 -1.935407 2.064816 0.104041 
方面 0.949192 0.387206 0.037556 -0.203306 -1.084998 1.400369 -2.053290 -0.463902 -1.764106 1.941630 -0.166339 0.912942 -0.771578 1.154539 0.508789 0.378759 -0.064960 0.184052 -1.760722 0.218247 -0.514833 -0.585808 0.490670 1.218590 -0.643321 -0.411970 0.732625 1.249470 -0.488222 0.388385 -0.241134 -0.062230 0.052396 -0.745422 -1.545846 0.622791 0.293009 2.103246 0.133838 -0.846119 1.798934 0.982419 0.626108 -0.156160 -0.975891 0.323765 1.323319 -1.183895 0.324325 -0.521886 
委员会 -4.315187 1.369235 0.015811 1.242724 0.014694 -0.012091 -1.904951 -0.417621 -1.147884 1.730253 -0.376971 -3.238559 -2.253912 2.375994 -3.040636 3.494893 2.941798 -1.432833 0.849855 3.726765 -2.126179 1.148074 1.047641 -0.419208 2.260560 1.797575 2.408207 1.316819 0.163974 -1.389318 -2.521842 -0.220722 -0.457153 0.988878 -4.208950 0.566274 1.642938 -1.207331 -1.877383 2.325304 1.834177 2.520493 0.117385 0.593250 -0.901141 -1.540800 0.755526 -0.955378 -0.771631 -1.576654 
县 -0.221093 0.837550 1.278922 -0.372161 0.504894 -1.878233 1.094359 -0.662812 0.580949 -0.917889 3.770951 -1.480217 1.831369 3.868064 1.041900 2.102147 0.209843 -0.143285 -1.135693 -0.325508 0.421436 2.060850 1.002047 -0.861474 -1.480297 -1.881629 1.949014 -1.642517 -1.364052 -2.966378 -1.262751 0.743264 -2.114413 1.057246 0.880372 1.592009 1.498244 -1.619439 -4.488578 1.033454 -0.858427 0.178224 -1.450938 -2.186522 -0.107086 -0.288232 2.217790 2.609472 -1.024514 -0.158510 
部分 1.666411 0.292275 -0.311743 0.255841 1.074745 -0.390873 -0.648961 0.198759 1.476642 0.035062 -0.827386 -0.523470 2.530216 0.718442 -0.521865 1.263807 3.030839 0.325694 -1.088944 0.592271 -0.567073 -1.296793 0.210640 0.446342 -1.753288 -1.954694 -0.188407 -1.699447 0.406246 0.978742 0.687977 0.315996 -1.023423 0.437840 0.615329 -1.199367 -0.614657 0.422913 -0.148742 0.290190 0.472464 0.497881 1.486526 0.620895 1.029333 -0.492473 0.215245 -0.370121 0.091623 1.242075 
话 -0.206316 -0.301999 0.072932 -0.997098 1.267865 2.296913 1.778591 0.174485 0.719117 -1.842596 0.507672 0.543289 0.505324 0.039355 -0.264057 -1.580601 -3.062622 0.439788 -0.019663 0.072785 -0.552577 -1.183178 2.123795 2.027320 0.552470 0.754424 0.608864 -0.839017 -0.398330 0.301930 -0.721826 0.956553 2.206591 1.037109 -0.031156 -0.457118 -0.259582 -0.581062 -1.418407 0.726840 -1.215782 0.330078 4.033860 -0.937355 0.835845 -0.551002 0.910726 1.357798 0.942017 0.072512 
国 -1.211135 -1.132106 -0.584515 -1.509422 -0.424659 -1.426937 0.145238 -0.106020 -1.145757 -0.584862 2.312082 1.450887 1.356325 0.115995 0.570778 3.647072 -1.560225 -2.161246 -1.953859 -1.322855 -0.121524 1.003321 1.527943 0.743553 -1.601607 -0.843957 1.123960 -0.247498 -2.124319 -1.482098 -0.517899 0.595758 -0.111139 -0.051965 -0.312379 0.203104 0.034421 0.271362 -0.676420 -1.021089 1.351242 2.795063 -1.579607 2.151079 1.193793 -2.604029 -0.180204 -1.617278 0.182056 -2.685531 
专辑 3.107699 0.459464 -1.727455 2.579805 1.043990 1.732628 0.217628 1.011565 1.627150 -1.435084 0.221786 -2.332394 -0.807747 -0.382691 2.430529 -2.497414 1.421834 -1.468438 -2.040540 -3.140646 -0.728079 -3.115134 -0.962170 1.407416 2.305625 0.447714 1.544873 1.507564 0.718343 1.150405 -1.524896 1.703889 0.898617 -1.451875 -0.381959 0.706521 -3.316456 1.076137 1.131686 3.643916 -0.172434 -3.512205 -2.324978 0.222265 -2.315584 0.177052 -1.071580 -2.824048 2.871190 1.618153 
球队 -0.483842 0.759928 3.331260 -1.590418 0.707351 1.125657 1.827753 -1.534983 0.830544 -0.355228 -1.561267 2.190303 -3.257114 1.352039 1.061494 0.131771 0.427319 -2.508864 3.022174 -2.133368 2.976474 3.035210 0.608380 1.803363 -1.297854 0.006608 1.005336 -1.265806 1.932933 0.635406 -1.118179 3.362080 -1.224121 2.330245 -2.436572 2.461333 -1.065882 -0.474196 1.365577 -1.147469 -2.485697 -0.640268 -2.754906 0.704818 -0.779883 -0.421712 2.030082 -1.483256 -0.513007 2.952562 
版 0.675780 0.619072 0.084665 2.831968 1.375891 3.242752 0.349164 -2.381058 0.594448 -1.106050 -1.307780 0.522502 1.988406 -0.540641 -2.918348 0.204530 -1.537083 -1.219575 -0.988201 -0.268055 -1.421127 -2.768144 2.269201 2.309885 2.866327 0.072054 -0.602903 0.063887 0.938253 -0.190828 1.570551 -0.380085 1.274383 -1.952081 0.908317 -2.214038 0.526017 -0.563278 1.347143 -0.300566 -2.670463 0.215770 0.478830 -0.102029 -0.494587 -1.173066 0.532616 -1.193803 0.525851 1.846380 
人物 0.549623 -0.590758 -1.358559 0.857493 -0.661617 1.974719 -0.125765 0.484756 2.755828 0.735933 -1.237565 1.593209 2.465030 1.167244 -2.398675 -1.596099 -3.076837 0.477267 -1.088293 -0.860420 2.553968 1.703263 -0.188244 1.269196 0.045646 3.364168 -0.748344 1.269554 -2.171771 0.357745 0.287098 -2.233861 1.351154 0.419731 -0.898013 0.008026 -0.925455 0.122874 -0.029860 0.826962 1.124710 0.097774 -0.545592 -0.991721 -0.585621 -1.618174 1.700570 1.607601 -0.361683 2.334641 
版本 2.198891 0.944096 -1.499281 2.635940 -0.206722 3.030573 -0.916800 -0.771445 1.906522 -1.518787 -1.048178 -0.113137 2.389274 1.830727 -1.482209 -0.003661 0.287574 -0.173546 -0.147055 -1.588822 -2.338894 -3.652744 0.198481 2.083103 1.139421 -0.559634 -0.590008 -0.614926 2.046026 -0.494384 2.189425 1.190155 0.654988 -2.670356 -0.753579 -3.567832 -0.353474 -0.207853 0.686901 0.954085 -1.926277 -0.335809 -0.766406 -0.488390 -1.898709 -1.068007 -0.348727 -1.132945 0.872677 0.561052 
面积 -0.643198 3.464144 -0.981273 0.501098 3.306190 -3.181705 1.528254 -0.662103 -0.374332 -1.135267 1.983460 -2.647756 1.006198 1.376770 1.628815 0.118281 4.434522 0.425864 -1.399464 0.668353 -0.986063 1.803461 1.056835 -1.279300 -1.060135 -4.345094 -0.027897 -1.212241 -0.389070 -0.774355 -0.115693 -0.130877 -3.723514 0.051313 4.045184 -1.638124 -0.165466 -0.576331 -0.904831 -0.969624 0.288489 0.642386 1.300805 -1.019642 0.942516 1.200791 3.477096 0.262488 -3.470916 0.084991 
全国 -3.483482 1.524524 1.627452 1.612100 1.841086 -0.464983 -0.961938 -0.248359 -0.812679 0.881118 3.063928 -0.913844 -3.199075 1.734659 -0.562434 0.811372 1.055977 -2.257495 -1.294494 -0.218922 0.051742 2.589251 0.370269 -0.235679 1.485463 1.829992 2.842050 -0.501760 -1.371609 -1.387391 -1.006881 0.838981 -1.697549 0.710309 1.446700 0.287464 3.676889 -0.626068 -2.132246 0.417760 0.838290 -0.014928 -1.135564 0.817157 -0.825895 0.016241 1.931209 -0.550763 -0.285608 -0.468596 
代表 -0.966169 -0.791280 -0.851626 0.864446 1.532535 1.177164 0.323882 0.060253 0.950834 0.910781 -1.966039 0.880953 -0.761598 1.845526 -0.073896 0.368522 -0.023849 -1.237485 -1.994491 -0.493758 0.723624 4.252985 -0.304512 -0.029322 -0.214535 1.748108 0.601905 -0.522968 0.689752 0.049429 -2.051087 -0.843006 -0.547584 0.960471 -1.852261 0.093936 0.634729 -0.405390 -1.679435 1.521590 1.108257 -1.200404 0.368550 0.224288 0.256151 -4.248652 -0.059955 -0.489571 -0.766926 -0.415696 
月 -1.692763 0.278808 -0.122978 -0.131823 0.916167 -0.559486 -0.367196 -0.853245 -0.513257 -2.032700 0.588653 -0.513476 -2.030557 -1.476753 -0.433908 -0.948291 -1.263702 -0.135491 0.666707 -0.764605 0.108896 -1.000092 -0.520246 1.809865 0.673288 -1.214172 0.195446 -0.746542 2.597902 -1.458469 1.033492 0.943114 0.496078 -0.527689 -0.706846 1.916519 -1.037544 -0.449730 0.836780 2.609424 0.384672 0.932282 -0.562459 0.216946 0.440990 1.680523 -0.705372 0.219264 1.585203 -0.910675 
词 3.108379 -0.991568 -0.439421 -2.805983 -1.154278 0.426669 0.836154 2.231776 1.887657 -0.662373 -0.609897 0.382819 2.128504 1.713882 -0.206038 -1.070622 0.501462 -0.006295 -1.776508 -0.735395 -1.061066 -1.525133 1.151855 0.606636 0.382901 0.127456 3.355027 0.103553 -0.803882 1.047191 -2.322243 0.048323 2.112392 -1.462025 -1.106394 -1.211902 0.806802 -0.077380 -1.117206 0.690857 0.090538 -4.178913 0.102026 0.646968 0.334999 -1.441208 -1.390711 -0.266598 -0.138190 -0.296116 
节目 -1.783424 2.539796 -1.084106 -0.043202 0.690768 2.643100 0.054573 1.895970 2.460982 0.402033 -0.068152 -0.777023 -4.422129 2.251217 0.314842 -1.157996 1.572720 1.255904 -0.350281 -3.167000 -0.547589 -2.791252 1.965331 0.576855 4.548392 1.724593 -0.067603 -0.279171 -1.067969 0.995468 1.843620 -1.115800 0.890001 0.442991 0.708361 0.212517 -1.508759 0.021027 -0.116433 1.010785 -0.146997 -0.492637 0.037400 0.055267 -0.497258 -2.365182 -0.655438 1.963130 5.834240 0.702063 
方法 0.264278 -0.360543 1.335132 -1.658875 -1.414780 0.156615 -1.070103 -0.415748 -1.312369 0.917016 -1.441968 1.333397 -1.366320 0.421869 -0.676760 -2.528580 0.003201 1.125784 -1.697337 0.199632 -1.073545 -1.776837 0.801249 -2.217003 -3.106879 -0.442693 -0.022690 0.936506 2.115866 2.618639 0.182449 2.115654 0.639584 -0.828525 -1.236686 -2.638343 1.449545 0.384541 -1.603977 -0.111223 1.560027 -0.425181 1.431772 -0.180596 -0.709577 1.491631 -0.582843 1.339765 -0.970047 -0.108695 
结构 1.342488 1.605741 0.250678 -0.849012 -0.590980 1.790421 -0.528943 0.590949 0.376542 1.263694 -1.921378 0.130006 1.609175 0.928963 0.156369 -1.236300 3.368003 -1.326975 -2.807410 3.370596 0.197003 0.036278 -0.077884 -3.132669 -1.798168 -2.711179 -1.553559 0.276154 -0.493936 2.617638 1.760832 -0.371438 -2.686403 0.903654 -0.888063 -2.957664 0.971391 1.306501 1.048707 0.991989 0.737698 1.022599 1.969203 -1.367627 -0.211415 1.155494 -1.458996 0.069165 -2.086988 1.312969 
球 2.120321 1.910121 1.700112 -1.833353 3.319159 -1.265642 1.680623 -2.680950 -0.997525 0.470328 -1.629428 3.242518 -2.604242 -1.688164 0.534595 -2.002788 0.926203 -1.369594 0.979392 -2.531493 1.604909 0.606332 1.813902 0.484427 -1.207335 -1.101740 -2.014823 0.753503 0.914996 1.278884 -0.030014 3.244936 -0.939441 1.259023 -1.484818 2.918051 -1.364611 -2.009906 0.896791 -0.898521 -2.381138 -0.735312 1.686231 0.907700 -0.840002 -2.554659 0.408742 -0.115335 -0.483257 1.097178 
时候 -0.357090 0.203377 0.918746 -2.239764 0.169645 0.330131 1.012825 1.242228 0.345150 -1.101994 1.015532 0.011885 -0.884387 -1.279531 0.492224 -0.911979 -2.643781 0.818322 0.222478 -0.812365 0.591593 -1.117119 -0.011616 1.273115 -1.634163 0.134375 -1.135774 -0.386096 1.262952 0.792024 0.061557 1.470050 1.457378 0.017527 -1.383083 -0.485644 -1.383751 0.221343 0.168844 0.730819 0.421989 -0.907051 2.439217 0.328593 0.325563 1.233972 -0.336222 0.168150 -0.029864 0.095143 
名称 -0.432769 -1.363698 -1.015771 -0.432052 -1.693167 -0.440889 0.677739 -0.685412 2.633420 -2.035814 -2.335086 -0.760911 2.603442 2.638534 0.577602 1.047006 1.252142 1.497943 -0.323744 0.401480 -0.276148 0.391248 -0.432771 -2.442929 1.118321 -0.027911 1.839240 -1.234448 0.569672 -0.849657 -0.039966 0.938948 2.279073 -0.491211 0.335109 -1.457286 0.671931 -1.218780 -0.396212 -0.106264 -1.705805 -0.989133 -1.462931 2.681548 -1.313579 -2.733611 -0.600927 -1.287033 0.933035 1.814770 
演员 -0.220986 0.364815 -0.258033 0.941043 -1.461194 -0.767327 0.999573 0.994090 1.123360 3.005229 0.488175 0.303398 -0.649109 -0.409512 0.031446 -1.163481 -0.052123 2.392189 2.413410 -3.118192 1.713707 -0.033428 1.273897 2.554381 5.223070 1.495446 0.636654 2.574540 -0.050028 0.319168 2.878029 -1.361430 -1.008085 -1.074239 1.396212 0.556050 -3.065864 -0.976758 -0.752226 1.113407 1.466363 -2.682662 -0.472952 -4.475880 2.008215 -0.708948 -0.317919 -0.429722 2.584264 2.048529 
电视台 -2.382163 1.507752 0.221016 -0.239765 -0.077518 1.479183 1.602572 0.702414 2.676379 0.186072 -0.105349 -0.905612 -2.212872 0.653204 -2.154094 1.252234 0.761917 -1.203210 0.461919 -1.402697 -0.548949 -2.873477 1.890573 0.240144 4.535049 1.734602 0.370497 -1.116150 -1.243235 -1.149166 0.327734 -0.886337 0.807141 1.193232 1.967840 0.878814 0.749796 -1.093006 0.626215 1.172574 -0.999170 1.502484 0.800084 -0.446942 0.682969 -1.723115 -1.160278 0.794410 4.868142 0.689888 
传统 1.850773 -0.157529 1.157956 -0.547131 -3.398051 0.751768 -1.701809 1.010733 1.833576 0.767309 -1.960544 0.888545 -0.820437 1.065810 1.610370 0.151120 2.628330 -0.318748 -2.695492 -1.517554 -0.384510 1.024027 -0.968934 1.107604 -1.630170 0.363312 -1.081682 -0.814911 -0.688878 -0.708781 0.671013 -0.594357 0.647688 -0.615418 -0.169608 -2.510411 0.866697 0.726135 -1.630235 -1.751224 1.785668 -2.552973 1.046386 0.571681 -0.419760 -0.591189 0.753012 0.789141 -1.243457 0.468114 
大陆 -0.772698 -0.138779 -2.002673 0.444025 -0.152414 1.147477 -1.078387 -0.361244 -1.593088 -0.071793 -0.987189 0.163376 0.297225 1.010940 -2.477473 2.971626 1.573790 1.449256 -1.075184 -2.510132 -0.412837 -0.241947 2.309197 0.360004 -0.959434 -0.318684 2.474233 -1.552545 -1.513931 -2.386950 -1.320356 -0.824258 0.377889 -0.811819 2.699399 -1.579278 0.187706 -1.561227 -0.131893 -0.312944 0.491780 -0.375918 -1.941744 0.197630 0.902292 0.088479 0.876168 -2.553344 2.502222 -0.178588 
部队 -0.806866 0.731814 0.265239 -2.248079 1.726743 0.008601 -0.436902 3.419420 -5.524725 0.048819 -0.134388 -0.790540 2.031421 -1.005831 0.759125 3.502248 0.754451 0.209631 2.372705 2.386300 0.454453 1.521910 -1.549018 0.893776 -1.018672 1.754400 1.785931 -1.778675 -0.614358 -1.782627 1.958932 3.712946 0.683222 0.107393 -0.470848 2.059582 -0.104812 2.189688 0.997375 0.710672 -0.610618 2.866001 -0.271346 -2.074344 0.525147 -0.906300 0.055508 0.575313 1.837735 -2.284823 
国王 -3.350485 -0.851635 -1.185520 -1.203288 -2.717415 -2.330008 -1.672955 2.698088 1.268135 0.687260 -0.294496 -0.443898 1.214428 -2.994640 -0.847098 1.176383 -3.148893 -3.090123 1.259021 -0.617467 -0.615610 1.666386 0.628145 1.515642 -2.124009 -1.044932 -1.618540 -3.357893 1.051293 -0.680456 -1.734068 1.943523 -1.544710 0.571778 -0.994954 -0.274895 -3.514811 0.811203 -0.170639 0.291688 1.886501 -0.344012 -0.628091 2.189373 0.859440 -2.270841 1.674698 0.938042 0.428221 0.569807 
军队 -1.357302 0.313575 0.215658 -2.221838 0.035381 -1.328795 -2.986569 2.832982 -3.300608 1.081155 1.566214 -0.091308 2.292438 -0.850001 -0.824469 2.163048 -0.397453 -1.892806 1.198312 1.403722 -0.554159 1.403353 -1.651541 2.299519 -3.282269 1.135114 0.779935 -2.986546 -0.567312 -3.048152 0.021087 4.394728 -0.164783 0.472743 -1.593121 1.086013 -0.356794 2.889726 0.320643 0.148703 0.761904 1.450798 -0.607662 0.284651 2.181696 -0.910669 1.075630 -0.203608 1.068030 -1.346115 
过程 -0.100020 0.292113 0.785996 -1.991260 0.124950 1.883523 -1.373646 -0.537168 -0.764755 0.447602 -1.847801 0.992281 -0.552328 -0.177353 -1.063505 -1.619965 1.750229 1.430200 -0.462334 -0.199269 0.542194 -2.166116 -0.293103 0.301051 -2.725311 -0.642484 -1.209424 0.621566 0.763363 1.539587 0.695821 -0.139239 0.304423 0.292523 -1.173234 -1.231612 0.256083 1.511616 -0.641998 1.770236 1.257944 0.216920 -0.181907 -0.962639 0.327023 1.099053 -1.254106 1.459647 -0.320181 0.018001 
小说 2.668790 -0.554379 -1.841220 1.588301 -2.520690 1.188064 -0.392642 0.301184 3.260146 0.257880 -0.597090 0.539558 3.570777 1.697750 -3.352376 -4.115654 -1.309775 -2.071623 1.865440 -1.145708 0.658841 -0.613521 -0.328633 1.991739 -0.545637 2.516273 1.096126 1.104355 -3.074678 1.613474 1.788311 -2.776414 1.550157 -2.249851 1.745147 0.328427 -1.537649 -0.258541 -0.822896 -0.116558 0.117913 1.649665 1.289140 -1.640617 0.110259 1.259133 -0.063499 -0.597036 1.011170 0.215270 
位置 1.485127 2.822573 -0.364736 -2.709543 2.391648 -2.139693 3.151882 0.510105 -0.658431 0.023184 -1.433270 0.766662 1.039994 -0.088290 0.520540 0.819718 0.300768 1.530829 -1.285753 0.063379 2.362440 -0.171056 -0.300680 -2.020921 -0.350248 -1.113757 -1.483224 -0.763829 1.019214 0.952482 0.179005 1.941719 -1.749845 0.652891 -1.048428 1.096335 -0.545424 -0.135205 2.113673 0.611996 -1.137852 -0.955678 1.497293 2.161597 -1.878690 0.627095 1.357966 -0.249534 0.860232 0.511600 
人民 -3.121767 1.116114 1.752087 0.739207 -0.575210 1.196034 -2.864630 2.585375 -1.142323 1.689352 1.666185 -0.325673 0.588547 -1.280209 -2.518506 3.020873 1.329505 -3.375302 -1.814865 0.929078 -1.550961 1.132867 2.013555 1.949009 -2.748045 3.382010 2.910987 -2.019293 -0.430677 -1.581585 -1.636174 -0.385464 -0.859707 -0.143997 -0.338629 0.242742 0.008499 -0.757068 -0.700476 1.777558 1.265698 -1.442842 -0.564818 -0.548632 0.301512 -0.810992 0.585747 -0.425390 -1.090510 -2.790652 
飞机 -1.865258 3.303751 -0.983700 -2.009039 0.526217 1.159916 -1.863966 0.577670 -2.079903 -0.060567 -2.140222 -0.378661 -0.197308 0.388559 3.159270 0.999692 0.135360 2.410774 -0.374906 1.471226 1.232334 -0.495548 -0.780535 -0.416049 -1.825000 -0.325117 -0.728290 1.875330 4.375633 -1.627313 -0.822086 1.257305 0.827613 -0.604523 2.263168 -1.107374 -1.136754 1.169352 4.781326 -0.011687 -2.311553 2.674536 -0.159792 -3.157275 0.792485 0.329191 0.404134 -0.107012 -0.878594 -3.495222 
漫画 0.600142 0.417023 -0.185795 2.181551 0.636907 2.787782 1.203286 -2.306498 1.448770 -1.192778 0.568272 -0.749056 2.965719 -0.919582 -1.474711 -3.725476 -2.601107 -2.480942 0.068889 -1.940577 1.506763 -0.122747 2.929885 0.712518 1.013450 1.586106 1.377834 1.732376 -1.624363 1.356805 3.380506 -2.280491 4.672710 -0.141404 1.223649 0.263258 -0.173290 -0.217333 -1.064695 -0.479705 -1.695254 2.285970 1.653934 -1.389515 1.449590 -1.557246 1.191026 -1.769957 1.061169 3.607152 
名字 -1.435326 -1.127523 -0.038628 -1.384611 -2.775215 -1.104881 1.787768 0.432396 3.158968 -3.372283 -1.296386 -0.202085 2.176649 0.937513 -0.071472 -1.585397 -2.290913 1.702227 1.833209 0.156514 0.798776 0.407499 -0.759001 -0.864744 0.581460 1.114587 1.073961 -0.980935 1.107498 0.908071 -0.296229 0.420613 1.728275 -1.233385 -0.215138 -2.117145 -1.727879 -0.859966 -0.250463 0.651085 -0.482833 -2.657225 -0.083120 1.255328 -0.146340 -1.816407 0.261414 -0.785781 -0.286955 1.744993 
结果 -0.451306 0.257545 -0.106949 -1.662559 0.390304 1.128791 -0.255742 -0.997315 -2.248863 -0.356947 0.606006 0.488161 -0.992513 0.651991 -1.452408 -2.499693 -0.275536 0.317430 -0.057792 -0.370033 -0.070292 -0.256867 1.616419 -0.232413 -1.100382 0.368812 -1.195360 -0.472534 1.568808 0.525440 -1.111067 2.388795 -0.489525 0.340381 -2.165029 0.454379 -0.756889 0.885082 -0.250328 1.929055 0.861074 0.896966 0.043330 0.247934 0.258628 0.628394 0.078945 1.283406 0.073605 -1.355300 
水 -0.938730 0.200696 -0.158325 -2.509634 0.562680 -0.495232 0.209011 1.220010 0.426834 -2.337506 0.358218 1.644958 -0.482604 -2.115208 1.421029 -1.142010 0.627905 1.314616 0.092887 -0.013351 -1.616954 -0.031670 -0.336731 -1.599645 -3.089605 -4.748725 1.657289 -0.157609 -1.124854 -1.544000 1.618188 0.217751 0.157601 1.544378 2.012880 0.598524 2.113372 -0.060482 -0.365427 2.241464 -0.462163 -1.012199 1.543462 -1.169516 -0.121819 1.870471 -0.700973 0.488953 -2.446673 -0.874301 
内容 1.493358 0.477836 -0.377272 1.974029 -0.603054 3.177342 -1.427485 -0.108606 2.465158 -0.184361 -0.646233 -0.407847 0.578957 1.503369 -3.473788 -0.788536 0.124515 0.635219 -1.934384 -1.431610 -1.598558 -1.781516 1.957361 1.039153 -1.439768 1.043199 0.929054 0.891220 0.019559 1.832356 2.683548 -1.218020 1.051576 -1.391925 -0.566588 -0.457366 -0.834266 1.600112 -1.739814 0.790554 0.329721 1.255516 0.680558 1.632881 -0.058576 -1.145714 0.029201 0.608796 1.943527 -0.611559 
地 0.247932 -0.347078 -0.605127 -0.872346 -0.995198 -1.143466 -0.004689 0.717831 -0.610544 -1.571609 1.175729 0.365262 0.164620 -0.745738 0.162435 2.399745 0.807601 1.359026 -1.735700 -0.718124 -0.420661 -0.060782 0.809214 -0.117737 -1.608144 -1.715807 0.975382 -1.458442 -1.146579 -2.453345 -0.129252 1.743888 -0.315440 -0.352291 2.697735 0.616062 0.913370 -0.843807 -0.861754 -1.191563 0.697073 -0.632398 -2.035727 -0.458749 1.001943 0.835124 0.096571 0.639420 -0.391190 -0.635530 
女性 0.604330 -2.428597 1.289990 0.596582 -0.961498 0.496301 -0.712503 -0.383719 -1.409774 0.111263 0.776668 -1.752630 0.921228 -1.089509 0.100962 -2.508879 -1.336164 0.737144 0.385241 -2.737360 2.827888 2.346904 0.085928 1.271504 3.378396 1.183873 1.020234 -0.668759 -1.546078 2.893441 -0.215298 -2.437355 0.661127 -0.870559 -0.542614 -2.257192 -0.405015 1.932377 0.468436 2.390752 1.665747 -2.304382 3.789427 -0.803450 1.421695 0.124365 1.595518 1.088470 -0.353131 0.351476 
军事 -2.766118 1.329086 0.720514 -0.492640 -1.212706 -0.542809 -1.993656 2.932758 -3.142180 3.055304 0.115013 0.845725 3.137315 0.669487 0.026410 3.258378 -0.238756 -1.147515 -1.287364 2.408159 -1.048379 0.937625 -1.799174 0.754463 -2.411268 2.229121 2.444941 1.797153 -2.144120 -2.094386 -1.714123 2.218840 -0.026619 0.027253 -2.282155 1.657994 0.330345 2.370000 0.355281 -0.350517 2.417491 2.835590 -1.505029 0.647618 0.053193 -0.949801 1.679349 0.190303 0.746692 -0.547543 
主角 0.196014 -1.205938 -0.722376 1.334393 0.700799 0.888620 2.685682 -0.432073 1.910666 0.320775 0.663665 1.500694 1.446196 -1.958656 -1.366485 -1.631697 -2.418995 1.269804 3.338832 -0.892065 2.166874 0.414422 -0.357590 2.407062 2.405034 1.653285 -1.157197 2.095484 -2.310808 1.550731 2.452432 -0.576559 1.170089 -1.352852 0.912969 -0.609150 -2.009036 -0.063046 -1.918396 0.180873 1.190811 0.816178 1.056207 -2.471834 -0.705308 0.513105 -0.861256 0.072227 2.345122 0.936447 
字 0.743980 -0.527514 -0.046936 -0.315707 -1.754799 -0.005172 0.317643 0.700623 2.998955 -2.109581 -0.367319 3.048716 2.421812 2.201926 -0.359147 -0.261873 -2.472903 0.710768 -3.287867 -0.044136 -0.450471 0.531932 0.680128 -2.882155 -0.461469 0.082238 2.535792 -1.026453 0.702257 -0.043956 1.267215 0.822553 -0.861801 -1.898630 -1.791545 0.187506 0.382039 -2.523015 -1.390125 0.079519 -0.988493 -2.580754 1.342314 -0.091824 -0.373190 -2.167588 -0.256413 -0.640072 -0.703475 -1.308921 
个人 1.514386 0.428280 0.458063 2.253506 -0.452342 1.630168 -0.718272 -1.767321 0.165882 1.375097 0.550976 -2.725161 -1.976215 -0.138185 1.318157 -0.714852 0.860557 0.491641 -1.700698 -1.782178 1.118347 -0.670576 0.678017 3.078372 -0.619031 3.712866 0.787545 1.351202 0.862528 3.595275 -0.370491 0.048596 -0.315708 -0.792862 -2.852545 0.503127 -1.084790 0.553908 0.613520 0.361765 -0.518093 -1.505379 -1.262937 1.822750 -0.979172 0.177922 -0.301608 0.978469 0.670686 0.314885 
理论 2.652584 -1.977854 0.915608 -1.100278 -1.227669 0.626285 0.046149 -0.810127 -2.534492 4.271535 -3.011265 1.538749 0.207478 3.166090 -1.089792 -3.730519 1.382077 -1.439493 -3.799191 1.890377 -2.189618 -0.506879 0.787507 -1.308542 -3.848433 0.781484 -0.388165 0.375163 -0.253056 3.076558 -1.531613 -0.763073 -0.154327 -0.867540 -1.547121 -1.207742 -0.703895 0.690077 0.479689 1.182849 3.141604 0.186169 -0.797695 -0.797046 -0.343354 1.713296 -1.735926 0.184561 -0.621872 -0.566372 
动物 0.231508 1.583373 -1.985756 0.409866 0.364830 0.086301 -0.077264 -0.890267 -1.136394 -1.796633 -1.909151 0.544693 -1.299890 -1.057674 -0.272103 -1.213843 1.856635 1.558583 1.429183 -0.421565 -0.585303 0.182912 0.017998 -2.000527 -1.383669 -3.075565 1.244840 -1.064814 -3.341065 2.273669 0.133717 -1.356860 3.450183 0.489126 -2.395174 -2.067600 -0.498140 -3.365407 1.238351 -1.788635 2.536741 -0.575351 0.477600 -0.320377 2.253508 1.247280 -1.655548 3.942153 -0.769764 0.044547 
军 0.071806 0.549975 -0.665546 -1.506860 1.057996 -1.605768 0.066315 2.099121 -4.181494 -1.482719 2.740794 0.971705 1.300878 -0.735175 0.635347 2.861075 -1.301525 -2.006323 -0.360669 0.948796 -1.066448 0.872530 -1.051433 0.403027 -2.038988 0.360066 1.745100 -1.539273 -0.999337 -3.233864 1.743916 3.474929 -0.388892 1.159313 -1.316716 4.307991 -0.998118 0.946178 -0.372182 0.288502 -0.067036 1.862414 -1.359323 -1.895181 -0.390455 -1.618484 1.031156 -0.650569 1.830167 -2.992926 
球员 0.833198 1.636920 2.521972 -0.531324 0.534122 -1.056314 1.578552 -2.196507 -0.573278 1.277721 -1.213094 2.934427 -4.137359 -0.757207 0.753776 -2.255417 0.178862 -1.163998 3.000969 -3.099687 4.587604 3.165106 1.012376 0.049407 -0.830552 0.714137 0.796279 1.449691 0.303462 2.468473 1.508221 2.086699 -1.433370 -0.308639 -3.642129 2.763834 -1.926901 -0.471972 1.279017 -1.016790 -2.208905 -0.198873 -1.581005 1.074249 0.425158 -1.528450 2.397320 -2.209875 0.120762 1.471910 
母亲 -2.309927 -0.454014 1.905512 -1.294070 -3.024580 -1.665102 0.385940 -0.949797 0.954718 -1.542447 2.325509 -1.956741 -0.103229 -1.655632 0.742259 -1.157742 -5.619914 0.281156 2.183913 0.053392 0.354996 -1.004462 -0.854195 1.696901 0.226767 0.301349 -2.247184 0.622134 0.466678 0.391508 0.314867 -1.014434 0.858928 1.391616 -0.400424 -0.130471 -2.450244 0.054198 -0.158229 0.532969 1.715793 -3.872354 1.239480 -1.217116 1.931141 2.362458 -1.046290 -0.580712 0.640514 -0.543296 
任务 -2.322340 0.078863 -0.674203 -0.936011 2.357847 1.324049 0.751495 0.616512 -2.759695 0.898212 -1.272373 0.935938 0.252827 -0.824039 0.218769 1.915202 -0.655043 3.323767 2.415658 2.524085 0.199862 -0.459833 -1.346359 2.130088 -1.655285 1.329198 1.181645 -0.383444 0.411345 1.146043 2.631003 0.943575 0.245411 -1.421700 -0.227213 -0.660618 -1.607118 1.557036 1.919842 1.387357 -0.476556 3.461629 -1.652584 0.395562 -0.672743 0.211783 -0.091764 1.527051 -0.061750 -1.661567 
地球 -0.425362 1.125076 -0.863723 -1.966070 2.831138 -0.073686 4.350370 -2.064696 -2.667907 0.417042 -1.498775 1.856831 1.654040 -1.461055 -0.385492 -2.335514 0.404081 1.970598 0.302647 2.001280 -2.482907 -0.765542 -1.540178 -0.135894 -0.503919 -0.019313 -1.960803 -1.793200 -2.250677 1.063229 -1.148429 -1.766454 0.294952 0.852206 1.264078 -0.956121 -1.252410 -0.709849 0.716915 3.268997 0.521525 2.501362 -1.745625 2.061838 1.486400 2.045548 -0.360701 0.728145 0.998681 -1.893228 
人员 -1.666720 0.851367 1.142984 0.556035 0.457179 1.008014 -3.599020 1.399789 -2.656938 0.065015 -0.628091 -0.856878 -2.129207 0.372147 -1.219443 2.452508 0.342915 4.187515 0.797113 2.469859 0.760628 -0.327171 0.689727 1.098727 1.096563 0.492689 0.513071 1.003748 1.647161 1.261291 1.173384 0.576764 -0.323415 -1.345011 -0.547469 -0.287955 1.356596 2.230019 0.292322 1.215575 -1.453455 1.133634 0.311612 -1.190721 2.149718 0.501883 0.642614 1.141472 0.712104 -0.105170 
职业 -1.241829 1.444084 1.900565 1.511344 -1.063938 -0.722255 1.311876 -2.308645 -0.069711 4.054220 0.526643 0.089869 -2.799126 0.190557 0.054736 -0.925494 -2.425757 0.101881 2.911269 0.319857 2.067650 1.953315 -0.207783 2.149495 -1.309310 -0.384020 0.787771 2.131970 -0.021543 0.908839 1.751270 0.755436 -0.478441 0.736604 0.039078 -0.419469 1.081032 0.416167 1.962442 -2.016013 -0.832060 -3.021030 -0.777555 0.377966 -1.616372 -0.504195 0.725301 -0.279801 1.777045 2.778984 
环境 -0.451677 1.042863 -0.409728 0.000388 1.149170 2.462168 0.884940 -0.430247 -2.139952 0.741706 -0.458624 0.307898 -1.118230 0.549699 0.232566 0.601250 2.637913 1.423312 0.392291 1.211032 -0.304393 -1.474966 -0.098328 -0.022348 -2.070132 -2.506616 -0.203249 0.816480 -0.626625 0.388350 0.337607 -1.835243 1.398964 0.630869 -1.606024 -0.949425 2.419726 1.064164 0.022838 -0.755106 2.787051 -0.861069 -0.108416 1.156541 1.580467 5.348740 2.141223 0.548203 -2.277946 -0.466463 
资料 1.363758 2.295548 -0.325994 1.188700 -1.264530 0.112117 -0.911388 -3.007720 -0.554040 -1.267962 -1.098995 -1.082121 0.330815 1.772877 -0.619519 -0.133015 -0.735731 1.778777 -0.951192 2.173049 0.117156 -2.477588 0.215140 -2.235811 -1.454635 1.676806 0.352119 1.455994 0.936842 1.034908 0.760008 0.572985 -1.165840 -0.869170 -0.275030 -1.414751 -1.014512 -0.004353 -0.825872 1.271773 -1.080857 1.501846 -0.107881 2.701397 -0.505594 0.258051 1.343504 2.796999 1.169478 -1.063115 
歌曲 2.775173 0.036667 -2.093421 1.418150 1.793396 2.117536 -0.542865 2.584392 3.384799 -0.784702 2.026359 0.074018 -0.326432 0.056253 0.913912 -1.556963 1.418531 -1.134641 -0.908184 -2.852533 -0.255018 -2.953437 -0.592301 2.611758 3.112330 0.338223 1.123528 0.847854 -0.096151 1.281329 -0.696203 0.238134 1.057972 -0.900419 -0.454540 -0.944947 -1.661472 0.621192 -1.015817 2.624739 0.597584 -4.113800 -0.675213 0.129939 -1.294093 -1.068544 -0.868410 -2.270923 3.124294 1.349940 
武器 0.235916 0.177909 1.509831 -0.491428 0.022910 0.294750 -0.505457 -0.013883 -3.483972 0.653234 -0.220257 1.299159 2.905579 -3.675755 1.352296 0.715995 0.216558 0.965475 2.001730 1.095017 -0.877429 1.253417 -1.270083 1.202266 -2.806034 2.136740 -0.449248 1.609997 -1.033191 -1.190299 1.048535 2.039088 1.984490 -2.321416 -0.965527 -3.257447 0.896919 1.172670 1.699512 0.541261 -1.730170 2.490607 2.021998 -0.709023 -1.398401 -1.816147 -0.456471 0.805841 -0.366570 0.965749 
功能 0.086508 1.455815 -0.529379 1.971404 0.545460 2.925816 -1.135209 -0.251094 -1.000149 0.513371 -0.109134 -0.309084 1.654918 0.687769 -0.199827 0.954768 2.419308 1.134172 -0.763898 0.155895 0.042065 -3.345435 -0.675536 -1.310897 -1.649632 -1.735269 -1.039145 0.283818 0.866353 1.639184 3.344921 0.509394 -0.583298 -0.823898 -2.694211 -1.696172 0.509948 -0.876701 0.825849 -0.683367 -2.594964 -0.872331 1.991365 0.605755 -2.016047 0.884734 0.875159 1.640097 -1.890770 1.071853 
建筑 0.195502 1.146141 0.669546 2.964990 -1.005730 -1.852071 -0.071658 4.478706 3.318724 -0.275043 -1.935139 -1.017070 0.054151 0.443920 1.386835 1.876024 3.990450 -2.313284 -3.050463 1.985351 0.870823 2.656164 -0.710058 -2.929887 -0.950331 -1.409902 -4.052207 -0.204387 0.515614 0.809371 -0.035321 -0.472180 -0.948842 -2.108315 2.304794 -0.240920 0.656000 2.671247 -0.467046 -1.448488 2.185012 1.444027 -0.261925 -0.488658 1.348550 1.988112 2.888515 0.250634 -3.782868 2.567809 
年代 2.354097 0.708767 0.812802 -1.198873 -2.095167 1.079787 -2.132968 1.631824 0.658457 2.396938 -1.262552 0.176570 -1.079008 1.840064 -0.137002 -1.777119 0.706642 -0.755699 -1.513652 -1.348551 1.533357 -0.112906 -2.546453 0.071460 0.031656 -0.600893 -0.874319 -0.393859 -0.586368 -0.221241 -2.435388 0.439215 -0.339772 -2.785666 2.355494 -2.278792 1.220941 -0.972769 0.333431 -0.530222 2.026909 1.147090 -2.700233 0.191528 2.309730 -0.070627 -0.294349 -2.631334 0.879294 3.769765 
标准 -0.578061 1.447653 0.816164 1.529117 -0.782548 2.110206 -0.254673 -1.646864 -0.552762 2.269693 -2.025907 -0.104306 -0.369689 3.658618 0.257702 0.299274 1.867635 0.605922 -0.863920 -0.462743 -1.699941 0.276375 0.030367 -0.306318 -0.617960 -1.823444 0.520851 0.998982 1.391267 0.662804 0.840675 1.364136 -0.781467 -1.330483 -1.883970 -2.963014 2.568925 -0.411060 -0.959990 -1.335830 -1.435481 0.464246 1.805003 0.626493 -0.461770 -0.335145 -0.402974 -2.682258 -0.461425 -3.033221 
形式 0.917564 -0.028503 -0.470626 -0.251052 -0.355888 1.650089 -0.921484 0.626826 2.560931 0.819476 -2.329793 0.299188 0.353580 0.438036 0.203371 -1.286519 2.430676 -1.817414 -2.636878 0.006711 0.150264 -1.318270 1.714114 0.192089 -1.628077 0.521532 -0.077597 -1.128857 -0.546955 2.016582 1.757901 0.007427 0.029205 -0.703878 -1.069475 -1.594795 0.806757 1.317839 -0.702533 0.241216 -0.018496 -1.356787 1.049515 1.176197 0.532605 -1.417309 -1.841107 0.134080 -0.038956 0.573354 
站 1.199715 -0.957624 -0.808150 -0.822055 1.199154 -0.599507 -0.902424 0.481760 1.694769 0.100405 3.300958 0.634047 -1.488986 -0.944168 1.336045 2.127573 1.834205 -0.522563 -0.234537 0.719891 2.623990 -0.037623 1.129880 -3.306584 1.657072 -2.024038 -2.362910 0.436516 1.975708 0.349594 2.297424 0.378513 -1.865575 -0.525944 2.759205 1.679011 1.035667 -3.070678 1.265642 -1.028623 -1.524662 0.725541 -1.669091 1.817999 -2.319415 1.232614 0.029964 -0.370226 0.056806 -2.171731 
交通 -0.976384 -1.140189 0.225365 -1.286255 -0.237479 -0.049537 -1.306266 -0.107409 0.840977 4.538162 2.114560 -1.074641 0.505285 -0.917490 1.944417 2.962736 1.444338 1.233610 1.428636 2.082185 0.775214 -0.684486 2.170570 -4.495597 -1.580475 -0.763906 -0.846121 -0.525291 0.410172 -1.861469 -0.913587 -0.665020 -0.487161 -1.941051 1.831128 0.501898 3.847250 0.352938 0.429633 -1.897939 0.324716 0.769763 -0.869371 0.075572 -1.337476 4.120235 3.816607 -2.592921 0.377158 -4.469758 
少女 0.156289 -1.805367 -0.295710 1.629908 0.425851 2.094875 2.620131 0.252314 -0.123350 -0.502061 0.935295 -1.575133 0.085661 -3.990289 0.702456 -1.228433 -4.348290 -1.021986 1.094425 -0.899309 1.062064 0.367372 -0.747972 0.891750 1.627041 0.659132 -0.084083 0.779334 -1.728912 1.548545 0.958347 -1.098886 4.290944 -0.519490 2.037008 -0.814031 0.065168 -0.948347 -1.052125 1.800937 0.747774 -0.137146 2.062745 1.221180 -1.098677 0.257971 -0.626265 -0.910805 0.679514 1.296209 
奖 -0.718862 1.243941 -2.439704 2.040415 0.537792 -1.497933 -0.857016 0.045261 -0.486865 2.306386 0.336984 1.005930 -1.578960 -0.731125 -0.356233 -4.084844 2.035066 -1.885954 2.592300 0.531872 -0.792213 1.020837 0.676479 1.012619 4.300752 1.702895 -0.193532 4.228648 -1.481168 2.317539 0.322579 -2.225972 -1.986812 -3.609362 -1.008765 2.517162 1.119995 -1.482359 -2.643677 -0.869305 1.318665 -2.273549 -1.392343 -0.468679 0.184386 -0.599047 -0.087093 -2.245341 1.262028 -0.224023 
电子 -0.952191 1.365359 -0.512801 -0.385957 1.509640 1.333440 -0.736300 -0.916457 -2.170144 2.058595 -0.080618 0.911793 -1.114072 0.741395 1.406816 -0.811478 0.578349 -0.731838 -1.636920 0.575834 -2.409156 -2.780559 -3.092145 -4.817997 -0.093467 1.040934 -1.549658 2.294132 1.228110 1.532178 1.323427 -2.500430 -0.924180 -1.203195 -0.265806 -1.956364 0.954996 2.951192 0.869835 0.339012 -5.136152 -1.849953 -0.304612 0.097960 -1.681345 -0.093563 -0.540856 -0.983610 0.118065 0.057063 
书 1.587909 -0.354986 0.594739 1.039832 -3.103501 -1.008894 -0.897664 0.106416 2.477058 -1.784755 -0.321416 1.066505 1.015985 1.309326 -3.763775 -3.557868 -3.036548 -1.162598 -2.714281 -0.209660 -2.087007 -0.325817 -0.048942 0.555063 -2.355404 1.248926 1.996664 -0.291647 0.119730 2.049034 -0.158505 -0.256550 1.611160 -1.827634 -0.352681 0.527337 -1.245841 -0.554250 -0.985498 -0.206824 0.859777 1.408019 0.493869 0.377345 0.049823 0.362876 0.529240 1.139317 -0.063900 -1.098069 
行为 0.051218 -1.322730 0.634157 -0.364872 -1.121218 2.244502 -1.249636 -0.308852 -1.851922 0.869954 0.084865 -1.805302 -0.013154 -1.491004 -1.439341 -0.633139 0.900851 1.887462 -0.715724 -1.840315 0.916247 0.841942 2.750358 0.488176 -2.878652 0.916886 0.065075 0.037269 -0.328637 2.984687 -0.647841 -0.910784 2.064496 -1.024988 -5.055499 0.367492 -0.868874 1.015037 -0.576327 -0.142963 1.151221 -1.303244 0.912581 -0.011527 1.926419 1.995063 -1.039872 1.939043 0.693423 -2.093032 
家 -0.356197 -1.080350 0.193551 0.171996 -1.229074 -0.657530 1.416119 -1.120981 0.651765 -2.662788 2.404322 -0.440382 -0.046300 -0.367039 -0.351676 1.103676 -4.095860 0.480250 0.560965 -2.008216 -0.010340 -1.126232 -0.750806 -0.023802 -0.671079 1.209388 -2.460416 -0.361132 -1.096156 -0.588235 0.424164 1.191355 0.259041 -1.287244 -0.465644 1.481158 -0.585665 2.177099 0.319823 -1.440881 0.905287 -1.045093 1.038160 -0.779194 1.062686 0.586552 -0.633555 2.104166 -1.471467 -0.282994 
工程 -1.906331 -0.036409 0.755769 0.707553 0.512350 -0.468436 -3.185375 1.617486 -0.510974 0.654386 0.279699 0.978538 -2.493649 0.672452 0.983880 2.281896 2.533679 0.781131 0.534051 3.017931 -2.805592 -0.414757 -0.778894 -3.630033 -0.384268 -3.619897 -1.239592 0.196803 2.624906 2.908474 0.294787 -1.486558 -1.793597 -1.053120 1.468211 0.435897 2.019617 1.620353 0.681608 -0.905418 2.266039 3.069213 -2.297871 -1.267028 -2.022325 1.976078 2.257675 -1.631709 -1.002471 0.169861 
原因 -0.204737 -0.340076 0.418191 -1.373898 -0.825101 1.687163 -1.368229 -1.191192 -0.878716 -0.640114 -0.559128 0.277685 -0.567938 -0.061462 -0.168945 -1.106024 -0.304086 1.138071 -0.402273 -0.638073 1.408952 -1.250129 0.655648 0.912865 -1.025411 -0.499571 -0.531583 -0.134651 0.390935 -0.218719 -1.378668 0.560742 0.660767 0.012865 -1.409603 -0.428210 -0.620548 0.737150 0.691206 1.133426 1.498905 0.791171 0.832484 0.782129 0.995746 2.288012 1.094134 -0.542801 0.400487 -0.632197 
艺术 1.283547 1.909441 0.200188 2.270407 -0.978980 -0.433702 -1.967895 3.453930 2.949595 3.099539 -3.405246 -0.560589 -0.684789 -0.813217 1.299515 -0.730704 1.119961 -2.013007 -2.916338 0.626252 -1.549797 -0.007157 0.869438 1.000866 1.332132 2.549500 -1.709903 2.970271 -1.551826 2.509650 1.488737 -3.052062 0.482314 -0.538203 1.156214 0.487567 -0.784395 -0.094526 -2.050184 -2.656764 3.041586 -2.247504 -0.366130 0.281536 1.442990 0.811901 2.204295 -0.860641 -1.505531 2.736165 
会议 -4.232317 -1.801816 -1.341945 1.792774 0.965295 1.253895 -0.569261 2.567438 -1.000155 1.204431 -0.180669 -0.256409 -2.640764 2.637109 -3.991708 3.181602 1.778176 -2.121003 -1.667741 1.012103 -1.853715 1.982560 -0.924580 0.874829 -0.112185 0.280955 0.203351 -0.112760 0.852127 -0.614890 -2.288838 0.585684 -1.275673 1.324747 -2.982735 0.889782 0.177029 1.368765 -0.913709 2.915204 1.178390 2.649411 -0.513993 2.749656 -0.503664 -2.255988 1.247895 -0.471464 -1.668532 -2.855544 
机构 -3.270643 0.003526 1.676225 1.500075 -0.733380 0.122534 -1.864171 -0.192127 -0.748879 2.266158 -0.988728 -3.282278 -0.078029 2.296216 -0.295570 3.671046 2.613183 0.621098 -0.499024 2.457809 -2.948713 1.107993 0.666484 -0.755668 0.896817 1.358081 1.161181 0.150557 -1.053860 1.626715 -1.644271 -0.277396 -1.582823 0.726158 -2.663771 -0.481895 2.258199 1.061535 0.155468 -0.673805 -2.080453 1.842333 -1.297543 2.997399 2.082407 1.322445 -0.383154 0.240196 1.041009 1.706100 
力量 -0.927543 -1.589772 -0.320625 -0.249852 -0.066035 1.992734 1.026003 0.568298 -2.622437 -0.474682 -0.033675 2.174929 1.278511 -4.768111 2.578971 -0.224256 -0.701035 -0.858182 -0.750651 2.484356 -0.574751 0.739617 0.843362 2.922231 -3.894285 2.177048 0.309151 -0.941176 -2.522341 0.260126 -2.137962 1.310521 0.177941 1.616324 -0.826516 -0.547247 -0.816877 -0.386808 0.938334 1.448091 1.016368 0.411762 1.255175 0.466236 -1.342798 -0.033407 0.659468 1.513903 0.357004 0.429841 
范围 0.056666 0.865142 -1.102378 -0.222214 0.659804 -0.833044 1.007098 -0.762953 -2.894011 2.128436 -0.664865 -1.152935 0.189593 0.731151 0.571603 2.102804 2.786305 1.013890 -1.921244 -1.007775 0.630599 -0.438509 1.719791 -1.577265 -1.449212 -1.608930 -0.103655 -1.258685 -1.344251 -1.207092 -0.513645 1.397794 -0.221280 -0.516413 1.440963 -0.858787 1.459243 0.356191 -0.705496 0.246837 -0.098342 0.635835 0.605173 2.452161 0.331547 0.427263 0.554651 1.047801 0.951506 -0.250148 
岛 0.142446 -0.485244 -0.855312 -0.745364 1.221482 -1.311289 1.416757 0.299335 -0.256001 -2.557840 1.176588 -1.569610 0.472224 -0.155463 -0.630309 2.474691 -0.021295 1.845096 0.722562 1.428361 1.333584 -0.005635 0.796808 0.439830 -1.209518 -3.129730 1.135151 0.262943 -1.743364 -2.664036 -2.213726 -0.883312 0.722356 -1.822632 2.989700 0.304409 -2.526598 0.651393 1.626637 0.375256 0.130291 -0.320475 1.047442 -0.291526 2.006789 -0.663876 0.504002 0.924672 -0.469877 -0.484036 
速度 1.742926 1.869019 -1.829042 -2.330456 2.965924 1.085172 0.307988 -1.958852 -2.802314 2.898910 -0.489609 1.485006 -1.819250 -0.227830 4.138818 -2.141549 0.793203 0.989941 -0.392944 0.598546 0.713573 -1.213614 -0.547470 0.313341 -2.377006 -0.827870 -1.693134 0.151472 0.448453 -0.624343 0.897376 2.110510 -1.101933 -0.368848 0.653456 -1.191949 1.029994 -2.023937 1.321507 0.863794 -1.049474 1.886809 3.061568 0.224043 -2.918994 1.707769 -0.326355 -0.155249 0.060308 -1.676273 
女子 0.073425 0.149228 4.214643 -0.163862 0.416626 -2.036591 0.560756 -0.202975 1.633135 -0.953421 1.210914 -2.975776 -1.356378 -1.713319 0.535514 -1.127400 -2.559961 -1.021672 1.193478 -1.797853 0.623781 4.189773 0.617235 2.014064 3.256794 -0.151339 0.026405 2.466117 -0.560861 2.736541 0.556008 0.187296 -0.819327 1.235122 0.960989 -1.143942 1.417470 0.140891 0.672493 0.130686 0.397120 -2.318501 -0.565035 1.340749 -0.977549 -0.389649 -1.251662 -0.323659 1.133199 -0.715967 
方向 2.899489 -0.288465 -1.343995 -2.882282 2.363693 -1.065403 -0.159520 1.016091 -0.885820 2.267274 0.288929 1.897342 -0.385965 -0.478461 -0.454919 0.558680 1.496958 1.500560 -2.348517 1.120255 -0.421873 -0.303976 -0.294602 -1.615554 -1.322809 -0.794454 -1.647535 -0.995227 0.569444 0.135264 1.406187 1.005886 -1.226165 0.704628 1.353795 1.302489 0.395456 0.368093 3.435805 -0.765431 -0.176651 -0.331522 2.672899 0.468579 -1.125187 0.696417 0.029781 0.207663 -0.414163 -2.132190 
神 0.198324 -3.352927 1.815960 0.215508 -2.823473 0.153802 2.809887 0.140514 1.198093 -2.699641 -1.558127 0.462589 0.146331 -4.260016 1.793387 -1.912721 -2.146220 0.946204 -1.466048 0.223420 -2.121302 0.178441 1.621982 1.550303 -2.623128 -0.583344 0.755311 -2.349219 -1.766016 1.227376 -0.131570 -0.195490 0.391866 0.784956 0.438160 -0.849446 -0.120007 -0.133987 0.796863 1.917206 0.128270 -1.182892 -0.385939 -0.361042 -0.996862 -1.672544 1.883345 2.609548 -0.088470 -1.995547 
基础 0.281056 -0.440687 1.537858 0.651871 -2.235546 1.588301 -0.370895 -0.030959 -0.636234 2.618524 -0.334629 1.172525 0.662478 2.611621 0.685607 0.438819 2.007468 -0.956347 -1.625705 1.656966 -1.490743 -0.590060 0.051909 0.163389 -2.190708 -0.538376 -0.127632 -0.109978 -0.358345 1.355289 0.795608 -0.686388 -0.103787 -1.183747 -0.563177 -1.949381 1.336797 1.457895 0.278511 -1.213359 0.966096 1.194420 -0.664287 -0.247021 -1.156659 -0.357795 0.384061 -0.157959 -1.032649 0.292293 
工业 -1.892807 1.810006 2.766936 -0.273786 -0.338874 0.153059 -0.716925 -1.117873 -1.081557 1.526382 1.388046 0.330275 0.150962 0.643514 2.767757 1.620670 3.344234 -1.601596 -0.123475 1.491693 -0.748237 -0.534062 -4.190786 -1.874318 -1.132063 0.031697 1.411180 2.021712 -0.221871 -0.899789 -2.682770 -1.284879 -0.574368 -0.131495 2.157058 -1.477272 5.082266 2.690511 -0.413571 -2.265875 0.827585 0.066897 -2.286529 -2.054603 0.006037 1.671580 1.919859 -3.215176 -1.589244 1.724028 
帝国 0.839180 -1.218399 -0.201149 -1.627813 -1.108002 -2.249087 0.005447 0.279424 -1.237997 2.221465 -0.819922 0.533487 3.846172 -1.437977 -0.468605 2.042622 -1.512812 -3.700015 -0.621768 1.195318 -0.858654 1.047243 -1.729924 3.216029 -0.764680 0.181381 -1.181156 -2.557838 -0.173920 -2.012317 -2.819275 0.338364 0.286159 0.507294 -0.382046 -0.881236 -1.075506 1.593765 -0.517211 -0.732896 0.925844 1.741385 -1.456478 2.320023 2.833849 -0.255962 2.598195 -0.917535 0.217228 2.005300 
区域 0.082885 0.433029 -1.167234 -1.675780 2.548231 0.517387 2.070512 -0.502871 -2.240828 1.601372 -0.637956 -0.752285 0.928962 1.034005 -0.542319 3.319605 4.454127 1.478634 -0.275994 0.978256 1.590752 -0.161645 0.178520 -3.114186 -1.013006 -1.962076 -0.689903 -2.293818 -1.478373 -1.978342 -0.371933 1.444499 -1.002330 0.252953 1.143857 -0.868675 0.369045 -0.664593 -0.843488 -0.992424 -0.373741 0.089424 0.026863 2.332677 0.758963 1.067323 1.487159 1.100303 -1.036309 0.865625 
银行 -3.286862 -0.447174 1.039407 0.565020 0.133311 -0.897072 -1.076247 -1.707978 2.888848 0.483798 0.227181 -3.899119 -2.005071 0.548460 0.004379 4.260209 1.768331 -3.536319 0.507745 -0.483502 -0.464213 0.434396 1.125913 -3.615867 -2.309043 3.008939 0.747835 -0.766240 1.331220 -1.119558 -2.327697 -0.551480 -1.439916 -0.741460 -2.055442 -0.742323 -0.513695 0.039337 1.945206 -2.903249 -1.894224 1.546444 -1.149287 -1.323585 0.120279 1.813767 -1.128700 0.056087 1.668744 2.386542 
市场 0.275675 -0.593607 -0.945124 0.719741 -0.638863 3.309882 -0.815140 -2.068814 0.442377 1.322836 0.291487 -1.840044 -1.500720 0.497897 2.327821 1.119901 3.556961 -0.902416 -1.779745 -4.937651 -1.174218 -1.510069 -0.951669 -1.060696 -0.109617 1.174470 0.394480 -0.120563 0.744096 -1.499403 -1.789123 1.613760 -0.482598 -2.787377 -1.540589 -0.695581 1.846095 0.751174 1.059927 -4.040284 -0.671023 1.321175 -1.289803 -0.926603 -0.011685 2.317270 0.041523 -1.629887 -0.551292 2.295322 
将军 -0.971046 0.502049 -1.520350 -0.919724 -0.612787 -1.219544 -0.575626 1.302145 -1.499291 -1.551802 2.470196 0.551933 3.697066 -0.186897 0.289784 0.619995 -3.270812 0.381698 0.675322 -0.670400 -1.142464 1.198097 -1.833998 0.376298 -0.604641 0.890301 -0.617122 -1.943122 -1.887522 -0.913660 -0.860495 2.634726 -0.653633 0.259894 -2.348938 5.097130 0.306319 0.696397 -0.051467 1.264390 1.257720 0.895792 -0.694364 -1.612372 0.183349 -2.008594 -0.341539 1.814530 -0.857409 -0.710908 
歌 2.797733 -0.572318 -1.124780 -0.478843 1.334193 1.355252 0.496808 1.990102 3.038295 -1.907758 2.516833 0.183214 0.096441 -0.636886 0.671322 -1.017105 -0.660606 -1.037057 -0.568265 -1.975190 -0.859576 -2.685907 -0.031224 2.535194 1.905969 -0.456334 1.270189 0.622074 -0.098716 0.119155 -1.337598 -0.171251 1.857295 -0.775990 0.063696 0.566431 -1.559191 0.065875 0.073846 2.625339 0.398133 -3.684963 -0.313015 0.128940 -1.084944 -1.398075 -1.372859 -0.642662 0.956753 -0.132362 
小时 -1.942962 1.417318 -0.766961 -2.103040 2.709396 0.002593 -1.302069 -0.108750 -0.734914 0.780125 0.503980 -0.500031 -2.952539 0.577290 1.243292 -0.983585 0.988988 1.287112 1.015727 -0.592156 0.766171 -1.381040 -1.294677 1.427616 0.246965 -0.658228 -1.400735 -0.428710 1.418284 -1.673949 2.092369 1.205745 0.175533 -0.607320 2.198111 0.493829 0.031205 -1.878296 0.798610 0.857140 -1.531298 1.803331 1.863946 0.833360 -1.152279 3.570089 -1.491024 0.416963 2.233641 -3.710980 
集团 -2.669637 0.256299 -1.022535 -1.198327 -2.893936 1.185432 0.901777 -1.446020 -0.590244 -0.927009 -0.146159 -1.510106 -0.882843 -1.375357 0.028979 3.309684 2.508739 -1.304825 -0.001227 -2.062865 -0.541407 1.389497 -1.224297 -1.120723 0.065924 3.860629 -0.190136 -0.870320 -0.806451 0.383813 -0.980994 -1.856684 -1.724173 1.759332 0.571321 1.203616 1.197165 2.114423 2.042303 -0.945101 -2.325587 2.314815 -2.334719 -1.278788 -0.224555 -0.842220 -1.755679 -2.336136 0.401933 0.932094 
目标 -1.304127 0.026791 0.559883 -0.698359 0.795039 1.602292 2.038308 1.056767 -4.109123 1.304590 0.425356 -0.200292 -0.154428 -0.637630 0.926977 0.295615 1.481882 1.178030 0.045823 -0.108367 -0.160091 -0.120241 0.930282 1.180215 -2.590176 2.081324 0.084449 1.412227 0.895983 0.281572 1.609284 1.257566 -0.017254 -1.082044 -0.797027 -1.160920 0.138198 0.790238 2.268499 0.089842 0.974198 1.473887 0.270124 0.735934 -0.653591 0.631552 0.818347 0.953985 -0.037040 0.158152 
路线 2.618170 -2.530392 -2.095516 -0.450985 -0.599270 1.154416 -0.138285 -1.537669 1.558360 2.070686 1.579169 0.274711 0.638998 -0.218886 0.678099 2.066510 2.685326 2.094549 0.304924 1.761794 2.368891 0.322025 -0.268108 -3.181089 -0.771171 0.132268 0.379237 0.181745 2.303367 -2.029441 0.808078 1.705371 0.206118 0.332082 1.648707 1.018618 1.793394 -0.007421 0.997892 0.416275 1.272896 1.578590 0.213784 1.409638 -1.299513 -0.143319 0.798979 -0.553037 2.128114 -2.047696 
铁道 1.426291 -1.095010 -2.731715 -0.595589 -2.317508 -1.737923 -0.143530 -3.373323 2.455976 1.707168 2.848921 -0.008948 -0.593769 -0.168423 3.750488 3.063484 0.616927 0.002068 0.545997 3.824102 1.363792 -1.004295 0.049394 -5.008166 2.097267 -0.604088 2.530144 0.377473 -0.807614 1.158172 0.675470 -0.971703 0.812479 0.927720 3.348374 2.004562 1.513065 0.533954 -0.348425 -0.762376 0.099850 3.286422 0.612805 1.207406 1.233129 -2.748058 -0.705251 -2.085614 0.229251 -2.540965 
模式 2.752586 -0.145864 -0.948040 1.269619 2.028891 2.358145 0.417310 -1.029627 -1.546238 1.648328 -0.251277 1.695669 0.872816 -0.072358 -2.136448 2.167969 1.030735 1.278182 -0.352609 -0.575064 0.642489 -0.192417 -0.108624 0.755337 -4.103206 0.928929 -1.445159 -0.594494 0.510210 0.326995 2.382321 1.589975 0.142000 -2.240494 0.206101 -3.046363 1.320065 0.162568 0.440602 -0.749642 -0.433316 -0.381955 -0.280694 -0.453446 -3.195244 1.379779 -1.796298 1.437246 0.811213 0.817738 
联邦 -2.115566 1.017429 -0.759647 -0.589866 1.793200 -0.598774 -0.926592 -0.625884 -0.324726 3.584579 1.946690 -1.964780 2.569546 2.362561 -0.705357 2.245909 2.966579 -0.220383 2.272283 1.231670 -1.029518 3.005890 -0.673588 1.021333 -1.211228 0.686313 0.221133 -2.956048 1.061173 0.813906 -4.114524 -0.881036 -1.127398 0.439558 -2.204307 -1.729739 0.068810 0.641548 -0.000798 1.440823 -0.349494 3.429889 -1.214908 0.795248 2.126073 -0.838984 -0.584396 0.093107 2.233027 -0.433129 
儿子 -2.511637 -0.526757 1.136413 -1.843124 -3.791739 -2.699725 -0.665441 -0.350918 1.207930 -1.440279 1.709645 -0.496152 0.513200 -2.059294 -0.388018 -0.722492 -4.092334 0.313663 2.149086 -1.356828 -1.127895 -0.661480 -0.450747 2.062713 -1.147381 0.819295 -2.764447 -1.549023 0.225349 0.277345 -0.373476 0.105187 -0.878025 1.378351 -0.878638 0.553088 -2.486741 0.876862 0.819181 0.277432 1.596284 -1.333092 -0.442395 -1.868779 1.437646 -0.079224 0.153646 0.508966 0.274899 -0.320945 
路 0.070101 -0.964521 -0.908635 -0.548690 -1.211548 -0.928294 0.215656 1.705215 0.126993 1.217414 3.210980 -1.181175 0.452312 -1.198453 0.180564 0.648304 -0.097286 -0.967911 0.807393 -0.269641 -0.716619 -0.437102 0.514961 -1.155888 -2.310038 -0.472155 -2.815119 -0.586740 1.505671 -0.120577 1.695089 1.262831 -1.059855 0.945138 1.362612 2.692381 -0.773328 -2.211847 -0.349055 -2.070518 0.104722 -1.087506 -0.676625 0.527286 -1.241733 -0.652086 0.707407 0.074170 0.085567 -0.185488 
单位 -2.013616 1.042575 1.362210 -0.190700 2.169624 -2.237506 0.934470 -0.921636 -1.301091 0.933444 -1.384455 -0.463077 -0.115829 3.216971 1.187195 1.256052 3.908210 1.191079 -1.475906 2.313851 -2.208427 0.926484 -0.832179 -0.812568 0.912197 1.719464 1.560342 -0.672847 -0.956859 -0.444058 2.423464 2.188062 -2.158220 -2.305666 -0.393997 0.300800 0.514982 2.198657 -1.790788 -0.581697 -1.195783 1.505551 0.512987 -0.011675 0.203189 0.962107 -2.009117 1.073420 0.237003 -1.597062 
陆军 0.734456 2.191190 2.529501 0.244776 0.286965 -0.939879 -0.894744 1.661428 -2.448705 0.754528 -0.026901 -0.178687 2.528602 2.473023 0.531378 3.446388 -1.763094 -1.636093 1.639050 2.594360 -2.326385 2.660165 -3.979482 0.250754 0.910985 0.225748 0.781975 0.806951 1.734966 -3.193768 1.221502 0.811392 2.188596 0.168214 -2.917802 2.253863 -1.100520 2.301691 1.399688 -0.026617 -0.224129 1.939422 -0.934594 -2.637442 0.027023 -0.053193 1.102434 0.156811 1.164818 -0.885881 
年度 -0.602562 0.521656 -1.434090 2.582739 1.751748 1.108377 -0.502622 -0.692808 -0.548225 -0.139893 1.297099 0.482410 -2.940776 1.105634 1.261217 -2.369132 -0.004504 -1.296916 0.470539 -0.128480 0.112988 1.349541 0.803609 -0.280370 4.771091 0.211983 1.399951 1.043916 -0.407465 1.114441 0.098938 -0.318960 -2.243327 -2.649771 -0.583053 2.936360 2.327779 0.428197 0.267696 0.354815 -0.974134 -0.945848 -1.681398 0.619006 -0.661426 -0.017933 1.697335 -3.556510 2.135858 0.599563 
机车 0.729231 1.830034 0.320667 1.531945 -0.113022 1.130766 -1.577103 -1.906652 2.074257 3.997552 0.440400 2.908553 -1.291787 1.257847 4.447887 4.717038 1.139017 -1.023020 1.539723 0.559748 1.726274 -1.810642 -2.663563 -1.368389 -0.026075 -2.219269 0.002700 -2.856559 -0.265121 3.610824 -0.404370 1.273005 0.139467 0.464869 2.274112 0.404384 2.589531 0.301210 1.039105 1.536853 0.167167 4.276302 3.071066 -2.062243 -1.592788 0.455573 -3.110217 -2.802861 -2.863297 -3.735829 
歌手 1.549853 -0.922082 -1.684205 1.554522 -1.062922 -0.804324 0.719413 1.713381 0.525982 0.421299 2.078495 -1.653570 -1.983369 -0.309407 3.130763 -0.942905 0.082936 -0.696635 -0.224817 -3.650971 1.856258 -1.253635 -0.588366 2.099449 5.129900 0.347785 0.830979 1.815668 -0.216630 0.240688 -0.336977 -0.908313 -1.137608 -1.273068 0.647567 -0.182959 -1.902922 -0.428404 0.388521 2.798916 -0.316222 -5.443742 -1.245990 -0.873511 -0.508755 -1.224054 -0.073212 -1.807933 3.143139 0.842126 
电脑 1.102259 0.942172 -0.158082 2.394454 1.116269 1.106674 0.890378 -2.320995 -1.221149 0.630666 0.780793 -0.937512 -0.551433 1.555387 1.185313 0.083618 -0.742875 2.032412 -0.607758 -1.716308 -0.708484 -4.967897 -2.313068 -1.138340 -0.412732 2.558172 -2.821023 2.180058 1.751856 3.281491 0.516005 -1.641926 0.989204 -1.781795 -2.158134 -2.224620 1.434668 -1.260316 -0.530310 -1.134925 -3.514468 1.288525 -0.671428 0.173497 -1.671787 0.625086 2.286156 0.971705 0.655440 1.153551 
空间 0.706366 1.315800 -2.048197 -0.557916 0.845295 1.729764 3.237777 1.499438 -0.478951 1.574484 -0.067562 0.895070 1.449086 -0.525683 1.670503 -1.070385 2.990198 0.669649 -2.397151 1.694587 -0.432284 -1.538804 1.599095 -1.124849 -0.641204 -0.940113 -3.040346 0.223370 1.335390 3.047634 1.762903 1.632650 -0.265183 -1.003548 0.349014 -0.461142 0.157071 1.093099 -0.291577 -0.918274 -0.764671 1.458475 1.412109 2.384634 0.862991 1.715390 -0.179233 1.933198 -2.272432 0.267760 
法律 -1.180093 -0.759955 1.486030 1.703856 -3.091413 -1.479163 -1.752349 -1.083908 0.667785 4.216879 -0.763092 -1.826369 1.022335 0.976107 -2.727238 2.568385 1.338294 -0.920647 -0.300917 -1.130383 -0.940055 1.777964 4.227494 1.547962 -2.145998 -0.452417 1.784089 -0.293010 1.481674 1.925689 -3.017115 -1.333908 1.315587 -1.048060 -4.570285 -1.228744 0.859835 3.018998 -1.190819 0.090836 0.379991 -1.150264 0.121132 1.044290 1.967385 1.702439 0.069743 0.809933 1.016084 -0.736851 
市 -0.498697 -1.357713 1.398753 -0.792117 1.423627 0.021223 1.054197 -0.736059 1.805046 -0.193168 2.711289 -1.681179 0.901309 2.779122 1.398508 2.640498 1.266921 -0.702340 0.460922 -0.248088 0.706914 1.461856 2.138530 -2.292176 0.729176 -0.811281 1.830306 -0.678941 0.119833 -3.153649 -1.030942 0.784408 -1.756341 0.646825 1.530729 1.140178 2.435553 -1.510028 -3.380723 0.509678 -0.418614 -0.074543 -0.607984 -0.706592 -0.664367 0.992150 1.868746 1.803512 -1.487688 1.312299 
密度 0.940507 -0.535017 -1.173525 -2.867272 1.674827 -0.587231 1.202765 -3.261060 -5.250320 0.853242 0.237686 -1.754660 -0.252869 -0.942006 0.844613 -5.162781 3.219878 1.981440 -2.368528 2.737546 0.998792 -0.040127 0.236492 -0.456171 0.309554 -2.692064 0.983812 -0.782348 -0.566735 1.338639 1.852243 0.390652 -4.004852 -0.590550 1.158881 -2.618402 1.635273 1.193339 -2.876906 2.561036 -3.693761 -1.419058 1.349915 -3.697097 2.558702 2.007762 0.436846 -0.972159 -3.728859 -1.524131 
车 1.713176 0.482717 -0.090004 -0.118222 -1.774427 0.844099 -1.261211 -1.313659 0.603615 -0.231634 2.955493 2.538084 0.259246 0.000531 1.775570 0.075932 1.573659 1.231054 2.006114 -0.802333 1.229526 0.054914 -0.181019 -1.490317 2.457859 0.364468 -2.115158 -1.903837 2.015270 1.355511 0.557762 2.782201 1.204711 -0.801192 1.639213 2.290188 2.605329 -0.033596 3.136595 -0.790913 -2.682058 1.147739 2.063994 -1.843208 -1.622229 1.077517 -1.429131 -0.841008 -1.472844 -2.058084 
道 1.241322 -4.107025 0.757981 -0.290300 0.291711 -1.773101 0.009683 -0.371089 1.928475 0.826368 1.408844 -0.260612 1.869954 0.936452 1.392408 0.962329 -0.881203 1.212350 -1.752419 -0.084640 -1.250341 -0.337307 0.570315 -0.542920 -1.810203 -0.481245 0.412461 -1.300071 -0.132813 0.145456 1.416999 0.014333 -0.209109 1.555526 0.249273 3.086926 1.173964 -1.470788 1.564210 -1.671669 -0.514638 -1.189334 0.205703 -0.799638 -1.537105 -0.408763 1.219300 2.471968 -0.497206 -2.047386 
单曲 2.368559 0.653431 -1.300328 2.794140 3.264514 0.958466 1.303016 0.017935 2.263870 -1.512192 0.848124 -3.313727 -0.147441 -1.315427 1.988413 -1.998336 0.980088 -2.936504 -1.298288 -2.843479 0.144635 -2.763100 -1.326396 1.256282 4.325887 -0.493732 1.638198 0.426442 1.080057 0.532442 -1.288639 1.979565 0.164263 -0.340238 -0.926843 0.146838 -0.644218 0.639449 1.362809 4.237493 0.088420 -2.285303 -1.464715 -0.014350 -1.927819 -0.783968 -1.695723 0.541588 4.258607 0.339090 
协会 -2.103534 1.147505 -1.435837 2.757592 -1.539950 -0.578971 0.212842 -0.607356 -0.751469 0.661678 -1.595800 -3.395820 -4.470788 2.528291 -2.182855 0.212982 2.240008 -0.180249 1.806928 1.532288 -1.259533 2.826112 -0.646699 1.160123 2.208554 0.736574 1.082950 2.897863 -1.263856 1.074451 -1.426585 -1.011022 0.353307 0.014794 -1.916004 1.048652 2.754131 -1.852559 -0.409478 -2.093287 -0.659288 -1.302306 -1.014352 1.158189 1.092257 -2.279695 -0.879595 -3.522511 -0.081730 0.400336 
产品 -1.073032 0.900632 -1.068845 1.817128 -0.203100 2.407987 -1.525246 -4.044268 -0.326734 1.084084 -0.296056 -0.492070 -0.505735 -0.309999 1.791992 0.678367 2.925871 0.715556 -1.115359 -4.936546 -1.705305 -2.678930 -3.520760 -2.328362 0.121806 1.079338 1.172036 0.370908 1.676433 0.774915 0.921700 -0.446157 1.309983 -0.832755 -0.819857 -2.150956 3.515406 1.190789 -0.273436 -2.046023 -1.196070 1.211284 -1.445927 -0.664138 -1.349388 0.611586 0.642154 -1.600799 -2.110416 0.974026 
村 1.861317 -1.390196 0.750574 -1.143471 0.247538 -1.057133 1.738337 -0.289902 0.258870 -1.713797 2.177999 -2.539590 -0.855650 1.012821 0.100023 1.688636 -1.141353 0.042770 1.179143 0.843930 0.219993 -0.506784 1.581363 0.228485 0.705389 -0.366669 0.991400 1.166791 -2.153601 -2.717250 1.415250 0.311512 0.317874 -0.538480 1.208351 1.413953 -0.085137 -0.606622 -1.171349 1.123292 0.165104 -0.935625 0.068571 -0.495610 0.701793 -0.802860 -0.346439 1.813320 -2.376929 0.416028 
公园 -0.402881 0.617824 0.202491 1.841185 2.990901 -0.808040 0.698979 1.075912 3.391449 -1.951974 1.122908 -1.461495 -0.633277 0.205924 -0.560562 2.244036 4.154848 0.140111 2.120201 1.187695 0.361375 0.856411 0.514289 -1.649356 0.327719 -3.098605 -2.037710 -1.194279 -1.048238 -0.573744 0.476555 -0.150013 2.068442 -0.138829 1.934191 3.016695 -0.806395 -2.512096 0.410976 -1.989466 1.657037 -0.366418 -1.748329 1.715038 1.478375 0.692589 1.027376 -0.823077 -2.213228 -0.170715 
皇帝 -0.856448 -1.561661 -0.808855 -1.038786 -2.733994 -2.594598 -2.198448 0.476168 1.217260 -0.312742 -0.868478 0.892033 3.199438 -2.423644 0.472395 0.794438 -4.000110 -2.447970 -2.638598 -0.069986 -1.278538 1.420226 -0.058739 2.742885 -0.625865 0.382596 -1.430308 -3.739586 0.811563 -1.413862 -0.585231 2.539502 -1.249732 0.772036 -2.116972 1.488523 -0.786300 0.899805 -1.094814 0.130654 -0.217178 0.406651 -0.614852 1.104843 1.785168 0.575933 1.247226 0.898586 -1.133542 -0.252477 
主席 -4.573849 0.185239 -1.176426 0.864807 -0.380301 -1.048268 -1.488351 -0.348122 -0.202500 1.614697 0.324517 0.095173 -2.782406 2.324712 -2.577403 2.186553 1.852036 -1.406861 1.199632 1.756565 -0.806533 1.712151 -0.530899 0.778981 1.905635 3.343323 0.957898 0.509018 1.070913 -0.633469 -3.223001 -0.351645 -0.599939 3.293624 -3.678249 2.742067 -0.280707 -2.083326 -0.930903 2.264554 0.635012 -0.172624 -1.417270 -0.912484 -0.718160 -1.281147 0.655738 -3.078430 -1.828635 -0.105947 
官方 0.124798 -0.118688 -1.234422 0.363151 0.140625 1.626948 -3.314705 -0.895868 1.287207 -1.731168 -1.453233 -2.770430 0.800083 2.982035 -1.083119 0.859665 -0.305911 0.429491 -0.141783 -0.360634 -0.391046 -0.016455 2.297247 0.647633 0.840505 2.336636 1.362085 0.003567 0.688129 -1.413863 0.279466 0.687368 0.899330 -0.124645 -1.145275 -1.626338 -0.565447 -0.920827 -0.610391 0.539800 -2.936130 -0.285301 -1.150778 4.058732 0.464181 -2.169034 1.399676 -1.857561 2.124893 -0.082799 
作用 -0.667150 0.071362 -0.578473 -2.279073 -0.040885 0.281855 -1.628624 0.397833 -1.802378 1.983450 -1.934907 1.521428 1.029449 -0.375863 -0.262779 -1.548756 3.206982 -0.038205 -1.389763 0.344520 0.616435 -1.590719 -1.038171 -0.773325 -3.042148 -1.864053 0.059089 0.025665 -1.962226 -0.016804 0.293888 0.171147 -0.171390 0.979625 -2.102209 0.458417 0.515701 0.484969 0.642099 1.458484 1.252855 -0.400301 1.512835 -0.027069 -0.334654 1.332971 -0.547675 0.656428 -1.057526 0.707843 
轨道 -0.775673 0.356301 -0.604022 -4.153363 1.511034 -0.234414 1.687714 -2.015995 0.095218 3.894157 -0.738886 1.221032 1.211936 -0.315342 2.361503 -0.779769 3.132168 1.396736 0.612096 2.839219 -0.573991 -1.002790 0.476991 -3.729936 -0.127457 0.273672 -3.222960 -2.937925 1.779202 0.065760 2.769849 -1.266077 -2.506213 -1.384043 1.027926 -0.783033 1.793702 0.453574 2.481868 2.509785 0.405186 1.965899 -0.500798 1.392494 -1.446164 2.318195 -0.048804 -1.714096 -0.069773 -2.894386 
企业 -3.187595 -0.097604 0.297453 0.868549 -1.204534 3.816802 0.142669 -2.239805 -0.741023 -0.075118 0.250459 -0.593796 -1.150927 1.548074 1.802112 3.483302 2.588306 -0.168581 -0.352955 -1.516740 -0.486228 0.514977 -0.714949 -1.627738 -1.428408 3.046571 2.831342 0.728000 1.070104 1.710885 -1.248653 -2.102434 -1.609494 -0.421886 1.042996 -0.014620 2.883312 3.625614 0.695019 -2.059530 -0.949467 1.741475 -2.530636 -0.711293 0.605397 2.339125 -0.686370 -0.764647 -0.584853 1.986370 
事 -0.244740 -0.488199 0.569713 -1.369242 -1.968031 0.826070 0.228521 0.916824 0.649970 -2.280185 2.439167 -0.174427 -0.373762 -1.712841 -1.207169 -0.792394 -3.611191 1.203509 -1.075469 -0.946069 -0.689865 0.050850 1.545006 1.918185 -1.425595 1.200593 0.520358 0.238386 -0.005182 1.354729 -1.063859 1.064689 1.237359 0.452399 -2.045458 2.191997 -1.755368 0.700718 -0.932218 0.982667 -0.253577 0.752505 0.820520 -0.220006 -0.047165 0.832534 0.094349 1.260695 -0.188292 -2.282925 
科学 -0.977963 0.883040 1.125622 0.805274 -0.812743 -0.313984 -0.057827 0.018814 -2.342108 2.436652 -3.163840 0.802609 -0.952394 1.658002 -1.244665 -1.758854 1.118070 0.256409 -1.407210 3.349714 -3.825604 -1.254867 -0.938540 -1.221124 -0.062704 0.637769 0.142807 1.232959 -0.931433 5.449502 -1.933701 -3.480315 1.227258 -0.071315 0.141162 -0.026793 0.814129 -0.405592 -1.197633 -1.212408 2.847569 0.551508 -2.014809 2.097958 -0.426603 2.112925 1.622260 0.068968 -0.080821 -0.067584 
政策 -0.001232 -1.863722 0.177023 -1.854140 -1.245863 1.801150 -2.697917 -0.278255 -1.014510 3.170883 2.165366 1.030960 -1.417876 0.835430 -1.039028 3.608709 1.882894 -0.771370 -1.734857 0.016583 -1.755429 1.176853 1.485921 0.194559 -1.722932 2.034446 2.198017 0.277709 -0.746918 -2.350625 -2.973265 -0.938773 -1.171992 -0.202376 -3.777674 -0.619432 1.151645 2.131543 0.160003 -0.117039 3.097882 2.015491 -0.390327 1.947256 2.945588 1.250481 1.527635 -1.072542 -0.358024 -0.322765 
宗教 0.677909 -3.158360 1.505149 1.089384 -4.374316 0.289903 -1.310527 2.836134 1.359669 1.626211 -3.054844 -1.241360 -0.656334 -0.170396 -0.498082 0.023631 2.055980 0.238341 -3.613072 0.831153 -0.745701 2.355608 0.764338 3.114357 -3.072614 1.353266 -0.616741 -0.901314 -1.772910 0.384662 -1.056872 -1.011349 0.708779 1.536880 -0.683405 -1.988640 0.977824 1.910075 -2.241503 -0.030682 2.181208 -2.839951 -0.625739 2.949801 2.926481 -0.209618 2.988871 2.378251 1.180943 -1.624342 
导演 1.659062 -0.029226 -1.323595 1.295730 0.167306 0.559833 -0.119995 -0.350030 2.357253 0.820622 -0.488617 0.469296 -0.851981 -0.184278 -1.397481 -1.676397 0.348613 1.836769 3.078427 -1.221578 -0.317473 -1.508645 1.281128 3.973613 1.726296 2.091857 -0.483863 3.332767 0.218883 0.154863 1.068481 -1.022784 -0.605722 -0.367944 1.811254 1.065964 -1.305872 -1.197417 -1.792848 0.441700 1.786262 0.211547 -1.043398 -5.475976 2.398289 -0.969385 -0.101190 -0.707260 0.983250 1.654615 
状态 -0.420433 -0.219591 0.365648 -1.984964 1.889282 2.032767 -0.071079 -1.182652 -2.702116 1.025976 -0.958761 2.440315 1.348485 -1.561404 0.537090 -0.105262 -0.078393 0.222514 -0.904282 0.346444 1.873436 -1.580066 1.323303 1.008488 -3.256804 -0.837199 -1.686007 -0.496068 0.658655 1.402442 -0.098613 1.524109 0.177646 0.988078 -1.116083 0.254616 -0.015049 -0.505554 0.164873 0.656915 -0.816665 -0.302048 1.891614 1.151498 0.433745 1.662874 -1.347929 0.830654 -0.167051 -0.160085 
赛事 -1.288597 0.980699 1.062136 -0.056471 1.735376 0.350205 -0.939191 -1.465266 1.589011 0.368353 -1.752303 1.711383 -3.329865 1.783080 0.832500 -0.971836 1.899975 0.221779 1.779093 -2.010057 1.467489 2.527793 1.155423 1.099564 2.027214 -0.693313 -2.613173 1.366001 0.716026 0.456260 -0.583369 5.762030 -0.529883 2.351369 -1.204466 2.831517 1.348444 -0.860544 1.881444 -2.932537 -0.431136 -0.211796 -1.736511 1.885504 -1.588640 -2.343239 -0.131930 -0.501274 1.546337 -1.045207 
地位 -0.534811 -1.914668 -0.496787 -0.050164 -2.798806 0.127224 -0.597669 0.270338 0.089190 2.028099 -0.819351 0.003117 1.365384 0.455873 1.090565 1.014677 0.079318 -1.707902 -1.546084 -1.852905 0.447580 1.637760 0.082006 2.207613 -0.466129 1.122107 0.583920 -1.143639 -2.033024 -0.489781 -2.834119 0.149651 -2.239224 -0.146479 -2.401828 -0.719290 0.374496 1.905583 0.378126 -0.509472 1.719675 -0.489468 -1.546313 0.795472 0.815723 -0.134155 1.744360 -0.060048 -0.330106 0.469070 
部份 2.283344 -0.413507 -1.248424 0.675903 0.450562 0.007495 -1.298828 -0.495678 0.734625 -0.416887 0.145071 0.446855 1.080204 0.559190 -0.078737 1.963097 2.531378 1.371502 -1.157176 0.695274 -0.019448 -1.170813 0.590935 -0.052712 0.012908 -1.691409 0.206236 -1.284167 0.207161 -0.943852 0.916994 1.042498 0.902359 -0.044849 0.369280 -1.252515 -0.046984 0.058747 0.207330 0.026983 0.036056 0.450793 1.309402 1.092549 1.477853 -0.103871 -0.122229 0.074899 1.342673 1.019414 
人们 0.322131 -0.891718 0.757363 -1.715692 -1.485675 2.110697 -0.769183 1.601240 1.315051 -0.391330 -1.287119 -0.040578 -1.040818 -1.424111 0.125316 -2.877567 1.142730 1.305070 -1.191616 -0.881075 -0.105533 -0.981316 -0.137823 0.089048 -3.472359 0.656687 -0.742710 -1.284278 -0.993717 1.275669 -1.788861 0.231022 1.842598 -1.418945 -0.422289 -0.936251 -0.447388 -0.413239 -0.873178 -0.064208 1.843234 -1.676417 0.552437 1.678703 0.607810 1.667767 0.771164 0.663769 -1.682968 -0.568856 
全球 -1.275288 -0.001095 -2.421196 1.534608 1.006384 0.934617 0.062958 -1.531856 -3.049459 -0.210695 -1.203699 -1.492999 -1.707755 1.678078 0.327152 -0.337704 3.723125 0.172734 -0.126301 -3.476130 -1.301154 -0.954303 -0.802551 0.258495 1.021383 0.898781 0.006954 0.727616 -1.308927 0.221020 -2.430306 -1.131561 -1.410367 -1.353521 0.574748 -1.644738 1.813975 0.146611 1.403522 -1.255245 -0.620360 0.487947 -3.539663 1.913513 0.854254 2.581177 1.393762 -1.925983 1.592909 -0.215627 
数据 -0.276769 2.922916 -0.118787 -0.217218 1.937113 2.717043 0.603343 -2.411572 -2.056823 1.244704 -1.897827 -1.583482 -0.636870 2.976860 -0.383105 -1.861316 -0.576540 0.706140 0.190985 0.140548 0.837931 -1.633637 0.322780 -3.449054 -2.422685 -0.821150 0.509541 0.673213 2.053299 3.140284 0.018476 1.269628 -4.488967 -0.490324 -0.442154 -2.388474 1.218268 0.143497 -1.034068 1.479547 -0.725347 0.544273 -0.762090 2.038949 -0.364575 0.902487 1.217994 0.807087 0.804193 -1.434165 
龙 2.620560 -1.148352 -1.961989 -0.107962 0.151096 0.445864 0.918418 -0.911262 0.117600 -3.203597 -1.398843 0.946828 0.431828 -2.677527 1.119812 0.489739 -2.605202 0.755162 0.809399 0.431106 -1.411032 1.629944 2.491657 -0.539656 -0.468524 -0.524525 -1.916896 -0.810904 -2.207465 -0.272078 0.108754 0.441721 0.101726 -0.141808 0.017878 -0.150692 -0.566356 -2.383156 0.405804 -0.412175 -0.260537 1.011280 -0.595991 -2.586528 -0.859317 0.586682 -1.843824 1.417379 1.196334 1.632846 
城 0.075327 -0.829715 -0.110312 -1.441633 -0.446088 -2.007890 1.394301 2.679169 1.234420 -2.696083 2.487189 0.199959 1.015209 -2.103522 -0.396838 0.996576 -0.586511 -0.518308 0.694090 -0.330144 -0.510619 -0.522743 -0.454712 0.091176 -0.865771 -0.350683 -0.895122 -1.411533 -1.742092 -2.572529 -0.120750 3.267395 -2.550214 -1.517731 1.563947 2.846768 1.296880 0.525041 -1.182567 -1.698819 -0.713231 -0.096891 -1.628077 -0.391817 -0.267925 0.311904 2.750077 -0.449189 -0.410542 -0.098683 
手 2.515851 0.838181 0.573014 -0.136617 0.489267 -1.752096 0.251647 0.456206 0.152581 -1.896779 1.379956 1.308026 -0.619647 -3.124043 0.929342 -0.320378 -1.432725 0.358576 -0.840546 -1.237399 -0.440476 -0.338866 -0.100000 1.301995 -1.464407 0.920575 -0.923913 0.638615 -0.072544 0.355074 0.578208 1.495483 0.236321 -0.360091 -2.281181 -0.170674 0.289580 -1.302302 1.932863 0.348778 -2.196137 -1.294747 2.668336 -1.537276 -0.404829 -2.348118 -0.570793 0.011559 -0.463741 0.436042 
项目 -1.795817 0.402505 1.388546 -0.006428 1.597554 0.934920 -2.092115 -0.344375 0.105999 0.640278 -0.040430 -1.803477 -2.736351 1.666445 1.520701 0.255951 2.797908 1.341588 1.571537 -0.326125 -1.908786 1.564006 2.013656 0.147564 0.306928 -0.469851 -0.754051 2.056583 1.079083 3.161010 2.032315 0.619206 -0.818607 -0.820113 -0.368085 -2.454520 1.225518 1.262370 0.493167 -1.147732 1.227065 2.418458 -3.122004 1.631353 -2.650477 0.152452 0.275265 -1.717843 -1.700520 0.305892 
议会 -3.303046 -2.164037 -0.638958 0.501825 0.361202 0.817657 -0.023015 1.678488 -0.257060 3.086153 2.122934 -2.209138 -0.357160 2.487414 -0.447430 1.930658 2.268320 -4.110616 1.857603 1.575170 -0.201278 4.294600 2.026854 -0.614533 -0.601955 0.294403 -0.590415 -2.992216 2.167611 -2.718179 -2.847295 0.957280 0.077245 1.799465 -3.792068 0.596595 0.652541 0.176480 -1.344925 3.157438 -0.022253 0.125047 -0.479414 2.720997 2.053208 -0.358462 1.474352 2.133036 -1.151403 1.623274 
道路 0.006069 -2.360822 -0.077476 0.252856 0.983665 -0.808612 -0.258268 1.328488 1.198376 2.491256 1.936418 -1.506379 0.968238 0.147866 1.528622 1.469719 1.782006 1.002568 -0.151018 1.829188 -0.392368 -0.239492 1.138498 -2.224239 -2.398844 -0.540448 -0.559242 -1.920296 0.848439 -1.118470 0.573290 1.831962 1.247424 -0.159947 1.733662 2.561697 2.207817 0.648988 1.860602 -1.673018 2.519452 -1.107352 1.070065 0.137518 -0.566482 0.364687 1.903375 -0.365504 -0.038984 -2.419254 
生涯 0.215908 2.348312 0.897990 0.465770 0.209587 -1.388545 -0.023970 -0.481900 0.912081 2.520835 0.111192 -0.146806 -2.545937 0.866460 -0.249223 -2.668826 -2.153524 -0.811355 1.397393 0.495494 2.265493 0.907949 -0.896847 4.396884 -1.381510 0.222560 0.045599 2.305208 0.519667 0.395283 0.306981 0.004595 -2.365573 -0.824564 -0.936218 2.771812 -0.930876 0.011426 3.222960 -0.687100 1.246973 -2.725135 -1.389391 -0.158883 -1.269567 -0.354597 0.699409 0.012463 2.800866 2.658254 
民族 2.758512 0.425602 1.218091 -1.273088 -2.342292 -0.249751 -1.653886 0.758586 -1.142823 0.912560 -0.469904 0.174181 0.937656 -0.062935 -0.742739 2.888725 2.640591 -3.063895 -2.939033 0.772023 0.188387 1.367925 1.696580 1.448910 -1.335191 2.441454 1.093540 -2.202692 -4.006274 -1.115438 -1.684272 -0.862611 0.149575 2.601183 -0.926644 -3.616027 -1.085968 -1.113497 -2.819102 -0.181040 2.562407 -2.548065 -1.218920 1.754540 1.751806 -1.488084 2.483557 -0.465535 -1.202852 -2.230973 
总面积 2.527035 0.626119 -1.663436 -2.595000 4.730077 -3.552246 0.258917 0.281068 -2.042628 -0.438753 1.453255 -6.750257 1.382717 -2.785494 3.648889 -0.409670 2.281755 2.314047 -0.576204 0.198430 -0.340334 2.692096 1.063728 0.156570 -0.158644 -2.486956 2.197469 -0.194421 0.412527 1.294522 -0.436392 -3.442625 -3.724487 0.941349 2.587177 0.308675 0.204953 -0.625294 -3.829591 0.744253 0.072899 -1.682212 -1.034642 -3.128211 1.646261 -0.201469 6.799953 -0.048416 -3.080416 -0.765310 
行政 -2.321468 -0.577867 0.516871 1.115452 -0.255623 -1.090661 -0.606761 1.518667 0.584648 3.660236 0.088817 -1.886918 1.006057 3.189694 -0.145268 6.405618 2.088337 1.467406 -1.294353 2.585943 -1.298602 1.258668 1.536789 -1.599688 1.282490 -0.429205 2.474508 -1.127099 -1.170778 -0.951105 -2.946741 0.486709 -3.083220 0.452358 -3.152700 2.005526 0.193276 0.928478 -3.581801 1.861346 -2.391186 0.719805 -1.321412 0.341310 1.012398 2.537242 1.808269 2.103852 -1.031360 1.590717 
成绩 1.230235 2.129907 1.460450 0.936999 2.211287 -0.450055 0.976049 -1.506412 -0.899266 0.170605 1.149381 1.842587 -3.102266 1.356793 1.423273 -1.344787 -2.334497 -2.112212 0.065989 -1.075365 0.745482 1.526802 1.550008 2.659963 1.943012 0.183110 0.376767 1.805077 0.963229 2.240648 0.012124 2.966062 -0.007753 0.847584 -1.692273 0.354383 -0.124827 -0.206312 0.374306 -0.774874 1.122451 -0.154091 -1.612397 0.556861 -2.592072 2.665727 0.221941 -2.199022 2.571020 0.142531 
天皇 0.263224 -1.419864 1.981017 -0.868855 -2.459671 -1.102839 -1.454267 0.938244 1.233769 -1.747493 -1.138555 0.135622 2.046572 -0.712197 2.436383 1.200307 -3.181628 -1.606130 -0.481057 -1.179722 -1.098086 0.021977 0.997880 0.028568 1.613554 -0.120899 -1.232812 0.173675 -1.289698 -1.718522 -0.414994 0.316190 0.647874 0.067857 -3.156647 3.779747 1.228346 2.441615 1.535897 3.556987 2.356769 -0.559400 -1.833446 2.098834 2.631114 -1.370792 0.483334 3.360549 -1.477553 -2.741954 
汽车 -0.930292 1.032125 -0.758120 0.624881 -1.967812 1.809396 -0.707987 -1.248794 0.929368 0.194123 1.978060 -1.051556 -0.695033 1.237319 2.813998 0.313622 2.473169 0.676447 2.260129 -1.318435 -0.288330 0.005207 -1.076688 -2.245887 0.191526 1.432985 -1.864785 -0.274909 1.359234 0.739698 -2.702664 0.942374 1.375374 -0.271846 1.422558 0.412505 4.477271 1.952793 3.113419 -2.538181 -2.430610 -0.567180 -0.060957 -2.823828 -0.931466 1.488088 -0.309266 -3.758795 -1.137894 -1.274236 
