6043 50
月 0.460706 0.804167 0.486310 0.410290 -0.221717 -0.730424 1.177700 0.211742 -1.699247 0.897807 -1.529950 -0.290822 0.331664 -0.425196 1.865462 -0.565206 2.536278 -1.628102 -0.475778 0.341035 0.717312 -1.726723 0.201399 1.033841 -0.186027 -2.526949 -0.470569 0.335980 -0.427645 1.524028 0.637052 0.634475 0.440539 -1.990842 -0.385541 0.309646 -0.830891 1.129817 0.405047 -0.645143 -1.880096 0.302605 0.780254 -0.545767 0.064543 0.873475 1.595477 0.952505 0.437658 0.993415 
世界 0.074822 -0.857524 -0.996440 1.811114 -0.799208 -1.769660 0.402512 -1.515785 -1.359010 -1.470026 1.634055 -0.015783 0.436522 3.041382 -1.704194 1.665792 0.044810 -1.317214 -3.565060 2.490401 -0.002328 1.472633 -0.908877 -0.347888 -1.808898 0.291286 0.994763 2.281367 0.841449 2.099417 -3.175107 1.214180 5.382209 -1.121699 0.843763 -0.883222 3.009269 1.194725 -0.402327 -0.603310 -2.246013 1.102437 -3.364075 1.612898 -2.685302 0.152038 -1.767469 -2.174294 -1.647956 -2.147520 
時代 1.010527 -1.365865 2.930011 2.152361 -0.166694 1.211167 2.061740 0.890646 -1.883038 -1.110149 -1.039710 -0.167349 1.087329 2.427054 -0.757570 1.890151 0.869079 0.713588 1.443434 0.153991 -3.350639 2.133605 -2.459698 -1.566563 -1.011726 0.161297 0.660559 1.473683 0.271537 -4.073263 1.419793 1.522850 1.524665 1.245507 0.975285 0.284978 0.183487 0.769191 1.036913 0.202646 0.478755 -0.783068 0.565514 0.801908 -1.798287 2.930529 -1.567674 -0.774726 -1.231694 2.061311 
作品 -4.588095 0.746908 2.559381 2.540826 2.294243 -0.337370 -1.869931 1.032697 2.351285 0.191021 -1.443894 2.780159 3.204321 1.798061 2.019555 1.175189 0.470509 -2.650982 -0.839139 -1.823528 -0.475052 -0.455046 1.486504 1.452740 0.881757 -0.644034 2.563252 2.844729 1.881323 -1.133432 -2.564990 0.460625 1.578320 1.031893 1.316830 0.063688 2.346709 2.386558 -1.880277 0.816733 -0.579205 -2.049970 -1.086042 4.038847 0.214500 -4.025153 -0.711238 -1.038927 -0.687372 3.590430 
大学 2.094072 -2.842304 -1.319859 0.759827 -0.636170 -3.625918 3.140610 -0.494658 -0.201506 -3.068191 1.150766 -0.890844 0.003011 0.023067 -2.441155 3.618952 1.372915 -3.688791 2.390998 1.572976 -0.237078 0.528095 2.157480 0.071403 -0.436799 2.091682 0.393245 -1.527785 -2.145581 0.992013 5.234034 1.615550 1.965352 0.896969 2.103534 -1.335057 2.103383 2.406785 6.655110 -0.370042 -0.598337 -0.753473 0.989741 1.234672 -0.664429 0.003512 1.428242 -1.386797 -2.750306 0.565287 
映画 -4.137505 2.041974 -0.468213 1.453346 0.690673 -0.800940 0.401204 0.098552 -0.082173 0.935826 -1.290865 1.354808 2.391031 -0.068958 2.106628 1.336151 -0.288448 -3.217386 -2.157826 -1.379122 -0.989546 0.757700 3.671976 2.197533 -1.424331 0.222225 2.918158 2.886078 0.488485 1.431619 -1.970439 1.144965 0.658660 2.449664 -0.834112 3.132107 0.046488 4.657276 -0.395613 -1.291068 -0.429867 -2.938807 -2.816007 4.013577 0.099254 -2.521374 2.468765 -1.917373 0.429960 2.813485 
地域 0.695100 2.136055 0.244352 1.544631 0.431222 0.170248 0.278554 1.156938 -0.821095 -2.046262 0.579392 -1.172849 -1.759147 -2.192457 -3.494493 4.896758 2.044687 -0.301747 -0.836471 0.656793 0.484112 1.430148 -1.792368 -2.708769 -2.321744 1.429547 1.264697 -1.329477 0.493571 0.679572 -1.218670 -0.743357 1.033522 -1.149773 0.510204 -0.099586 -4.580305 2.244341 0.786914 1.295400 1.110980 0.894891 1.291170 0.240243 0.277578 2.954691 -0.633113 -1.404084 -2.394308 -4.969728 
都市 -0.275855 0.665634 2.328017 2.050769 -0.719900 -3.278309 -1.000047 1.121035 -2.795885 -0.926529 -0.639086 0.515270 -0.541472 0.051570 -5.061834 4.711954 1.068561 0.373670 -1.165561 0.490861 0.140298 1.462915 -0.091096 0.797411 -2.857666 -0.603687 -2.127950 -2.691546 -1.155527 1.125423 -0.752318 0.518958 0.404935 1.979618 -0.472731 -0.389537 -4.482975 1.985980 1.746826 2.679926 -0.853136 2.513273 -1.981949 0.799566 0.860327 1.783646 -2.746861 -2.001686 -3.490340 -3.410316 
学校 0.425943 -0.872708 0.704779 -0.326742 -3.128707 1.587524 1.848246 2.255680 -1.930858 -2.906623 1.534677 0.032778 0.259137 0.787929 -5.023333 1.311245 1.326358 -4.293329 1.833584 0.767927 1.308534 -1.039336 0.438286 -0.715665 -0.012930 2.614847 -0.742142 -0.730759 -1.674850 -0.082279 5.726076 0.488124 -1.785929 -0.117417 0.478076 -1.005812 2.332810 3.162460 3.121643 -1.582319 1.685113 -1.303868 0.029074 1.767840 -1.821785 -1.903145 4.335975 -1.786141 -1.394689 0.034377 
シリーズ -0.260734 1.363082 3.466247 2.844852 0.901622 0.839859 -1.323855 0.225158 0.266530 1.424644 1.221475 -0.776608 2.711856 -0.524087 2.905243 -1.053848 2.056667 -2.067270 1.013830 -1.711577 -0.795465 -0.557274 1.515762 2.265607 2.283541 1.536306 1.497386 0.706938 1.016064 0.558115 -2.973406 -1.097083 1.852402 -0.454282 0.033557 0.133791 2.704967 1.426323 -2.360075 0.248967 -3.905678 -1.818386 -2.673656 1.362230 0.724795 -2.332267 -1.848440 -2.739438 0.776074 2.636029 
選手 1.481947 -1.623287 2.446410 1.068740 0.842219 -1.116941 3.747900 -1.157795 0.181013 3.320585 0.084483 -1.597527 -0.681354 1.482225 -0.711745 -0.398324 2.526935 -1.080042 2.740027 4.223109 2.378231 0.874184 2.125429 -0.886922 0.477382 -0.718831 3.892650 0.003802 -3.812703 -2.630903 2.231144 -0.818563 2.404726 0.521084 -1.953977 -0.461829 -0.840288 -1.461085 2.333372 -0.728314 0.079453 -4.096328 -1.273639 3.253448 1.198604 0.120020 -1.385671 -2.040175 7.012984 -2.469458 
世紀 0.560889 -0.405387 0.992104 0.873063 -0.163221 -0.909452 0.713058 4.071636 -1.399759 -3.214276 -1.970594 1.911111 0.869587 2.438676 -2.406682 4.772411 -0.185676 1.797171 -0.510220 0.851614 -2.598839 3.178795 -2.168380 -0.792975 -2.285622 -1.574590 -1.005945 1.988082 0.921465 -1.080738 -1.674118 -1.573343 2.418787 1.478220 2.224087 1.286922 -1.019161 3.811520 -0.250002 0.584382 1.244649 -0.047329 2.442281 1.397047 1.244144 2.079087 -4.848767 -1.404162 -2.109987 0.937749 
テレビ 0.812135 4.303304 1.706556 1.376501 1.707490 2.294329 1.153613 2.992020 0.360223 1.495770 -1.262650 0.248965 2.375755 -1.665709 2.065971 0.288161 2.363926 -3.855829 -1.462241 -0.229047 0.778262 -0.858144 2.539472 2.321067 -1.914539 0.018961 1.727460 -0.286295 -0.463054 1.798537 -3.713384 0.163529 0.628172 0.096237 -1.174672 1.297929 1.606676 1.780892 -0.912184 2.314990 -0.528279 -0.579309 -0.799730 -0.038435 -0.671515 -0.319808 3.691741 -1.935838 1.057600 3.834680 
他 -0.566423 0.148724 -0.054927 -0.301509 0.334059 0.675129 0.177634 0.187463 0.745255 0.599116 1.946913 0.030295 -0.224760 0.416641 -0.251330 0.726001 -0.264788 1.852166 -1.043589 -0.924021 1.058785 0.837309 0.401789 -0.817670 0.605001 0.960785 -0.027747 0.253673 0.012484 -0.674393 -0.997944 -0.778333 0.902337 0.858992 -0.078544 -1.128258 0.208975 -0.062172 -0.563594 1.070951 0.448874 -0.623675 0.201554 0.357454 0.112187 -0.481168 0.474765 -0.172256 -0.851161 -0.698569 
中心 -0.070290 0.768374 1.786135 1.749583 0.925030 -0.480220 -0.842930 1.002746 -2.912084 -0.761030 0.109348 -0.369454 -1.760776 -0.128325 -1.992237 3.152466 -0.319418 -0.900008 0.339734 -0.594940 -1.116617 0.693841 -0.698459 2.249357 -2.200495 -1.255163 0.267912 0.147680 0.353985 -0.721178 -0.107460 -0.160868 1.791579 1.459067 -0.368787 0.589905 -2.381942 1.107793 0.666958 2.758674 0.815883 -0.009910 1.223314 0.978710 -1.522822 1.384150 -1.427813 -0.818873 -2.611470 -2.839442 
間 -0.261194 -0.812346 -0.492632 -1.093886 0.547422 -0.524689 1.701204 0.444873 -1.135182 -0.935484 -0.668571 0.834742 -1.700884 0.653282 -0.730373 0.659558 0.521686 1.724108 -1.623262 1.418189 1.435246 -0.100013 -1.524401 -1.132010 -1.945917 -0.675605 0.003187 0.194718 -0.219093 0.767986 0.579188 0.530683 -0.069813 2.442749 1.030234 0.738516 -0.919525 0.826460 -0.569954 0.843775 0.132220 -0.941522 0.149852 -0.258426 0.970270 0.812598 -0.816758 1.554984 -1.082412 -0.698011 
国際 -2.226412 0.990830 -0.472508 0.127778 -1.040304 -3.497860 0.913565 -2.512355 -0.850194 0.441951 2.774732 2.075068 -2.148430 -1.658807 0.152919 1.976926 -0.384435 -2.568431 0.326533 4.350121 -0.058848 -0.700173 1.849685 -0.072231 -3.432727 -1.640249 -0.058133 -0.515873 1.040307 3.595207 0.076934 -2.024402 4.344619 -1.090660 -0.892494 -2.389230 -1.248349 2.740689 2.125717 -2.145840 0.396578 -0.585360 -1.329528 1.751537 -0.501059 2.396250 1.859606 -0.669020 -0.305696 -2.075730 
駅 1.137779 -2.066998 2.769756 1.275636 -0.890080 -4.186186 -2.558980 0.645351 -0.537772 -2.733684 -1.868714 -0.887916 -3.172030 -1.416206 1.996211 2.873245 -1.798599 -2.587072 -1.334966 -0.192400 -1.924713 1.554495 -1.867164 0.358896 1.758913 -0.843288 2.052632 -5.750284 -0.699993 0.481723 0.844176 2.026119 -3.584940 -0.090465 -1.909296 0.127396 -4.098252 0.462364 -1.753177 3.478565 0.575333 -0.127178 -1.218680 -1.538255 -0.161784 -0.323754 0.531918 3.996658 0.771971 -2.512700 
ゲーム 0.744874 0.137798 1.724095 6.365401 0.000249 -1.924028 -0.639279 -1.941152 1.506747 0.994412 -2.210247 0.782584 1.179912 1.685636 1.113588 -0.230427 -0.207570 -0.199227 2.116908 0.164685 2.447977 -1.604577 1.294797 0.142129 2.452047 3.597618 1.037895 1.062716 1.200024 1.292808 -4.148345 -1.868526 2.241210 0.034611 -1.573619 -1.134850 1.583430 0.012284 -4.068795 3.556019 -1.270117 -3.167067 -1.621246 -0.045739 -0.315035 -3.438895 0.448170 -1.722540 0.468750 1.984977 
チーム 1.793293 -1.872553 2.229281 2.353312 0.090923 -0.936666 0.757400 -0.789917 -0.953658 -0.033344 2.333320 -2.730443 -0.584812 0.395573 1.014759 -1.416523 2.611807 1.538908 0.723802 2.607074 3.438879 -0.862417 3.166630 0.279512 1.641770 2.254903 2.034116 1.065440 -2.828822 0.143077 0.173039 -2.540474 2.604499 -0.511352 -2.061974 0.839399 0.325838 -1.398119 4.184510 1.845416 -2.193691 -3.319772 -0.435838 4.189013 -0.378732 1.001203 -1.308575 -1.465812 3.973821 -1.953298 
人口 3.215259 -0.338706 3.672466 0.772595 0.885828 -0.880965 -0.577157 1.014810 -0.313457 -1.061651 -1.681669 -2.134172 -2.734669 1.300787 -5.324562 7.183247 2.816417 0.902051 -2.393401 -1.030448 -0.348749 -1.282618 0.692261 -2.075857 -2.902268 -0.097918 -2.853980 -2.490855 -0.613865 1.724936 -0.832697 3.318776 1.069499 0.255473 1.444859 1.770612 -4.078454 1.465964 -0.750815 -0.727096 -0.851794 1.425209 -0.037319 0.165478 -0.320977 -0.628671 -0.813422 -3.858911 -2.567889 -4.174802 
一般 -0.380452 0.201791 -0.157158 0.442177 -0.185796 -0.396710 0.754363 0.168527 0.903501 -0.383194 3.459915 1.591432 -0.869704 -1.218251 -1.095423 3.344244 -0.780114 0.760611 0.174012 -0.398005 0.084470 0.104247 -1.229727 -1.191104 -0.331831 -0.095470 -0.452800 -0.180634 1.792806 -1.758887 -1.036280 -0.292368 -0.078347 0.826316 -0.877685 -1.902549 -0.348024 1.467965 -1.467775 1.603884 2.008726 1.236912 0.910632 0.171957 -0.988423 -0.971130 1.288352 -0.012285 1.663825 -0.586143 
鉄道 0.816413 -3.160695 -0.578375 0.186278 -2.095802 -4.594447 -0.819012 1.280212 -0.398184 -3.844824 -2.114332 0.338181 -0.530868 -1.507521 0.554477 3.016124 0.684501 -0.472142 -1.343367 -1.298815 -2.931873 -0.193599 -3.126548 3.273210 -4.291089 -0.351545 0.745805 -3.792951 -2.949296 -0.437039 -1.421788 -0.975315 -1.438342 -0.425182 -2.088506 -1.760798 -4.176809 3.074243 -1.692322 0.100258 -0.234005 1.158995 -3.050872 -0.352188 -0.206805 1.583100 0.451256 4.137695 -1.174310 -1.896717 
政府 -1.797704 0.778352 -2.071732 -1.398148 -2.587955 -2.992720 1.832089 -1.609152 -2.412533 0.463786 -0.629453 -0.259645 -1.351629 -1.426076 -0.736390 1.950590 -0.052378 -0.658151 -3.275485 -0.043089 -0.225940 -3.463002 -3.805607 -2.632663 -3.495110 -0.060799 -3.748467 -0.056325 -1.372211 0.793653 -1.245626 -1.526190 3.389253 -1.863690 1.156010 -0.858404 -4.511361 -1.444293 5.133365 -1.630990 2.415131 -0.224632 1.106450 0.363417 -0.379311 -0.140702 1.989656 2.418183 -1.420314 -2.221946 
自分 -0.058107 -1.684840 -1.718244 -1.185308 0.765775 1.812465 0.908650 -1.566060 1.310773 2.956882 -0.251184 0.585214 0.829259 3.815331 -0.424363 -2.811744 -1.552299 1.538612 -2.840365 0.710792 4.652545 1.264863 0.110865 -1.775641 -0.516312 4.838386 -1.882147 2.928107 -1.248363 -1.123449 0.473244 1.642188 -1.106690 3.280735 -0.743411 -0.210066 2.746417 -2.370166 1.129396 1.261302 0.565639 -1.945464 -0.801373 1.308208 -0.156974 -1.573715 0.857881 2.630850 -0.068881 0.121028 
アニメ -1.822985 3.033734 3.693605 1.492967 -0.202269 2.759482 -1.593158 1.594417 2.651856 0.614271 -2.623152 0.328503 3.677014 1.267707 0.256217 -3.175431 1.352857 -3.534784 -0.545841 -1.770192 0.489816 -1.242054 2.751120 2.509996 0.423794 2.071984 1.914174 0.008048 1.179678 0.988153 -2.511477 -0.537942 1.922729 -0.688310 -0.762901 1.405637 3.380348 0.555443 -2.731693 2.624897 0.014214 -3.949476 -1.004971 0.279308 1.245187 -1.208324 2.786490 -0.676522 0.581530 3.315347 
事件 -0.251424 1.285812 1.880938 0.676758 -1.199430 0.080482 1.365084 -3.221846 -1.357758 1.863871 0.227456 -0.693571 2.463038 -1.327535 2.248046 -0.482015 -2.779474 -1.458189 -5.188064 0.046113 0.387075 -3.452672 -2.750664 -0.896592 0.177260 -0.469183 -1.792626 2.989933 -1.331181 0.905673 0.749632 0.628591 -0.321188 3.263227 0.204731 -0.548090 1.360893 0.598758 3.491642 -1.836417 0.899160 -0.146601 -2.158751 0.637786 1.969540 2.129253 2.678853 1.542548 -1.089711 -0.219218 
北 1.714835 -0.612598 -0.598606 -1.648758 -0.800357 -1.234206 -0.930597 0.834470 -4.832399 -2.420024 -0.447464 -1.204545 -1.976336 -0.841667 -0.349247 1.264059 0.986319 0.111967 0.252083 -0.627556 -0.995097 0.090280 -2.142664 -0.632911 -1.170092 0.395692 2.315565 0.036581 -1.002004 1.421949 1.926713 0.626550 -1.824203 0.153502 1.342127 1.575728 -3.834872 -0.860789 -1.019503 -1.286175 1.726476 -0.191997 0.236033 -0.492653 -0.031975 2.909881 -1.734752 -0.513470 -2.620095 -1.988429 
南 1.860050 -0.349669 -0.662704 -1.571226 -1.179384 -1.276929 -1.163657 0.641113 -4.971976 -2.700304 -0.981799 -1.126777 -2.210280 -0.401023 -0.467542 1.059617 0.647934 -0.654517 0.645315 -0.892420 -1.342982 0.207626 -2.107038 -0.834399 -1.246360 0.509941 2.252590 -0.053247 -1.304163 1.387749 2.548038 0.695001 -2.108766 0.452426 1.352601 1.178827 -3.496777 -0.719967 -0.591513 -1.169260 1.676705 -0.201083 0.582880 -0.601397 0.321253 2.505948 -0.510322 -0.800674 -2.324130 -2.032963 
社会 0.064212 0.692758 2.417293 1.631770 1.053531 -1.066200 1.027360 -1.507285 0.937833 1.583728 1.795518 2.029251 -3.009475 -1.034496 -3.138203 3.889513 -0.443265 -1.642075 -0.940344 -0.437863 -0.019304 0.758037 -0.991358 -4.984800 -5.031810 0.380028 -1.248908 1.952555 1.708284 -0.666239 -0.428029 -0.297147 1.298681 -0.259850 0.143680 -1.743309 2.319715 1.996313 4.607458 1.563214 2.820254 -0.226681 -0.616311 3.087487 -1.240146 -0.226494 -1.233603 1.118837 -1.113161 -1.508040 
主義 -1.606172 -0.615473 3.204315 0.116445 -0.612390 -3.721286 0.920004 -1.312156 0.680993 0.856298 1.752545 3.873470 -3.642977 0.753278 -1.186529 2.023616 0.517230 -2.338842 -1.483552 -1.728693 0.414519 -0.726971 -3.125263 -4.234081 -5.054292 0.152750 -0.207391 3.294853 1.574566 -1.521096 -2.207526 -0.581675 2.592926 1.652957 0.480680 -0.463529 2.237355 1.881968 5.600735 -1.069140 3.960040 -1.974487 0.840369 0.589127 -2.579060 -1.151888 -4.814773 1.193022 -1.750198 -1.240254 
人間 -0.461829 0.077617 -0.176380 -0.447283 0.671062 1.268953 -1.666873 -1.809167 3.513178 2.026867 2.514884 1.377231 0.699557 3.303045 -2.744697 -0.478645 -2.725583 0.652834 -2.839077 -1.366992 2.276274 3.405406 0.679857 -3.523845 -0.479309 2.633760 -1.960406 1.098524 1.002442 0.235093 -1.052988 2.154270 -0.055954 0.271554 -0.043441 0.243779 4.791636 -0.194537 -0.061086 1.807934 1.885400 -0.944714 -3.339538 0.697219 -0.149660 0.255935 -1.300760 1.549664 -1.651872 -0.353074 
政治 -0.555180 0.395526 -1.131791 0.762303 0.011263 -0.636396 1.725577 -0.934062 -1.533466 1.801985 -0.613533 2.499091 -2.167719 -1.232040 -1.288391 2.324134 0.359974 -2.330653 -1.355457 -0.853093 -1.103211 -0.933486 -1.838962 -3.212999 -5.308010 -0.906126 -1.986624 2.127240 0.144616 -0.565548 1.455803 -0.413148 3.734294 1.142406 1.351428 -2.019732 -1.072731 -1.345288 5.918854 0.706893 2.745997 -1.033424 -1.631205 -1.030082 -0.892877 -0.602650 -1.869742 0.900224 -0.250735 1.716513 
人 0.951380 -0.111082 -0.753583 0.895261 -0.161795 2.572831 -0.565922 -0.462672 1.738791 1.527884 0.756233 0.885476 0.269405 2.777456 -0.653581 2.374039 -2.470069 1.003301 -1.565752 -0.137035 2.279075 2.684950 0.062640 -3.961319 -1.419785 2.591860 -0.553970 0.197502 0.058568 -1.794508 -0.421817 2.787152 -1.310166 1.774607 -0.565086 -0.443109 1.386471 -1.919330 -0.791682 1.380284 1.616325 0.715022 -0.073677 1.366028 -0.546210 0.075544 1.231243 1.131090 0.763883 -1.104841 
一つ -1.274419 -0.095318 0.268661 0.613556 0.870529 -0.841459 -0.702997 -0.199033 -0.082557 -1.654260 0.851464 0.575342 -0.673973 0.669568 -1.358586 1.995593 -2.060680 1.453363 -0.138860 -0.390884 0.281745 1.111798 -0.236957 -0.402807 -0.532522 0.471873 -0.102503 -0.365622 1.990620 -0.758940 -1.243859 0.402776 2.109363 1.109662 -0.798744 -1.189137 -0.683258 -0.991914 -0.138815 -0.041864 -0.563608 -0.138921 0.081715 0.268178 -0.539624 0.940051 -1.166479 -1.968819 -1.101060 -0.169046 
女性 -0.035731 -0.842155 1.062648 0.703102 0.192704 1.057711 2.581061 0.811986 3.593404 2.204108 1.359485 -0.107785 -1.195357 1.463918 -1.432157 -0.817742 -1.186791 -1.566460 -3.535750 0.822392 -0.485044 0.259422 1.087634 -3.650752 -0.765677 -1.651742 0.118181 3.298307 -0.350530 -0.868706 1.864462 2.565663 1.958565 1.815070 -1.020299 0.740568 1.060251 -1.205140 -1.112942 2.998652 -0.293001 0.980619 0.153419 1.299022 2.227532 -3.255673 2.109052 0.922464 0.258236 0.282435 
大会 0.682490 1.160470 0.594733 1.029910 -0.087310 -0.647806 5.136220 0.173748 -1.943295 0.082276 0.963186 0.024026 -1.472498 1.418472 -0.680938 -0.469692 2.762821 -2.524923 -0.796683 1.502551 3.047898 -3.381960 3.053790 0.649236 1.022099 -0.588998 2.444244 -0.808813 -0.387171 0.521411 1.894033 0.206366 0.987457 -2.504124 -3.569767 -3.221298 0.022801 -2.907993 2.841827 -1.573933 -1.821636 -3.879503 -1.885835 3.072851 -3.341087 3.400567 -1.261378 -2.521061 1.866381 -2.575551 
部分 -0.350004 0.284462 0.950070 -1.705639 3.380648 0.547080 -0.536531 -0.145756 2.013046 -3.604089 1.265524 1.843879 -0.622956 0.643887 -1.399445 0.090412 -1.582245 1.555295 -0.371897 -0.788855 -0.708200 0.814304 -1.546017 0.414846 1.045947 0.037870 1.240420 -1.663628 0.167184 1.001813 -2.908485 -0.502775 -0.661023 0.527605 1.550065 1.732254 -1.927996 -0.123435 -0.808830 1.478487 0.912826 -1.548117 2.736392 -0.632307 -1.194222 -0.006330 -0.433765 1.055436 -0.218758 0.347686 
歴史 -0.395650 -1.009715 0.892234 1.411909 1.492531 -1.242923 -0.408117 -0.032489 -2.259741 -1.669385 0.300777 1.021564 2.185683 0.546506 -1.239995 5.025357 -1.168819 -2.854041 -1.280689 0.117209 -1.893017 2.926258 -1.723717 -2.066256 -1.030910 0.314060 -1.003887 2.797690 0.858530 -2.508502 -0.579043 -2.105729 0.639698 0.798420 1.812322 -1.836011 -1.165272 2.284822 1.825235 -0.293394 -1.823846 -1.160605 0.091265 0.294171 -0.447645 1.629721 -2.764641 -1.178007 -1.798846 0.022955 
自身 -1.206837 -1.193237 -1.269019 -0.481824 1.531960 0.628828 1.188604 -0.752315 1.263962 2.591454 -0.157748 0.735998 1.670455 3.163323 0.995624 -1.442213 -0.176598 0.626191 -1.096639 -0.610358 3.689945 0.318977 -0.141595 -0.617545 -0.121329 1.670926 -0.996851 3.241128 -1.288462 -0.823507 -0.122228 1.249952 1.308216 2.008421 -0.423531 -0.022413 1.822836 -0.936407 1.742050 1.062758 -0.214498 -1.999701 -0.246519 1.137898 -0.224344 -1.006087 0.091329 1.687817 0.241338 0.849045 
機関 -0.828798 -0.427212 0.511039 -1.904350 -2.069553 -2.316859 0.989991 -0.036218 -0.207064 -3.155390 4.909651 -2.071788 1.113429 -2.564467 -1.085855 1.796519 -2.987470 -0.533066 -0.426069 0.404348 -1.686474 -2.390883 -1.856555 2.586445 -2.896333 -0.166942 -3.999849 -1.327583 -1.530294 2.171804 -0.656368 -0.335866 3.357895 -2.329031 -0.025366 -3.951413 -0.904354 -0.175601 1.321755 -0.828288 0.555751 0.804572 -0.326076 1.733021 -0.918535 -1.684786 1.570987 2.917203 -2.163543 -0.434485 
委員 -0.404353 3.472039 -0.729193 -1.093651 -1.177577 -1.193133 1.590964 -1.647492 0.050382 -1.342905 1.789827 3.344423 0.233682 0.039315 -1.606622 -0.143513 1.503338 -1.800357 -2.581686 -1.719007 -2.158375 -4.134188 1.451979 -0.635412 -1.825812 -1.274592 -2.318831 1.028154 -1.176715 2.017395 3.498457 -4.122203 2.224055 -3.499334 0.259712 -2.640648 -2.268217 -1.364773 5.246161 0.558519 -0.345332 -1.171361 -1.157044 -0.081467 -1.187329 -0.715402 3.282014 0.502693 0.436617 -0.871726 
東 1.049786 -0.111409 0.075966 -1.961932 -1.007386 -1.185144 -1.956944 1.512948 -4.282036 -2.673421 -1.200530 -1.347573 -1.437201 1.656590 0.257023 0.592014 1.225754 -0.396820 1.016573 0.407442 -1.828105 0.217837 -2.418558 -0.515587 -2.071448 0.960157 2.276607 -0.112871 -0.580777 2.061656 1.818843 -0.398077 -1.829831 0.760839 -0.091489 1.505368 -3.586267 0.826283 1.105620 -0.275685 2.334082 -0.393077 0.302156 -1.420560 0.737989 2.903872 -0.725039 -1.107550 -1.718373 -1.284627 
郡 1.889649 -0.286925 -0.833166 0.435690 2.267758 -1.153643 -0.441682 0.071529 -2.500988 -4.076277 0.068452 -1.113154 -0.895890 -2.218798 -4.207007 0.786179 1.413362 0.845214 0.194815 -4.282768 -2.322864 -1.548573 0.545939 -3.830672 -1.758917 2.119408 -2.151093 0.178292 -4.350001 0.373045 1.114988 0.623576 -0.650831 -0.122593 1.344398 1.131819 -7.973245 0.346133 1.039310 0.423088 -1.587693 3.169360 0.851079 -1.626897 3.472380 -0.782896 0.355534 -1.337629 0.047037 0.510545 
バス 0.129968 -1.320612 0.346350 0.328792 0.824570 -1.901483 -4.517106 3.152497 0.677467 0.850289 0.192064 0.088958 -1.514217 -2.585224 1.924700 0.659250 1.369282 0.438120 1.833936 0.965669 -1.484810 -3.382909 1.258560 0.458807 0.486834 -0.547696 0.761169 -3.082495 -3.186324 -0.792926 0.544582 1.178950 -3.896785 2.109368 -2.320067 -2.922379 -2.297543 2.645367 -2.139444 0.784400 1.873259 3.083289 -1.532770 1.709188 -2.492865 2.467322 -0.106613 3.438772 -1.408386 -4.998160 
シーズン 2.301883 -1.265871 2.983688 2.439868 2.666898 0.469216 1.717550 -0.147682 -0.783480 1.267462 1.991681 -1.390278 2.034889 1.006257 2.879021 0.732434 4.223698 1.385306 1.082295 3.236692 2.518248 -1.364408 1.792663 1.859874 1.322194 0.992305 3.233951 0.948517 -1.636474 2.888097 0.418569 0.552307 1.710751 0.515564 -1.975949 3.262482 -0.388606 -0.860610 3.502475 0.118866 -2.480262 -3.947377 1.056974 3.695907 1.994582 -0.834969 -3.057712 1.865129 3.882667 -0.431000 
地方 0.738637 1.815282 0.082182 2.085937 -0.399097 1.664597 1.226490 2.175811 -1.912445 -1.402654 -0.607085 0.211325 -0.222625 -0.621573 -1.603332 3.249093 2.298342 1.006903 -0.759913 -0.362598 -0.821026 -0.737404 -2.446769 -0.654332 -3.261021 0.195984 0.420896 -1.178981 -1.149052 -0.749731 -0.286759 -0.864721 1.012174 -0.974335 -1.418072 -1.858540 -4.340609 -0.034955 1.861781 0.743111 3.179129 1.708617 0.704969 -1.337125 1.702975 2.198900 -0.731819 -1.942212 -3.193924 -1.875895 
人物 -1.410006 -0.453054 2.150035 1.547971 0.530247 1.131231 -1.184938 0.780512 0.146067 1.761661 -0.328040 0.961908 1.253168 1.716791 0.725541 0.701350 -2.051362 -2.348253 -2.496123 -1.766574 -0.088706 2.053352 -0.546084 -1.169004 0.546059 2.214247 -0.593842 2.547537 -0.556018 -2.137075 0.970368 -0.598718 2.814930 2.919807 0.883381 -0.623910 1.404425 -2.119767 0.894979 1.059497 -0.137019 -2.061170 -1.502147 -0.085968 2.082871 -2.039742 -0.183385 -0.046345 -0.706372 2.614122 
情報 0.914224 2.079853 -0.603911 0.360850 0.836432 -2.216430 -1.691427 -1.225954 1.831257 1.960565 1.126744 -0.996856 0.977981 -3.374780 -0.639501 2.445483 -1.324102 0.134092 -1.675775 1.352578 3.053407 0.792390 -1.622954 0.555248 0.423286 0.741580 -3.201057 1.960731 -0.857955 1.899471 -1.043494 -1.446093 0.374427 -1.370986 1.291209 -2.923765 0.756091 -0.538545 2.454521 2.348150 2.784864 -1.324629 -0.633759 -1.349942 -1.551710 -0.078942 5.213901 1.234634 -1.173894 0.835157 
出身 1.403170 -0.957380 1.365159 0.933957 -1.193312 -0.848672 3.103632 3.630633 -1.604094 2.702186 -2.314353 -0.042559 -1.482652 0.420665 0.076451 0.107620 1.790041 -1.304952 0.955067 -1.276301 -0.413428 2.590800 0.619682 -0.693905 -1.547791 -1.123332 0.665264 1.168511 -2.605830 -1.520008 4.804965 0.935593 2.614921 1.068307 -0.403972 0.525705 -0.048141 1.064191 1.882971 -1.349748 1.498344 0.211534 -0.043330 -1.134760 2.007023 -0.359618 2.144186 -2.348497 -0.618870 -0.348628 
中央 0.732671 1.891621 0.379110 -0.036104 1.226750 -2.404113 0.136803 1.426754 -2.747949 -1.885477 3.018651 0.318083 -2.085046 -0.253530 -1.439921 -0.164636 0.742748 -0.777399 -1.087984 0.118202 -2.705897 -1.786670 -1.073751 1.337022 -1.591841 -1.352487 0.007686 -1.918087 -0.773331 2.315967 1.840847 -2.797210 -0.481936 -1.756690 1.009779 1.169468 -3.164508 -2.559431 1.230429 1.188287 3.156163 0.035591 1.007845 -2.412187 -2.495872 0.307682 -0.306134 1.249246 -2.138229 -1.229218 
番組 0.752151 3.409670 -0.834345 1.354886 3.918186 4.229236 0.745699 2.970779 2.332280 1.104004 -0.952599 -0.132310 2.196427 -3.105425 3.370237 1.809678 3.418420 -4.220468 -2.368888 1.226553 2.909012 -1.008640 3.165016 1.428529 -0.730267 -0.118657 2.150660 1.825504 -0.307902 -1.121415 -3.738760 1.097141 0.630590 -1.804400 -3.537618 -0.455525 0.353471 0.137756 0.508941 3.390015 0.133180 -2.336224 0.559360 0.818153 -1.160835 -0.097308 2.791151 -0.845365 1.038661 4.012015 
最初 0.839101 -0.945022 -0.258398 -0.347879 -0.140246 -1.404684 1.668802 1.253469 -0.511360 -1.807532 0.221241 1.329741 0.576247 0.616163 0.613876 1.284774 -0.021775 1.388381 -1.287914 -0.033828 1.366439 0.995815 0.272039 -0.330458 1.020889 0.421400 -0.731073 0.946103 -0.669821 -0.252443 -0.647327 0.332749 1.395064 1.484350 1.133820 -0.117156 -0.136566 1.545356 -0.097879 -0.359657 -1.846357 -1.213131 0.119419 0.427409 0.314723 -0.161967 -0.539846 0.145003 -0.747620 0.504482 
音楽 -2.925212 -2.075443 -2.693202 0.990811 1.327104 -0.357965 2.187672 2.419302 2.387547 0.983096 -0.874638 4.454071 2.231390 -0.048002 1.551039 2.317425 0.875392 -1.993767 2.735515 1.384453 0.392655 -0.811917 1.519832 0.854939 -0.852163 -0.393151 1.517633 2.544616 0.606853 -3.162312 -0.675572 0.255919 0.021198 0.218112 -1.525110 0.627995 1.320670 3.009065 1.961894 1.547404 0.786841 -0.743688 1.416522 2.757438 -3.744966 -3.266456 1.256646 -3.643630 -4.781170 1.363071 
本 -1.534950 1.434700 1.252633 0.478853 0.370240 0.633631 -1.993556 -0.188925 0.119500 -0.249931 0.003643 -0.260357 2.288124 1.205651 0.449323 0.818404 -1.162407 -0.341245 -0.238335 -2.146532 -0.671476 -0.761812 0.913494 0.573149 2.893174 0.576451 1.941722 1.365936 0.647868 -1.266777 -2.120391 0.909315 1.681559 -0.408432 2.550800 -0.992289 2.216838 0.292699 -2.541613 -0.654983 -1.796638 -3.137431 -0.778044 0.299007 0.791656 -3.329277 1.109825 0.702471 -1.784407 3.805094 
経済 1.479774 1.078733 -1.099631 1.589882 0.626751 -1.527371 0.118051 -2.176589 -0.457673 1.423759 -0.636601 1.693430 -2.988238 -0.897368 -3.448491 5.619421 0.564136 0.310815 0.169675 1.341358 -2.786491 -0.303910 -1.648895 0.804545 -7.970289 1.002563 -1.790312 -0.283881 1.726666 0.060708 -1.352757 0.266526 3.045798 -0.813238 3.054935 -1.124456 -1.532450 1.856077 5.410464 0.472265 1.030991 -1.233622 -1.006806 0.851748 -0.920617 -1.312851 -1.390615 1.191706 -0.584533 -3.561366 
文化 -2.557508 -0.326291 -1.875334 1.964801 1.048866 -0.471478 -0.763013 0.698395 0.000614 -0.370084 -0.069066 0.814808 -1.066027 0.279494 -3.348107 4.387301 0.484150 -2.578967 -0.748639 1.509895 -3.452340 3.318767 -0.330556 -3.672911 -3.592288 -2.397117 -1.209152 2.238226 2.284636 -1.727502 0.550026 -0.819269 -0.540866 -0.462240 -0.155081 -1.899752 -0.106516 1.295993 2.367017 1.511555 0.813371 -1.268803 2.142066 1.960485 -2.233129 2.393119 -0.361995 -1.602513 -2.205781 -1.541528 
リーグ 1.644757 -2.290774 3.320136 1.428581 1.481558 -4.076654 2.054347 -0.860638 -1.026948 0.036461 2.681065 -4.715697 0.622251 1.365278 1.192402 1.312089 5.457453 -0.331097 3.066928 4.109020 2.084113 -3.064735 1.872458 -0.628455 -0.056250 0.745863 4.607138 -2.041412 0.943529 -0.336888 0.205303 -1.477929 2.016981 -0.980972 -4.254579 1.769445 0.032692 -0.819233 5.248200 -0.809609 -1.629567 -2.840987 0.537984 4.233098 0.599043 1.862100 -3.106113 -2.183864 4.216928 -2.256856 
状態 0.150960 -1.659783 -0.763325 -0.364097 1.255796 1.661856 1.296379 -2.444674 1.172244 0.898849 0.971828 0.692875 -1.064686 0.428727 -1.002241 -0.356003 -1.360245 4.105446 -0.920985 -0.015642 2.638185 -1.900444 -1.723198 -0.122426 0.625352 0.959759 -1.781515 -0.675450 -0.103434 2.555862 -1.691516 1.096554 1.173396 0.512375 1.155553 1.291549 1.308299 -0.025177 -0.953771 1.428766 1.839947 -1.157226 0.441932 -0.976906 -0.892198 1.036727 -1.012232 2.301854 0.455427 -1.444312 
会社 1.810035 1.790273 -2.313100 -0.710262 -2.434354 -3.769253 -0.528602 1.007213 1.188214 -1.343136 0.110590 -1.491291 -2.136681 1.470474 2.272452 0.797313 0.509861 0.688028 -0.530338 0.466451 0.329996 -1.662079 -0.366954 2.907674 -2.211216 2.584349 0.660996 -0.052977 -1.888505 -0.543891 -2.748128 -1.023337 2.375836 1.719670 -2.466828 -0.526143 -1.262905 6.033966 2.461313 2.166157 0.585660 1.096501 -2.103569 2.211738 1.719836 -1.504384 3.995076 1.453379 0.364614 -0.027909 
声 -0.702680 -0.642733 -0.415710 -0.160346 0.154517 3.851275 -0.690532 -0.512030 1.250460 1.714021 -0.251019 0.901779 1.188841 1.328703 3.521862 -3.276217 1.300203 -0.883399 -0.780884 0.163534 -0.970992 0.453404 0.676977 -2.311240 -0.864783 1.684355 1.173262 -0.628518 -1.035596 0.293619 -1.226520 0.499661 0.742432 0.146087 -0.368574 1.896576 2.269761 -1.446906 -0.378354 0.113554 0.560314 -0.884045 0.767523 -0.444579 0.862153 -1.678055 2.110792 -0.190826 -0.393194 -0.100185 
技術 1.105075 -0.046600 -2.510425 -0.671162 -1.454083 -1.919847 -0.048220 -0.290682 2.379976 0.027185 1.717174 0.564837 0.419384 -0.567984 -2.567603 2.226843 -1.217965 0.789924 1.834168 0.433773 -1.194885 2.192140 -2.261958 2.337976 -1.181139 0.353388 -3.465161 0.571942 -1.965312 0.922244 -1.516916 -2.983768 2.016740 -1.977396 1.384760 -0.363628 2.626596 1.891693 1.193553 1.082738 0.835803 -2.232279 -2.659057 2.014938 -3.521057 -0.275990 0.929250 -1.270882 1.285502 -0.128672 
地区 2.989303 0.834121 2.381086 1.654034 1.322522 0.619373 -1.703349 0.074754 -3.445100 -4.305179 -0.570012 -1.657784 -1.435957 -1.279016 -0.588566 2.895455 1.446704 -1.667905 -0.625080 0.042265 -0.632340 -1.002098 -1.163869 0.576127 0.172315 0.138005 0.876438 -1.102969 0.486334 1.033220 1.634391 -1.391362 -0.439086 0.609973 -2.080896 1.451841 -4.788111 2.154267 2.408250 0.474348 -0.813341 1.070801 1.172149 2.218617 -0.318467 1.140034 -0.983869 -1.527557 -0.987613 -4.943302 
西 1.143912 -0.222611 0.325953 -1.549602 -0.335983 -0.964085 -2.160916 0.940110 -4.553476 -3.051012 -0.872582 -1.019722 -2.118953 0.855084 0.038910 0.378195 1.116626 0.099078 1.059083 0.711419 -1.537243 0.617043 -2.283997 -0.826692 -1.352729 1.425402 2.475312 -0.081167 -0.525020 2.435488 2.036519 -0.174712 -2.280464 1.060596 0.137248 2.068558 -3.867598 0.250065 0.206844 -0.827334 1.717171 -0.641560 0.825897 -0.882892 0.891870 3.271398 -1.266253 -1.131758 -1.811468 -1.743250 
形 -1.217389 -0.633340 0.126581 -0.250814 0.534630 0.005862 0.015510 0.172318 1.572704 -2.536004 2.203298 0.101423 -0.325985 0.622738 0.342611 -1.104816 -1.147888 1.558652 -1.141709 -0.377797 -0.336600 -0.360680 -0.923391 0.478473 -0.692832 0.223612 0.700095 -1.272786 0.583206 -0.608120 -2.535569 -0.695469 -0.528148 0.178650 -0.806910 -1.298172 -0.069644 -0.916570 -0.189026 1.939117 0.030493 -0.958058 0.999998 -1.069246 -1.138800 0.144327 -0.767131 2.141004 0.535413 1.041747 
能力 -1.180562 -2.423966 0.168469 -1.465226 -1.092775 1.689659 -1.473758 -2.520284 1.787273 4.264547 3.640178 -0.778617 1.132723 1.731048 -3.926618 -1.096397 -1.299779 2.937448 0.488210 -0.643330 2.710163 1.532903 0.615475 -0.730133 1.402793 2.110824 -2.384419 -0.492287 -2.660967 1.657713 -1.552006 1.008740 1.322629 -0.698352 0.562981 -0.686948 3.402213 -2.269318 -0.176608 1.887529 2.323786 -1.697809 -3.923307 0.283691 -1.170657 -1.047806 -0.593918 -0.559105 0.438413 -0.389431 
最終 -0.212575 -0.287241 1.514501 -0.787358 0.725845 1.500737 0.557342 -0.678362 -0.368746 -0.091662 0.341025 -1.067638 0.702190 1.355228 1.360559 -1.423386 1.555408 0.734496 -2.101973 -0.460912 2.540343 -1.204927 0.442610 1.299209 1.275463 1.518636 -0.417922 1.247081 -0.235433 3.173949 -0.771249 0.294840 0.800636 -1.358405 0.215378 0.345269 0.641726 0.133034 0.969365 0.555775 -2.270977 -3.419925 -0.989680 0.942803 -0.004777 0.632774 -1.238760 1.739170 0.426435 0.689759 
ドラマ -1.839367 2.815056 3.273223 1.038607 0.930833 3.403046 0.650498 1.592216 0.407478 2.097772 -1.649472 -0.266857 2.686401 -2.149778 1.798516 -0.672777 0.368508 -3.773042 -1.169537 -0.840110 -1.166450 -1.284934 1.901231 1.753904 -0.651776 1.222258 2.856191 1.790230 1.099950 2.498209 -1.481149 1.568708 -1.104205 -0.374350 -2.014400 2.031097 1.437120 0.556384 -0.545401 1.677843 -2.496299 -0.909316 -0.956634 2.143707 1.928896 -1.894185 2.119481 -2.271832 -0.185904 4.135593 
名前 -0.229899 -0.117331 1.184765 1.031531 -0.902398 -0.466017 -0.468046 2.704442 0.578216 -1.431615 0.456589 0.835534 0.970343 1.791158 0.565609 -1.660246 -0.789877 0.307663 -2.083952 -1.511059 1.989060 3.693501 1.860710 -1.386176 1.639413 2.581652 0.210276 0.276593 -0.282458 -2.567612 0.458873 0.668859 2.049648 2.852743 -0.643592 -0.604575 -0.571092 -0.763067 -0.763238 -0.271702 -1.662589 -0.529212 0.413696 -2.567672 2.476907 -0.727862 2.239148 -0.729434 0.485611 0.943379 
県 1.620336 1.618690 -0.116119 0.365355 -1.307770 0.396733 -0.719906 0.320783 -1.867919 -1.933214 -3.968559 -1.753813 -1.030475 -0.407518 -0.744439 1.740411 0.780875 -0.363328 1.988758 -2.568109 -0.673048 -1.434652 -2.899979 -1.558326 -1.759508 -0.106353 -0.230040 -3.492068 -1.454204 1.293129 1.557880 1.374152 -1.235364 -0.893804 -0.815724 -1.618712 -4.997205 -4.494094 2.768417 -2.878406 -0.046928 2.521124 2.536604 -0.002478 0.654851 1.928604 0.006868 -4.901121 -0.060795 -2.779299 
航空 0.811345 -0.449765 -0.340622 -2.377646 -6.034340 -2.795036 -4.417723 -1.683823 -0.258905 0.409370 1.450355 -0.396892 -3.592901 -3.374497 0.109160 2.424762 0.124805 -0.305260 0.965575 4.042772 2.536749 -3.479723 0.101002 2.751078 -0.024357 -1.138186 0.424276 -0.748248 -4.966520 -0.144464 -2.352369 -1.618562 3.921782 -0.712499 -1.210145 1.606899 -1.742879 3.709736 0.998767 -3.305220 0.165051 0.841283 -2.884931 1.138774 -1.637611 0.224183 1.827306 0.254699 -0.915035 1.165685 
キャラクター -2.476359 0.517338 2.333195 3.180547 0.912700 1.559672 -2.738174 0.297786 1.557350 2.760731 -0.891288 1.268676 0.050220 0.811591 0.518233 -3.006060 0.941441 -2.405761 0.006757 -2.619239 0.078206 0.182816 2.619054 0.635107 3.799193 2.708806 1.623169 0.733810 1.855771 -0.766011 -1.985450 -0.610939 3.571078 -1.666552 0.294420 -0.790476 1.361301 -1.600612 -4.775694 3.027008 -0.692820 -3.443977 -0.612963 0.246756 1.560223 -4.418166 1.211848 -0.537155 -0.097234 0.553523 
戦い -0.722375 -3.604566 -1.362270 0.051766 -1.097429 1.520450 -1.561927 0.507362 -4.046523 1.595734 -2.266270 -2.287236 0.932291 2.061468 -0.845418 -3.205607 -0.247901 1.810027 -1.950552 -0.484353 3.951777 -0.750532 -1.098147 -1.336769 0.366213 1.099064 -0.189989 2.893027 -0.356361 2.093161 -0.652361 -0.954314 0.260217 1.383033 2.920311 3.131906 -2.167506 -0.728814 0.270921 -0.349952 0.067587 -2.813858 -2.201041 -1.145910 0.553135 2.866660 -4.126748 0.777998 -2.632698 0.429709 
最大 0.458657 0.957769 -0.716104 0.605637 1.318962 -3.353931 0.732327 -1.608643 -2.552416 -0.324857 1.606113 -2.637725 -1.161783 1.595250 -2.305138 2.488395 0.978796 3.128588 -0.548993 0.375943 0.175369 -1.843851 0.543815 1.844914 -0.414986 -2.402129 -0.907073 -0.507354 -1.275355 -0.286670 -2.212719 0.947739 1.721506 -0.333813 0.735306 -0.234363 -1.366508 0.988540 -2.324985 0.071810 -0.411881 0.438549 -1.258314 0.101713 -1.183287 -0.278930 -1.836013 -2.922720 -1.982309 -2.563863 
システム 0.468680 0.221772 0.802708 0.666245 0.630875 -3.333122 -1.142089 -1.630592 0.819990 -0.053731 1.334848 0.243576 -0.530408 -3.514842 -0.396820 1.233451 -0.674124 2.135030 2.544596 -0.202289 1.208654 0.498837 -1.364800 1.203992 2.019653 2.059670 -2.660641 -2.182220 -1.393182 2.315050 -3.547475 -1.250346 2.129332 -1.658681 1.423275 -2.977950 2.025671 1.234990 -0.139444 3.063301 0.748466 -1.293873 -1.953781 0.444585 -2.754289 -1.785969 0.406342 0.778491 -0.915013 0.126803 
科学 0.714606 -0.496762 -1.325926 -1.446984 1.211040 -2.180285 -1.134654 -2.166747 3.281632 -0.421336 2.956763 1.597721 1.678039 -1.487040 -2.877615 3.471317 -1.493392 -2.208390 0.002784 -0.082120 -0.161561 2.820305 1.841192 -0.452839 -2.169784 1.133178 -3.917958 2.450878 -1.208655 0.128683 2.341674 -2.936128 2.138035 -2.293515 2.357620 0.543806 4.721332 2.153805 2.717895 0.113133 0.989396 -0.612686 -0.503921 1.117102 -1.559385 1.715241 0.291557 -1.359679 -0.375297 0.979117 
列車 -1.808906 -4.602223 1.811466 1.107858 -2.241602 -1.029597 -0.103528 2.242267 -0.844634 -1.467524 2.329980 -1.916017 -2.844181 -3.717310 1.977249 2.859603 -1.770253 0.967633 -1.782514 2.432263 -1.076150 -2.404524 -1.023936 0.981577 -1.182435 -2.105629 3.396214 -4.191959 -2.176732 2.288473 -1.559656 2.435690 -2.888318 -1.376335 -2.281931 -2.361244 -2.342230 1.495835 -1.918132 1.751117 -0.901401 -1.374977 -3.351862 -2.185524 0.970919 -0.448302 -0.581033 4.729934 0.470020 -0.909456 
父 2.237739 -1.234799 -1.681507 -1.989508 -0.589826 0.362039 2.868665 2.609875 -0.931666 2.719359 -2.071888 0.310794 -0.627803 2.562810 -0.023904 -2.030674 -0.400914 0.256463 0.046573 0.610880 0.875168 0.687069 -0.399174 -1.037059 -2.778788 3.191018 -2.613484 0.105101 -1.809042 -2.013973 3.932855 0.951813 -0.041959 3.732433 0.405520 1.636382 2.194007 0.321400 1.757454 -2.848012 -0.722274 0.214561 -1.970550 -0.688113 1.854310 0.032380 0.057009 0.600297 -1.243087 2.640594 
構造 0.315723 -0.010770 2.173637 -2.451185 2.837258 -2.217341 -0.180433 -2.235793 1.383799 -2.487089 2.424767 1.960765 -2.755487 -2.344616 -2.438156 0.097010 -3.916632 3.141924 0.727419 -1.230160 -3.010486 0.564858 -2.498723 1.430644 0.352336 -3.145836 -1.281098 -2.435715 1.621274 -0.813133 -1.197465 -1.302944 -0.242496 0.834311 1.124193 -0.253314 1.062298 0.499385 0.129279 3.464987 0.878412 -0.848418 0.117877 -0.843414 -1.557517 -1.295790 -1.872791 0.342621 0.675279 -1.138179 
センター 2.748414 0.626118 -0.696771 0.343469 2.936913 -2.642099 -0.703110 0.358494 -1.365292 1.143142 2.192000 -1.883545 -0.455245 -2.853997 -1.861954 1.457937 0.399554 -2.480562 1.978760 2.616014 -1.967810 1.519041 2.533823 0.338405 0.879977 -1.602563 -2.562635 -1.633065 -1.818854 1.204052 1.554440 -1.391957 -0.510844 -1.739597 -0.396847 0.953643 -0.390555 2.475397 1.007252 1.379595 0.262958 -0.247604 0.578069 2.371619 -1.599489 1.644221 2.623103 1.199130 -1.026404 -3.173385 
町 1.446454 -1.416708 1.527973 3.634038 -0.350257 -0.014240 -1.407819 2.343978 -2.633808 -4.622203 -1.817245 1.090423 0.494187 1.596918 -3.367525 1.004738 0.002343 0.140454 -2.627166 -0.557386 0.483685 2.154625 -0.076214 0.446204 -1.866307 1.553990 -2.202079 -0.707489 -0.546630 -0.363463 0.728761 1.321383 0.258300 2.213149 1.021150 1.660296 -5.062422 2.350110 -0.521665 0.656342 0.023352 1.881757 1.097479 -0.264959 2.243178 0.548703 -0.593816 0.084001 -2.416888 -3.877530 
路線 -2.007374 -1.399581 1.793942 0.782634 -0.121730 -3.605272 -3.509356 1.260471 0.524211 -1.379570 -0.045197 0.674250 -4.028532 -1.879650 1.208200 3.326414 2.035853 -0.864109 -0.451619 -2.288434 -0.660213 -4.120131 -1.648594 1.106887 -1.553700 -0.973967 2.799036 -3.006017 -1.802834 -0.019684 -0.767715 0.682683 0.389391 1.235930 -1.538957 -1.998657 -4.300131 2.006274 -1.261815 1.023849 0.728059 0.315265 -3.009036 -0.160333 -1.980809 1.678681 -0.579463 3.951061 -1.210021 -2.419557 
道路 -0.336593 0.044159 -0.420711 -0.328127 1.483709 -2.390370 -2.177882 0.008871 -3.159271 -3.882489 0.370179 2.372570 1.769831 -2.203567 -3.047838 2.209976 1.422569 2.355309 0.415776 0.313848 -0.814476 0.019114 -2.335085 0.595779 -2.186120 2.693351 1.037985 -3.971088 -0.892648 1.265234 -0.106011 0.944599 -2.575206 1.076003 -2.685155 0.843518 -6.814416 1.955452 -1.657613 0.537610 3.021110 2.747873 -3.992426 -0.528954 -4.039067 1.266485 1.011414 3.550102 2.464374 -3.473943 
国 -2.658129 2.096553 0.836093 -0.545920 -0.731923 -0.150664 1.432986 1.161507 -1.592367 0.257620 0.700447 0.014139 -0.885758 1.514402 -1.583299 0.843483 -0.634167 -0.323598 -2.312312 1.873160 -0.593110 1.565301 -1.324406 -3.287565 -2.898579 3.306358 -0.463289 -1.345575 1.833936 0.164688 -2.037267 -0.361700 1.586888 -2.216422 0.862080 -1.879035 -2.344221 -1.590234 0.743080 -2.079108 -0.697821 0.223965 -1.229024 1.416336 -0.005257 1.305047 -1.044991 -0.802321 -0.420369 -1.255213 
名 -0.151936 -0.434602 -0.362198 0.571644 -0.971042 -0.554610 -0.624739 2.994092 -0.969973 -0.951444 -0.006254 -0.126165 0.831043 2.089954 0.544555 0.067478 -1.602108 0.689427 -0.714373 -1.308412 0.827937 3.258589 0.734033 -1.257108 -0.024284 0.850213 -0.234404 0.335207 0.342229 -2.560991 0.963883 0.357814 2.226918 3.062611 -0.544399 -0.120795 -1.471308 -0.813121 0.588396 -1.256989 -2.194160 0.942254 0.013536 -1.293795 1.577287 0.272429 -1.007013 -1.107347 -0.343871 1.364512 
最後 -0.228174 -1.540174 0.468130 -0.781390 0.967800 1.194949 1.399236 0.552848 -0.382983 0.067527 -0.672884 -0.366120 1.444576 1.964027 2.423995 -1.133845 0.257085 1.296535 -2.624693 0.213058 2.368331 0.190653 0.408477 0.083385 1.461969 0.471860 -0.154894 1.537273 -0.980807 1.476625 -1.452062 1.431969 0.442736 0.973739 0.129623 0.710846 -0.134505 -0.101369 0.350834 -0.767923 -1.780160 -2.370801 -0.211738 0.335862 -0.923490 1.013762 -2.090310 1.534167 -0.450386 1.556124 
共和 -1.263823 -0.618799 4.321250 0.641806 -1.482274 -4.473226 1.086554 0.760786 -2.941691 -0.992100 -0.623976 2.837507 -1.145143 -0.569810 -3.389990 -0.005459 3.704963 -0.267105 -0.792825 -0.785747 0.491585 0.311901 -3.138312 -3.273428 -3.788540 -1.536572 -1.568829 -0.177314 0.612406 1.756182 -1.478974 0.866829 4.211100 0.055498 -2.046413 1.940091 -2.821182 -0.555442 4.274648 -4.543648 2.486225 -1.676777 0.791563 -2.153008 0.687548 1.836969 -1.773967 -0.813206 -2.429256 -0.507504 
姿 -1.150264 -0.168924 -0.881163 1.074830 -0.237292 2.921852 -0.090481 -0.532458 2.289088 0.541611 2.200728 0.128156 0.244281 3.687561 -1.391074 -4.342011 -1.256850 -0.320911 -4.644180 -0.735517 1.006975 2.724529 0.890451 -1.530255 2.347834 1.864067 -0.120983 0.383412 -1.278907 -0.067745 -1.019149 1.990781 -0.080073 1.821936 -0.195686 1.716476 2.567417 -1.907707 -2.273666 0.823348 0.818094 -0.591076 -0.605591 -0.202570 -0.573774 1.163215 -0.725073 1.391276 -1.230235 0.881214 
国家 -2.225320 0.961900 2.292375 -2.310887 -1.352497 -2.561990 1.607946 -1.710977 -0.989184 1.000504 0.790697 1.315921 -1.289700 -0.089013 -3.118878 1.946475 0.358134 -1.679476 -1.216504 0.720584 -1.449854 0.310073 -3.093775 -4.475032 -3.073341 0.411569 -3.268152 -0.068765 0.759434 0.624551 -1.301377 -2.687378 4.165683 -2.308252 -0.323354 -1.236488 -2.684586 -0.663958 4.260678 0.623666 2.066168 0.243985 -1.677737 0.874560 -1.617908 0.386389 -2.813949 -0.881265 -2.790597 0.096253 
大統領 -0.710154 1.303351 -1.723318 -1.035811 1.794213 -2.289114 3.246814 -1.370614 -1.225044 2.032904 1.068614 1.794326 -0.408071 -2.747532 -0.278923 -0.063505 3.352861 -1.829572 -4.537504 0.565820 0.618467 -1.857752 -0.527965 -3.052475 -0.422808 -0.096777 -2.760285 1.665621 -1.009268 1.166064 0.697209 2.358245 4.552478 1.572857 0.121781 2.274475 -3.992506 -0.125766 5.762977 -2.075666 -0.714908 -1.061413 -1.502600 -1.997858 -0.515813 -2.088975 -0.618392 2.155828 0.381237 -0.603403 
通常 -1.058318 0.121995 0.751922 -0.906938 0.613036 0.929667 1.761666 -1.055947 1.837172 0.460362 2.420454 0.432404 -0.810068 -1.373719 -0.471431 -0.038162 -0.206121 2.567261 -0.258557 -0.578838 1.508413 -1.532227 0.837773 0.352504 2.153847 -0.608210 -0.189843 -2.053211 0.720483 1.171738 -2.754695 0.526033 -0.243456 -1.638296 0.496969 -1.466477 -0.737948 0.240331 -2.194394 1.407639 1.622669 -0.549555 1.486739 -1.211536 -0.541477 -1.008261 0.175037 0.261729 1.601811 0.395652 
手 0.589264 -0.988026 -2.134194 0.404829 -0.116131 0.319627 1.404294 -0.862523 1.146953 1.403490 0.417020 -0.185279 0.409480 3.424340 -0.113378 -3.288135 -2.378153 2.088403 -2.019427 0.561548 1.852894 0.872791 -0.476932 0.119039 0.565923 2.410598 -1.677536 1.061490 0.037844 0.630681 -1.996320 0.296640 -0.821108 1.576093 0.505749 0.091594 0.831735 -1.724346 0.104685 -0.251380 1.317017 -1.574434 0.704395 1.243509 0.446397 0.634772 -1.092065 1.533257 0.311262 -0.455348 
例 -0.425510 0.200494 0.573884 -0.389879 0.807489 0.804354 -0.045105 0.449168 1.326941 -0.230711 2.488582 1.487939 -0.474041 -0.649257 0.429507 2.885208 -1.165509 1.899203 -0.763854 -0.042439 1.111506 0.495585 -1.826119 -1.375447 0.338820 -0.785426 0.356965 -1.275075 2.511022 -1.833159 -1.806683 -0.145383 0.529902 1.207132 -0.092885 -1.766149 -0.416652 0.229120 -0.274082 0.576627 0.641439 0.392131 -0.283064 -0.501817 0.401685 -0.049559 0.723981 -0.559842 0.873272 0.552687 
帝国 -0.425682 -2.228218 1.182994 -2.278923 -3.713657 -1.527109 1.389638 1.729788 -2.109116 0.255682 -1.634984 -1.145035 0.482511 1.787538 -2.273435 1.712319 3.001704 -1.194954 -2.587511 0.702502 -0.128108 2.393415 -3.245458 -0.067720 -2.020645 0.327347 -1.422200 0.792333 0.392593 1.950608 -1.159331 -0.343161 2.748838 0.390888 2.497590 0.558700 -1.326952 1.938422 3.722721 -0.417990 3.009505 -0.989284 0.852801 -1.767299 0.930798 2.365738 -4.737449 -0.500359 -4.713221 1.776072 
大戦 2.331596 -1.235310 1.652395 -0.440125 -2.261507 -2.527886 2.940281 2.926744 -3.931024 2.536728 -0.011168 -0.037272 1.593240 1.154248 -2.542059 0.970499 -0.976761 -1.388433 -2.321595 1.413267 0.749821 -1.243192 -3.373427 2.433144 -0.915639 -1.763025 1.358189 2.417790 2.964433 0.597952 -2.700809 0.855560 6.060461 -2.115207 3.540721 0.925441 0.350681 2.461664 -0.832799 -4.348940 -1.081089 -0.037107 -3.165850 -0.668524 -3.483240 -1.020056 -2.609781 2.289279 -4.902367 -2.459677 
事業 0.985344 2.679951 -2.176300 -0.095802 0.690972 -2.672749 -0.850534 1.086040 0.232601 -0.887258 -1.993328 -1.606664 -1.624874 -0.564771 -0.332510 2.607194 1.081065 -1.403400 0.955527 -0.191180 -0.579183 -1.136313 -1.791430 0.915588 -2.726291 0.692420 -1.389556 -3.561845 -0.142126 -0.703010 -1.425841 -3.116080 1.355035 -1.218052 -1.158227 -1.839918 -1.777827 4.671677 0.904238 3.231357 0.364364 2.857832 -1.776690 3.168052 -1.582495 -0.572728 1.730732 3.139863 0.035822 -1.280277 
宇宙 -1.349412 -0.773358 1.344462 -3.537533 -1.384032 -0.811912 -1.822041 -2.825261 -0.039801 0.458612 1.286788 0.902492 0.342846 -2.535469 0.359403 -0.302433 -0.857291 -0.726765 -2.585963 0.960886 1.607389 4.332508 2.785231 1.128049 -0.560106 -1.038716 -4.764843 1.010389 -2.432581 -0.011496 -1.797692 -0.306931 5.318274 -2.190334 0.830702 2.742570 3.443463 2.993304 -1.782521 2.011770 -0.454301 0.034003 -1.773921 1.220885 0.123539 1.182742 -0.478221 0.387973 -0.396986 3.275247 
グループ 1.173788 0.438440 -0.078033 -0.713767 0.699524 -3.589087 -0.502692 1.261051 0.962187 -0.670458 1.446078 -2.678247 -2.541612 -0.699735 1.741882 -0.517896 1.336764 1.759043 -0.536985 -0.470807 0.210472 -2.177644 2.051585 -0.173896 -0.560248 -1.589016 1.156048 1.859025 0.827993 -2.116719 -0.024308 -0.957362 2.849841 0.210334 -2.598412 -0.975384 1.442438 0.815622 3.643595 3.323398 -0.810133 -0.234384 0.479349 2.620119 -0.564891 0.063289 1.951390 -0.540709 -1.359652 -2.193900 
サッカー 0.850307 -1.384149 1.820631 2.056292 -0.438946 -2.380530 3.213129 0.414682 -4.100809 1.550164 -0.358497 -0.355980 1.230730 0.499186 -0.709044 0.831831 2.250527 -1.638189 2.167504 3.902028 1.129064 -0.552719 2.819674 -0.731264 -1.497838 0.308268 2.691852 -0.520957 -2.363845 -2.327991 2.289690 -3.245950 2.517217 0.304763 -4.665612 0.206388 1.424166 0.170945 1.687454 -2.194264 1.115933 -2.136265 0.095632 0.043711 -0.628008 3.044272 0.764975 -2.389215 4.153311 -2.012674 
空港 -1.112581 1.204238 -1.206553 0.805502 -1.777608 -2.920095 -2.961680 -0.471133 -2.791672 -0.458708 0.922943 2.648627 -5.123555 -3.683803 1.195255 2.753365 -1.583020 -0.390148 -0.088372 3.741469 0.884575 -2.181836 1.028513 1.641895 -0.024993 -0.610686 0.298798 -5.468010 -3.267868 2.317657 -0.633184 1.738912 0.715961 2.314663 -2.116726 0.811848 -5.635931 2.548387 -0.217359 -3.009308 0.640093 0.903729 -3.526499 0.686083 0.385456 2.148446 2.197558 0.456558 -1.291374 -3.172352 
部隊 -0.301410 -2.271904 1.129937 -1.415549 -4.726219 0.131190 -1.839332 0.631308 -2.103545 0.898962 1.187487 -3.534585 0.945970 -4.253801 -2.377519 -1.487958 -0.638942 2.172939 -2.078657 -0.150958 4.574341 -1.807806 -1.911676 -0.948033 2.315416 -1.592550 -0.731448 2.771902 -2.094965 2.263639 -0.449934 -2.148560 1.886664 -1.567430 1.468159 3.028908 -4.117749 -0.535317 1.286880 -0.868696 3.128094 -0.703343 -2.413522 0.545353 -1.574755 -0.840564 -0.270437 0.273512 -2.503464 -1.067543 
国内 -0.930668 2.607680 -0.400895 1.529095 -1.507218 -2.811809 2.642276 0.104442 -0.209508 1.338610 2.010435 -2.250947 -1.424016 0.163426 -0.422221 3.433011 2.492887 0.285748 -0.046690 1.665932 0.007842 -2.982689 -2.242082 0.027226 -2.100301 -0.088675 0.302569 -0.357107 0.305214 1.181678 -2.517514 -0.017201 3.395313 0.473318 -0.488386 -1.249471 -2.252831 1.631279 0.614375 -1.405900 -0.416820 -0.081712 -0.867524 2.185302 -0.443866 0.960056 0.669461 -1.148845 -0.570272 -1.812856 
力 -1.848782 -1.354418 -1.699297 -1.219905 -0.029816 1.849159 -0.411732 -0.672138 0.786363 2.307068 1.088743 -0.997163 0.343385 4.654679 -2.564543 -3.158370 -2.303768 2.611305 -1.170529 -0.697270 2.257546 1.421367 0.430428 -0.746355 -1.549361 3.644258 -1.863227 0.609589 -1.405237 1.698391 -1.840870 1.733417 0.373371 -0.918563 0.240061 -0.357932 3.000034 -1.503070 0.983333 2.175689 1.678436 -0.530247 -2.219119 -0.692858 -1.111767 1.995348 -4.169483 0.081727 -0.432077 -1.261978 
高速 -0.360805 -0.676924 -0.664735 -2.177584 -0.329430 -1.853079 -2.070962 -0.620332 -2.282272 0.526337 1.405553 1.165468 0.874687 -2.288723 -1.237563 0.285669 1.482759 2.891600 1.591557 -0.882252 -2.207228 -1.208064 -1.138902 2.838021 -0.868375 -0.218857 0.160546 -3.255939 -2.696359 2.221655 -2.217467 0.700534 -1.400724 0.782411 -2.417121 -1.329685 -2.703466 -0.648870 -3.637709 1.338073 2.129325 0.505273 -3.813406 -2.432219 -3.636379 1.701369 0.757433 0.833933 1.103037 -2.168885 
名称 -0.778136 -0.328936 0.563782 0.784725 -2.158868 -2.263502 -1.101568 2.314934 -0.879664 -2.604369 3.297005 -0.246209 0.385321 -0.892558 0.117002 0.747876 -0.062874 -1.512930 1.080304 -0.730837 0.083141 1.725262 0.333450 -1.143598 1.274140 0.405781 0.128878 -2.001100 1.339111 -0.903630 -1.868155 -1.116194 3.505415 -0.304557 -1.382567 -2.011731 -2.091601 1.166532 -0.216012 -0.503697 -0.927078 0.819004 0.813716 -1.784269 0.037414 1.254138 0.648680 -0.796311 1.279008 0.103939 
市 -0.554755 -0.270570 0.821825 2.989340 0.206485 -0.285531 -1.813892 1.239321 -3.492655 -3.135216 -2.692996 0.865548 -1.259578 0.399044 -2.413401 1.844129 -0.258784 -1.708609 -0.582327 -1.557861 -1.660324 -0.471416 -0.803559 0.158824 -1.417092 -0.380122 -0.585152 -3.735588 -1.547024 1.477013 1.109725 0.321419 -0.308373 1.390610 0.310727 0.923163 -5.453314 -0.156205 2.300944 0.348610 -0.505790 2.816195 1.305022 1.274291 0.665025 0.996113 0.482722 -1.640479 0.265479 -4.147552 
基本 -0.451323 -0.760228 2.376856 -0.298798 0.140812 1.170863 -0.501042 -1.131889 2.249355 -0.020603 2.554580 1.561910 -1.555426 -0.737095 -1.707686 0.262640 -0.198584 0.772610 0.834716 -0.731770 -0.094282 -0.800236 -0.622534 -1.034320 0.714910 1.484123 -1.045728 -0.782196 1.107033 0.003792 -2.601059 -1.093925 0.911511 -1.006853 0.134830 -3.042532 -0.181484 -0.279168 -0.715752 1.970198 0.852501 -2.338810 0.135785 -0.330171 -0.996478 -1.464099 0.046810 0.897292 -0.027387 0.241391 
ファイル -1.671345 0.616319 0.780669 1.635519 1.957628 -3.392053 -1.417961 -0.573684 0.048368 -2.292444 0.990003 0.431057 -0.043782 -2.732499 0.764943 -1.410980 0.771845 1.989092 -0.345795 1.059513 -0.420989 1.112385 -3.266278 -0.074410 4.377918 -0.898329 -1.203790 -1.245017 -0.789779 0.588550 -1.051971 -0.610316 -2.863377 -0.163121 -1.135753 -2.252513 0.334779 0.224487 -0.395970 -1.018132 1.299305 0.528170 2.094355 -1.500877 -1.323468 0.315460 0.655789 0.429235 -1.045737 0.737070 
神 -0.756156 1.084887 -1.589009 -2.239316 -1.104341 2.466193 -1.985701 1.826049 -0.678099 0.225294 0.966667 1.492802 -0.120542 5.994599 0.164049 -1.233218 -4.362110 -1.038314 -1.216131 -0.969220 2.978725 2.528835 0.539393 -5.334748 -0.038167 1.097404 -1.547930 0.761088 -0.017550 -1.186876 -1.538958 1.970111 -0.655419 -1.604102 -0.773614 -0.193214 0.496036 -0.926835 0.367261 2.498140 -0.675659 1.741233 -1.330897 -0.288637 1.158936 0.776939 -5.045358 -0.381669 -0.603658 0.585693 
英語 -1.335776 -0.083575 -0.015884 -0.307148 -2.751175 -1.771012 0.571898 2.361159 1.202435 -1.134043 1.860069 0.782077 1.361372 -1.589887 -0.423429 2.672967 -0.496537 -0.780576 2.165021 1.687183 0.079119 2.120514 2.018453 -4.028529 -1.397398 -0.109105 1.601888 0.141628 1.201214 0.018197 -1.360462 1.522227 2.025079 1.724511 -0.998667 -1.339629 -0.175796 1.347308 0.067432 -1.143160 0.023318 -1.232441 2.581699 -2.834729 0.163010 -2.207616 3.046486 -2.462048 0.386656 0.224310 
プロ 2.635678 0.698632 1.243384 1.404568 0.706408 -0.698115 3.800399 -1.686273 0.024440 2.194806 -1.039035 -0.847889 0.448422 0.492589 2.741554 -0.920584 1.938702 -2.012490 2.669193 0.376762 3.095119 1.629462 1.315623 2.057230 0.030911 -0.630715 2.573155 -1.174186 -1.652850 -3.149887 0.873948 -1.626129 0.759375 0.036063 -2.051355 -0.974887 1.952668 0.291938 1.283024 0.756782 0.566136 -1.371168 -0.061006 3.764368 1.779809 0.073570 -0.268460 -2.520745 2.637248 0.490135 
娘 0.772372 -0.070947 -1.736156 -1.913068 0.650146 0.738987 1.791975 2.421379 0.833155 2.105953 -3.258260 0.190285 -0.801165 1.598820 -0.201225 -4.159895 0.402999 0.007210 -1.913484 0.390528 0.514993 0.451101 -0.316821 -0.513946 -2.002696 0.516897 -1.862782 1.289950 0.159535 -0.979184 3.385363 2.105459 -1.308029 3.564553 -0.711590 0.577781 1.431846 -1.477744 -0.312255 0.406437 -3.169827 0.503791 -0.449339 0.017620 3.489887 -1.256570 0.830571 1.480371 -2.239298 2.149289 
目的 -1.225608 -0.138004 -1.327241 -0.730474 -1.043483 -0.554464 -0.126952 -2.200169 0.156220 0.596497 1.246595 -0.192685 -1.012812 -0.242892 -2.143895 1.635274 -2.091323 0.994840 -1.244490 0.334845 1.870040 0.300313 -1.285010 -1.358709 -0.912395 1.023611 -2.536299 0.129599 0.055679 0.715894 -2.342407 -1.341614 1.190790 -0.291102 -0.222130 -2.428438 0.102762 1.526639 -0.081345 1.810732 0.878253 -0.466906 -1.276865 2.048764 -0.946735 0.357437 0.779645 1.690939 -0.561531 -1.728485 
場所 -0.590673 0.596019 -0.793108 1.371306 1.748785 0.393666 0.517290 -1.539045 -2.154602 -2.577681 0.134369 -1.149074 0.260736 1.326829 -0.165245 1.984799 -2.423097 1.617115 -2.433236 2.297375 3.155322 3.053182 -0.338883 -0.149540 2.080343 1.184491 -0.383093 -1.321062 -0.777355 -0.071913 1.385106 0.626438 -2.535589 0.412134 -0.183921 0.846176 -2.475691 1.412165 -1.461542 1.455206 1.043882 -0.047076 0.462125 -0.046868 0.769793 0.252126 -0.475161 0.370264 -0.625971 -2.193834 
海軍 1.505125 -0.627341 -0.515592 -3.951871 -5.968211 0.719114 -1.714403 -1.432288 -2.577362 -0.596539 -1.242248 -1.140914 0.256631 -2.982183 -3.515045 0.994014 1.086021 -0.220877 -2.018746 1.391502 0.637009 0.370672 -2.765105 1.962284 1.438927 -2.755775 -1.287304 1.608468 -2.579954 0.056169 0.820992 -0.953774 4.528865 -0.774840 3.295250 -0.733626 -2.123035 0.999847 1.977227 -4.869071 0.135703 -0.907854 -1.147977 -1.211930 -0.833595 -2.666642 -0.845600 1.165552 0.857156 1.340291 
行政 0.284967 1.005681 1.257876 -0.813274 0.359468 0.964944 -1.290821 0.195626 -1.655204 -3.342814 0.352689 0.745420 0.356128 -1.730000 -2.309057 3.648204 0.818909 -1.174158 0.760501 -0.591069 -1.857615 -0.626108 -2.598612 -1.034599 -3.142623 1.151733 -3.419238 -3.261685 -0.061212 2.346552 0.823141 -1.849698 3.595752 -2.581797 -1.336370 -2.752709 -5.303975 -2.136259 4.621492 0.714147 2.467789 3.205061 2.224432 0.414878 2.066218 -0.635801 0.421227 -1.094404 -1.227220 -0.429830 
特徴 -0.964421 -0.224630 1.220308 1.390866 1.345565 0.529774 -1.011231 -0.221832 3.874157 -0.237004 3.683069 0.688981 -1.310836 0.593509 -2.660225 0.448605 -0.977387 1.827029 0.534206 -1.438905 -1.746984 1.017881 0.340213 0.067314 1.125474 -0.170976 1.829837 -0.316712 -0.350071 -2.016374 -1.550407 -0.427738 0.691832 1.911947 -0.212881 0.029278 0.660058 -1.708448 -1.849893 1.431397 1.544776 -1.734868 1.121968 -0.531112 -1.222517 -0.610432 -0.738473 -1.604608 -1.171420 -0.468124 
野球 2.497284 -0.432220 3.527806 2.480131 -0.450700 0.140841 3.830696 -2.603813 -1.633587 2.541037 0.554481 0.892393 0.125882 0.149055 1.268276 1.057556 1.281776 -3.946365 2.660837 -0.149094 3.229824 -0.130058 1.724612 2.116214 -0.115514 1.581487 2.800527 -2.180951 -3.029076 -5.022861 1.952357 -1.972430 -2.592376 -0.883978 -2.854809 -0.924456 2.164494 0.518733 3.471606 -0.305043 -0.061511 -2.338021 0.421399 1.069223 -0.302610 3.046704 0.523875 -2.202609 2.741290 -0.313996 
最高 -0.876107 -0.221017 0.281057 -1.124362 1.219886 -2.349451 2.795037 -2.491075 -0.884571 1.285491 3.341826 -0.826789 0.376036 2.216140 1.159875 1.830984 1.520326 0.657142 -0.556390 -0.374158 -0.093764 -0.943550 -1.132211 1.756032 -1.253289 -0.912807 -1.602193 2.618167 -2.648725 2.412181 0.905403 0.548517 2.236743 -3.107805 -3.109710 0.105552 -2.707492 -1.560048 0.801866 -0.823646 -1.088987 0.673316 -1.577312 0.108820 -1.218254 -3.466276 -2.503479 -1.425783 0.430125 0.796332 
敵 -1.243763 -2.782131 -0.519813 0.221863 -1.183097 1.965711 -1.633377 -2.724591 -1.939916 2.865322 0.790545 -2.810983 0.193037 -0.258129 -0.672787 -3.076230 -2.317490 2.721069 -0.984702 -1.052924 4.281003 -0.192781 0.841046 -0.064878 1.790859 1.448373 -0.994240 -0.079879 -0.123928 2.447976 -2.726133 -0.665120 0.522753 0.372091 3.669222 1.355728 -1.315107 -2.548938 -2.858638 0.948955 3.510091 -3.707527 -1.729574 -1.296631 -1.435654 -2.146060 -2.542371 0.558408 -1.057137 -0.876894 
モデル -0.166183 1.018994 0.841577 2.249853 0.362648 -1.530372 0.274204 0.520000 1.326494 0.388614 3.727027 2.917890 -1.877725 -2.321015 -0.360525 -1.219479 1.646485 -0.235294 1.107166 -1.368896 -1.533549 0.738808 -1.675260 2.866196 0.493356 0.214371 -0.625848 1.862368 -0.134113 -2.180188 -0.270849 1.830214 2.143608 0.982660 1.950512 -0.815303 2.483100 0.888715 -2.071436 1.712567 -2.128443 -0.768316 -1.793097 0.779062 1.177993 -1.643378 1.213957 -1.448285 0.608294 0.994596 
アルバム -3.438736 2.067168 -1.617081 -1.428484 3.121893 -3.089532 1.303157 0.961668 1.668606 2.184807 -2.133630 0.808319 3.128687 0.110117 2.811574 -1.359386 0.384294 0.487802 1.446813 -0.228918 0.382463 -2.505667 1.591425 0.041421 3.519075 -0.548628 4.066368 4.531667 0.498757 -2.601012 -3.031135 5.449299 0.275820 -1.815343 -1.481537 2.481653 -2.172408 0.448045 0.805983 1.330665 -3.486205 0.344617 1.735099 3.366114 -2.572534 -2.420096 0.952069 -0.744615 -0.678075 1.115177 
教会 -0.955706 -0.985387 -0.035613 0.718103 1.067046 -0.275481 0.357795 3.083474 -1.632027 -4.159900 -0.082133 2.715953 -0.836115 3.790119 -1.588247 1.502040 -1.936656 -1.722721 -2.168528 3.520190 0.681395 -3.167391 -1.031799 -2.975327 0.807691 0.521015 -3.133703 0.921105 -1.391200 -0.580745 1.095573 -0.484067 1.182471 2.352497 -0.068594 0.970214 -0.904041 3.561588 3.207388 0.132503 1.411051 3.011744 3.965671 -0.318743 -0.061163 -1.051258 -3.727775 -0.516856 -2.283214 -1.667806 
連邦 -0.342030 -1.057705 3.032388 -1.322049 -1.448420 -4.368719 2.369562 -1.187664 -2.775725 -1.516515 1.771776 1.773418 -1.648874 -2.757722 -2.204834 -0.030375 3.301400 -0.460777 -2.887351 -0.567038 0.352154 0.110947 -1.954393 -1.181835 -3.026179 0.354952 -2.353870 -0.001782 -1.469247 1.420088 -2.049933 -0.913871 6.094650 -1.115347 -0.566895 1.514844 -3.523332 1.262111 2.883145 -1.557373 1.556340 -0.495393 -0.574029 -0.983594 1.123764 0.836170 0.329396 0.336296 -1.127826 -1.470694 
小説 -2.540865 1.484402 3.008473 2.960523 -1.404580 -0.757530 -1.029869 0.482993 0.256062 -0.629686 -2.539098 1.673728 3.761291 -1.366342 0.562795 1.386829 -2.635663 -3.332805 -1.322701 -3.110138 -0.493755 1.027727 1.125378 -0.413624 -1.741245 -0.262911 2.362118 3.063322 1.439359 -0.150733 0.677220 1.153845 0.109376 3.157216 2.654624 -0.340042 3.069187 0.750271 -1.181800 -0.073967 -1.651282 -1.424655 -2.100070 1.068183 1.282645 -2.078393 -0.588463 -0.033562 0.105484 4.226299 
メンバー -1.502382 -1.494750 0.632289 0.316507 0.373443 0.426357 1.371602 0.728018 1.681994 1.299705 -0.143916 -0.390992 -0.109840 -0.668895 1.963837 -3.576377 1.109030 1.014057 -2.067750 0.062566 1.953208 -1.949612 3.567579 -0.219496 2.981104 -0.077332 0.446016 3.861136 -1.858589 -2.189561 1.288565 0.330935 2.815260 -1.649621 -1.818087 0.098182 0.845229 -1.389670 3.880951 2.958466 -0.431600 -2.771937 1.093851 2.561504 -0.770775 -0.105036 2.594110 -0.182151 -0.868201 -0.751138 
原作 -2.089686 1.501866 3.977781 0.975292 -0.507152 2.303055 -2.337893 0.520977 1.027236 -0.026214 -1.950665 0.936844 3.008381 1.892348 0.627770 -3.361580 -1.339673 -2.381673 -0.759089 -3.254888 -0.231226 -0.775839 2.399659 1.518350 0.359782 2.086326 2.075720 0.815011 0.714152 1.018870 -0.649128 0.115982 0.418513 1.574057 0.936413 0.679533 2.897045 0.441005 -2.123084 0.074666 -0.692514 -3.663775 -0.839264 0.343762 2.792958 -1.601840 1.624053 1.563195 0.690263 3.518427 
物語 -2.401144 0.213483 3.939924 1.478161 0.805714 1.725098 -1.248611 1.960566 -0.985727 -0.327516 -1.927423 1.616549 2.487122 0.428528 0.633912 -0.257629 -2.925390 -1.223991 -1.995752 -0.452601 -0.615075 2.059023 0.336443 0.042737 -0.309848 1.917204 1.768898 2.258863 1.554598 -0.181136 -0.823909 0.715369 0.026116 0.503591 0.694334 -0.572686 2.813775 -0.385246 -1.127466 0.207173 -2.994092 -2.811557 -1.565902 1.472354 1.885446 -0.609957 -1.990034 1.405514 -2.713834 2.772569 
劇場 -2.918432 -0.506760 1.589932 0.877105 1.540686 0.568409 0.725537 0.612295 -1.096538 -0.317305 -2.010945 0.433257 3.260361 0.032039 0.612353 -1.658504 2.767796 -2.871604 -3.028749 1.000088 -2.411356 0.907131 4.050282 2.682725 1.153088 -1.581100 0.169350 -2.248848 1.429825 1.847300 -2.636417 0.052865 -1.240375 -0.671020 -0.229006 1.185375 0.587303 2.465543 0.389772 0.669012 0.143845 -1.078811 0.010971 3.416945 0.101434 -0.887087 0.399207 -1.537928 -1.941798 3.437583 
男 1.148468 -0.908354 1.198306 1.257622 -1.815324 2.216807 0.159738 -0.975382 1.797957 1.824490 0.520926 -1.667561 0.684315 1.914453 1.050022 -2.552358 -1.324261 -0.353180 -3.623511 -0.498481 -0.087822 1.675942 1.815352 -1.662401 -0.672408 0.689652 -0.486143 2.327014 -0.848773 0.232922 0.907404 2.350844 -2.569219 3.714411 -2.019346 1.151078 1.473573 -1.458564 -0.581409 -0.628447 -0.555863 0.062455 -0.569909 0.653334 1.513321 -1.222741 0.605770 -0.302840 0.063314 1.351965 
周辺 0.974769 2.171217 0.951950 1.329176 0.433340 0.657921 -0.760406 0.104592 -2.378142 -0.848983 -0.421249 -1.735963 -1.438097 -0.785051 -1.142859 2.984564 -0.321496 0.295713 -1.035434 0.486728 0.190839 2.122010 -3.132307 -0.273679 0.278090 -0.403812 -0.286991 -2.461787 0.339061 0.446597 -0.231142 -0.915027 0.203924 1.820139 0.460025 1.514833 -2.967491 1.748883 -1.774257 2.082121 0.745500 0.583903 0.933219 -0.251075 -1.083508 2.467611 0.045277 0.141062 -3.141442 -4.447850 
漫画 -1.041147 1.224172 4.125248 3.355995 -0.698081 -0.082079 -2.602611 -0.198246 1.165721 0.192518 -3.018589 1.864871 3.288212 1.943892 -1.115080 -2.028374 -0.391974 -3.767846 0.701420 -3.509414 -0.411627 -1.411388 2.846047 1.714223 -1.268330 -0.478169 2.128763 2.134448 0.605711 -2.767023 -0.101750 -0.346601 1.350331 0.148654 1.277594 -1.027752 3.741794 -0.285887 -3.447992 1.126953 1.297790 -3.459704 -0.905102 1.104285 2.037069 -1.308935 1.886156 0.773983 1.361717 2.685755 
企業 1.015082 2.162697 -1.437928 2.194277 -0.657014 -3.725234 -0.828940 0.465083 0.839414 0.383344 1.281224 -2.978636 -2.451185 -0.876996 -1.053798 1.991696 -0.015164 -0.882860 -0.444884 0.435750 0.487131 -1.056831 -0.911803 2.130038 -3.461681 2.297573 -1.978342 -1.105243 0.731922 -1.998596 -2.889236 -1.623447 3.665493 0.543733 -1.379433 -1.668590 -0.492467 4.112977 4.520200 2.703281 0.403887 1.465285 -1.642664 2.862776 -0.980216 -2.556105 3.498968 0.593254 1.656486 -3.349437 
性格 0.334388 -2.573009 1.884306 -0.555192 -1.699350 3.154631 -0.986999 -2.021391 3.625156 3.230785 0.999643 0.071614 -0.218036 3.140579 -3.515032 -2.577702 -0.365415 -0.037381 -1.195377 -0.113348 1.076514 0.304371 -0.032789 -1.076226 -1.585003 4.332899 -1.198393 2.262295 -2.110843 -2.784179 2.625144 1.047773 -0.081290 3.032505 -2.953606 0.342005 2.630102 -3.737334 -0.081507 1.687618 0.780704 -2.249053 -1.585156 -0.331303 0.485551 -1.818332 1.097328 0.875023 -2.274642 -0.599888 
相手 0.866336 -3.793101 -0.310021 0.284417 -0.135631 1.430374 0.844470 -2.885586 1.147331 3.092862 0.852173 -2.485241 -0.159829 2.500592 -0.721535 -3.270790 -0.754454 1.318091 -0.726509 1.366616 4.282073 0.114952 1.488043 -0.307046 -0.030902 2.138874 0.528129 0.518088 -0.304221 1.067423 -1.345253 1.271625 -0.873419 2.853032 -0.612129 -1.119403 0.648104 -3.150783 -0.120859 1.049283 2.084472 -4.270348 -0.992271 -0.192216 -0.342428 -0.568703 -0.484633 0.511208 2.648372 -1.399296 
海 -0.906200 3.587615 0.001618 -2.642522 -2.872506 1.666577 -1.970897 -2.226858 -1.256770 -2.007941 -2.886643 -1.323541 0.259903 1.450504 0.089212 -0.277954 -2.182410 1.699307 -1.322707 0.322613 0.069981 2.984005 1.265260 -1.165115 -0.346075 -0.912464 3.162499 -0.657917 -1.903827 0.646202 2.364511 1.220872 -0.617043 -0.536944 0.481491 0.682692 -0.620030 -0.518709 -1.032423 -1.259701 0.364836 -0.175689 -0.351868 -0.287443 0.524096 1.560860 -0.732719 -0.274416 -1.838664 -1.125167 
水 -2.052830 3.434932 -2.180914 -0.724082 -1.217729 3.282515 0.288871 -1.631197 1.074566 -1.496720 -1.958443 -1.085835 0.868974 -0.010707 -1.703171 0.860516 -3.496748 2.468831 0.313801 -2.852174 0.954266 1.348611 0.282318 -1.595445 -0.669687 0.289663 -0.119161 -3.579424 0.376208 0.718299 1.516661 -0.536590 -1.843940 -0.321415 -0.343516 1.156867 0.947226 -0.109374 -2.458744 0.708102 -0.641949 -0.151897 2.097368 -1.875762 -0.051142 0.198742 -3.223164 0.582094 1.601555 -3.165735 
州 0.843422 -0.622593 -1.861216 -0.314218 1.505647 -1.983988 3.042774 -1.807333 -3.035077 -3.467121 0.813005 0.018633 -0.585218 -1.567449 -3.803483 2.814272 2.793638 1.742798 -1.203130 -3.312995 -0.893167 -1.652781 0.520793 -3.359432 -1.965863 2.879366 0.504366 -0.818675 -2.692929 1.532458 0.276615 1.937867 0.357814 1.108118 -0.445528 -0.038555 -6.638907 0.181806 2.418113 -1.325793 0.930167 2.037743 0.044077 -0.119654 1.612777 -0.248815 -0.104709 -1.902135 0.155336 -1.552651 
花 -3.774132 0.199887 -0.496229 1.362049 -0.121449 0.474642 -0.206781 0.079450 -1.063087 -0.078048 -0.321677 -0.603970 -0.392935 0.941607 -1.985514 -2.191341 -1.515787 0.964486 -1.497925 -0.023882 -0.980637 0.342886 0.060859 0.760467 -0.804562 -0.099432 4.232014 -1.492922 1.314884 -1.922492 0.619959 0.177165 -2.947342 -0.857583 -2.699724 1.140090 1.791068 -3.338084 0.229762 -0.771854 -3.085846 1.415806 1.789472 -0.666761 0.405930 -1.467842 2.057632 -1.056325 -1.400125 0.886426 
文字 -0.202550 -0.843096 0.824974 -1.047503 0.549168 -1.618627 -2.149849 4.578351 1.731981 -0.351894 1.902473 2.880498 -1.091131 1.064163 1.170198 1.128206 -0.734553 2.537197 -1.086760 2.045654 -1.431163 2.566014 -0.251931 -2.282585 2.118053 -0.126047 0.364160 -0.523029 1.031951 -0.562639 -4.057653 -0.367392 -1.420735 0.912312 2.307477 -2.561222 -0.709913 -1.930804 2.225246 -0.018748 2.643655 -1.416728 1.816931 -3.440050 -1.818216 1.962626 0.868356 -3.411929 3.045337 2.333376 
言語 -1.844323 -1.952270 -0.675650 -1.083905 0.880031 -1.260991 -2.034444 2.701854 1.875328 -1.653179 3.045587 3.815401 -0.781856 -2.587842 -1.494375 4.401920 0.150511 2.189015 1.724404 0.989502 0.058036 2.605456 -1.957020 -6.324690 -0.926609 -0.272265 -0.528584 1.728965 1.110096 0.681140 -1.903371 0.786904 0.423269 0.601817 0.924436 -4.091912 1.271706 0.645338 1.591208 0.785308 0.653147 -3.169619 -0.329495 -1.393300 0.576735 -0.908540 1.016521 -4.073325 -2.553505 -1.861295 
初期 0.251592 -1.026586 1.356912 1.624933 0.202380 0.058607 0.445651 1.502639 0.282225 -1.774566 0.051443 1.425605 0.326200 -0.244521 -0.240104 1.369998 -0.013461 2.500866 1.164147 -1.619178 -1.918498 0.613594 -1.742338 -0.033244 1.193042 -0.043516 -0.655926 1.336634 0.136073 -2.178319 -1.437700 0.384079 2.765588 0.610702 2.469472 0.559709 0.417153 1.440466 -1.037003 0.902685 0.281461 -1.365894 0.616179 0.557552 -1.170754 0.045864 -1.293153 -0.420279 -0.769693 1.869896 
全国 0.973411 2.383640 -0.422049 3.474491 -0.420202 1.410003 2.658974 0.541214 -2.461982 -0.269186 -0.058863 -1.290791 -0.668075 0.809494 -1.076974 2.875664 3.057531 -1.792252 -1.470509 -1.153625 0.589904 -2.882959 0.594238 0.997585 0.077610 -0.476111 0.071798 -1.635478 0.046907 -0.522306 0.723157 0.413660 0.091797 -2.697562 -2.571346 -3.050601 0.171038 0.219780 2.048178 -0.105951 0.493124 0.751642 -0.647576 1.923886 -3.897985 1.661018 2.715615 -2.862005 0.208363 -1.663827 
党 -0.819894 2.899999 0.073914 1.165321 -0.908047 -1.304500 2.061213 0.405156 -1.036329 -0.388409 0.765754 0.591473 -2.731128 -0.930454 0.589369 -2.391980 2.238993 -2.046238 -3.628768 -4.661631 0.763453 -5.226303 -1.061294 -2.599878 -3.678664 -0.362167 -2.238496 0.962149 0.965000 0.244195 2.473131 -0.872699 2.013055 -1.671877 -0.183155 -0.775341 -0.683478 -3.535566 6.588694 -0.464572 2.601495 -1.242982 -0.915608 -0.966423 -3.055382 -0.398896 -2.630230 0.694616 -0.190769 -1.420628 
国民 -1.983191 -0.414159 -0.820508 -2.001113 -1.957155 -1.225954 3.078533 0.113604 -2.389729 2.286788 -0.594726 0.729750 -0.604801 0.380353 -1.783183 1.854687 2.167569 -3.512052 -2.744940 -1.196647 -0.026770 -3.144803 -2.256678 -3.991277 -4.048537 0.144961 -1.703254 1.096988 0.834652 -0.252186 0.095296 -0.020875 1.230288 -2.650899 0.208919 -0.090014 -0.300496 -1.765622 2.932256 -1.233976 1.910821 -0.819429 1.011428 0.630693 -2.942007 -1.045497 0.834510 1.674040 0.888614 -1.838838 
交通 1.116244 0.114216 1.749088 0.053734 -0.482172 -1.688936 -2.091259 -0.357203 -0.363441 -1.036518 -0.648430 0.516838 0.701496 -3.108424 -0.786048 3.795165 -2.401255 0.518539 0.563939 1.285741 -0.101675 -1.268963 -0.366020 1.387410 -3.457574 1.335633 0.099576 -3.450440 -4.389917 0.187244 1.769054 -0.677043 -0.428689 0.066567 -2.047004 -2.980273 -3.797385 0.539042 0.039941 1.134036 1.619029 3.314719 -3.727933 1.372710 -3.420340 2.945665 1.246902 5.563676 -1.183668 -3.223213 
下 0.967244 0.920997 0.988451 -0.690894 0.054748 0.064276 0.861006 -0.440477 -0.414974 -1.537377 1.182528 0.280233 -1.444857 0.743776 -0.366644 -1.675810 -1.094126 2.173323 -0.786993 0.085626 0.348692 0.979617 -0.644358 -0.703209 -0.924335 1.119545 -0.355315 -0.670835 0.221444 0.931449 1.178016 -1.127487 -0.294528 0.727518 1.307577 0.572851 -1.457031 -2.495144 2.241344 -0.472163 0.867624 0.136668 1.499515 -0.930795 -0.773865 -0.589350 -1.583664 1.445483 0.912276 2.024351 
子 0.616998 0.462206 -1.747090 -2.588436 0.461403 1.915146 0.261255 2.768569 -0.192056 1.953934 -1.942918 0.116728 -1.866188 1.972656 0.664961 -1.874908 0.645470 1.731524 0.838602 -0.623742 1.412583 -0.425846 -0.597480 -4.870157 -1.911712 2.119791 -0.502996 -1.422001 1.494669 -1.859807 2.506347 0.338529 -2.256809 3.010031 0.710064 0.278313 1.653401 -2.021907 -1.000315 -0.893195 -1.148721 0.433351 -1.149030 -0.923946 2.208497 0.342336 -0.232706 -0.208760 0.139895 3.487293 
理由 -0.354435 0.385723 0.177338 -0.028632 0.490820 1.736007 1.020149 -1.403337 0.793863 0.995948 0.968773 0.756332 -0.336839 1.444916 0.223660 1.208828 -0.163724 0.386750 -1.488649 0.345737 1.741026 -1.163375 -1.296201 -1.026899 -0.880336 1.938127 -1.328636 0.977573 -0.710591 -1.030212 -0.251470 0.487192 1.215397 1.335796 -0.283929 -0.449246 0.083382 -0.005020 0.984071 1.003499 -0.229285 -1.717671 -0.692470 1.115016 0.567060 0.022615 1.712817 1.662324 0.561467 0.044292 
方法 -0.187808 -0.384922 -1.489625 -1.161369 0.771527 -0.427246 0.682229 -1.749632 2.458940 -0.592023 1.634454 2.024702 -0.296257 -0.385276 -0.489330 3.036530 -3.079671 2.603266 -0.627389 -0.826909 1.864669 0.311073 -0.838500 -0.326578 0.534633 1.435015 -1.463802 -0.221456 1.443902 0.134764 -1.955555 -1.413183 -0.857858 0.099619 0.983182 -2.296229 1.524569 0.714734 -0.566159 0.868487 1.886371 -1.487344 0.447632 0.548593 -0.632652 -0.839322 -0.376059 -0.175959 2.913549 -0.782405 
地球 -1.799311 0.228057 1.210699 -2.741957 0.627510 -1.309235 -0.290918 -3.097365 -0.251280 -0.156010 -0.045883 -0.896549 0.287444 -1.489945 -0.602369 -0.031813 -0.479652 0.819528 -3.530094 0.668924 3.728306 3.705027 1.399419 -0.051663 -2.181854 0.681071 -3.002265 0.662464 -1.610604 -0.246642 -1.462447 0.235002 3.234385 -3.905875 1.540609 4.243471 3.290258 1.662267 -1.588142 2.294485 -0.348796 -1.387901 -1.132036 -1.175422 0.030390 2.716330 -1.336359 0.201668 -1.331758 0.161900 
王国 -0.730213 0.418744 0.516778 -0.948198 -1.649299 -1.812727 1.568709 4.180110 -1.702666 -0.609475 -3.169831 -0.017116 1.419348 1.426091 -2.811743 -0.186054 2.542531 0.238703 -1.364161 1.572612 -0.431932 1.469411 -2.254631 -2.558812 -1.992683 1.721251 -1.057121 1.443185 0.604364 2.668994 -1.039278 -0.437843 3.016890 -0.257717 -0.012705 -0.819592 -2.611539 -0.120104 0.404117 -0.221870 2.022677 -0.970061 0.517815 -2.737004 2.755504 3.580255 -5.385108 -0.485379 -3.790604 0.667020 
ホーム 2.277131 -0.944944 4.121328 1.881455 1.631436 -4.653566 0.267096 1.054365 -1.139789 -2.185033 -0.072443 -1.013525 -3.552530 0.913693 0.897339 0.216319 -0.127794 0.808499 0.449676 3.902133 -0.513741 -0.883739 -0.202211 -2.016997 1.781074 -1.337836 2.749830 -3.056726 -1.746057 1.982826 -0.556221 -1.186603 -3.076770 -0.869653 -5.036794 2.620287 0.215569 -0.033398 -1.962363 3.205694 0.361636 -5.183385 -0.376068 -2.546721 -1.262094 -2.109012 -0.429176 4.183283 1.440530 0.001450 
母 1.038219 -0.904056 -1.149871 -3.404832 0.496260 1.182138 2.282851 3.020958 0.030369 2.406534 -2.081545 0.485526 -1.246775 1.999961 -0.794931 -2.562261 -1.180374 -0.130915 -0.812641 1.596351 0.810719 0.789084 0.138588 -2.205058 -2.056964 1.735051 -1.573513 -1.102540 -0.710685 -1.948337 3.223538 2.351643 -1.659947 3.124657 -0.145500 2.241068 3.116847 -0.417973 -0.280655 -2.023043 -2.016845 0.960682 -1.032889 -0.751523 2.444333 -0.446985 1.054854 0.154219 -0.695394 2.058678 
データ -0.048151 -0.230422 0.779885 -0.427968 3.887990 -3.301247 -2.108670 -2.547529 3.758105 0.080101 -0.628211 0.333688 -1.004967 -2.056430 0.394460 2.337156 0.144877 2.675941 -0.542638 -0.489827 2.247687 -0.632504 -1.690776 0.270372 3.395926 1.216693 -2.869126 0.255076 -1.989888 1.575647 -2.498967 -0.838959 0.117968 -1.571076 1.012679 -2.666187 2.096205 0.702030 -1.644105 1.599217 0.611895 -1.289889 -0.869502 -1.167255 -1.041617 -0.116137 2.961425 -2.232574 0.011686 0.578387 
公園 -1.172531 0.572091 -1.981122 0.861269 4.059182 -2.295723 0.102081 -1.927543 -2.374138 -3.516740 -0.205960 -0.259079 1.846193 -1.384771 -3.778009 0.847039 0.780009 -3.920478 -2.009865 1.442069 0.108608 2.302637 0.782270 -1.260459 0.891130 0.070997 1.634799 -4.601526 -0.303924 -1.998168 2.510555 -1.667911 -2.495899 -0.314424 -0.349174 1.502581 -3.785618 0.207206 -1.819064 -2.134900 -1.179013 0.881784 0.084867 1.460369 -1.233553 1.095623 0.522828 1.510496 -3.206451 -4.262866 
クラブ -0.258164 -1.275610 0.696217 4.183299 -0.455733 -3.266271 2.363936 0.712210 -2.679053 -0.470745 1.622467 -1.822754 1.109748 0.344431 0.580479 1.275187 3.808085 -0.240496 0.413848 3.175453 1.112030 -1.441535 3.737189 -0.724456 -0.969927 0.498371 1.354596 -0.167915 -1.072340 -1.712052 1.798867 -2.220854 2.802635 1.541779 -4.472273 -0.621954 0.638736 -0.540883 2.433352 0.451739 0.004817 -1.093178 1.900367 2.682686 -0.475217 -0.037752 -0.476477 -0.085379 2.871376 -1.968582 
車両 0.532816 -2.100560 1.645513 0.300120 -2.076479 -1.193998 -0.990684 0.995487 2.979372 -2.695011 5.155762 -1.795793 -1.514648 -5.335719 1.185730 0.197999 -0.088153 1.115338 -0.907513 1.238128 -2.899796 -2.591348 -3.847492 0.755520 0.448559 -0.517991 -0.569159 -2.448861 -2.711667 0.181765 -2.129125 -1.006741 -2.622666 -2.090933 -0.663287 0.086304 -2.908872 1.296476 -3.170334 3.000838 -1.624137 0.664463 -3.774698 1.657730 -3.231423 -0.085032 0.443647 4.394283 1.775602 -1.179087 
環境 -1.409006 3.161027 -0.892054 0.625874 1.738335 0.512236 0.735590 -3.376574 2.119934 0.420418 1.429779 0.914416 -0.623212 -2.688153 -3.236248 3.641788 0.606064 2.167955 0.298848 0.355371 1.120251 2.192715 -1.221236 -1.690074 -2.060857 1.146424 -1.513536 -2.599196 -0.505705 -0.158012 0.271484 -1.681674 1.371282 -1.364595 0.188541 -0.585887 3.031771 3.205173 0.909740 1.657344 -0.299306 0.283086 -0.412339 0.983936 -1.671824 0.058188 1.237982 0.755439 -1.495168 -4.357004 
子供 0.943841 -0.970744 -0.435838 0.346263 1.241031 2.238420 2.743263 1.450353 1.347218 1.167478 0.131628 1.760240 -0.071933 1.983798 -2.037193 -0.561633 0.954462 -0.530623 -3.169009 1.336430 1.705823 -0.416140 1.656519 -3.970487 -1.815268 2.640430 -1.332466 0.026036 -0.055709 -2.253888 0.501665 1.707483 -1.200445 3.100097 -0.442231 1.517427 3.530993 1.176453 -2.062871 -0.129848 -0.205135 -1.273195 -1.630761 1.717182 1.265120 -0.681068 2.763503 1.665318 -1.120111 0.714421 
文庫 -0.281831 1.743873 1.911921 1.611009 -1.060813 -2.307457 -2.674974 -1.385736 -0.538132 0.320891 0.072288 -0.298278 3.968021 1.131602 0.084913 -0.372666 -0.861399 -1.609747 0.160441 -1.102444 -0.759253 1.127299 0.071659 -0.985157 -1.292690 -0.221054 1.522072 2.331793 1.513319 -0.315890 -0.001283 0.764040 -3.456506 -0.396361 3.107533 -1.176568 2.546683 0.202218 -0.060036 -1.583183 -1.268416 1.718919 -0.018042 -0.697923 -0.055664 -1.390233 -1.872582 2.007199 -0.258929 4.249927 
女 -0.239890 -1.281888 0.279432 -0.049678 -1.260788 2.644044 -0.271680 -0.139548 1.209688 1.357766 -0.860555 -1.343180 0.403740 3.097978 -0.292347 -1.958371 -0.126701 -1.067589 -2.747009 0.270812 -0.518236 0.752902 -0.042681 -2.421942 -0.272504 -0.943092 -0.682742 2.405641 0.378336 1.262315 1.727728 2.531667 -3.695068 3.447941 -1.826702 -0.078836 2.072081 -0.727371 -0.768567 -0.025814 -0.970559 1.820470 0.806446 0.878083 2.607472 -1.016378 0.437103 -1.630725 -0.532267 2.278986 
元 0.180895 -0.939896 -0.868415 -1.004590 -0.266296 0.301289 -0.301168 0.512785 0.285576 -0.134748 -0.421558 0.672167 0.246175 2.032465 0.212016 -0.670827 -1.699226 1.488544 -1.335015 -1.215040 0.901818 1.095036 -0.985112 -0.215132 0.815713 2.691533 -1.425429 0.855871 -0.000924 -0.259035 -0.463462 0.542749 0.706640 1.442758 1.690422 -0.207929 0.763361 -0.594515 -0.464943 0.062585 -0.423485 -0.723639 -0.728159 -0.600375 0.469914 0.462263 0.339778 -0.041294 -0.992852 1.554555 
小学校 1.110363 -0.556282 2.388334 -1.056245 0.436365 1.934223 0.142470 1.855754 -2.058078 -3.148189 0.593138 -0.567459 0.908548 0.586085 -2.406965 -1.117824 1.610126 -2.405608 1.285740 0.822043 -0.499573 -1.969306 0.836659 -2.650991 -0.082464 1.802443 0.959016 -1.478220 -0.676670 -2.680231 5.252271 1.239087 -3.504334 -0.077084 1.194697 0.550634 2.106973 2.134384 0.868543 -1.685638 1.257509 -1.614723 0.077684 -0.503271 -1.171414 0.477813 3.575049 -1.259972 -0.251041 -2.655766 
作戦 0.467708 -1.037252 -0.466321 -1.281768 -3.186759 0.507130 -3.357699 -2.956127 -1.562031 2.142319 -0.902303 -1.675318 1.824408 -3.598774 -1.047337 -0.299748 0.377128 1.045168 -2.710538 0.584649 3.252380 -1.921098 -0.703071 0.635236 1.638003 -0.987136 0.077710 4.026949 -0.937676 2.885000 -1.322341 -1.886332 1.794278 -1.440877 1.500293 3.439341 -3.114838 -0.482669 0.332506 -0.159915 0.568961 -2.853016 -2.032611 -1.185771 -0.796512 0.151383 -0.463515 1.808048 -2.031423 -0.625902 
自動車 2.409707 0.968980 -0.677562 0.218477 -2.177035 -2.687576 -0.711310 2.564931 -0.195900 -1.539793 4.648945 1.536652 0.240557 -1.301554 -0.124287 0.934655 -0.230719 1.193664 2.053265 1.301134 -0.845157 -1.818577 -2.239051 2.929898 -3.039586 1.258154 -0.538003 -0.400549 -0.368956 -0.570886 1.369315 0.619763 -1.018168 -0.093533 -1.831630 0.368642 -2.322344 2.639284 -1.744701 0.657277 1.211303 1.976360 -4.953229 1.062806 -2.125257 0.708693 1.235219 1.958971 2.285620 -3.621358 
動物 1.227703 0.729877 -2.706662 0.136308 1.769051 -0.040938 -1.377763 -0.875134 1.114113 0.145000 4.318469 1.732546 1.348274 0.156414 -3.070687 2.012629 -1.137391 1.099225 -2.338756 -1.700864 1.297698 2.856581 2.940416 -2.308692 0.204969 -0.613827 1.802156 -2.599397 2.407065 -3.125315 0.052089 -1.217420 -0.070682 -0.286408 -0.275220 -0.056682 2.652809 -0.902817 -1.343438 -1.174912 2.053767 0.288853 -1.264872 1.797514 2.345074 1.416978 -0.262565 2.372918 -2.271178 -1.302755 
公 -1.648356 -0.839107 -2.184593 -1.491022 -0.831268 0.917830 -1.660226 2.752878 -2.699666 0.461986 -2.143318 1.857003 0.177437 0.636535 -0.575324 -0.211534 2.609606 -0.093530 0.777811 0.962753 0.399571 -2.059930 -2.471868 -2.533572 -2.373817 0.916431 -2.820725 -0.194057 -0.919737 1.461749 2.847997 -1.630961 0.019848 5.059175 0.463257 -1.740656 -2.092216 -2.438507 0.463700 -1.827826 0.618442 2.802850 1.849051 0.357650 1.716407 -0.304188 -1.988764 1.176005 0.152500 2.436372 
文 -0.813859 -0.155939 -3.459424 -1.059231 -1.432947 0.546157 -0.828143 -1.077974 -0.626762 -0.168072 -1.875955 1.324055 -0.915440 1.437656 3.102252 1.478003 -0.755278 -0.597919 0.404803 -1.161197 -0.918678 -0.872101 -2.222916 -3.731720 0.616037 -0.295371 0.515151 -0.279954 2.285317 -0.799396 2.040040 -1.350654 -1.338153 1.753744 3.127547 -2.976836 0.744294 -2.337150 1.175405 -1.333628 -0.413906 -0.770146 1.420618 -1.758387 -1.557739 -0.040344 1.211786 -0.549867 0.568811 3.661221 
対象 -0.964334 0.800690 1.137741 0.348262 0.855398 0.494348 0.737171 -1.906997 1.659147 0.913143 2.894401 0.268770 -0.563350 0.804593 -2.218835 3.082273 0.178413 -0.291055 -1.078632 -0.080299 2.384971 -0.359008 -0.438261 -2.041470 -0.601359 1.081786 -0.230756 0.168699 0.972803 0.193114 -0.883277 -0.113492 0.723929 -0.365659 1.317955 -3.192991 0.379974 1.528855 -0.623934 2.175478 1.948325 1.002707 -1.000201 1.806884 -0.094591 0.132423 2.268341 -0.378535 1.588073 -0.429055 
言葉 -0.618746 -1.243213 -0.648437 -0.654125 -0.833290 1.964773 -0.199845 0.307018 1.587669 0.341831 0.968757 1.794139 2.191933 1.811015 -0.031369 1.003901 -2.371343 0.024731 -1.006095 0.633015 2.621139 2.882979 0.628106 -4.793427 -1.780179 2.069892 0.565626 2.807758 0.726326 -2.077103 -1.665301 1.654073 -0.011834 2.710273 -1.225656 -0.840371 0.451626 -1.260151 0.459747 0.654153 0.747451 -1.281999 1.591422 -1.446595 -0.429164 -0.719018 0.620956 0.388022 0.394854 0.313815 
高校 1.668812 -0.935106 3.696842 1.224028 -0.796356 1.182241 2.484136 0.003828 -1.743282 -1.691087 -0.376275 -0.441442 1.113482 1.572501 -2.940489 -0.473693 2.795755 -2.188286 2.575778 1.078815 -0.030443 -0.757867 2.016192 1.045932 0.817818 4.024463 3.384719 0.136021 -3.322096 -2.486213 6.241103 3.006133 -3.421670 1.178278 -0.667942 -0.873087 2.986719 0.811948 2.926484 -0.066772 -0.475771 -3.200500 -0.909496 1.554680 -1.644762 1.458578 3.750717 -2.881305 0.128547 -1.526762 
少年 1.196924 0.601982 3.936322 2.407473 -1.253290 0.462832 1.776863 -0.120250 0.083798 -0.438262 -1.059199 0.909357 3.219756 2.061345 -0.726581 -2.736682 -0.518896 -1.185646 -1.132094 -0.458634 -0.790548 -1.172963 2.366027 -1.383583 -1.746893 2.129300 0.165442 2.347185 -3.046410 -2.589163 1.276717 1.378250 -0.033184 0.284050 0.067486 1.074425 4.072122 -1.221716 -1.243198 -1.509816 0.963344 -1.063840 -0.834091 1.927170 0.545539 1.516863 1.080802 -0.141061 -1.167731 1.634704 
議員 0.724326 -0.437148 -0.525063 -1.180254 1.651953 0.817761 4.235413 -1.342661 -1.017624 -0.573799 -0.687822 0.214084 -0.410531 -2.120566 0.372876 -0.527691 4.084899 -1.349891 -4.287786 -3.065676 0.610317 -2.982626 2.576987 -1.657073 -3.400256 -1.140575 -2.458356 -0.846596 -0.497783 -1.151490 3.394942 0.473998 1.983740 0.573587 0.121164 -2.628766 -2.461223 1.496620 4.160647 -0.762005 2.680882 0.239698 -1.052046 -2.037713 1.533957 -2.526177 -0.436959 0.897867 2.079919 -0.859956 
女子 0.823733 -0.987382 2.220265 -0.506157 -0.822392 1.426985 2.444726 -0.395801 -0.122427 0.564638 -0.652824 -1.682459 -0.986103 2.124403 -4.181920 -1.884003 1.706998 -2.894647 1.086997 3.081230 0.993043 -1.596624 1.515850 -0.781951 1.462203 -1.490313 3.476067 1.215225 -0.918969 -0.009938 4.630557 0.563383 0.012908 0.741532 -3.900763 -3.481397 3.370573 0.182018 0.141177 -0.283271 -1.433159 0.684565 -0.060834 1.358610 -0.939384 0.311266 1.908789 -2.194385 1.611223 0.011512 
エンジン 0.877877 2.388879 -0.158954 -1.149997 -0.655724 -1.496914 -2.664141 -0.694829 1.953789 -3.539578 5.159363 0.802156 -1.186894 -2.936377 2.390999 -1.579489 0.159526 2.621007 4.764587 1.164960 1.359921 -3.913854 -2.454499 3.190056 -0.400239 0.219212 -2.720309 0.197228 -3.167150 -0.951279 -2.446501 0.823435 3.228233 -1.205794 -1.153655 1.067045 2.159703 0.241057 -3.344590 -0.170431 -2.272945 -2.050853 -1.390569 0.868679 -2.095962 -2.025798 -3.181080 -0.046825 2.057678 -1.413831 
日本語 -1.410565 0.202553 0.165811 -0.136302 -1.572111 -0.761435 -0.710433 1.782127 1.764331 -0.046504 1.019737 -0.145331 2.398926 -1.077031 2.799929 1.927484 0.003947 -0.756132 2.115823 1.719424 -0.605272 2.230565 0.833276 -4.573332 -0.434740 -0.151701 1.616446 0.570294 1.491406 0.842477 -2.727219 1.197624 1.263302 0.280140 -0.688894 -1.322185 1.021302 0.673467 0.371247 -1.634476 -0.168852 -2.734124 2.256148 -2.102193 0.461213 -3.048079 3.635306 -1.969903 0.694021 1.475080 
効果 -2.207994 -1.246325 -2.596815 -0.503624 2.047842 2.069616 0.324394 -1.861027 1.735600 3.826430 1.549245 1.018694 0.733604 -0.732723 -0.696261 2.231887 -2.167929 1.988993 0.211266 -0.926077 0.949933 -0.614715 0.126005 1.878153 -0.076865 0.980366 -0.045776 -1.346488 0.884747 2.273443 -2.894334 -1.264677 0.607592 -0.558905 2.472814 1.086860 0.781828 0.196881 -2.001218 1.886432 2.107499 -0.428421 0.618555 0.624146 -0.719235 -1.835059 -0.397267 -0.086516 1.753319 -2.199402 
帝 -0.983176 -1.455284 -3.072565 -2.815924 -2.737781 2.610993 0.168631 0.463300 -1.082123 1.309830 -2.090848 -0.205445 -0.543444 2.242220 1.496507 1.129856 1.839020 -1.316092 0.127339 -0.804124 -1.006855 -0.875842 -3.622661 -2.546968 -0.631533 3.638048 -0.925677 -2.573776 0.187990 1.121242 3.559203 -0.351860 -1.430755 3.807341 2.907781 0.659013 -1.645844 -2.225595 2.402386 0.024782 0.538016 2.354251 -0.290036 -0.063391 0.222152 3.846542 -4.202610 -1.365048 0.066610 4.549240 
内容 -1.489720 1.955002 1.287963 0.175721 1.081916 1.417779 -0.093877 -1.505760 1.465961 0.349606 -0.158486 1.848369 1.839703 0.400303 1.903392 2.670945 -0.710067 -1.208103 -0.638628 -0.875413 1.240456 -1.556519 -0.619069 -1.533764 1.655684 1.632061 -0.174934 1.927928 0.862109 -0.056042 -2.699948 -0.973348 0.580767 -0.048962 0.513778 -3.279968 0.312574 0.714794 0.011060 1.344492 -0.116201 -3.009690 1.172117 0.518433 -0.193393 -1.316610 1.732949 1.749716 0.626861 3.197952 
市立 1.223182 -1.586226 0.741226 -0.805405 0.866330 -0.876738 -0.180314 1.102802 -4.764672 -1.236513 0.618469 -0.146761 0.965937 1.401376 -1.734945 -0.266581 1.964598 -2.702787 2.265857 -0.518433 -1.951934 -0.249418 0.139399 -0.446475 0.586168 -1.551581 -0.327025 -2.502301 -0.242104 -1.652571 4.686932 -0.510018 -2.968826 -0.788429 1.564075 0.759815 2.112602 2.191817 -0.214974 -2.229932 1.977381 -0.440261 1.880375 0.617943 -1.074393 1.698489 3.120167 -0.706247 -0.991864 -2.784977 
シングル -2.136416 1.879811 0.784748 -1.755012 1.730365 -1.401542 2.795110 0.044274 1.447178 1.293002 -2.374300 -0.398693 1.682426 0.680408 1.137298 -3.117389 0.824169 1.871204 1.379364 0.685822 0.746924 -2.077159 2.220579 0.661442 2.820973 -1.573821 4.091674 1.970579 0.030900 -0.998855 -2.339532 5.742401 0.239375 -3.292813 -1.604863 0.728459 -1.644062 0.874737 0.401976 2.437027 -3.923412 1.366523 1.035403 1.165010 -2.443510 -2.986526 1.203761 -1.018175 0.617771 1.015514 
規模 -0.019305 1.600710 -0.574666 1.797845 0.620469 -1.194779 0.773980 -1.966488 -3.268014 -0.874099 -0.049648 -2.293253 -1.314392 -0.024505 -2.373889 3.899105 0.350404 1.786039 -1.655916 0.858352 0.099815 -1.819684 -1.811053 1.536427 -0.653221 -1.866614 -2.311524 -1.275077 0.286489 -0.287243 -1.690403 -0.546509 1.869002 -0.893872 0.814702 0.785358 -1.487533 3.473414 0.492116 1.699074 0.072678 0.520002 -1.763703 1.866622 -2.701537 0.519077 -0.697724 -1.322715 -2.484006 -3.120312 
主人公 -1.236241 -0.753530 4.689448 1.796938 -0.216978 1.558431 -0.585722 0.540696 -0.627779 0.583572 -0.708594 0.054994 1.187086 1.507331 -0.503048 -2.130804 -1.857191 -1.356384 -1.735901 -2.161326 0.024025 0.998962 1.753604 0.236917 1.806584 4.025834 1.000255 1.936344 -0.960886 -0.006907 0.950782 2.280461 2.086952 1.828116 0.271449 0.256379 3.631313 -0.262490 -2.753905 0.112510 -1.596194 -3.224673 -2.975036 0.435713 2.253437 -2.698291 1.090692 0.173981 -3.235315 2.056055 
妻 2.107511 -0.732193 -2.024902 -1.286337 1.104746 0.581265 2.611294 1.787344 0.188442 1.209341 -1.992288 0.655394 -0.809911 1.731439 0.647519 -2.549034 -0.660232 -0.647973 -2.646900 1.170222 0.662401 0.437563 -0.890491 -1.816970 -1.937422 0.181551 -1.361933 0.902623 -0.088330 -0.642516 3.022410 1.479034 -1.352762 5.074560 -0.048182 2.079390 1.210639 0.180835 0.770814 -0.658912 -2.185683 0.661894 -1.146791 1.182904 3.549026 -2.196382 1.476364 2.068978 -0.390078 2.173361 
政権 -1.646386 1.930994 -0.773634 -0.266165 0.628837 -1.363701 2.066176 -0.529060 -1.100813 2.253870 -1.013578 -0.012726 -1.229981 -1.653851 0.665571 0.313476 2.492527 -0.771414 -1.824364 -0.801084 -1.009861 -3.550160 -4.459484 -2.115053 -3.815045 -0.421728 -2.361907 1.500877 2.044091 -0.400709 -0.038733 0.975757 4.321996 0.527294 1.811892 1.660684 -3.231860 -1.350397 5.054574 -0.168834 2.853525 -1.760468 -0.863987 -0.334360 -1.853029 1.238954 -2.590730 1.555428 -1.962391 -0.590049 
陸軍 2.428315 -3.078583 -0.814065 -1.744676 -5.344036 0.529197 1.685350 0.100947 -2.470050 -0.762633 1.036223 -1.964210 0.428257 -3.577170 -2.664346 0.404320 1.039430 -1.382448 -0.626171 -0.372728 1.845155 -1.076941 -4.348216 0.991911 0.799705 -0.622373 -1.560846 1.862652 -0.152034 0.562457 3.031883 -2.013337 2.446630 -2.233377 1.325291 1.932584 -1.963499 0.911943 2.465481 -4.852530 0.636176 -0.431633 -0.883047 -2.053811 -2.439323 -2.492098 0.801273 0.876282 -0.416611 3.142818 
方面 0.276718 -2.306015 0.644182 -0.781705 -1.051315 -0.442842 -3.922602 1.633115 -3.396867 1.445037 0.522568 -1.128846 -1.579687 -1.887283 -0.127202 1.701012 0.271335 0.179144 0.691499 1.021028 -0.256410 -1.561725 -2.681466 0.561872 0.367601 -1.901156 2.376228 0.836463 -0.044406 3.066696 2.233890 -0.604323 -2.082620 -0.237148 -0.721272 1.802726 -4.700950 1.092437 -0.851118 0.727412 2.788036 -1.644379 -2.033131 -2.976046 -1.476146 1.001654 -0.675813 3.812339 -1.767728 -2.119017 
男性 0.708826 -1.157632 1.972326 0.564546 -0.094631 1.057369 2.165862 0.963370 4.194758 1.975976 1.727267 -0.694302 -1.691543 1.177339 -1.566313 -0.602026 -1.805100 -0.766006 -2.848983 0.471008 -0.732442 -0.504649 1.136945 -3.721756 -0.559318 -1.970000 0.802742 2.664624 -0.067134 -0.715774 1.767014 2.272614 1.950190 1.739506 -0.875884 1.153197 0.608897 -1.289702 -2.119148 3.353164 1.184529 1.014611 0.388577 1.064042 2.600892 -3.397805 2.388143 0.490628 0.531384 -0.606285 
協会 -0.846767 0.675083 -3.101642 1.319000 -0.447500 -3.289816 2.876613 0.518349 0.011808 -1.169823 1.574894 0.417059 1.960605 2.074263 0.414867 1.374567 0.396707 -2.480827 -1.500764 1.243003 0.478375 -0.547397 3.697296 -0.341343 -2.881536 -1.524089 -0.132831 0.353268 -1.478840 0.028372 1.720251 -4.882530 1.618853 -1.420119 -1.389159 -3.433694 0.843246 2.904398 2.504263 -1.714441 1.217399 0.800120 -0.366971 1.671930 -0.072806 0.762047 1.934832 -1.111204 1.398846 -0.882290 
学者 2.577264 -2.304869 -2.441519 0.291797 1.493751 -1.690484 2.332351 -0.722181 0.895716 0.906278 1.843198 2.419551 -0.218717 0.640935 0.493892 4.211047 -1.814017 -0.071252 0.479536 -0.671965 -1.364115 3.563771 0.825674 -2.917419 -2.781927 -1.800532 -0.866746 1.605986 -0.532629 -1.794382 2.995136 -0.559138 1.946445 0.614537 4.396239 -0.964304 2.384519 1.709406 1.996216 -0.393973 -0.433816 -2.117105 -0.135842 -2.647520 3.732078 0.963513 -0.985801 -0.784107 -3.060071 0.757618 
種類 -0.616820 0.510930 -0.382181 -0.030238 -0.115766 -0.230641 0.765123 -0.691456 2.862649 -0.255489 3.091716 0.123129 -1.161092 -1.173829 -1.551886 1.004683 -0.970471 3.569022 0.406809 -1.033228 -0.283818 -0.103981 1.148179 0.362183 2.982239 0.949310 1.495565 -2.211900 3.055957 -0.967593 -2.940770 -0.518590 0.158630 -1.758465 0.633784 -2.444564 -0.209879 -0.527933 -3.377281 0.470295 0.517298 -0.412788 1.737691 -0.057918 0.179418 -0.883216 -0.161502 -1.558030 0.818244 -0.596009 
現代 -0.018109 -0.534224 1.026579 0.810077 -0.142853 -0.409607 -0.246993 0.866963 0.341338 -0.360653 1.940106 1.909552 1.472826 0.742299 -1.283315 2.782256 -2.111956 -0.649027 1.004534 1.012483 -1.789638 2.439027 -0.672007 -2.121255 -2.023494 -1.293629 -0.064944 2.410294 2.334996 -2.052489 -1.768739 -0.440736 0.008622 0.773407 1.257188 -1.303610 1.730188 1.717074 0.225237 0.330787 0.591603 -0.933033 -0.305817 0.947339 -1.793795 -0.529034 -1.303158 -1.531734 -0.837007 0.973219 
革命 -1.963249 -0.803232 -1.000299 0.952138 -4.169571 -3.162720 2.523928 1.159420 -1.475873 0.794981 -2.726394 1.915021 -1.114513 -1.002732 -2.419745 1.668810 0.416795 -1.675988 -3.241123 -2.779174 -1.088565 -2.352995 -2.841953 -2.001055 -3.457860 -1.406286 -2.813593 2.931950 1.690368 0.240801 -0.321129 -0.838597 0.865342 0.428499 1.094718 0.753776 0.646766 -0.125143 4.538557 -0.359804 0.743749 -1.212101 1.951809 0.242800 -3.285029 0.934327 -2.373477 1.628338 -1.568808 0.261505 
マン 2.044762 -2.056371 -1.500520 0.173916 -0.143537 -0.950392 0.195346 -0.079758 1.158248 0.950969 0.662959 1.443124 2.906951 -1.165352 2.656619 -2.601432 3.208635 0.010808 -0.175885 -1.447364 0.666143 2.626251 2.518575 -1.475253 1.001774 2.560265 -0.152944 2.630354 0.339886 0.618822 -1.506458 1.243557 1.196731 2.936005 1.163109 2.783966 0.838978 2.709759 -0.656896 0.718980 0.566101 -1.402295 0.148299 -1.290682 0.432744 -1.263303 -2.024014 -1.134892 -0.200131 -1.978399 
生物 0.012026 0.372240 -1.242214 -2.517772 1.849619 -0.731448 -1.190397 -3.935447 2.868860 -0.399731 2.748334 -0.458454 1.012922 -1.913213 -4.474154 3.038386 -2.208009 2.046489 -1.339349 -1.939035 0.794514 4.611864 1.741043 -2.026281 0.667623 -0.130925 1.190873 -1.915471 1.628039 -1.359883 0.234913 -0.940135 2.401509 -2.288229 2.701251 0.078387 4.246098 1.019994 0.111826 1.216562 0.067643 -1.177416 -1.465191 -0.666481 3.085094 1.642020 -0.830248 0.032802 -2.820741 -0.648776 
カード 1.776552 -1.233967 0.343664 1.502592 -0.845544 -3.596678 -0.308035 -0.842402 2.513999 3.522658 -0.673520 -0.320943 -0.184388 1.260168 2.067038 -0.489960 1.754787 1.270208 -1.211390 0.239758 0.658919 -2.432023 1.928508 0.443755 5.933328 4.037113 1.320639 -1.474280 0.112711 0.880800 -3.461826 -1.124263 -0.834561 -1.202415 0.303466 -5.421607 -0.557719 -0.958185 -2.066955 3.906459 2.259197 1.725619 -0.048364 -0.102914 -0.755721 -0.524534 0.369264 1.241340 2.139569 -0.187897 
次 -0.429533 -0.895591 0.334826 -1.430880 1.761734 0.254481 0.199134 -0.004873 0.590640 -0.570670 0.965369 1.420746 -0.667322 -0.195702 1.574822 2.218393 -0.632326 2.232253 -1.175352 -0.488429 2.183629 -0.311601 0.209557 -0.093550 1.379688 1.418618 -0.532980 0.679591 1.197779 0.371488 -0.238879 0.134352 -0.140911 0.281822 0.443653 -1.658738 -1.684265 -0.423294 0.685775 0.100071 -1.556397 -1.539442 0.309535 -0.439969 -0.752181 -0.319584 -1.223066 0.574600 1.198307 0.865090 
目 -0.662342 0.592636 -0.930718 -0.110716 0.388305 1.232434 -0.075528 -1.148797 1.659996 1.362733 2.632735 -0.446783 0.086128 1.946384 -0.713176 -1.329165 -1.335939 1.192413 -3.278505 0.355061 1.295000 0.812343 0.488706 -0.150325 -0.148971 2.213376 1.174911 0.823596 -1.112628 -0.510565 0.684782 1.083016 -1.055544 3.539273 0.647932 1.585270 1.805694 -3.000300 0.297807 0.510529 1.722307 -0.955367 0.001434 -0.341965 -0.610455 0.289064 -0.041370 1.304331 0.591024 0.044899 
民族 -1.248154 -1.798012 0.348826 -1.305433 -1.688840 -1.304522 1.111577 2.505922 1.352353 0.236671 0.133860 -0.031623 -2.837495 0.261131 -0.734321 3.577646 1.596743 -1.730062 -2.879266 -1.516943 -0.412864 1.108351 -3.541169 -7.454373 -2.300761 -1.804218 0.109923 2.023575 1.598664 -1.519923 -1.990320 -1.336600 0.787014 -0.505130 1.295761 -0.057154 -1.516767 -0.890597 3.681728 0.582951 2.643273 -1.890853 1.499269 1.825858 -0.225505 1.654840 -2.524866 -4.444243 -4.906556 -3.118165 
少女 -1.776629 0.375409 3.363004 1.302122 -1.429233 0.891890 0.127491 1.002344 1.032191 1.037026 -1.182145 1.922719 3.325765 2.269882 -2.945024 -3.419303 -1.257638 -0.202517 -1.669469 0.296625 -1.791941 -0.249429 1.941239 -0.394504 -0.118645 1.833622 0.532438 2.612271 -1.491575 -0.793754 1.831188 2.305542 -0.198243 0.021680 -0.729234 0.928403 4.744947 -1.494410 -2.053871 0.950607 -0.119307 0.045896 -0.829831 0.245885 0.006492 -0.266637 1.560721 0.377509 -2.135287 0.598696 
夏 -1.272287 2.047947 -0.654852 2.060533 -2.174771 2.109919 1.427625 -0.917525 -2.645902 0.847315 -1.319175 1.062473 -0.519048 0.688676 0.633265 1.157483 3.167003 0.840846 0.248446 1.184714 0.706320 -1.252046 -0.196835 0.985057 0.111713 0.388114 3.404342 -0.375611 -0.815338 0.360542 2.888070 1.404073 -2.256552 -0.079402 0.453146 1.781414 0.156547 -1.638053 0.080104 0.013538 -3.148775 -1.175473 1.909559 1.039733 -0.003014 2.122275 -0.506190 -0.324323 -1.733833 -0.738735 
国立 0.248266 -2.066722 -2.117967 -0.964819 3.643252 -2.902777 1.530189 -2.114085 -1.105088 -2.090620 1.361581 0.775329 1.267735 -0.394520 -2.455421 2.125468 1.468691 -3.871011 0.228736 0.916463 -2.268385 2.109438 -0.172758 0.488280 0.422728 -0.799411 -0.640353 -2.804708 -0.997836 0.723624 1.933348 -2.884067 1.216214 -2.284683 1.621420 0.694516 -0.399436 1.390099 0.598859 -3.729595 -0.828365 0.638602 2.908784 1.060021 -0.781196 1.188621 2.375729 -0.693474 -4.442482 -1.351817 
ガン 0.549383 -1.699019 2.439101 1.289267 2.437758 1.514030 0.897630 0.543775 -1.434135 0.753083 -0.627800 -2.090474 5.300860 -2.591918 -0.764009 -4.461595 0.481330 0.484462 0.915463 -5.756404 1.234613 1.463007 -0.847482 -1.032867 0.614547 -0.802593 -1.759093 0.939792 -2.433406 0.302986 -4.433127 -1.750374 4.448841 1.629241 -0.354855 1.130436 2.401460 1.357459 -4.056807 0.266081 -0.799126 0.542644 0.215222 1.041929 1.172153 -2.323500 -1.737653 1.281823 0.644702 0.090237 
南部 1.035436 0.086983 0.159417 0.865187 -0.036330 0.107407 0.123152 1.428127 -2.312800 -1.218168 -1.021060 -0.618838 -1.336396 -1.078686 -2.875219 1.690312 1.552920 1.529692 0.457282 -0.844831 -1.132532 -1.044652 -1.733974 -2.179057 -2.300822 -0.828237 2.911910 -0.034719 -0.817943 0.075026 0.847219 0.486531 0.486202 0.745570 0.607416 2.284684 -5.189845 1.294482 0.843606 -1.107467 1.562420 0.271959 0.311102 -2.059526 1.342529 2.184478 -0.939084 -1.536049 -3.888640 -3.996156 
複数 -1.437366 0.174248 0.753191 -0.021157 1.665003 -0.996740 0.159657 -0.134268 0.938352 -0.705187 1.859641 -0.358005 -0.533796 -0.876455 0.581781 0.764152 -0.913579 2.204857 -0.706080 -0.627884 1.861069 0.479576 0.032535 -0.795141 1.659986 -0.361835 0.008211 -1.287754 1.513546 -0.047982 -2.690618 -0.306665 1.617419 1.295929 0.075542 -2.652152 -0.596311 0.182938 -0.792804 2.445281 0.849607 -0.515054 -0.573472 -0.072181 0.005255 -1.350266 1.022732 -1.782739 0.203133 0.095584 
人々 -0.923915 0.481742 -1.603743 1.104640 0.113050 1.163258 0.869979 1.290164 -1.191579 0.844590 -0.261221 1.565307 -0.547765 1.721314 -1.358341 3.397583 -2.018437 0.554818 -3.715543 0.790028 1.944350 3.049556 -1.094319 -4.697437 -2.465288 1.766105 -1.604972 2.287035 -0.652306 -1.229638 -1.472943 1.172502 -0.471383 1.874483 0.469424 0.752046 0.147065 0.471581 0.904423 1.668311 1.168170 0.481207 0.633607 2.109847 -0.420635 0.757860 -1.489240 0.545417 -1.951832 -2.461039 
産業 2.413996 1.917412 -1.666461 1.751902 -1.743326 -1.638039 -0.081080 0.989357 1.695329 -0.636066 -0.751419 -0.229689 -0.928373 -0.725041 -4.986981 3.990108 0.087282 0.148854 0.184870 -0.747369 -2.946695 0.987500 -1.352452 3.760191 -5.352935 -0.244739 -2.443881 -0.429351 1.554483 0.657134 -1.665422 -1.099177 1.542145 -0.278773 0.005773 0.990339 -2.476272 4.639969 2.936427 1.058019 -0.162089 0.549119 -0.592262 2.367656 -2.971230 0.267775 0.397019 0.191917 -0.346311 -4.314607 
