4774 50
año -1.789058 0.398640 2.868974 -0.468707 -1.053085 -1.218935 0.134894 -0.021246 0.049076 1.688122 1.005766 0.062012 1.189002 -0.466142 -1.130974 0.574405 1.238404 -0.016776 0.245997 1.167195 -0.196845 -0.194619 0.454233 0.018691 -0.262750 -0.628268 0.321435 0.518637 -0.364759 0.102496 -0.115378 -1.592785 2.084598 1.574685 0.191146 -0.548698 0.598514 0.165847 -0.181720 -0.234496 -1.585775 2.278596 -0.301569 0.526448 1.073939 0.612531 0.775474 1.997775 -2.151840 0.742371 
ciudad 0.033835 0.720623 1.276914 -1.467855 -0.840215 -0.929099 1.731615 -1.030143 0.002534 -0.934920 -0.763413 1.525017 0.674272 0.459895 1.005855 -1.158992 1.969293 -0.976676 -0.313223 0.111204 2.772880 -0.899399 1.965235 0.110550 0.261672 0.360255 -1.147354 0.041615 -0.912564 -0.378948 2.189898 -3.254072 0.616987 -1.812540 1.602536 -1.156723 0.207646 -1.802558 1.418147 1.562494 -0.345643 1.968998 0.307248 -2.701488 0.525871 -0.133604 0.212319 2.985423 0.869793 -0.027718 
parte 0.996380 -0.460005 0.704847 0.294657 0.088340 0.820721 1.148766 -0.762266 -0.200197 0.131590 -1.330842 -0.992224 -0.960482 -0.244958 -0.364043 -0.365120 1.117151 0.838219 -0.378535 -1.018385 1.952507 -0.701031 0.367592 0.736385 0.076462 -0.110072 -0.007130 0.515167 -0.208942 0.080753 -0.934973 -0.269740 -0.181744 -0.493409 0.329825 -0.466858 -0.111504 -0.635346 0.506180 0.763315 -0.863670 0.182474 -0.408916 -0.172266 1.285940 -0.714612 -0.474746 -0.540051 0.872491 -1.680202 
población -4.896216 1.264985 -0.535886 -1.778674 -1.502133 0.486014 3.329499 2.647891 -1.710260 2.652834 0.898655 -1.199212 0.376972 1.915308 1.553282 -1.919328 1.359888 -1.909843 0.764835 0.531163 2.327790 -2.153465 0.382753 0.418819 1.565671 0.071380 1.204190 -0.541079 2.784784 -0.318751 4.032995 -4.191737 1.010302 -2.160826 -2.483025 -0.361715 1.314178 -1.219741 0.449628 3.715703 0.519702 2.130557 0.084957 -0.900764 -0.009966 2.039647 0.741217 -0.233039 0.483416 -3.761530 
nombre 1.589061 -2.205417 -1.310325 -1.414066 -0.742824 -0.523139 -0.735993 -1.543620 1.059959 0.382872 0.003693 -0.263117 1.686502 0.057851 1.586810 -1.823330 1.974700 0.369587 0.578299 -0.135683 1.120558 -0.453430 1.598011 0.879553 -1.142161 1.372940 -0.075025 -0.218596 0.627880 0.494486 -0.432022 1.638126 -0.189274 -2.468132 -0.207318 0.780827 0.054219 -3.680447 0.086904 -2.264911 -1.839046 -0.296359 -0.750087 -0.996436 -0.181543 -0.539223 -0.138283 -0.039287 -1.028219 3.443618 
grupo -0.055261 0.540426 0.283792 -1.130849 0.176931 1.523058 0.135931 1.064898 1.658534 1.319400 0.779981 -2.550682 -2.550546 -0.527440 -1.836365 0.461960 0.282265 0.127025 -0.471039 -0.117992 1.081153 1.394243 2.975910 -0.223101 -0.009360 1.786503 3.359028 2.068951 -1.331692 -0.782005 -0.107479 0.205781 -0.213566 -0.118665 1.144233 1.444951 -1.841933 -0.439624 -0.828297 -1.258628 -0.951666 -1.535425 1.922558 1.513321 1.888586 -0.107340 -0.486204 -0.395468 -1.216746 -0.674350 
equipo 1.914089 2.412900 2.650973 -1.691981 0.626749 -2.356805 2.853262 0.947645 0.716940 -0.433394 0.362475 -1.958276 0.895219 2.580390 -0.947247 2.454809 -2.527099 -1.656246 -0.932713 0.040235 -0.106905 3.081304 -0.949436 -0.992823 1.504305 -1.077335 1.119617 -1.035471 -2.070133 2.123641 -1.269819 -0.411846 2.123768 -1.134622 3.251860 -2.933911 -3.383746 -0.791345 -2.042827 -2.218670 -2.230462 -1.426054 1.041753 2.202991 1.236309 -2.421085 2.700932 0.097315 -0.780508 -0.673842 
vez 0.865851 0.067754 0.954234 -0.840612 -0.000686 -0.260791 -0.338171 -0.305846 0.396725 0.744146 0.479013 0.296690 -0.312342 0.208180 -0.859811 0.549159 0.763393 -0.032161 0.162267 1.365447 -0.418473 -0.211625 -0.270527 0.362806 -0.522409 -0.658743 -0.177324 0.010695 0.054656 0.188354 -0.638481 0.560117 0.368517 0.134888 0.970654 -1.186077 -0.635731 0.782791 -0.148635 -0.437713 -0.919870 0.247191 1.061545 1.042127 -0.413382 -0.604257 0.741143 -0.188609 -0.602082 0.154134 
persona -2.549536 1.786016 1.058696 -0.927173 0.798794 0.631627 0.320123 0.838884 -0.651893 3.620286 1.094888 0.065606 -1.447020 0.899966 -1.172313 -1.302590 -0.067318 -0.745048 1.924382 -0.435867 2.402946 1.124973 -1.547862 -0.083964 0.509465 3.006386 1.544121 -2.707637 1.320788 -0.510834 3.004025 -0.329613 -0.890129 -0.886446 -0.692922 2.300632 0.475398 1.330718 0.589024 -1.201498 1.238133 2.117841 0.693630 -1.659177 -2.090627 1.713942 0.382268 0.558117 -0.977460 -1.389362 
lugar -0.251066 0.366051 0.295123 -0.363436 0.473349 -1.524232 0.202703 0.484516 1.116156 0.873215 1.176494 0.173200 -1.669625 0.644867 -1.536150 -0.496077 1.038349 -1.590503 0.265298 0.226979 -0.164325 -0.859976 1.408550 -0.604860 -0.410292 0.116353 -0.274315 -1.490003 -0.114948 -0.503396 1.693946 -0.256242 0.695512 -2.371261 0.722830 -0.953219 1.491316 -1.057496 1.386795 -0.998675 0.426793 0.910305 -0.198857 0.071156 1.664954 -1.091855 -0.296619 2.006818 0.809793 -0.357690 
forma 0.916423 -0.384863 -1.069457 -0.261346 0.018552 0.920687 -0.735879 -1.365727 -0.873957 1.516275 -0.463218 -0.091018 -1.397091 1.803706 -0.319233 -0.283348 -0.288549 1.179205 -0.721731 -0.468586 0.290119 -0.263236 -0.875244 0.835869 -1.072830 -0.038548 0.380340 0.455801 0.139113 0.542073 -2.044877 1.147747 -1.971210 -0.609787 -0.114946 1.495418 -0.199130 -0.194966 1.476892 0.526739 1.340795 -0.612104 -1.495017 0.580311 -0.456302 -0.361967 0.074131 -2.107206 0.572608 -1.218004 
municipio -4.371584 0.650774 0.679157 0.463342 -2.200819 0.861639 1.828179 2.862773 -0.367246 -0.757774 -3.255556 -1.080486 2.028882 1.083447 1.176472 0.399372 1.796767 -1.075253 -0.541992 -3.162468 3.055736 -2.748272 -1.356927 1.285257 0.699857 0.833498 -1.495237 -0.977052 1.872316 -1.635782 3.964435 -0.939129 2.185659 -4.720126 0.787252 -0.170246 -0.478402 -2.647400 1.796666 1.680816 -0.225129 0.914006 -1.450594 -2.591838 0.942476 0.393440 1.484759 0.327152 1.556942 -1.050403 
siglo -0.693219 -0.655841 1.034413 -1.007396 -1.922671 -0.923874 -2.336370 -0.941126 -0.900039 0.171721 -0.227241 -0.388244 0.366868 2.362622 2.839089 -0.276763 3.549774 -1.397568 -2.862862 1.396496 -1.109630 -2.175951 4.480388 1.257563 -1.905092 -2.791561 3.266714 1.456321 0.492023 2.279105 -1.125594 -3.952149 0.642260 -0.804404 -2.967358 -2.445262 3.020754 -1.353279 2.090903 4.581789 1.325895 0.876482 -4.090508 -1.985245 2.755439 -0.714060 -1.374395 0.269402 2.136823 3.836634 
familia -2.118852 2.432177 -0.685002 -3.362894 0.911408 3.187193 -2.682996 2.363399 1.311273 0.900501 2.075633 -0.379191 0.184021 -2.784971 2.200399 -3.119828 3.602970 -0.740285 3.251944 0.086908 1.440809 1.031603 -1.087484 0.512226 1.292489 -0.765492 1.423784 1.619709 -1.034479 0.351999 0.061059 -1.662943 0.751784 1.844114 -2.324147 -0.273056 0.086599 -2.799618 -1.105562 -2.320164 0.427366 0.307815 -1.150067 -1.475871 -0.155133 0.198408 0.163094 -0.991158 -0.636933 -1.910550 
día -0.721092 0.810944 -0.300952 0.201650 -0.584723 -1.458484 0.065747 0.004722 2.077324 0.785510 1.573992 2.309133 -0.423256 0.362507 -0.986350 0.960151 2.175632 -1.578577 1.010279 1.427996 -0.572541 -0.226642 -2.618609 -2.369776 -0.775275 0.339239 -1.935688 -0.742759 -0.934171 -2.784875 1.251159 0.112197 0.066886 0.955749 1.476887 0.079912 1.295860 0.025525 1.603304 -1.630359 -1.074847 1.920981 2.433792 0.996236 1.439898 0.583907 -0.560378 2.686485 -0.856353 1.029308 
país -1.185511 -0.244770 1.667712 -0.096482 -1.029902 1.130027 3.020183 -0.678991 -0.113754 0.611381 -2.860059 -1.047045 -0.845166 -1.817475 0.820218 -1.360561 2.403947 -0.465240 1.428779 0.687382 0.871247 -0.636888 1.052926 -2.636642 -0.365400 0.281822 2.181333 -0.102860 -1.562397 1.091804 1.428736 -2.543061 -1.375110 -1.925137 1.451315 0.488931 -2.316301 1.819829 -0.152896 2.311205 0.104995 0.806192 0.344092 1.347120 0.514490 -0.797196 2.011182 1.504377 -1.154459 -1.332260 
hijo -0.130516 -0.956554 0.513505 -2.846959 0.254369 -0.223243 -3.509862 -0.924915 1.792863 0.272598 2.235147 1.643648 1.752625 -3.615272 1.410881 -1.629673 -0.056042 -1.284208 3.426658 1.362267 1.881690 0.502077 0.102647 0.937284 0.104892 -0.728898 0.060449 0.887091 1.116400 -0.760962 -0.540870 -1.879407 1.552722 3.031422 -3.842942 -1.617982 1.494678 -0.674271 -1.207429 -2.801319 0.426758 -0.471086 0.799630 -1.577506 -1.756574 2.297198 2.580045 1.322094 0.021098 0.719851 
tiempo 0.602022 -0.075046 -0.024152 -0.674353 0.222888 -0.604218 -0.676142 0.426475 1.279266 0.797871 0.902458 1.068148 -1.554020 0.633781 0.368195 0.780789 1.269489 0.165557 -1.196538 0.429917 0.224672 0.411279 0.367627 0.095581 -0.384608 -1.420555 0.027237 -1.183889 -1.059655 2.027631 -0.729438 -0.298325 0.613474 1.223083 0.067985 -0.546912 1.492324 0.824676 1.374767 -0.333228 0.863027 0.867288 0.614038 1.878960 -0.248030 0.493579 0.487075 0.689606 -0.761124 -0.576211 
estado -2.536351 -1.219450 0.635813 1.279576 -1.578720 0.891242 1.199870 2.191043 0.260641 -0.041857 -0.374147 -1.006574 -2.473005 -1.335730 0.672199 -1.552670 0.277001 -1.814161 -0.157462 -1.679798 4.140394 0.403098 -2.402726 0.074664 -0.498262 -2.581312 -0.211852 1.194648 0.352284 0.871430 1.974257 -0.949248 -1.596762 -2.937869 -0.938263 0.654123 -0.927159 -0.344298 0.587551 1.271873 2.216656 1.972546 0.635743 0.359393 -0.352200 0.092338 0.892195 1.426485 -0.464391 0.361867 
guerra 1.967462 -1.369089 -1.522444 -0.625333 -3.630556 -0.495406 0.157059 -2.714133 0.269800 -2.147578 -0.316826 -4.188959 -1.277597 -2.081745 2.335590 -0.357851 2.031514 -4.829502 -1.848686 3.445062 1.230023 -0.695790 -0.649875 1.332466 1.343564 -3.340475 2.242191 2.407342 -0.189671 1.011676 2.310788 -3.639541 -0.791169 2.433368 0.947223 -1.898695 -0.938119 3.471400 -0.418517 0.645551 -2.580803 -0.492720 -1.537830 0.534124 -0.504119 2.192314 -2.426584 3.533365 0.088191 0.426989 
canción -1.561356 -2.283473 -0.960752 2.839306 1.181877 1.956180 -3.522604 -1.134495 1.594489 -0.011106 -1.175569 -1.624367 -0.167007 1.292982 -4.378343 -0.010105 1.307059 4.313938 0.801563 0.197441 -0.864198 -1.233296 2.869716 0.435290 -0.169144 1.418684 3.838335 -1.125336 -0.241079 -1.205989 -2.330797 2.058439 1.931968 -2.222286 1.810035 0.075924 0.220274 3.895127 -2.294313 -2.537186 -1.713536 1.378505 5.124470 2.054742 -0.067299 1.240128 -0.658033 -0.535236 0.540348 2.684109 
habitante -6.717634 0.415594 1.049597 -1.894356 1.221490 0.270060 4.050164 1.801114 -3.442756 3.014132 -0.066532 0.183193 2.397982 1.286144 -1.099859 -1.969427 2.839112 -2.969008 -0.393235 -1.531191 3.845796 0.298215 2.310065 2.585687 -0.267894 2.247701 1.104572 -0.452793 2.034234 -3.327076 5.648981 -2.684712 -0.241371 -3.037275 -1.645836 -1.381811 1.895947 1.329481 1.287463 -1.366155 -0.612906 6.119769 -0.094213 -2.378278 -0.478547 2.804844 0.820122 -1.160745 1.840181 -1.395976 
obra 1.151994 -0.341319 -0.526564 3.641855 1.731336 -0.351344 -2.451658 -0.609467 -0.820418 0.203843 -2.142426 -0.490194 1.473726 -0.133465 0.651518 -0.392816 0.815039 1.807970 -1.279859 1.083986 -2.840029 -1.483996 1.971112 4.130989 0.036701 2.158845 1.894203 -0.296107 0.308997 1.372888 -2.107797 -0.493185 0.836435 2.364596 -2.253895 0.820304 2.359933 1.980744 1.071817 1.940569 2.076386 0.466664 -1.471403 -2.255705 -0.574021 -1.775027 -1.264536 2.648594 0.768753 1.466697 
serie 2.785352 2.878837 1.364019 0.002800 -1.179764 -0.618157 -2.178891 -0.361630 -0.255961 -0.619811 -0.314074 -0.924734 -0.347906 -0.660693 0.014824 -0.426881 -0.322054 1.102582 1.520209 -0.458843 -2.540071 -3.402530 -0.089493 -0.966942 2.147909 -0.678920 0.969335 -0.330185 0.286090 1.655851 -1.957526 1.863312 4.057822 1.175895 1.037755 0.535280 0.559922 1.443993 0.724816 0.141568 -2.403721 -2.134592 0.476947 0.568464 -1.173913 -0.604945 -1.355382 -1.217834 -0.291726 0.356589 
km² -2.543198 -0.779334 3.730890 1.402421 4.273559 2.937114 7.292833 4.618984 -6.636462 5.380595 -2.192806 -2.135846 3.588396 -1.939000 -3.260525 0.284207 2.563591 -2.019758 2.395498 -3.712741 4.315923 -0.403330 -3.009738 5.310360 4.780473 3.694113 -5.380981 -0.922393 2.520233 -4.339588 3.881070 -1.707066 2.137956 -7.290844 -2.850735 -0.039422 6.728882 -0.056375 -1.635782 0.076586 0.664727 -2.758679 3.157085 -3.578068 0.034896 1.746549 3.352748 -4.087493 3.834556 -1.884704 
partido -0.350513 0.827261 4.761188 -0.078417 -2.727420 0.998098 2.604507 0.339130 0.899039 -0.047505 2.215849 -1.992953 0.596025 1.403605 1.471572 3.491282 -0.854622 -4.713931 -0.860268 0.553602 -0.883283 2.006637 -2.359095 0.892751 1.032457 -1.065200 2.284663 -0.936011 -2.529630 -3.569746 0.457833 0.666357 -0.370400 -1.907425 0.640305 -1.212186 -3.034400 -0.960313 -1.171046 -0.153807 -1.560094 -0.195503 2.779883 1.265513 0.622234 -6.708433 2.678654 -0.613268 -1.489511 -1.992834 
sistema 1.837965 -0.704488 -0.038481 1.566632 -2.296574 1.170897 3.834242 0.232105 -0.074811 1.100954 0.497455 2.533034 -0.320323 1.166338 0.411557 -0.618648 -1.756843 -0.022707 -1.619498 -1.927439 1.712377 2.572253 -1.559079 -1.583812 1.891234 -1.759239 -0.201320 -1.291081 0.630283 4.242625 -0.246294 0.038745 0.707822 -1.787634 0.776875 3.183098 -2.401566 1.430125 1.174085 1.734998 1.845515 -1.472620 -2.274005 2.760090 -0.695932 0.701592 -0.035229 -2.662505 0.918687 -1.238574 
especie -3.154928 0.924195 -1.779656 1.031762 4.249609 0.449423 0.312789 0.949458 -0.479956 0.713166 -1.474084 -1.807714 0.342708 2.427487 3.057065 -2.299053 1.635501 1.337203 2.575042 -1.096424 -0.515881 1.758912 1.076312 0.502653 -0.053539 -2.593159 -0.325831 1.700874 3.403851 -1.104915 1.492221 3.936790 -2.512416 -1.557901 0.077467 0.281178 1.001292 -1.898266 -0.680353 0.540640 1.411723 -0.911378 -3.482018 1.087715 2.618434 1.187448 -1.663173 -2.449554 -1.552379 -3.468750 
región -1.545226 -1.199928 -1.274558 -1.834910 -0.765529 0.736405 3.101672 0.394690 -0.203970 0.082545 -1.849199 -0.584207 0.941596 -0.737997 1.970972 -2.068932 1.187971 -0.459621 -0.406886 0.205176 1.983171 -2.362059 1.808047 -0.508488 0.495162 -0.762387 -0.667985 0.513585 1.394520 0.227959 1.808567 -1.778389 -1.483801 -2.551970 0.006613 -1.535818 0.760379 -0.496466 1.412799 3.044444 -0.381736 0.058399 -0.871294 -0.205724 2.151841 -0.094838 0.486865 -1.133534 -0.629522 -3.325063 
vida -0.542979 0.514118 0.000680 -1.361363 1.460229 -1.164099 -3.332728 1.092013 0.006354 0.992726 0.123941 -0.670362 -0.275941 0.212888 -0.508504 0.044555 1.030853 1.225389 1.269865 1.860926 0.456455 -2.015941 -0.463017 1.133199 -0.276666 -1.337347 1.875246 -1.296348 -0.202000 1.913342 -0.752990 -0.750892 -0.358130 2.868489 -1.776812 1.022534 0.636502 0.538977 1.784971 -0.460431 2.127544 0.127507 0.591325 -0.105254 -1.164211 1.899570 -0.373748 3.167579 -1.148366 -2.734757 
película 0.493717 3.349984 -0.101718 0.634888 1.090390 -0.234801 -3.632949 -1.361971 0.068403 -2.379009 -1.134801 -1.509356 1.008518 -0.695772 -1.007498 -3.516039 -1.860329 3.797201 0.867242 1.294151 -0.732131 -4.411453 0.417178 -0.163328 3.358693 0.316630 2.386453 -1.479228 0.144886 -0.556507 -2.053677 3.902135 2.932371 1.767224 0.612583 -0.731092 0.948490 2.703918 -0.711216 1.740582 -1.193885 -0.536092 2.364486 0.965989 -0.919502 1.394577 0.139885 1.343883 -1.725385 2.916494 
agua -0.141721 -0.406617 -1.913480 0.402459 4.508833 -1.892420 4.232602 4.245214 -1.795557 0.432421 1.720968 1.727955 0.898033 -0.410514 2.163940 -1.115108 1.247829 2.062684 -0.168524 -0.901287 1.627366 -1.687546 -1.878233 -0.570194 -0.366573 -3.927521 -3.761269 -1.565522 3.884323 -1.713210 -1.040080 -0.722181 -2.784008 -2.306197 4.035514 2.829786 2.652322 -1.406583 1.614703 -0.783336 0.942833 -2.332869 -1.628846 -1.704129 0.419488 -0.848931 -0.959943 -1.410044 5.073339 -2.827349 
historia 0.402902 0.367261 0.346916 -1.512686 -0.576035 -2.839072 -1.760650 -0.085795 0.388443 0.667886 0.254337 -1.677109 0.663354 0.853385 -1.230730 -0.710544 0.996792 -0.309237 1.019296 1.816878 -0.456393 -3.239393 1.557727 2.329142 0.064058 -0.970984 2.092741 -2.170710 -1.811988 2.799239 -0.942014 1.492193 0.738884 0.836008 -0.759446 -1.109454 0.807156 1.453110 0.814745 0.829519 -0.561787 -0.319009 -0.438509 -0.549906 -0.502124 -2.038106 -0.059672 0.712714 -1.624914 0.708850 
temporada 0.853020 2.304585 4.584761 -0.588902 -1.234124 -4.009018 -0.792602 0.735463 0.856494 -0.275040 -0.982811 -1.028088 1.572803 3.727199 -0.789075 3.070832 -0.819315 -1.934229 -0.490875 0.199595 -3.583165 -0.645515 -0.185657 -1.930213 1.993248 -2.669688 1.128675 -2.111536 0.814416 0.317827 -2.767151 0.230022 3.178324 0.102252 3.451189 -3.349693 -0.870560 -1.598676 -3.491909 -1.965448 -3.890751 -1.769159 1.505030 2.737491 0.002005 -2.474421 1.825815 0.456082 -1.127590 -1.342360 
final 2.072697 1.873341 2.738698 -0.352159 -0.108587 -0.824342 -0.026489 -1.578187 -1.195925 -0.183427 2.394537 -0.802078 0.178712 0.483321 -1.312756 1.938487 3.981502 -0.793852 -1.365753 1.297802 -2.390211 -0.521019 1.826765 -0.242924 -1.376123 -2.024976 0.981750 -0.060936 -0.466770 0.224554 -1.048964 -0.442262 1.732793 -0.289376 -0.123016 -2.394363 -0.584456 0.960610 -0.522328 0.009639 -2.068684 0.228780 1.372469 1.524142 1.184937 -1.855623 -0.790225 0.067564 0.314238 0.134065 
álbum -2.984642 -2.526614 -0.250781 3.673653 1.654313 2.272627 -1.874838 2.223809 1.252960 -1.093866 -1.206420 -0.271186 0.914421 0.897258 -5.795841 -0.503506 0.925976 6.234632 0.486987 -0.808814 -0.826256 0.520910 3.189851 -1.608126 2.899954 2.538220 4.952192 2.581176 -0.564576 0.188178 -2.422807 3.450603 1.911160 -1.003186 0.300008 0.575852 3.513664 2.948502 -3.595827 -3.204446 -1.995373 1.449345 5.624386 5.246593 1.757777 -0.726189 0.178578 0.774222 2.386942 3.610067 
zona -0.477699 0.499679 -0.278377 -0.794421 0.089086 -0.089097 3.160503 -0.095216 -0.356127 -0.958960 -0.141752 -0.547730 -1.274130 1.054792 1.568805 -2.461441 1.366376 0.495898 -1.835753 -1.761505 1.507300 -1.324146 1.614360 -1.138496 0.741017 -1.542966 -1.730218 -0.678892 0.239598 -0.509887 2.974410 -2.969407 -0.981049 -2.516923 1.746505 -0.782392 1.598398 -2.648932 1.106587 1.608199 0.570316 0.089075 -1.811528 -0.202722 3.205586 0.433626 0.451006 0.206733 1.987530 -3.906451 
banda -1.130517 -0.836503 -0.575784 1.356936 1.322110 2.998242 -0.532856 0.808601 1.675920 -2.270097 0.910872 -1.931208 -0.911514 0.355431 -3.808983 -0.292000 0.766457 3.858027 -0.469964 -1.810588 -0.016647 -0.236200 3.009972 -1.083500 2.062508 -0.130256 3.855207 2.321826 -2.699759 -1.219784 -3.521316 1.246602 -0.022391 0.490650 2.214303 1.011614 0.439207 -0.271199 -0.512671 -3.045875 -2.035407 0.463297 4.845716 2.545357 0.909332 1.840431 0.521422 -0.696273 0.053576 3.716813 
río -0.867680 -0.671643 -3.081967 0.696390 1.429417 -0.455222 3.036511 -0.171376 1.353549 -0.848793 -2.397688 0.718166 1.564146 -2.411222 3.624009 -0.212570 0.911554 -0.154896 0.066915 -3.140800 2.769073 -1.260717 3.441257 1.662021 -1.466602 -3.750481 -3.057863 -1.574130 3.695677 -1.353651 0.720328 -2.308438 -1.532917 -2.951602 2.374192 -1.125027 2.933048 -4.300844 1.565049 1.765655 -2.683912 -1.917564 0.216687 -0.697297 0.276512 -0.728303 0.078932 1.821415 4.405579 -1.548989 
censo -4.949599 -2.025324 0.971635 -0.404818 -0.508397 0.487026 5.849035 4.505832 -7.283648 3.806402 -6.366379 -1.303932 3.034571 0.746091 -3.186077 0.307465 -2.407410 -7.323589 -1.454335 -0.091319 6.030779 -0.995441 -0.465432 1.580528 9.439196 0.643633 0.608265 1.647894 6.357092 -4.237602 7.889981 -2.690128 1.919611 -1.608704 -0.378688 1.586053 6.661747 -3.568770 -2.624934 -5.663111 3.196237 1.167263 0.693535 -6.491600 -1.602340 -0.821917 4.203429 -5.058784 -3.048177 1.025057 
tipo 0.625556 -0.000085 -1.982752 -0.722694 -0.590334 1.059650 0.418860 -0.237441 0.180346 1.271549 0.799342 -1.200946 -1.720267 1.016509 -0.198753 -1.904718 -1.311919 1.705084 -1.283511 -0.855390 -1.154913 0.688617 -1.457968 -1.404960 -0.154405 0.229631 -0.100418 -0.446963 0.222551 1.914641 -0.046444 1.065625 -0.974177 -0.663635 1.088472 2.010108 0.019148 0.063864 1.369957 -0.301763 1.670920 -0.091308 -3.460403 0.402191 -0.652206 1.424152 -0.226600 -2.620086 0.175152 -1.288002 
número -0.109211 -0.188606 -0.846761 -0.132842 -1.646668 1.065310 0.348361 0.447155 -0.693762 2.727728 -1.414684 -0.533496 -2.289199 2.175042 -1.661128 0.437131 0.255114 0.277848 0.808729 1.620362 -1.756552 2.696192 1.579290 -0.697304 -0.100600 1.025339 0.741003 -0.294221 0.457067 0.908791 3.045073 0.846312 1.712389 -0.331266 0.804798 0.206421 -0.229072 -0.799650 -0.242373 0.661070 -2.373984 3.178151 1.089193 1.620998 -2.405291 -1.009311 -1.010521 -1.673268 -0.748366 -0.925275 
hombre -1.020215 0.968080 -1.810344 -2.917917 1.586782 -1.526345 -2.750278 0.215626 -0.216682 1.752998 -0.054316 1.149302 -1.614776 -0.257794 -0.703691 -1.222086 -0.368487 -2.224531 1.340735 0.296364 2.255822 -0.804051 -1.289304 1.680553 -2.539533 0.150147 1.634899 -1.023903 -0.199072 -1.222460 1.243097 0.427925 -1.338469 2.424679 -1.325816 -1.193432 1.126827 0.717862 -1.412091 0.659679 -2.019799 -1.194633 0.761160 -0.603821 -2.088239 2.702286 0.487604 0.951549 0.436975 -1.346760 
punto -1.559206 -0.703290 2.929058 -1.161448 -0.400134 -1.830298 -0.218299 -0.720761 -0.111631 0.654910 -0.307225 1.453243 -3.028761 1.145309 -1.033767 0.904115 -1.299616 -1.190817 -2.564998 -3.365874 -2.278840 0.690476 1.899397 -0.766559 1.255951 -0.892340 -0.868949 -2.691894 -1.796326 1.108179 1.583875 2.041239 -0.334315 -1.024719 1.312212 -2.856544 -0.289920 -0.169547 2.118083 1.180758 -0.813434 -0.904643 1.050460 1.349602 -1.753791 -4.099590 1.476775 -2.117369 3.757273 -2.499732 
condado -2.681442 0.156802 2.683887 0.548074 0.212416 1.300982 -1.913968 3.098271 -1.229491 1.756504 -0.887502 0.162955 1.393953 -2.035933 2.078748 -2.272026 0.530032 -2.939275 -0.864592 -5.101221 6.110876 -0.332731 -1.556324 0.734460 0.527994 -1.227275 -1.026253 2.778021 3.240291 0.522304 5.775765 -1.583637 3.240302 -4.317400 0.338342 -1.174723 2.618619 -2.397689 -0.944413 -0.255915 1.211894 1.356489 1.377483 -2.404087 0.651441 -0.942488 0.468016 0.523946 0.091952 1.877021 
centro -1.266791 1.705228 0.137428 0.930497 -2.256160 -0.373223 2.369254 -0.713006 0.127242 -1.007485 -1.562005 1.800850 -0.095359 1.848873 -0.642425 -2.365643 -0.418219 1.095036 -1.092440 -2.004035 2.729166 0.542035 2.125270 -1.214323 0.714592 0.532124 -2.630903 1.090159 -3.447356 0.246350 1.522589 -2.553998 -0.877613 -0.294028 1.429925 0.177364 -0.425520 -1.156256 1.346759 1.406375 1.106041 0.519855 -1.533028 -3.543482 1.448249 -1.358197 0.030639 0.888997 0.942001 -1.659321 
mundo -0.096816 1.106515 0.464944 -1.139118 1.491629 -1.329575 -0.359015 -0.086603 -0.594637 0.997011 -1.971833 0.189654 -0.542052 0.343659 -2.941489 -1.597859 1.449037 0.868535 2.270016 1.595076 0.492050 -0.877736 1.469521 0.325027 -0.650527 0.136327 1.590163 -0.839295 -2.052730 2.696259 -0.186997 -0.254288 -1.066891 -0.376628 1.551636 -0.084545 0.428201 1.109232 0.735762 1.521355 1.855910 -1.568179 0.027544 0.997550 -1.165947 -0.448895 1.095680 0.589772 -1.555643 -0.315888 
miembro -0.166789 -0.457967 2.807250 0.383208 -0.726472 2.401816 -0.214819 0.667836 0.700595 1.563588 -0.503107 -0.655897 -2.895467 -1.243337 1.637831 0.737858 -1.597026 -1.262851 2.326817 -0.788478 2.244999 2.863201 1.041449 -0.102013 -0.304012 0.528426 2.983492 2.004637 -1.513626 -1.336564 -0.491115 0.417447 0.234392 1.857244 0.633535 1.387694 -3.066529 -0.273122 -1.103427 -1.590963 -1.760670 -0.799348 1.092148 -1.970343 1.663057 0.377777 -0.923086 0.148157 -4.287220 0.171085 
pueblo -0.685760 -0.751333 -1.428503 -2.301427 -1.042517 -0.346305 -1.204846 0.100186 0.124568 0.242854 -0.167644 1.270221 0.401442 -0.517524 1.594021 -0.319168 3.161199 -2.402970 0.212122 -0.222690 3.792758 -2.372799 0.622915 0.830836 -0.307375 0.637207 1.450514 -1.771167 -0.596346 -1.458143 2.183084 -2.626679 -0.725633 -2.352342 -0.989050 -0.597183 0.964296 -2.314648 2.771484 0.365116 0.194896 0.467694 -0.171262 -1.247816 2.048570 0.608727 0.635338 1.894034 1.143644 -0.326997 
distrito -2.106198 2.514950 0.137858 0.359210 -2.741679 1.441139 2.710535 -0.110989 -2.096210 -1.215099 -3.057477 1.610844 0.566511 -0.447699 1.459024 -1.420225 0.752553 -2.262357 -0.166256 -1.195406 3.482957 0.435030 0.618747 0.569797 -0.817971 -0.073697 -1.358819 0.562374 2.308147 -1.269111 1.974923 -0.655844 2.332798 -2.401734 -0.205196 -0.859286 -2.328545 -1.539125 0.455164 1.409692 -0.365464 3.178087 1.764426 -3.847909 2.778206 0.614615 2.357282 0.107452 -0.668146 -1.457519 
tierra 1.615878 0.446283 0.197486 -1.302362 1.868987 -0.688215 1.581200 2.481507 -1.651423 1.285368 0.362579 0.802176 0.650895 -2.750076 2.333184 -1.607379 2.341357 -0.319925 -0.318345 -0.727566 3.954088 -0.893742 -0.938596 -0.132127 2.928488 -0.908794 -0.942270 -1.106661 1.558961 -1.723440 1.125045 0.067008 -1.436123 -1.749607 0.106639 -1.510720 3.579441 -1.576090 0.100552 -0.264172 1.417376 -1.621202 -1.523836 0.414192 2.157417 0.801641 0.278003 0.285249 4.316357 -0.490971 
trabajo -0.439415 0.391307 -0.873643 1.602442 0.208728 -1.284904 -0.841280 1.260218 -1.145130 -0.206976 -0.742833 0.060086 -0.979333 -0.594405 -0.314581 0.925217 -0.107095 2.606337 -2.389300 0.142404 -0.169007 1.523171 1.597728 -0.142008 0.867760 2.021500 1.332224 -0.082271 -1.538300 1.343929 0.009150 -0.676672 1.900855 3.049883 -1.093991 2.444715 0.270882 1.324768 -0.239480 -0.746582 0.791633 -0.726193 -0.678271 0.405709 0.102527 0.230989 0.240435 1.347321 -1.797300 -0.888680 
norte -1.166103 -0.505890 0.406484 -0.522815 -0.820520 0.102863 1.942518 -1.566990 0.580948 -1.776724 -2.266180 0.381315 -0.444993 -1.182763 0.974321 -2.645721 2.085825 -0.574078 -0.580133 -2.914925 2.741844 -0.303352 1.443630 0.944222 1.640854 -1.629704 -2.726144 0.724533 0.836625 -1.082136 1.747558 -2.336061 -2.749463 -1.769621 1.629408 -2.050310 1.878660 -3.098301 0.528200 3.668278 -1.951024 -0.489604 1.045154 -0.512235 3.463424 -0.907406 -0.086390 -0.530330 2.451486 -2.202335 
provincia -0.407292 -0.237520 1.034720 -0.878552 -1.870051 1.551288 3.224509 1.422014 0.687449 -0.107733 -3.119704 -0.746834 1.686632 -1.805304 3.408820 -0.388436 1.244882 -1.964296 -0.366697 -1.050618 2.757430 -1.086856 0.462581 1.970873 0.580669 0.804426 -1.853069 -0.811281 0.540925 -2.046593 1.783237 -1.904991 -0.911467 -2.692834 -0.553020 -3.479288 -1.020064 -1.264805 1.828841 3.275251 -1.398959 2.680890 -0.274992 -0.821941 2.584178 -0.839342 1.043229 0.940255 0.441618 -0.905902 
estudio -3.521599 0.334887 -0.751749 1.044604 -1.413019 -0.987521 1.108279 1.066022 0.073106 0.533538 0.464106 1.174773 -0.170261 -1.406141 -1.759465 0.507571 0.015724 4.268229 -1.676037 -1.067257 0.346431 0.730433 2.901634 0.146829 0.675753 1.155238 1.066243 1.230062 0.365682 3.152933 -0.641171 1.918396 0.638795 2.819247 -1.132823 1.634597 0.672821 1.177709 -0.971399 -1.657707 1.128160 -0.112519 -1.147225 -0.539505 1.276546 -0.663971 -0.719643 1.258997 -2.019170 -1.051137 
gobierno 0.613574 -1.396483 2.722211 1.083123 -3.970573 2.238228 3.317870 0.775110 -0.745847 -1.388863 -0.877570 -0.511918 -2.409031 -2.818026 4.418661 -0.436593 1.342542 -4.169745 -0.073349 -0.870035 3.422867 0.102797 -2.506190 -0.932593 -0.452905 0.500309 0.921706 0.803237 -0.976619 -2.250069 0.869139 -2.232820 -1.064385 0.953699 -1.037697 1.375180 -3.750022 1.998902 -0.727225 2.205215 1.026558 0.326170 -0.293285 1.618673 -0.067288 -0.031572 0.122913 3.138603 -0.583907 0.206612 
versión 2.191030 -1.967507 -0.935566 0.181555 -0.146608 0.408600 0.246547 -2.230984 1.711632 -0.840511 -1.373601 -1.128880 1.784822 -0.270637 -2.585934 -0.249094 -0.505326 2.541305 1.196251 1.003829 -1.688067 -0.429786 -1.010064 -0.527614 0.325830 1.249982 2.317756 -0.556169 1.283693 1.227033 -1.275645 1.597277 3.453732 -1.487327 0.516984 1.249872 0.939082 2.535985 -1.208243 -0.471958 -0.484231 -0.256130 1.529375 1.900285 -0.941849 1.212659 -2.789304 -2.981943 1.556582 2.496492 
raza -2.745758 -1.888565 2.608144 -3.716390 -0.274459 -0.792330 -2.625172 0.459600 -1.759129 0.756109 -1.253727 -2.150142 1.085225 0.962205 -1.578420 -0.590719 -1.908483 -0.395700 1.478846 0.979767 1.938848 0.974388 -2.030366 -0.056304 0.741589 -0.434940 3.495841 -1.769886 1.163058 0.294381 4.448561 2.300223 -0.405906 -3.216734 -3.567547 -0.664703 1.175316 0.004605 2.044281 2.658181 0.298592 -4.070193 -1.491170 -1.917236 2.257434 4.415922 0.045462 -4.258758 -1.084732 -1.515243 
caso 0.451214 0.219100 0.082799 0.155565 -0.387676 1.247644 0.159073 -0.212118 -0.406229 1.513239 0.755533 -0.358654 -2.996234 0.564676 1.228599 0.044803 -0.921669 0.176753 0.275948 -0.572925 -0.109636 0.330293 -1.246055 -1.197429 -0.113365 -0.884265 0.473034 -1.765093 2.767778 0.755791 1.057098 0.611386 -1.606891 0.248767 -1.986334 1.421754 -1.571252 1.007391 0.734900 -1.005431 0.153436 0.793968 -1.218168 0.771809 -1.681530 0.219424 1.074032 -1.093431 -0.426787 -0.765147 
juego 3.348833 1.464991 1.155414 -0.358663 -0.526972 -4.246792 0.035446 -1.278163 0.945597 -1.321878 1.576714 -1.666984 -0.100670 1.408693 -0.198837 -0.377765 -2.318405 3.471020 0.397458 1.111290 -2.407410 1.237260 -2.530347 1.854590 0.550925 -1.339666 2.200615 -3.346619 -4.035237 0.919014 -0.068540 2.439727 2.252626 -3.545645 1.755231 -1.542861 0.487796 -0.117551 0.287150 -0.772323 1.153739 -0.363802 1.194021 3.543024 -3.139877 -1.428625 -0.694870 -2.198571 0.596713 0.061766 
mujer -3.049468 1.950898 -1.186542 -2.359786 0.633397 -0.422083 -4.379883 -0.667190 -0.160635 2.282424 1.077438 1.302303 -0.436307 -1.082259 -1.448789 -1.581893 -0.986358 -1.265654 2.611599 -0.003356 0.492272 -1.808928 -1.500996 0.386171 -2.819320 1.001641 3.591238 -0.855037 1.103105 -1.892557 0.601253 -0.563689 0.148358 3.166589 -2.642303 -0.108803 0.184200 -0.392349 -1.723348 -0.638144 -1.026642 -0.036404 0.462025 -1.899253 -2.916286 2.397306 1.806843 0.754823 -0.712575 -2.306097 
padre -0.524347 0.176827 0.481085 -2.653351 -0.125876 -0.385674 -3.646678 -0.117739 1.630892 0.276539 2.198385 0.288446 1.650204 -2.860201 1.396952 -1.546981 -0.026885 -0.015722 2.514922 0.712336 3.161351 1.406295 -0.651255 0.003343 0.115261 0.216507 0.037212 -0.615191 0.072502 0.660782 -1.768581 -1.899401 0.763789 3.657155 -3.988988 -1.247137 1.722610 0.193327 -0.828126 -3.646114 1.066725 -0.043234 0.783123 -1.566668 -0.359798 1.308756 1.725627 1.698797 -1.097558 0.278916 
medio -1.464548 1.973033 -1.653231 0.804381 1.676167 1.097490 -0.054635 0.487337 1.854781 1.209462 -1.478136 1.313769 -1.579888 0.938638 0.216395 -1.393923 -0.885541 -1.821507 -0.062449 -2.249740 0.808304 -1.105741 -0.478747 -0.494928 2.888986 -1.636319 0.768668 -0.080621 -1.738252 0.218594 0.200210 -1.267365 -1.519296 0.055781 1.465204 3.870017 0.880593 4.016348 -1.386544 0.006375 -0.162015 -0.430421 -2.449459 0.562120 0.581199 1.106731 3.035640 -0.222037 -0.674757 -0.295599 
título 2.138311 -0.897331 2.275830 -0.163402 0.022587 -1.652151 -2.115255 0.191086 0.394227 0.293345 -0.906675 0.407842 2.488004 -1.905439 -0.780454 1.276932 1.233870 0.487866 0.949642 0.817443 -1.264695 -0.235198 -0.903317 2.313769 -0.138860 -1.364715 2.042484 -0.417607 -0.038243 1.720699 -0.146936 2.643532 1.363161 -0.419026 -0.438132 -2.730584 -1.870213 0.059433 -3.826239 -1.167748 -0.910700 1.258159 0.063336 0.433042 -1.500111 -2.323524 0.940424 0.802440 -0.718639 3.051204 
línea 1.348684 -0.534087 -0.026201 0.813978 0.570922 0.180920 1.700103 -2.551695 2.024559 -1.688003 -0.231840 1.251940 0.069666 0.870689 0.671426 -0.832553 0.909510 0.782727 -2.309837 -3.460694 -0.055500 1.710695 0.294831 1.490065 0.913750 -0.966841 -0.661796 0.159552 -1.423608 1.055957 1.306823 0.896131 0.979434 1.137226 0.610379 2.001515 -0.473797 -0.323329 0.982578 2.687088 -2.627527 1.083674 1.468168 -0.082706 -1.510652 0.946578 0.909376 -2.600860 4.155399 -1.051768 
rey 2.718048 -4.651238 2.325345 -1.132292 0.016496 0.182368 -2.710541 -1.489435 0.941726 0.525763 0.736144 2.202032 0.183555 -2.863504 3.788646 -0.737181 0.858912 -3.027948 3.141863 -0.768865 1.773160 -1.150007 -0.708789 2.224854 -0.892222 -0.657315 0.273719 1.865687 -0.021809 -2.065841 0.781179 -1.423964 0.232236 0.734622 -3.030898 -5.151268 0.610142 0.577269 -0.225946 -1.798834 1.535062 1.435364 -0.740651 -0.247876 -0.342322 0.363354 -0.447966 1.193195 2.696679 1.887320 
área -1.570294 2.312591 0.353780 0.436986 -0.106723 -0.614007 5.296502 2.009796 -2.074097 0.658475 -1.039130 -0.183439 -0.657890 -0.062288 0.299571 -2.237942 0.357705 1.764994 -0.220672 -3.015524 3.359255 -0.209104 0.612121 0.803682 2.879989 -0.866779 -1.983906 -0.432936 0.574795 0.842798 3.126663 -1.647327 -0.593819 -2.473726 0.971934 1.183655 1.528703 -1.182615 -0.570472 1.015416 2.040581 -0.164640 -1.528630 -1.406500 1.606203 -0.297333 -0.444260 -1.171717 1.878643 -2.767360 
hermano 0.720755 -0.135520 1.697185 -2.608973 0.747266 -0.120127 -3.343630 -0.659512 2.119432 -0.131009 1.670325 -0.251832 0.908330 -2.415478 0.796856 -0.525694 -0.486881 -0.180918 2.800256 -0.222902 2.546105 0.738296 0.485894 0.325646 0.808127 -0.010833 -0.075740 1.056756 -0.586389 -0.385382 -1.814379 -1.005102 1.180970 2.983143 -2.855531 -2.121028 1.032746 -0.160924 -1.065799 -2.824298 0.094494 -0.279083 1.253228 -1.494913 -0.822303 0.872270 0.832215 1.024218 -0.295640 0.435058 
servicio 1.475403 -0.168555 0.247560 0.641508 -0.179928 -0.716430 3.787502 1.389092 0.841625 -0.303727 -1.996742 3.065996 -0.165918 -0.477663 1.415793 -0.932179 0.536943 -0.102840 -0.737377 -2.779326 1.040827 1.277862 -1.374347 -2.786913 0.674023 1.897677 -0.643451 -1.141862 -2.546426 0.951214 3.461051 -3.631713 2.217240 2.210653 1.329173 2.389958 -3.304276 0.101745 0.030472 -0.569095 -0.554413 1.172548 -1.484336 -1.252106 -2.301475 3.274565 -0.504972 0.098646 0.680476 -1.010619 
isla -2.694318 -0.654385 0.758608 -1.405295 2.011684 -1.421559 1.641895 -1.803937 -0.342546 1.192690 -0.294923 -1.717387 -1.201557 -1.751998 1.330983 -2.436710 3.785908 -1.608852 0.499753 -1.830948 2.701042 -1.219127 0.967766 0.089804 1.733210 0.595562 -2.410985 0.140314 2.206962 -1.246919 1.252421 -0.967029 -1.401864 -1.579679 1.628633 -3.958013 -0.567558 -2.292945 0.400975 2.782055 -0.130820 -1.941069 -0.364825 -0.461807 2.280060 1.324428 -1.552186 -0.260016 1.330763 0.780576 
mayo -0.091333 0.131214 1.450334 1.469499 -1.361804 -1.034165 1.909419 -0.394289 1.863168 0.270739 0.785664 0.494215 -0.024123 -1.345066 -0.223346 1.942948 1.048203 -2.400961 0.844282 0.907008 -2.108098 0.564069 -1.139368 -1.574986 0.291109 0.176150 -2.198012 1.318775 -0.457609 -2.823598 0.878919 -0.182490 1.178863 -0.255784 0.293848 0.216592 0.329862 0.100940 -1.198571 -0.253192 -2.818625 0.691283 2.093855 -0.148001 1.646389 0.522231 -0.100070 2.857432 -1.039351 3.621209 
casa -0.254766 1.839372 -0.553223 -1.925070 0.551421 -0.506948 -3.813359 -0.822988 -0.104072 -1.626621 2.239125 1.753981 -0.490036 1.384802 0.225311 -1.391705 2.450854 -1.092174 -0.536960 1.152698 1.818181 0.976623 -0.993610 -0.542920 0.196580 1.030665 -0.640759 -0.960510 -1.267613 -1.748325 0.174160 -2.400592 3.516378 1.612034 -0.761105 -0.315470 1.567832 -2.320168 -1.004943 -3.364707 1.623608 0.752147 -0.252938 -2.894207 1.276617 -1.386786 0.155687 0.708650 0.447014 -0.648950 
carrera -0.236939 2.475914 2.767549 -1.402140 -0.861426 -0.477296 -2.059179 0.800239 1.465598 -1.248186 -1.774331 -0.124242 1.895105 -0.991127 -2.481333 1.858221 -2.376530 1.848870 -0.439357 0.341110 -2.646976 2.174808 1.501617 0.125210 -0.092067 -1.751327 0.929527 -1.708529 -1.315666 2.151995 -1.146347 -1.709173 0.842748 2.083145 2.113211 -1.567738 0.481137 0.617216 -0.438215 -0.433176 -2.615550 0.095537 2.075460 2.104618 1.108722 -0.735216 2.761610 1.980893 -1.373499 0.970598 
muerte 1.269600 -0.755873 1.332643 -0.086661 0.985648 0.222857 -2.930933 0.633442 0.651573 0.132097 2.217909 -0.440038 -0.463298 -1.072115 -0.122499 -0.063313 0.061919 -1.502217 2.996476 1.882826 1.879460 -0.450639 -1.007844 0.754817 0.107054 -2.291319 -0.758550 0.815293 1.897789 -1.256133 0.747896 -0.968197 -1.356458 3.919698 -3.771470 -0.486655 1.806953 1.327095 0.647872 -2.540956 0.003994 1.075645 1.093987 -0.239973 -1.823974 0.278282 -0.065157 2.759771 -1.177918 1.073684 
localidad -0.843535 0.865235 -0.891374 -0.746412 0.063449 1.278983 0.703596 0.961508 0.651313 0.252779 -1.350849 0.146009 2.828025 1.748593 1.863020 0.775807 2.066869 -2.205280 0.082730 -1.633238 2.026502 -1.315017 1.017498 0.191994 1.451567 1.379923 -2.595132 -1.570569 1.084921 -0.977089 2.885874 -3.017319 1.745620 -2.431169 1.690714 0.008165 1.212309 -2.539089 1.618939 1.150365 -1.838237 1.263916 -0.942707 -3.334836 2.407136 -0.649473 2.035278 1.216053 0.031714 -0.783191 
futbol 1.914285 0.886316 3.215759 0.147164 -0.216076 -4.107415 3.159784 -1.145069 0.000633 -0.357882 0.780045 -3.308012 4.054006 3.089978 -1.529155 1.847212 -1.313293 -0.744949 0.769478 0.032386 -0.051090 2.021507 -0.538664 1.636846 0.690091 0.453712 1.149023 -1.476641 -2.092719 -0.400095 -1.043489 -2.398778 -3.022166 -3.534149 2.474491 -1.758622 -4.120213 -1.028657 -2.827786 -1.425028 0.183343 1.688492 1.268696 -2.600929 1.493062 -2.690173 3.231196 -0.024960 -5.020347 -0.903031 
septiembre 0.220389 0.315182 1.600909 1.360437 -1.721703 -1.009281 1.875256 -0.356894 1.716834 0.078379 0.724712 0.738805 0.220520 -1.546431 -0.293455 1.663542 0.983993 -2.190384 0.845029 0.504710 -1.629069 0.466078 -1.132418 -1.920639 0.738580 0.209058 -2.426610 1.615429 -0.742993 -2.573686 0.667345 -0.276668 1.004298 -0.226877 0.723509 0.539454 0.821847 0.469803 -1.241312 -0.220760 -2.820549 0.665125 2.248827 -0.061213 1.575992 0.701927 -0.316196 2.983562 -1.148809 3.699910 
julio 0.065036 0.018526 1.566379 1.307794 -1.405414 -1.336245 2.264386 -0.050779 1.432357 0.414641 0.888193 0.471392 -0.022550 -1.551735 0.086946 1.763226 0.827242 -2.635963 1.018614 0.410828 -1.827284 0.546845 -1.266329 -1.545707 0.297814 0.009965 -2.317931 1.457829 -0.549465 -2.729634 0.447973 -0.089686 1.248882 -0.003157 0.485315 0.434928 0.524181 -0.087223 -1.701463 -0.102843 -2.552366 0.929131 2.075568 -0.226842 1.600214 0.935166 0.149507 3.006993 -1.013901 3.460972 
ejército 3.020255 -0.296747 -1.386290 -2.665532 -2.570226 -0.666672 2.802121 0.504816 0.711644 -1.059428 -0.945651 0.317526 -2.023702 -1.370128 3.177266 -0.603597 -1.116356 -4.278564 -0.417502 0.109906 3.609670 1.846959 -1.319979 1.884513 -1.452571 -0.307915 -0.149568 3.435021 -0.571333 -0.867981 3.417223 -2.027325 -1.966420 1.953023 0.213649 -2.298734 -0.287748 2.113732 -1.426710 0.818127 -4.214830 0.074621 2.540779 1.191944 1.015165 1.910546 -2.940212 3.313928 3.670381 -1.097633 
época 0.692577 -1.341941 0.453864 -1.127924 -0.142597 -0.084201 -0.710058 -0.186458 -0.985733 0.256011 0.324342 -0.371283 0.167812 0.294089 1.099144 -0.858201 1.316287 0.335408 -1.040252 0.727672 -1.226295 -2.044177 2.368216 1.043739 -1.543367 -0.418343 1.829857 -0.584911 -1.266328 1.055570 -0.514862 -1.162568 -0.092940 0.094779 -0.671881 -0.005405 2.233314 -0.102341 1.236680 1.667866 0.275046 1.100358 -2.147278 -0.701326 1.652509 0.202491 0.156750 1.550453 -0.549882 0.698632 
cuenta -0.751359 0.935329 0.209494 -0.202286 0.414058 0.030956 2.045550 0.633842 0.509621 0.375033 -0.561726 0.338340 -0.667748 0.916888 -1.667365 -0.984634 -0.152199 0.646011 -0.019777 -0.372602 1.366546 0.122568 -0.213472 -0.327169 0.324079 1.207158 -0.449046 -3.074650 -0.746888 0.071770 1.021970 -0.544045 2.095864 -0.392946 0.413762 0.493496 -0.514582 -0.753616 -0.001277 -0.462129 1.411812 1.345931 -0.219399 -1.366382 -1.755265 -0.239831 0.000072 -0.285923 0.259316 -1.754686 
nivel -0.647471 1.144109 2.081705 0.143884 0.347300 0.510288 3.397520 2.042667 -1.126544 1.725692 -1.251329 1.174671 -0.412458 0.257728 -1.816908 -2.151026 -2.828878 1.674265 -1.283631 -1.272869 -0.739965 0.195182 0.531572 -0.059474 1.019379 -2.409023 -0.103470 -2.033049 -0.932926 1.677104 -0.689227 -0.920205 -1.283556 -2.365160 2.190966 0.608148 -1.896097 0.761509 -0.382360 0.641054 1.395731 0.874512 -0.930158 1.248865 -2.037737 0.908069 -0.242415 0.089785 0.379800 -3.651884 
densidad -2.621650 2.053075 3.731587 -5.895556 0.616446 1.634583 6.897304 4.656234 -8.442330 5.471823 3.276386 -3.119869 1.332588 -1.378349 -7.576349 4.476770 0.475245 2.936463 0.237129 0.134103 0.632488 -3.580023 -3.159173 2.048184 1.886674 0.062618 -0.185913 0.669338 7.475275 -0.516464 3.326892 2.020674 2.835733 1.313624 1.342405 4.012637 2.502316 -0.728793 3.993923 0.519940 1.134523 3.023535 2.133845 -6.083729 -3.028620 1.846368 -4.136200 -7.166756 2.273628 -3.798171 
marzo -0.005645 -0.086195 1.899105 1.615914 -1.759663 -0.824032 2.323575 -0.189740 1.641603 0.013214 0.962423 0.556994 -0.249615 -1.831912 -0.077281 1.629879 0.652298 -1.912124 0.827190 0.539327 -1.650084 0.512879 -1.080066 -1.746545 0.359897 0.287068 -2.176322 1.696614 -0.237971 -2.652800 0.612764 -0.092672 1.425096 -0.040202 0.117806 0.511057 0.582895 0.372672 -1.611958 -0.060325 -2.660317 0.563324 2.327805 -0.264123 1.349798 0.428858 0.027194 2.500294 -1.147135 3.756731 
programa -0.165217 3.364307 -0.766128 1.895869 -3.015144 0.209886 1.092336 -0.684826 1.468067 0.981444 -1.623780 0.883979 0.326127 -0.652590 0.016088 2.273026 -1.575469 2.402368 2.276692 -2.075384 -1.116135 -1.765385 -0.270022 -1.703535 2.308102 1.140243 0.220531 -1.626647 -1.575610 1.452183 -1.733420 -0.778525 4.388177 0.640203 3.232604 3.109641 -2.208007 3.805073 -0.184776 -0.749638 1.451575 -1.307779 0.507041 2.244747 0.012454 0.021150 -1.472927 -0.015479 -2.394302 -0.065513 
fuerza 2.901652 -0.720494 -0.535040 -1.639662 -2.697311 0.293168 2.194474 0.308229 0.123583 -0.536597 -0.193739 -0.480854 -3.392592 -0.732104 1.118848 0.853600 -0.658098 -3.009812 -1.183845 0.093289 3.110764 1.679474 -1.881162 1.157919 -0.653537 -0.482412 -0.665849 2.106803 -0.160921 -0.899270 2.362381 -0.491356 -4.082745 0.782390 2.006072 -0.956290 0.147190 2.290685 0.105721 1.579010 -1.347888 -1.614529 2.015635 1.565775 -1.172169 2.756002 -1.285806 1.701519 2.006182 -1.849350 
agosto 0.074364 0.323687 1.212882 1.184355 -1.447562 -1.522915 2.034388 -0.278490 1.407804 0.445135 1.104010 0.632989 0.302024 -1.565340 -0.051030 1.939677 1.136591 -2.483356 0.499464 0.423457 -1.710945 0.628119 -1.097115 -1.887532 0.747833 0.010066 -2.443410 1.576135 -0.599455 -2.842060 0.795240 -0.482715 0.872235 -0.354934 0.705712 0.102382 0.893724 -0.141030 -1.641290 -0.400296 -2.676984 0.785356 2.201993 -0.117931 1.659575 1.010829 0.071178 3.025460 -0.901759 3.442560 
momento 0.972577 -0.237740 1.349410 -0.550516 0.173635 0.375375 -0.352742 -0.147744 1.059803 0.086455 0.707786 -0.581794 -1.408154 0.499742 -0.788327 0.423838 0.225465 -0.733775 -0.032636 0.487043 0.509924 -0.311086 -0.060204 -0.507167 -0.355621 -0.759931 0.666908 -0.857431 -1.043063 0.595652 -0.818131 0.549905 -0.238089 1.243054 -0.294116 -0.213792 0.897900 1.475095 0.688533 -0.392977 0.420405 0.478915 1.037216 0.845132 -0.845429 0.329106 0.774554 1.546809 -0.207690 0.037371 
planta -0.146101 0.698637 0.333596 0.624772 2.305512 -1.074641 1.165555 0.592072 -0.870985 -2.050912 -2.321573 1.196028 -0.751835 4.560452 1.152561 -1.847394 1.637697 2.142879 -0.988651 2.409933 -1.754094 2.718208 0.230439 0.133619 1.305264 -1.897056 -1.967624 1.953929 1.229379 -0.228962 -1.311108 -0.356017 -0.346513 -0.826870 0.761393 2.012404 0.183776 -2.668695 -1.294081 -1.881040 0.576163 -1.045798 -5.039205 -1.594232 1.931437 0.276884 -0.526989 -1.116413 0.230016 -2.958071 
libro -0.335185 -1.077269 -2.203377 1.607917 0.149024 -3.120321 -2.762140 -0.037078 -0.411677 1.307100 -1.163508 -0.346244 0.441779 0.353952 -0.377384 -1.459903 1.319526 1.662694 2.500746 1.514613 -1.345901 -2.400511 -0.421849 2.565471 0.097403 0.850156 0.924674 -1.514269 -0.965244 2.645190 -0.193428 1.241140 1.088905 2.968502 -3.873175 0.972198 0.854902 2.416894 -0.037825 0.715910 0.451236 -1.462585 -0.058615 -0.218840 -0.827175 -2.981598 -1.347300 -1.363195 -0.443692 3.011886 
música -0.801750 -0.875047 -2.061980 2.099315 -1.269993 1.758673 -2.621562 1.372613 1.770233 -0.442886 0.470700 -1.093423 0.949981 -0.824534 -2.465100 -0.479870 1.040956 5.300410 -0.742169 -0.128223 -1.209488 -0.158972 4.011118 1.793445 -0.944914 3.556495 4.237612 -1.137063 -2.242241 0.084546 -3.637545 1.129374 -0.276512 -0.759440 2.781056 -0.072515 1.726530 3.141445 0.059658 -0.014303 3.018159 1.747952 1.455608 -1.235412 1.215257 1.440426 -0.294285 -1.144049 -2.323050 1.746511 
jugador 1.641929 -0.440915 2.720698 -1.382089 -0.144921 -4.295645 1.661450 -0.963280 -0.607267 -0.241263 2.671354 -2.979876 -0.668085 3.630949 0.868308 2.086329 -3.560471 1.769298 1.353773 2.299598 -1.509914 3.484856 -2.498661 1.045678 1.013346 -0.800792 0.596402 -3.891837 -3.355391 0.714514 -1.666616 1.101553 1.200652 -3.184694 1.903321 -4.377776 -2.033469 -1.182407 -1.411512 -0.847073 -1.221339 0.026926 2.311523 2.286246 -3.411428 -1.798422 2.092941 0.237072 -1.012447 -1.551124 
abril 0.121246 -0.005171 1.790652 1.308306 -1.669450 -0.907628 2.195263 -0.182455 1.803236 0.077262 1.007030 0.590175 -0.124352 -1.588974 -0.064254 1.499858 0.739927 -2.115125 0.829266 0.440225 -1.752289 0.526836 -1.033550 -1.543797 0.523954 0.388536 -2.354615 1.543131 -0.220214 -2.497438 0.672154 -0.241238 1.250348 0.118380 0.323708 0.473404 0.716792 0.375042 -1.521101 -0.223856 -2.852588 0.553157 2.231977 -0.296323 1.467262 0.516715 -0.220971 2.673256 -0.784840 3.429175 
uso 1.847281 -0.509027 -2.707325 0.374976 -1.199261 0.987621 1.277410 -0.463538 -0.791758 -0.008872 -0.299494 0.653387 -1.847034 0.995234 0.994873 0.405313 0.312854 2.493139 -2.933885 -0.578219 -0.455943 0.164630 -1.778675 -0.672388 -1.146407 -0.362777 1.744266 -0.698586 0.715312 2.647099 1.257578 -0.285125 -0.978619 -1.562607 0.589914 2.517470 0.226875 1.133348 0.306813 -1.079552 1.979943 -0.405195 -4.212081 -0.058854 -0.737665 0.656665 -0.545785 -2.466325 0.592063 1.334820 
club 0.517753 1.439749 2.649348 -0.534165 -0.467568 -2.976341 2.790451 1.195855 1.106455 0.071954 0.095278 -3.339668 2.941611 3.599124 -0.730605 1.502732 0.199063 -2.195546 0.271924 0.406570 -0.256584 1.236163 0.589860 0.195530 0.522399 0.502034 2.196994 -1.602200 -3.106943 -0.134121 -3.252043 -1.408695 0.633326 -1.487140 2.372385 -1.574951 -2.842754 -2.190965 -3.378296 -2.711783 -1.059434 1.723006 1.339200 0.116571 0.082812 -2.407362 5.196050 2.195372 -1.068771 -0.884754 
color 0.346636 -1.635374 -3.046936 -0.588602 2.039212 1.305365 -0.031731 -3.335187 -3.739659 0.654571 -1.590392 -0.100842 1.986510 4.435192 1.020452 -0.259127 -2.408854 2.981056 -1.895131 -0.148656 -1.940808 -1.240421 -2.592345 -1.688546 -1.442836 -1.607580 1.301610 2.762506 -1.451021 -0.189766 -2.162110 4.575623 -0.151657 -0.944558 1.071804 0.264372 -0.510571 -2.858091 1.029827 0.755975 0.004069 -0.074650 1.473712 -1.787899 1.027483 0.667367 1.329934 -4.015365 1.291278 -1.706710 
personaje 3.055114 0.862340 0.550023 -1.575698 0.617200 -0.938020 -4.372157 -1.278162 0.097655 -0.669587 0.150290 -1.984743 -0.449889 0.362412 1.317581 -2.245813 -2.277710 1.450483 2.160642 0.360350 -1.430810 -4.136089 -0.450514 2.300521 0.307635 0.558253 2.768720 -2.529842 -0.956166 1.849023 -1.864026 3.223809 2.704872 0.096324 -0.845178 -0.414313 1.775914 0.990704 2.216218 -0.025632 -0.795370 -1.929482 1.279194 -0.847487 -3.331380 0.675294 -0.760894 0.065276 -1.567957 -0.195451 
principio 0.965951 0.460754 1.275369 -0.058704 -1.867479 -0.950153 0.285174 -0.635549 -1.433343 -0.384342 1.271386 0.118606 -1.263385 -0.381961 0.232863 1.661803 3.806027 0.232954 -0.682888 0.086671 -1.165507 -0.160993 1.958474 -0.122572 -1.938019 -0.597732 2.457875 0.638068 -0.423598 1.470104 -1.306817 -0.047205 0.483022 0.420222 -1.476719 0.710397 0.020930 0.458367 0.585870 0.586208 -0.034770 -0.377795 -0.167657 0.672836 0.278173 0.918484 -0.776999 0.391614 -0.041564 0.160021 
género -1.592280 1.133754 -0.867818 0.465622 1.972817 1.949342 -2.785325 1.038116 1.086509 0.184957 -0.877383 -2.597419 -0.207436 0.555384 1.204437 -2.831602 1.998556 3.150869 1.351068 0.229581 -4.248538 0.431518 2.556658 2.989797 0.505235 -0.339370 3.066224 1.908355 0.333146 0.542557 -1.286008 4.393975 -2.496603 -1.070047 -0.280979 1.587969 1.385356 -0.695416 -1.262729 0.610622 -0.285546 -1.136702 -1.248140 0.265489 1.339457 1.662932 -0.987112 -1.712827 -3.165349 0.398581 
base -0.046704 -0.729625 -0.043833 -1.671028 -0.675961 -1.247940 3.239064 -0.201277 -0.769280 0.824962 -1.337952 -1.269783 -1.653336 1.869193 -0.431926 0.000663 -1.014691 -0.105784 -1.652383 -1.129016 0.161772 1.697461 0.298365 -0.007182 0.904204 0.389571 -1.501370 0.378500 -1.501192 0.718870 -0.936007 0.108918 -0.925686 -0.026892 -0.705190 1.258752 -1.378250 -0.105347 0.291915 1.184046 -0.454899 -0.519162 -1.495511 1.879247 -0.087432 0.522204 -1.429284 -2.298487 1.488884 0.197663 
tema -1.445501 -1.885277 -0.974544 3.658690 -0.006357 0.863213 -2.403476 -1.199934 0.697652 -0.157449 -1.713134 -1.583866 -1.210437 -0.217794 -2.850734 0.037709 0.850374 2.632803 0.948322 -0.218926 -1.761146 -1.781712 2.478601 0.460859 -0.270874 0.386668 3.765498 -1.118379 -1.497484 0.386259 -2.369916 2.101115 0.129357 -0.728443 -1.024259 1.798360 0.726112 4.631921 -0.853637 -1.123577 0.138370 -0.231874 1.273368 0.371451 -0.038383 -0.092993 -0.776490 0.288861 -0.126360 -0.133996 
mayoría -0.772281 -0.224788 0.947935 -1.797181 -0.803590 2.372463 1.513948 -0.280002 -0.306002 1.483324 -0.271814 -0.729128 -2.559627 -0.553145 0.747586 -0.745848 0.585807 0.906841 -0.440563 1.387803 0.547710 0.064445 -0.311667 -0.009795 -1.172805 -0.067466 1.930488 -0.985355 0.646533 -0.109273 1.644643 -0.619554 0.282620 -0.739501 0.038411 1.519740 -0.451708 -0.186351 0.608595 0.315610 -0.316336 0.552285 -0.604821 0.380058 0.569925 -0.230664 -0.602963 -1.528883 -1.194919 -0.956551 
departamento -1.996889 1.995916 -2.016895 0.643564 -1.605408 1.534532 5.235213 1.033684 1.061113 -2.588717 -3.314945 1.955772 2.158278 -1.606816 -0.679858 -2.809331 -1.201021 -1.483906 -0.235797 -2.030373 3.775491 0.388039 0.744843 -0.947943 0.210724 0.627541 -2.001612 -0.798136 0.181085 -0.311965 0.662759 0.942537 -0.309144 -0.269830 -2.524780 -0.580224 -1.669481 1.487775 -0.340775 0.443131 -2.252493 1.357367 -1.181396 -2.905744 2.741337 0.194171 1.187967 0.059613 -1.298090 -1.997569 
relación -1.222619 -0.708701 -0.197071 -1.418202 -1.657517 0.677386 -1.460846 -0.103593 1.126846 0.740476 -0.002149 -0.726237 -2.680003 -1.374302 1.216583 -0.249028 0.834315 -0.884472 1.085411 -0.371117 -0.468861 -1.116215 1.008596 -0.164428 0.054805 0.492982 1.812916 -0.162925 0.333833 2.159465 -1.295484 0.602478 -0.603278 2.501025 -2.048464 0.866843 -1.728053 0.482449 0.060842 -0.214454 2.294131 -0.919839 -0.030179 0.145196 -1.859123 1.746899 2.500333 1.168212 -1.760605 -2.933779 
febrero -0.015052 0.078509 1.723068 1.405279 -1.605458 -0.797032 2.122706 -0.288053 1.686243 -0.032498 0.818301 0.353971 0.151771 -1.808922 -0.045897 1.807371 0.477196 -2.130119 0.706335 0.373435 -1.753769 0.401825 -1.086417 -1.727090 0.473963 0.279522 -2.190260 1.521845 -0.421021 -2.768627 0.533206 -0.113627 1.202769 -0.305392 0.145798 0.379841 0.718655 0.220702 -1.414999 -0.177524 -2.657840 0.483108 2.295527 -0.451507 1.231231 0.425040 0.013862 2.589042 -1.180743 3.639512 
éxito 1.197822 -0.370507 2.259171 -0.415317 0.775565 0.399952 -0.724989 -0.293522 0.573588 -0.847915 -2.669782 -0.880342 -0.056243 -0.885953 -1.841510 0.645018 0.397736 2.472236 0.611216 1.180839 -1.094476 -0.125343 2.924052 -1.170992 0.653958 0.678436 1.554079 0.499406 -1.498236 0.037555 -0.316844 0.726042 0.913566 0.568957 1.284765 -0.599198 0.783631 4.151251 -1.825084 0.605120 -0.921310 1.169909 1.401691 3.321612 -0.736626 0.123440 -0.499192 1.478394 -1.027038 0.207238 
origen -0.189637 -1.842537 -0.634893 -2.984328 -1.202643 -0.237695 -0.078771 -0.074684 0.139582 1.362175 0.870517 -1.372023 1.230623 -0.319733 1.232045 -1.350475 1.604714 0.197512 0.375085 1.018376 0.646664 -1.022421 2.708337 0.261745 -0.924520 1.272490 1.527502 -0.535663 1.328321 1.496198 0.026001 0.520968 -1.401787 -2.336329 -1.697542 0.983707 1.018468 -1.307020 1.496037 -0.060980 -0.064521 -1.190602 -2.412093 -1.142088 1.410596 0.115509 1.070966 -0.243186 0.459526 0.928457 
disco -0.612332 -2.723665 -2.615597 3.244466 1.966405 2.667734 -1.005721 1.325642 0.175205 -0.820658 -0.996095 -0.186680 0.945926 1.729307 -5.763132 0.227074 0.000532 6.051071 0.956553 0.739970 0.280186 1.559823 2.138113 -1.723928 3.091751 1.120604 3.159115 2.565271 -1.418027 0.278329 -3.448012 1.055963 1.610958 -0.988344 1.386906 1.084417 2.080332 2.173350 -1.447219 -1.199104 -0.939279 2.439204 3.534068 5.234077 0.428493 -0.465034 1.376226 -1.823529 1.457364 2.069218 
mes -1.210251 0.311593 1.576612 1.431175 -0.513336 -2.342099 2.004479 -0.038716 1.397737 0.588585 1.911833 0.575580 -0.399230 -0.483345 0.254569 1.652691 1.847095 -0.431500 1.012040 0.691415 -1.967815 0.177714 -2.171210 -2.645875 -0.294458 -1.076994 -2.030713 1.014981 -0.013728 -2.549471 0.281871 -0.955531 1.034540 1.932549 0.645583 0.331931 1.030514 0.168848 -0.486240 -1.816817 -2.083865 2.878570 2.239889 2.469449 1.470593 0.947052 0.106515 2.990814 -1.404718 0.385051 
superficie -0.844133 0.853800 0.849785 -0.206893 0.218064 0.555035 5.519968 2.258005 -3.380713 1.626009 0.687630 -1.273029 0.741554 0.438915 -3.111200 -2.330856 -2.552380 1.623389 0.211780 -2.195743 2.205498 -0.455876 -1.998202 -0.480803 4.201692 0.257563 -3.390537 -1.001698 3.944271 -2.015503 -0.600229 2.870841 -1.520051 -1.018119 1.702683 0.761182 3.043074 -2.159272 1.470871 2.723686 1.869632 0.598817 -1.467226 -2.017112 1.389877 -1.126799 0.406161 -4.078718 6.010217 -2.660644 
lista 0.198577 -2.262871 0.231767 1.622346 -1.296269 2.027404 -0.532753 0.402450 1.332326 0.702984 -3.103873 0.021833 -2.556591 2.045513 -2.331468 0.002233 -0.501992 0.978445 2.700886 2.000651 -1.899399 1.825252 2.662421 -0.988040 0.006653 0.301336 0.509050 -0.035026 -1.176783 -0.847935 3.100400 1.343651 1.988790 -1.838086 -0.498404 -0.120837 -0.792638 -0.723580 -2.145744 0.591168 -0.898894 1.833859 1.174348 4.205910 -1.255943 -1.580322 -0.841115 0.125617 -2.988627 0.733275 
premio -1.047594 0.226225 1.182734 2.703782 1.039157 -1.941036 -3.513607 -0.933760 -3.099196 2.427196 -3.464139 0.122701 2.880297 -2.467960 -2.508414 2.112502 -2.845180 2.729805 -0.554380 0.735312 -1.480572 -0.145182 1.007589 1.624320 2.114213 2.008522 0.090457 0.115681 -2.644421 -1.254472 1.159616 1.764744 2.002310 0.915638 3.053849 -0.660647 -2.714640 2.797687 -0.489370 0.267241 -0.928148 -0.960337 -0.626270 -0.906930 -0.293654 -0.381639 2.735026 1.843840 -4.125602 3.857207 
producción 0.852914 1.985112 -0.519309 0.617923 -0.221530 0.278977 1.714496 3.095333 -0.638754 -2.580642 -3.167385 -0.235963 1.419592 -1.623263 -0.356205 -0.031956 0.712274 3.876769 -3.290430 2.308379 -1.338456 -1.241189 0.856089 -2.822791 0.847407 1.499360 1.672079 1.439003 0.906735 0.065480 -1.340733 -0.041949 2.748189 0.339957 1.526932 1.931353 1.247147 2.103755 0.592211 1.395528 -0.789193 0.078811 -2.871004 1.951339 -0.563652 1.152878 0.667315 -0.300924 -1.073658 -1.743920 
copa 1.818106 2.706355 1.703605 0.617154 3.307819 -2.592326 2.576350 -1.607020 0.727635 0.856796 -0.385019 -0.755208 4.825710 2.907954 -2.731262 1.820698 -1.076296 -2.597399 0.171052 3.064950 -2.943372 1.097968 -0.244962 0.241114 -0.519589 -3.021813 2.521307 0.553732 -0.310974 -0.683723 -0.739965 -0.448220 -0.077952 -3.460856 0.875586 -5.129239 -5.552114 -1.009956 -2.147345 -1.502654 -1.036672 -0.157760 0.458739 1.833234 1.764771 -4.499395 3.705853 -0.933530 -1.362943 -0.351975 
español 1.188459 -2.769598 -0.157766 -1.345125 0.246545 -0.258843 -0.547902 -1.081715 1.137910 1.384852 0.248382 -1.432028 2.285796 -1.425781 0.416950 0.454393 2.632417 0.419771 -1.806526 0.120537 0.523192 -2.027175 0.306498 0.191910 0.003809 2.249729 2.027771 -0.829783 -0.068622 0.919462 1.316915 -0.044952 -0.829087 -2.057060 -0.743136 -2.043603 -1.150870 1.761161 -2.637249 1.555435 -2.196374 -0.388785 0.458082 -0.653117 2.031884 -0.060688 -0.132094 0.086669 -0.034272 2.585278 
territorio 0.991007 -1.251124 0.644021 -0.438779 -1.675074 0.814849 4.101479 -0.473410 -0.532246 0.868374 -2.167767 -0.937335 -1.270753 -2.515327 3.819597 -0.321184 2.537202 -1.873099 0.750877 -2.242817 3.914464 -2.339447 0.114220 0.890581 1.260388 -0.682680 0.574106 1.124775 2.085728 -0.244560 2.962635 -1.886247 -1.413278 -2.552854 -1.082175 -3.722478 -0.199470 -1.076619 0.251658 3.021143 0.030469 1.422390 -0.534375 1.537611 3.041516 1.087559 1.313328 0.832232 2.478288 -1.456704 
actor 0.966401 2.500943 0.076911 -0.436341 -0.200949 1.205486 -3.704319 -2.373518 -1.139050 -1.499402 0.830258 -0.515838 1.914368 -3.466981 0.044878 -1.534778 -3.232655 3.262806 1.153191 0.858862 -3.839623 -2.778268 1.754141 -0.261440 2.905576 3.556124 1.184311 -1.144858 1.456561 -0.944211 -2.518956 0.330855 2.771304 1.131999 0.043055 -0.255182 -0.386582 1.064210 -0.597673 0.693881 -1.905123 -2.235409 2.755270 -0.325095 -1.756466 3.613706 2.960553 3.724726 -3.380065 0.044481 
resto 0.405095 -0.498714 1.048413 -1.841378 2.035312 0.762701 0.216415 -0.116042 -0.336350 0.935827 0.040443 0.197369 -2.413608 0.826065 -0.994358 -0.932202 0.902199 0.270851 0.101677 0.157540 1.674870 -0.384908 0.971678 0.513633 -0.448309 0.067399 -0.226658 -0.324469 0.635253 0.199597 0.114694 -1.077536 -0.122172 0.232592 0.710797 -0.715154 0.208477 -1.625383 1.685621 0.602438 -1.936547 0.957084 -2.024458 0.081572 2.134417 -0.496345 -1.062577 1.081770 0.575937 -1.442207 
escuela -2.137685 2.818145 -0.246807 0.281194 -4.138021 -1.012973 -0.232119 0.862244 0.228569 0.805773 0.020009 0.972435 2.265662 -1.216967 -0.215505 -1.760476 -1.271674 1.965702 -1.088301 -0.644779 2.082547 2.331332 0.779801 1.081632 -1.932620 1.505739 1.590516 -1.059699 -2.566929 2.625715 -1.692806 -2.618858 0.655429 2.396704 -0.454802 0.174943 -0.380304 -0.683813 -0.477735 -1.239918 1.317787 -0.084712 0.507879 -4.498832 1.473935 -0.473353 -1.820967 2.540889 -0.274779 0.188235 
manera 0.621853 -0.124622 -0.310525 -0.486727 -0.213142 0.121532 -0.083205 -0.044957 0.229189 1.072514 0.023849 0.313976 -1.756284 0.405956 -0.356742 0.703500 0.201064 0.435510 -0.711796 -0.019006 0.447965 -0.230634 -0.490182 0.212214 -0.440234 0.052362 1.531672 -0.938861 -0.246357 1.169513 -0.567468 0.950358 -0.796688 -0.114029 -0.468091 0.864191 -0.323872 0.591144 0.969594 -0.371839 1.403177 0.012041 -0.362633 0.842923 -1.359371 0.083165 0.706217 -0.490258 -0.581834 -1.148819 
término -0.032222 -0.456589 -1.363453 -0.662421 -2.723321 -0.338350 0.093306 0.375209 -0.031827 1.564716 -0.791958 -0.470994 -0.424410 0.412483 1.612002 -0.085670 2.283403 -0.097699 -1.769874 -1.990517 -0.190356 -1.427530 1.041315 2.380280 -0.179533 1.202037 0.638486 -1.260350 2.125361 1.570985 1.463678 1.124551 -2.112083 -2.613455 -0.607150 1.395021 0.376443 -0.633290 -0.133598 -0.144074 0.590220 -0.743521 -2.068815 0.505421 -0.982481 -0.472636 1.580774 -1.286675 1.520314 0.957376 
desarrollo -0.783755 1.119980 1.437907 -0.391563 -1.660683 -1.785581 4.143466 0.059369 0.887228 -1.286090 -0.738971 -0.644892 1.351496 -1.068699 -0.296882 0.681015 -0.070366 2.101502 -2.244355 -1.357526 0.989501 -0.377417 1.181939 -0.402107 -0.486631 -0.268123 1.865590 1.189016 -1.503546 3.168115 0.173584 -1.006023 0.018574 -0.810579 -0.483108 3.460764 -1.046691 1.978203 2.050521 2.250793 3.202165 -1.206194 -4.535029 1.896603 -0.854623 1.195575 -0.582768 0.974400 -1.218637 -3.487166 
actividad -1.090975 2.335843 -0.189922 1.754811 -1.795091 -1.492623 2.570322 2.508300 0.948830 0.577405 -0.003338 -0.481812 -0.525041 -0.705049 0.198359 0.398092 -0.220341 0.581560 -1.428199 -1.343112 0.039060 -1.148142 1.450197 -2.262671 -0.500816 1.176789 0.205555 0.020232 -1.551110 -0.715903 1.665756 -3.027666 -0.610203 0.690661 0.861788 1.075263 -0.296506 0.216472 2.474058 0.210644 2.057166 0.003038 -3.477484 -0.442635 -0.019179 1.080472 0.670631 1.489094 -2.538639 -2.884825 
inglés 0.636799 -2.606975 -1.361107 0.366165 -1.591410 -0.399115 -0.461279 -1.234584 1.443060 1.176182 -0.433124 -1.216657 2.138277 -1.640205 -1.044691 -1.750432 0.057794 2.402122 -1.321717 0.021713 2.368629 0.134036 -1.807325 0.580382 1.259466 1.977681 -0.663451 -0.338433 1.694741 1.745851 2.230654 0.854182 -0.899443 -1.886753 0.645717 0.979069 -2.351996 1.090154 -3.216150 0.689587 -0.594148 -2.121810 -0.236579 -0.903554 -1.018394 -0.956884 -1.829406 -1.732661 -0.629738 3.616321 
campo 1.164636 1.935790 -2.756622 -0.992955 -1.906154 -2.576881 1.115590 0.450056 -0.254274 0.841264 2.031768 -0.216304 0.179395 1.065183 1.127626 0.677422 -1.774002 0.402272 -2.848101 1.096874 1.099524 1.757124 0.802997 1.752950 2.722434 -1.843715 -2.212435 -0.184526 -3.382461 -0.105637 3.368550 0.190718 -0.944015 0.637105 0.647860 -0.378502 0.664452 0.810759 -0.377221 -0.595750 1.253274 -1.051180 -1.080376 -1.093490 1.367817 -0.066373 1.984837 0.038691 1.498609 -1.069579 
fin 1.034518 0.858996 0.463149 0.599660 -0.926775 -1.187306 0.692230 -0.306847 -0.260635 0.410162 0.613302 0.324043 -1.427359 -0.445743 0.260730 2.391461 3.944249 -0.580461 0.385910 0.414977 0.472944 -0.731291 0.108116 -1.708954 -1.308148 -0.285837 0.723783 1.247835 -1.893068 -0.101639 0.608845 -1.541039 0.222139 0.615782 -0.054074 -0.017412 -0.243946 1.735325 0.668904 0.531113 0.237926 0.695023 -0.610870 1.526188 0.114084 0.754603 -0.547609 2.080227 -0.809934 -0.732253 
posición 0.773243 -1.975275 1.101579 -0.853372 -1.536770 1.452631 0.226222 -0.662216 0.704224 0.162346 -0.382509 0.432236 -2.911838 1.683959 -1.974033 1.884693 -1.228397 -1.559011 -0.533222 -0.465008 -1.446885 3.571146 1.206162 -0.360133 -0.640273 -0.416861 -0.172570 -0.625418 -0.553255 0.340827 1.024513 1.016471 -1.446520 -0.339167 0.597206 -2.265189 -0.919748 0.134217 -2.272157 2.170659 -1.311679 -0.577799 1.865246 3.269845 -0.461625 -0.743765 0.350727 -0.067045 1.149664 -1.691907 
presidente 0.243945 -1.001151 2.663894 1.917240 -2.479847 1.339988 1.801515 0.285289 1.003133 -1.742230 0.159551 0.284012 -1.371392 -1.484946 2.858650 0.623501 -0.606069 -4.169282 1.811143 0.233858 1.700338 1.171371 -2.046201 0.190696 -1.870565 0.978991 -0.810887 0.426623 -2.518518 -3.129889 -1.351653 -0.414092 0.101177 1.206159 -0.734148 0.949337 -3.842412 1.254481 -0.912327 -0.618342 -0.670644 -0.686713 0.240756 0.058851 0.297396 -0.826649 2.263988 4.471275 -4.126352 2.147069 
estilo 1.081066 -0.628179 0.555062 -0.643478 1.007604 2.124325 -3.671207 -0.438956 -1.310946 -1.414204 -0.084077 -0.693899 0.119139 1.750427 -1.177160 -0.552957 -0.137957 3.450841 -2.493136 -1.091181 -3.125947 0.651239 1.365806 2.540711 -2.148038 0.715043 3.269213 -0.236009 -2.755324 1.664408 -3.810994 0.246376 -0.336097 -1.796014 0.131919 1.416546 2.965293 0.068423 0.673769 0.512390 2.287145 1.403040 0.282871 -1.270669 2.087087 -0.220056 -2.498426 0.168518 1.130795 0.523270 
poder 2.828771 -1.463147 3.034394 -2.286947 -2.058549 1.489338 -0.474110 1.309812 -0.968116 -0.699516 0.639393 1.586155 -2.403012 -0.853848 1.933990 -0.118034 0.359189 -3.270385 1.130058 0.983135 4.090415 -0.457476 -2.543792 1.776608 -1.626746 -1.756012 2.024211 1.420467 -0.132621 -0.789794 -0.713138 0.463293 -2.418216 0.438737 -0.522833 -1.205250 -1.252774 1.793702 1.000553 1.276153 2.864215 -0.079081 0.157625 1.313131 -2.133771 1.087438 0.619115 0.435484 -0.698721 -0.945381 
cuerpo 2.402061 1.500755 -1.668029 -0.090019 0.293834 1.700349 -0.295813 1.076334 -0.824692 1.130042 0.225122 1.718069 -3.240041 2.954884 -1.395929 0.054742 -2.653625 0.032486 0.792764 -0.171648 2.666263 1.229252 -3.112078 0.631697 -2.533006 -0.901636 -1.319836 2.618118 0.600908 0.626513 -1.642425 1.545613 -2.747443 0.985919 -0.960748 -0.871551 0.461823 -1.032921 1.374794 -0.173962 -1.233914 -2.071273 0.971325 -1.278479 -0.298118 1.495959 -1.125310 0.695636 2.350663 -1.950215 
proyecto -0.746033 0.896110 2.277950 2.532593 -0.509697 -0.412342 3.417963 -0.971863 0.302636 -2.081463 -2.189903 -0.977152 -0.294979 -1.912293 -0.218462 1.281579 0.225539 1.111010 -1.471168 -1.204468 1.723625 1.377737 1.395508 0.472541 0.495098 1.199844 1.000866 0.685450 -1.028397 0.198235 -1.519232 -0.184567 3.986628 1.495242 0.052736 4.477015 -1.401864 0.928653 1.197661 0.104301 2.263699 -1.131023 -1.618722 1.446593 0.333439 0.083306 -0.958379 2.542834 0.084362 1.157221 
empresa 1.961658 3.100623 1.146558 -0.169959 0.573481 -1.316593 3.981895 2.287696 -0.249688 -2.553646 -1.667082 0.299440 0.065723 -1.633752 1.322984 -0.971397 1.202538 0.806508 -1.153042 -2.058578 1.914115 1.182419 0.180449 -3.197771 -0.260690 3.784281 1.723546 1.225517 -1.820095 0.718607 -0.020958 -1.989274 2.923327 0.518869 1.302017 3.777351 -2.488167 0.069701 -1.337247 0.424705 -0.055602 -0.360071 -3.088131 2.185499 -2.914095 0.071156 3.382027 0.434356 -1.036853 0.385205 
proceso 0.446861 0.686265 -0.521119 1.458780 -0.461730 -1.631325 3.014724 1.327936 0.014351 1.021365 -0.013798 -0.456945 -2.074489 0.135198 0.772832 1.676906 -1.891468 -0.893041 -3.373841 -0.553938 0.730228 -0.807021 -0.444328 -1.060838 1.093551 -0.573930 1.432167 1.644240 2.121377 1.465652 -1.790934 -0.093899 -0.317779 -0.647519 -2.302733 3.278137 -1.183047 2.493905 2.594236 0.983902 2.570315 0.575658 -2.211281 2.279866 0.984115 0.298201 1.262605 -0.240358 -0.919127 -1.183672 
papel 2.535735 1.691413 0.199294 -0.850429 -0.336838 -0.176002 -1.948929 -0.710608 -1.024114 -0.626659 -0.962411 -0.714496 0.814080 -2.014891 0.597617 -1.052632 -2.361903 1.112717 -1.153467 1.126230 -1.315066 -3.493358 -0.018628 -1.129652 1.559125 0.161687 1.150363 0.831738 -0.032280 -0.123288 -2.805627 0.181341 1.164859 2.436583 -1.228428 -0.878744 -0.694566 1.862717 0.124708 1.024666 -0.996503 -1.721225 -0.744574 0.003714 -1.118537 1.140373 0.502073 0.106009 -2.058100 -0.388895 
orden 2.709435 -0.794384 -0.755005 0.107903 -1.235009 0.400410 -0.600266 1.307143 0.699838 1.422091 -0.248741 1.135121 -2.487559 -0.892231 2.670694 0.790165 0.724539 -2.882337 0.437752 -0.450691 0.505458 2.275795 -0.956439 0.570714 0.972438 -0.872448 0.349082 -0.368212 -0.297006 -0.164860 -0.080078 1.315139 -1.476450 1.382555 -1.457835 -0.899705 -1.994578 -1.109139 0.039109 0.255608 -0.410666 0.983170 -0.333654 0.058785 0.190552 1.066733 -3.285526 0.962454 0.287938 -0.454741 
construcción 0.767380 0.953092 1.809042 0.162065 0.501274 -1.330089 2.515480 -2.083726 -2.077731 -3.467307 -0.075489 1.385740 -0.257285 0.499302 0.023710 0.326845 2.307993 0.229039 -4.716016 -0.671807 0.769589 1.998273 0.829986 0.992878 -0.276971 0.971493 -1.190522 -0.199090 0.498274 -0.168786 -1.004769 -3.864108 2.362854 0.828979 0.609212 3.363761 -0.074934 -2.454517 2.582232 1.514096 1.624853 0.354724 -5.460411 -0.879284 0.476393 0.359349 -2.263331 2.909449 2.616800 0.322689 
oficina -0.794709 3.663296 1.519606 2.410151 1.168675 1.765362 3.973693 5.737659 0.518274 -1.502290 1.955970 0.413626 -2.403257 -0.204807 -0.630751 -3.902529 -0.786364 -2.455323 0.591483 -5.691241 4.172074 2.828185 -4.578490 -1.755434 1.708932 4.882113 -2.171008 -2.150889 -3.892273 0.858684 1.548102 -0.921302 3.301316 -3.438697 -1.241985 2.979360 1.203481 2.510953 -3.463867 0.059765 0.479814 2.212185 -0.921974 -4.200573 1.014332 -2.995990 -0.629763 0.957530 -0.258230 2.312010 
división 2.116050 0.985606 1.226457 -1.028014 -2.931992 -2.319767 3.076099 0.987241 0.828026 0.545231 -0.588841 -1.344857 1.175989 1.291314 -1.407690 1.031380 -0.163389 -3.760156 -1.798863 -0.331202 1.794017 2.249323 -0.726412 2.035447 1.455464 -0.511915 0.666202 1.454922 -0.005948 1.029782 -0.028881 -0.035755 -0.193704 -1.343509 2.056285 -1.516177 -2.883608 -0.517882 -3.511997 0.887275 -4.292922 0.775014 -0.039617 1.155533 1.477871 -0.043126 0.966688 0.608512 0.215214 -2.997450 
director 1.150181 2.333155 0.718317 2.460279 -1.108034 -0.511817 0.742170 0.433676 0.699287 -2.127462 -0.808263 0.061244 0.865193 -1.324121 0.384963 -0.235364 -2.714823 1.407638 -0.226795 0.645366 0.468886 -0.013271 1.208936 0.335081 1.234484 2.528736 -0.515741 -0.359228 -1.588141 -0.529438 -2.850404 0.872184 2.988294 2.944562 -0.867590 -0.218962 -0.489138 1.744889 -2.633722 1.086004 -0.795494 -2.036646 1.206312 -1.796644 0.678943 0.769296 0.767926 3.449318 -5.354034 1.770623 
problema -0.645741 0.742641 0.926258 -0.341468 -0.395711 -0.162150 0.631498 -0.173332 -0.088712 -0.007875 0.034832 -0.833740 -1.865135 -0.108551 0.577834 0.728331 0.099790 0.505430 -1.207265 -0.844467 0.326615 0.802608 -0.445886 -1.836963 0.594167 -2.452831 0.710498 -1.442096 0.131724 3.047085 -0.631001 -0.950225 -0.386318 0.758839 -1.817391 2.944914 -1.062159 1.823683 0.326799 -2.578075 1.252664 -1.056480 0.017771 2.097683 -2.381021 0.599353 1.145496 0.877886 0.126792 -2.307949 
metro -2.450251 1.731406 1.245901 -1.042771 3.798790 3.007468 2.571606 -0.947816 -3.129879 -1.662520 -1.104361 1.899492 0.171058 2.360168 -3.609524 -1.314120 -0.628938 1.831860 0.382958 -1.759782 -2.949207 2.155556 -0.389852 4.562276 0.111363 -4.178524 -6.485245 -2.133503 -1.019863 -1.381216 0.482113 -2.123785 -0.675300 -2.008427 4.554103 -0.343474 -0.855958 -3.170129 0.421740 3.281552 -0.576474 -0.784611 -0.453251 0.424133 0.404611 1.368169 -0.139141 0.075541 4.276658 0.160033 
edad -3.998830 1.190223 2.699720 -2.546086 -0.498932 -0.016979 -1.064171 0.027954 -1.764292 2.968422 3.503820 0.065345 2.864444 -0.398573 -1.779325 -0.974949 -1.153588 2.189148 1.755252 0.310414 0.151582 -0.413992 -1.060467 2.258052 -1.152524 -0.292295 1.467454 0.939749 2.139177 0.118398 0.523424 -2.018331 1.101371 3.293001 -0.986490 -1.107757 0.151051 -0.792632 -0.039997 -2.418515 -1.396566 3.405936 -0.153814 -0.268110 -0.148934 2.581313 1.181290 0.828312 -2.655934 -1.051040 
resultado -0.730342 0.988053 1.292635 -0.125341 -0.727557 -0.714298 2.399681 0.820106 -0.421835 1.976072 0.377465 -1.026956 -1.645685 -0.196221 -0.735718 1.808318 -1.734818 -1.901027 -2.170277 -0.480918 -0.622510 0.629714 0.160089 -0.862712 0.045323 -0.586943 0.154251 -0.126179 0.707802 0.892425 1.102007 1.959800 0.405395 -0.548276 -0.912922 0.469232 -0.397825 2.818829 0.490824 -0.710547 0.563959 0.505043 0.432787 3.191887 -0.295651 -2.048080 1.044306 0.103343 -0.478933 -1.173888 
niño -2.462484 3.238869 -0.516179 -1.557047 0.032832 -0.971482 -3.742113 -2.213775 0.554040 2.326833 2.722436 0.420967 2.102803 0.356198 -1.192889 -1.959414 -1.043361 2.636194 2.514022 0.035304 2.398764 -1.129295 -2.356721 -0.185342 -1.499990 0.238650 1.479309 -1.906441 -0.028863 -0.343692 -0.253898 -1.706144 0.999969 3.087462 -1.994895 1.058522 0.706709 0.422455 0.558526 -3.076247 1.425738 0.341496 0.418380 -1.937746 -1.483685 1.735799 -0.862216 0.196508 -1.183882 -1.717012 
movimiento 1.744527 -0.873819 -0.265583 1.728424 -2.826939 2.002881 -0.223107 -0.169577 0.499395 0.312133 2.107059 -2.055359 -1.833317 0.614792 0.159786 1.569367 -0.673096 -0.156400 -1.589445 -0.127082 0.453678 0.753433 0.059199 0.568920 -1.478611 0.349633 2.335296 1.443078 -1.711786 -0.204834 -0.535818 0.240598 -3.110913 -0.137574 0.218337 1.232292 1.923981 0.635362 2.384360 4.179544 1.219623 -2.354614 2.361884 0.471252 -1.279204 -0.192306 -0.018179 0.132080 0.069174 -1.039491 
ingreso -7.361660 0.423590 -1.406277 -3.187691 1.561616 0.894864 1.321419 5.162420 1.645751 -1.231068 -3.613962 0.419792 1.035381 -4.157683 0.947258 1.106390 -0.191329 -3.435967 -0.149115 -1.252634 3.349005 0.325972 -5.527159 -1.238958 4.305438 -2.659049 3.897413 -0.174886 1.025197 -2.530584 -1.204667 -3.078557 1.394466 2.819578 4.250550 4.008073 2.144309 -0.184397 -4.638358 1.928267 -0.855499 5.786757 -5.790066 -2.361045 -3.534802 -3.490516 -0.028075 -1.486906 -2.399173 -1.807346 
modelo 0.362783 0.606605 -0.301586 -1.281319 -0.988972 0.764148 0.764007 -1.752208 -1.002856 -0.875248 -0.880752 0.541615 0.333503 -0.543282 -1.288391 -0.864250 -2.108825 0.280370 -0.772566 -0.687735 -3.685145 2.367247 -0.796545 -1.021533 -1.515190 2.102992 1.141355 1.213647 0.135427 3.936285 -1.520901 0.501123 2.150085 0.483638 0.042896 3.574359 0.986030 1.524323 1.494221 1.635448 0.629037 -0.598178 -1.411756 1.194232 -1.865511 2.070805 1.373300 -0.824140 0.362049 -0.872030 
arte -0.030230 0.480466 -2.695928 1.201111 -0.623807 -1.459219 -2.275057 -0.229230 -1.936419 -0.366905 -0.905888 0.723318 0.732762 -1.536588 -0.885146 -0.170799 -1.091984 2.910113 -0.010896 -0.439999 -1.329669 -0.221519 0.829190 3.192367 -2.254004 3.112835 2.581146 1.642791 -3.521393 3.486571 -1.573971 0.082509 -1.219586 0.721551 0.604414 -0.515292 2.780259 1.587401 0.506446 2.251045 3.414128 0.563834 -2.523720 -3.839570 0.817330 -3.095897 -0.941910 3.074737 -1.636180 -0.172589 
edificio 0.427587 1.807922 1.530556 0.953223 -0.813843 0.529623 0.487648 -1.207105 -3.878801 -3.771538 -0.592432 2.540283 -2.478418 4.428091 -0.128252 -2.543663 1.479028 -0.688878 -2.006150 -0.320841 0.241904 1.847503 -0.010318 1.061339 0.589059 1.909873 -2.156308 0.322351 -0.647961 0.063461 -1.035845 -2.881354 2.374733 0.066041 1.309101 2.343335 0.302572 -2.599693 0.683786 0.720888 2.657100 1.508608 -2.889761 -4.249928 1.041998 -1.495267 -2.261153 3.150709 2.622814 0.225884 
edición 1.217109 -1.327794 -1.070254 3.199759 1.381890 -2.996141 0.725391 -0.793792 0.193095 1.447057 -1.744089 -0.366920 1.975135 -0.256169 -4.007447 1.492709 0.012488 1.151379 0.990004 1.024577 -3.653561 -0.815700 -1.393957 1.087425 -0.428153 1.635042 2.069568 -0.460564 -0.130795 1.500576 0.247764 0.413974 2.689481 -0.808330 0.728145 0.050383 -1.282646 1.184534 -1.982264 1.042618 -1.182153 0.349925 2.163336 1.678126 1.159944 -3.641115 0.059335 -1.658357 -1.409357 2.458736 
cargo 1.545891 0.086517 2.841405 1.858802 -1.575052 1.146321 1.796573 2.081738 1.059882 -1.136600 -0.503377 1.726971 -0.991874 -1.732685 2.297101 0.965068 -1.048695 -1.997905 -0.055798 0.069283 1.282352 1.321686 -1.810744 0.685575 -0.573295 0.422141 -0.367984 -0.095472 -0.651319 -1.919748 -0.882274 -1.276847 1.368005 2.881797 -2.754210 -0.568481 -2.130105 0.791248 -1.821139 -0.513436 -1.081866 0.987762 -0.485338 0.137009 0.574276 0.992648 0.691505 3.111908 -3.891379 1.158265 
cambio 1.097200 -1.860469 1.731400 0.833969 -1.482972 0.698773 1.242159 0.322797 0.871228 0.181881 0.885756 -0.718074 -0.247524 0.743477 0.794785 0.001059 0.327377 -0.923035 -2.290167 -1.757865 -0.790976 -0.251906 -1.516025 -1.848507 -1.036654 -0.772038 2.224275 -0.130259 0.976617 2.180749 -2.214787 1.736881 0.121842 -0.355636 0.240232 2.510149 0.801615 0.189959 0.098256 1.181996 1.723709 0.590266 -0.220110 2.725128 -1.012742 0.728967 0.676759 0.171479 -0.353249 -2.132002 
televisión 2.051029 3.362148 0.236692 -0.252151 -1.240795 1.405946 -1.945693 -1.765237 0.662309 -0.781857 0.404939 1.927098 0.907298 -1.761250 -0.540683 0.715376 0.146972 3.559604 3.587569 -2.201438 -2.036385 -5.651239 1.001957 -2.368338 4.124789 2.148544 0.343556 -1.285839 -0.610200 0.361263 -1.908890 -0.079360 4.296641 0.546367 4.831513 2.352598 -1.499374 3.822167 -1.232252 1.622565 -2.230562 -1.881322 -0.026425 0.008330 -0.289882 0.100705 0.784905 -0.492478 -3.451058 1.081378 
derecho 0.712504 -0.607605 2.382440 2.465351 -2.447159 -0.636738 0.267830 -0.921936 -0.963025 2.514023 -0.686566 0.841419 -3.630964 -4.235691 1.638459 3.518071 2.091596 0.627259 3.096022 -1.324092 2.282813 0.693634 -2.476484 0.451709 1.015743 0.469080 6.004936 -1.381606 0.603817 0.170864 1.626081 -0.030320 -0.626799 -0.398594 -3.145354 1.677647 -1.751137 -0.637097 -2.940592 0.468596 0.560817 -0.723351 -3.643337 -0.763792 -1.700006 1.070237 3.545226 1.093769 -0.540238 0.619211 
iglesia -0.786386 -0.513240 0.583950 -0.646275 -0.451439 2.668169 -2.075446 0.648721 -0.823155 -0.626758 -0.212280 2.661824 -0.347195 1.805607 -1.359317 0.014117 2.347452 -2.871230 -0.111408 -0.589182 0.297489 0.082307 0.331506 0.077046 0.609296 2.512489 1.089309 0.247609 -0.508143 -1.384084 -1.976522 -3.756328 -0.033081 -0.540778 -2.813031 -0.495064 0.630844 -4.379455 2.772935 -0.403090 2.039679 1.917438 -2.092507 -3.497645 2.066410 -1.309713 -4.014297 3.350161 3.122460 1.810050 
estación 0.782017 0.117582 0.975488 2.259274 0.605579 0.056292 2.725877 -1.328201 2.327560 -2.137002 0.646552 2.539337 1.698564 3.403533 0.054243 -2.987719 2.703863 1.072507 -0.649418 -3.181633 -0.138950 0.546105 0.911910 -0.421383 2.118910 0.148593 -3.924555 -1.918140 -0.995036 -0.014508 1.930808 -0.843482 2.883526 0.970703 3.219446 3.858765 -1.668851 -0.825949 1.648867 1.574317 -1.784258 1.775627 1.332951 -1.727002 1.693776 2.208126 0.830866 -1.238173 2.505527 -0.444944 
oeste -1.545982 0.231458 0.539353 0.253544 -0.374154 0.150012 0.551644 -1.973580 0.297535 -1.956219 -2.948549 0.958704 -0.176057 -1.633144 0.066744 -3.031275 1.594944 -0.293231 -1.182774 -3.093373 2.572652 0.256349 1.545649 1.522672 3.102912 -1.919552 -3.607071 0.471926 1.103707 -1.163157 1.340727 -1.721277 -2.077825 -1.857357 1.824109 -1.703869 2.165328 -3.137472 0.375957 3.581192 -2.208688 -1.141958 2.029106 -0.963641 2.779936 -0.845030 0.081525 -0.703073 2.233468 -2.156089 
compañía 2.962798 2.251512 0.214402 -0.300304 1.050167 -0.699627 2.539958 1.415975 1.532408 -2.014011 -1.495371 0.055227 0.207410 -1.742846 0.528293 -1.761892 1.462802 1.237402 -0.596518 -0.821342 1.449937 0.999741 0.914630 -2.175012 -0.642542 3.363096 1.078392 2.390117 -1.663941 0.293699 -0.614177 -0.481188 3.076185 2.002700 1.525468 1.479729 -0.326826 0.468450 -2.283997 0.039201 -1.432104 -0.708710 -0.674763 1.520413 -1.693818 2.192026 1.478477 0.278436 -0.594366 1.735734 
comuna -4.742474 1.451138 -1.515552 -3.380928 -0.386186 2.974736 5.784935 -2.376970 -0.123043 -3.897506 -3.630313 1.200551 4.035041 0.159717 -0.981233 0.965932 2.472008 -3.113394 -1.826730 -1.737077 3.685156 -0.114632 4.729894 -0.651463 -2.304141 1.278020 -1.359444 0.206644 3.397965 -2.495955 1.610939 3.601715 0.913001 -1.490562 -1.591400 -0.355307 -0.619125 3.959382 1.504485 -0.922030 -0.116201 4.031401 0.034058 -6.085643 2.810449 -0.520211 0.490853 -2.907963 -0.292853 -4.899725 
llamada 0.871283 -0.261171 -1.074741 -0.859041 -0.500068 -0.229720 -1.029790 -1.272800 1.217301 0.084549 0.626484 0.312991 -0.029499 -0.072947 -0.354203 -1.355741 0.664515 1.292226 0.209032 -0.540717 1.402113 -0.654372 0.970167 -0.393757 -0.490445 0.534923 -0.344935 1.095514 -0.274484 -0.152854 -0.519870 -0.317803 0.452735 -0.608735 -0.294608 0.481103 -0.409733 -0.421959 0.395141 -0.488931 -0.722023 -0.236490 0.086113 -0.663200 -0.165814 0.726008 -1.251238 -1.593853 0.045464 0.573996 
autor 0.725232 -1.658477 -0.892267 2.636134 0.316476 -0.903683 -2.164594 -0.523028 -0.296529 1.194514 -0.393636 -1.382679 0.007374 -0.702781 1.566454 -0.318165 1.303561 2.028712 1.803743 0.851171 -2.310939 -1.024117 1.752535 3.694387 0.504766 1.544188 2.754951 -1.849318 0.714773 2.010513 0.060388 1.975754 -0.128551 1.290336 -3.969077 2.171123 1.161912 1.714171 0.326244 0.704537 -0.115191 -1.311642 -1.174364 -1.202257 -1.019104 -2.033606 0.060648 0.053679 -0.267863 2.376833 
capital 0.329191 -0.195588 2.024510 -1.315677 -1.154016 0.216114 2.867704 1.373296 0.019713 -0.634416 -1.811428 1.210177 0.983096 -1.381990 2.037304 -1.537908 2.341225 -1.862334 -1.366110 -0.829729 3.405903 -0.646451 1.570926 -0.236492 -0.127990 0.587362 -1.068208 0.329057 -0.231592 -0.600953 1.831079 -3.260886 -0.307349 -0.968198 1.595613 -1.048999 -1.257907 -0.976659 0.677513 2.720476 0.447909 3.573775 0.202963 -0.531041 -0.618677 -0.839180 1.724770 2.529415 0.834005 -0.924979 
mano 3.746043 0.020574 -0.705456 -1.061681 1.423404 1.957982 -1.590182 -0.746707 -0.558333 -1.248112 0.073754 0.094471 -0.026933 -0.190705 0.286296 1.319514 -0.296948 0.752619 -1.112823 1.346652 2.228738 0.394158 -1.953793 0.180924 -1.895671 -0.370541 0.255858 0.212126 -0.571999 -1.778307 -0.552525 -1.119490 -0.929155 2.132329 -1.680239 -2.872966 0.806860 -0.559867 -0.673470 0.671270 0.041332 0.147986 -0.447939 0.360033 -2.350990 -1.979727 0.184798 -0.600810 -0.111220 0.951824 
clase -0.704474 2.024129 0.150387 -1.773867 -2.249926 -0.005805 -1.903114 1.281942 -0.272811 2.200931 1.109869 -0.851989 -0.472504 -2.190197 -0.121399 -2.224343 0.195670 -0.669416 -2.524963 0.624069 -0.952306 3.436740 -2.122670 0.363375 -0.317368 1.497091 2.664499 -0.577540 -1.722416 2.864368 -0.373770 -0.421209 -0.487063 1.711352 1.479807 0.062346 -1.990760 -0.896191 1.134176 -0.335099 0.742455 -1.683765 -0.933070 -1.591788 -0.880347 1.559420 -1.324474 -0.666194 -0.446440 -1.471009 
palabra 1.259498 -1.670224 -4.027638 -1.097254 -1.587432 -0.002120 -3.076350 -2.017274 0.563034 2.660697 -0.108712 0.144968 0.298769 2.116941 1.823639 -0.923119 1.855663 0.137421 -1.470112 0.322919 0.362097 -0.677390 -0.327787 2.208413 -1.258272 1.699596 1.116339 -2.969666 1.791426 0.889191 -1.088053 2.335356 -2.657202 -2.586767 -1.142086 1.215993 -0.178857 -0.446879 -1.412266 -1.897652 1.020139 -1.839453 1.056286 1.216778 -2.041655 -0.707198 0.206751 -2.067881 0.244148 2.979286 
lado 0.446844 -0.427127 -0.736428 -0.413073 1.052102 2.330250 -1.046059 -3.254220 0.421331 -1.390133 -1.586398 0.389119 -2.012246 0.454860 -1.310633 -1.071007 -0.421049 0.062589 -0.080629 -1.444485 1.399516 1.052348 0.441262 0.352021 0.531387 -0.914053 -0.647157 0.066515 -0.604750 -0.639753 -1.550085 -0.640298 -1.416331 -0.322149 0.265283 -0.288369 1.320906 -1.179892 -0.123625 1.078145 -0.840220 -1.034565 0.842471 -0.774879 -0.667398 -1.357399 -0.064598 -0.747427 3.644449 -1.697905 
lengua -2.966080 -2.173270 -2.007000 -2.258903 -1.561843 2.016988 -0.860930 -1.610282 0.191011 4.509295 -1.747438 0.619321 1.365504 1.005308 2.463904 -0.087672 2.485761 0.786312 -0.737842 -1.603366 1.597729 -0.467610 2.463761 3.345464 -0.452136 3.887229 2.787073 -1.514994 4.650368 3.457506 1.574617 -1.124683 -2.534690 -1.065715 -1.681843 0.746243 -1.349331 0.734362 -1.597202 0.827924 1.076783 -1.498910 -0.652583 0.624600 3.417692 -2.432887 -1.105044 -2.257907 -1.236648 -0.371873 
episodio 1.262367 3.180392 0.497070 0.516892 -0.961642 -0.891417 -3.872578 0.302369 0.003027 -0.091695 0.166155 -0.811461 -0.406917 1.211537 0.015474 -0.260762 0.158218 -0.366114 2.746201 -0.345109 -1.887569 -4.629814 -0.587241 -1.578488 1.584801 -1.296626 -0.377398 -2.077270 1.830701 0.502599 -2.432523 3.182936 4.077898 1.251852 0.954486 -0.767572 0.816872 2.343567 -0.042906 -2.258770 -2.506770 -1.807173 2.938515 0.685425 -1.769406 -0.764675 -2.124816 0.211791 -0.804756 0.173488 
batalla 3.237193 -0.695908 -2.446197 -3.322339 -0.604916 -2.643647 0.165085 -2.157258 1.277113 -1.103766 1.388959 -1.096630 -0.157670 -1.276607 1.772415 0.564167 -0.637035 -3.201432 -1.411714 1.960454 1.274615 -0.316126 -0.603524 3.486258 0.839662 -2.545677 -0.690155 2.518038 -0.558654 -0.959160 3.759167 0.563524 -1.837149 0.928210 1.731632 -4.628095 2.394454 1.504382 0.733232 -1.062283 -2.751498 -0.131611 1.449821 1.594406 -2.086504 0.084303 -3.391429 2.897752 3.035469 -0.280491 
selección 0.635219 -0.115101 1.309171 1.283078 1.204186 -0.923458 3.614564 -1.035436 2.393983 2.000303 1.774472 -2.377611 2.230359 1.551832 -1.502137 2.147618 -2.285212 1.120397 -0.623828 3.798007 -3.408465 1.063874 -1.404889 0.621572 1.789577 -0.132461 3.049079 -0.994424 -0.829552 0.494371 0.017676 1.497841 -1.118501 -2.679825 -0.306765 -4.058242 -4.158691 0.161547 -1.497420 0.149084 -0.532493 -0.716955 1.655552 1.361343 2.318077 -2.333112 2.970839 0.152218 -2.609437 -0.669639 
comunidad -1.524623 -0.088561 0.581680 -0.693494 -1.627796 0.830570 1.570425 1.776570 1.017828 1.471345 -1.830711 -0.941895 -0.488485 -0.784565 1.099134 0.586144 1.421621 -0.071799 1.238968 -1.510103 2.448324 -1.430187 0.877764 0.356068 1.227689 2.085861 2.741312 -1.296120 -1.298700 -0.474546 2.439192 -2.919077 -0.794293 -1.369428 -1.033452 1.790010 -2.244125 -2.108792 2.092865 -0.141160 2.334337 -0.119391 -1.507382 -0.547610 1.431826 0.050740 -0.290094 0.737929 -0.659963 -1.400942 
oro 2.106949 -2.612485 -2.492278 -0.006207 2.700879 0.015969 -2.436361 -0.261185 -5.234456 1.148004 0.302030 0.473936 3.633459 -1.538217 -1.663561 0.313925 -0.673254 2.577224 -0.268417 1.272340 -0.396548 0.065514 0.983598 -2.193900 -0.937362 -2.138589 -1.378191 0.515449 -3.037549 -2.198404 0.403285 0.336637 -0.396489 0.101711 1.403986 -4.579440 -2.671457 -1.446144 -1.271750 1.818478 -1.892151 2.009818 -2.605927 0.896678 0.886907 -1.139101 1.991746 -0.117989 -0.091760 2.406906 
imagen 1.363900 -0.303114 -4.651587 0.165829 2.072642 2.356253 -0.420754 -2.629782 -1.061509 -0.123099 1.128487 2.734382 -0.527099 2.165022 -1.953183 0.950722 -1.789515 -0.290190 -0.077838 -0.529279 -1.438273 -2.855551 -0.880363 -1.145140 1.175596 0.433953 2.010262 0.355824 -2.249802 1.019118 -1.627878 2.412948 1.533849 -0.882385 -1.115966 1.190942 1.862339 -1.187271 2.982079 1.998972 1.817807 0.876658 0.140654 -0.634463 -1.291330 -0.806328 -0.335149 0.117686 -0.457473 1.147078 
acción 2.756091 1.233956 -0.070626 0.026195 -1.011688 -0.981156 1.062163 0.514313 0.776722 -0.187379 0.516463 -1.319818 -2.962811 -1.533037 1.474213 0.733323 -0.554960 -0.594757 -1.355039 -0.710744 1.158136 -1.387669 -1.732074 -0.684638 1.090510 0.798525 1.209299 -0.123267 -0.379895 -1.495817 0.465332 2.323822 -2.093452 0.828101 0.690562 1.137948 -1.041769 1.946220 0.093101 1.024474 0.876608 -0.384089 -0.324260 1.550922 -3.505273 0.931620 -0.304083 1.625495 -0.094418 -1.244950 
elección -1.403302 -1.326836 3.899313 0.818776 -4.009619 2.353318 1.699005 -0.330949 0.696085 -0.936073 -0.970080 1.286053 -1.762636 -0.942468 1.878036 1.966591 -2.794610 -3.959142 -0.066889 2.152068 -0.408294 0.213128 -2.446056 1.339020 -2.081202 0.023568 2.311820 0.608290 1.057237 -4.967372 1.520473 0.679566 1.682403 -0.789012 -1.131646 1.009864 -2.747694 0.401634 2.064742 0.383811 0.472034 1.417578 2.154778 4.006979 -0.599184 -2.642861 2.442092 1.516734 -3.241299 -0.400118 
madre -1.034337 0.386078 -0.399030 -2.519975 0.677478 0.167091 -4.136570 -1.189312 1.704666 0.760380 2.682976 0.758061 1.803635 -1.977006 0.306922 -2.128378 -0.355202 0.813312 2.936759 0.776433 2.637943 0.036233 -1.211261 -1.086374 0.156843 0.309139 -0.564825 0.281559 1.271155 0.012535 -2.112045 -1.665563 0.533059 2.529656 -3.824387 -0.636105 1.403337 0.109779 -0.433601 -3.532949 1.430193 -0.020804 0.740197 -1.654545 -0.967428 1.874557 1.944064 1.231656 -0.355842 -1.106400 
elemento 2.801614 -1.668187 -2.152196 0.212571 -0.493470 0.641914 -1.971530 0.480365 -1.822934 0.865978 -0.327255 -0.619892 -2.809489 2.017280 -0.943018 -0.779263 -1.445302 0.155956 -2.334185 -0.753639 -0.755482 0.239817 1.096351 1.537137 0.603665 0.799954 1.545636 0.069979 -0.573090 1.803098 -1.968496 2.052913 -0.706329 -2.021618 1.048080 2.180076 0.361236 0.923434 2.302162 0.726439 1.746736 0.144971 -2.612227 0.124290 0.089295 0.578864 -0.875198 -1.560952 1.509661 -1.589805 
liga 1.787783 -0.441616 5.037662 -1.630250 -1.521307 -3.274200 1.896449 0.717979 0.277669 1.702672 0.420185 -0.819940 2.370571 2.365138 -0.798373 1.968562 0.528155 -2.658149 0.924901 1.412711 -0.772069 0.504124 -0.530070 0.393737 1.281143 -2.106868 2.467648 0.031284 -1.681257 0.950443 -0.350530 -0.803153 0.350558 -2.042404 2.865127 -3.168139 -4.159870 -1.637353 -4.039100 -0.117438 -2.389351 -1.348855 0.655889 2.264780 0.594260 -4.496518 2.879132 0.078743 -0.168688 -2.037974 
hora -0.562261 2.473539 -0.656826 0.385701 -0.178515 -0.152154 -0.121432 0.756106 1.989179 0.765245 0.488025 3.414015 -1.216391 0.504601 -1.137475 1.033422 2.017098 0.092358 -2.141493 -0.209224 -1.180085 0.382257 -3.269665 -2.280199 0.013594 -0.607398 -3.072082 -2.672373 0.284752 0.053477 1.173234 0.406895 0.079990 2.456168 3.656903 0.392388 0.536881 1.456309 2.008183 -0.381812 -0.814913 1.245244 3.423181 1.935750 0.414474 0.437996 -0.432156 0.550777 -0.184270 0.411437 
dirección 1.800463 0.109827 -0.370152 2.667312 -1.015696 0.463402 1.748561 0.087816 1.879660 -1.480410 -1.231763 1.669160 -0.510907 -0.661583 -0.080840 0.197623 -2.806986 -0.306493 -2.404014 -2.878048 1.466220 1.624723 0.725387 1.032682 2.374101 0.434017 -2.185655 -0.566396 -0.462884 0.253741 -1.681207 0.078430 0.531170 2.083852 0.557302 0.446654 0.158322 -1.003716 0.853246 2.286740 -0.493767 -1.152082 1.810160 -0.133982 -0.120182 -0.483778 0.317380 -0.149366 -0.801774 -0.236912 
dato -2.677279 -2.012544 -3.201697 -0.848257 -0.122400 -1.424679 5.435334 1.239706 -0.290515 2.582735 0.187944 0.171129 -1.882200 3.377794 -0.728537 1.192771 -2.362814 -1.739868 0.176005 -2.786413 -0.891629 0.881935 1.369898 -0.912094 3.239364 1.184411 -1.277189 -2.573775 0.984782 3.317324 -0.105577 0.210950 2.692982 -0.272029 -2.364167 2.409326 -1.847371 0.327962 1.051494 1.765684 1.260725 3.053190 -2.096608 2.406097 -2.591042 0.386177 -1.743711 -3.876765 -1.571543 -0.034909 
producto -0.077242 0.289098 -1.587475 -0.912181 1.589475 -2.547932 1.963272 3.039541 -1.165036 -1.256990 -2.795189 1.134125 -1.127829 -0.541794 1.336561 -1.021294 -0.126591 2.076033 -1.842391 -0.589861 -0.815148 -0.196125 -0.927072 -5.011580 -0.177772 2.129942 1.264934 1.101689 -0.625388 0.743073 1.158618 -0.458557 0.670759 -2.139442 -0.029363 2.856605 0.418596 1.347683 1.431879 0.234617 0.596659 1.255095 -4.091863 2.085227 -1.566828 0.494362 2.919213 -2.229461 0.195470 -2.194948 
semana -1.635718 2.545039 -0.330762 1.703284 -1.167770 -1.753801 -1.315750 -0.035950 2.982181 1.096654 -0.864224 1.270246 -1.661823 2.029026 -1.954975 2.824693 1.610600 0.225249 1.908781 1.669299 -2.533034 0.337249 -0.582771 -4.420610 -0.602981 -0.592680 -1.215617 0.708502 -0.933670 -2.215982 1.639412 -0.810763 1.453937 0.077183 2.058177 -1.074001 1.179163 0.916102 -0.549688 -0.433273 -1.267305 3.216617 2.556491 3.247077 0.935705 0.346799 -0.458899 3.089051 -1.804122 1.050257 
referencia 0.418392 -2.435064 -2.205680 -0.585483 -1.126748 0.002946 -1.350089 -0.528335 0.778166 0.617309 -0.281051 -0.215006 -0.380806 1.085160 -0.243966 -1.221127 1.409671 0.858206 -0.137481 -0.650740 -1.101584 -2.431395 0.997885 1.158733 -0.483429 0.386643 0.209079 -1.856863 0.027366 1.822718 -0.289646 2.775211 -0.581422 -0.555857 -0.983514 0.557394 0.110767 -1.545440 0.471463 -0.431694 -0.265590 -0.609430 -1.204722 -0.188506 -2.064417 -1.540413 -0.126763 -1.465579 0.367158 2.371595 
control 3.686513 -0.409658 0.975387 -0.256128 -1.180529 1.711492 3.890111 0.226582 0.873012 -2.178285 0.349034 1.211320 -3.025430 -1.035592 1.354894 0.180536 -0.661262 -0.701667 -1.756095 -1.225406 2.965051 1.322693 -1.739343 -2.467592 1.142458 -2.047213 -0.439867 -0.057872 0.670956 2.053460 1.008860 -1.471597 -0.865987 -0.161479 0.303324 -0.621844 -1.566584 1.823106 0.018121 2.284556 1.918700 -0.147477 -0.486433 1.133274 -1.106366 1.072646 -1.458428 -1.144338 -0.372268 -1.740841 
este -1.292773 0.371832 0.394269 -0.266214 -0.501210 0.520073 0.945187 -1.704234 0.730302 -1.915952 -2.156922 0.494229 -0.125216 -1.632017 0.210203 -2.945025 1.847876 -0.663753 -0.679606 -2.680144 2.549022 -0.241970 1.061514 1.074350 2.066256 -1.483512 -2.455884 0.558505 1.233119 -1.027546 1.161964 -1.368812 -2.375883 -1.678288 1.168327 -1.482648 1.869219 -2.369843 0.358472 2.579900 -1.880306 -0.840420 1.542697 -0.825824 2.581201 -1.544628 -0.282916 -1.028741 1.811909 -1.691034 
unidad 1.942919 0.079680 -2.132700 -0.695187 -2.372581 0.743068 3.221047 1.529937 -0.782327 1.557790 -2.239980 0.067039 -1.382916 0.408399 -0.732141 0.025021 -0.576250 -1.152556 -1.421242 -0.128808 1.734142 3.257053 -1.958955 -0.092448 0.576350 1.395411 -0.269494 1.930644 -0.570360 1.730052 1.115597 -0.469362 -0.243432 -0.269379 1.587044 1.460476 -0.819984 1.650542 0.025404 1.529290 -2.252132 1.554632 0.497024 2.409922 -0.900345 2.759183 -1.657038 -0.323790 2.466881 -1.930120 
organización 0.682056 1.140702 0.477290 1.198504 -3.120324 -0.527804 3.110246 1.362737 -0.061137 1.189102 -0.561134 -2.025155 -1.768688 -0.930618 0.985916 2.155324 -1.007809 -1.251325 1.756758 -1.439444 2.679957 0.523412 -0.690971 -0.451011 -0.422027 2.261292 3.457468 1.536891 -3.029222 -0.579428 0.728663 -1.729409 -1.354333 0.128701 -0.539357 3.154844 -4.824057 0.066531 0.350045 0.954315 0.853650 -1.654075 -0.574499 0.323697 -0.772964 -0.812991 -0.505298 1.380321 -2.503448 -1.395943 
costa -2.462679 -0.832611 0.382640 -0.669105 2.627369 -1.499559 2.172765 -1.530797 0.294498 -0.609895 -0.705974 -0.790816 -0.447475 -2.365955 1.492432 -1.799963 3.033294 -0.268427 -1.179459 -3.401257 1.825677 -0.485530 1.087053 -0.842215 1.913800 -0.898894 -2.593080 -0.455815 0.953348 -0.426153 1.457705 -1.891478 -2.641684 -1.382245 2.770626 -3.680955 1.045943 -2.071743 0.579190 3.275531 -1.446192 -1.348595 0.622581 0.112213 2.333608 1.271591 -0.709926 0.336168 1.259651 -0.867295 
ocasión 1.340248 0.066529 1.079836 -0.417815 0.778156 0.366475 -1.022078 -0.929422 0.711447 0.890840 0.167966 -0.693857 -0.273346 0.061151 -0.191751 1.014459 -0.305460 -0.022082 0.064062 1.014500 -1.117419 -0.451482 -0.734070 0.436679 -0.533769 -0.594409 0.701453 -0.455944 -0.666525 -0.256422 -0.256637 0.578385 -0.625604 -0.210030 0.495354 -1.597432 -0.828609 0.736887 -0.306143 -1.505255 -0.356226 -0.244019 0.416070 -0.050809 0.002088 -1.067909 0.871162 0.493983 -1.054950 0.168869 
fuente 0.065709 -2.224451 -2.589834 0.887523 1.227007 -0.736896 0.490650 1.837427 -0.571789 1.905797 -1.445089 1.635628 -0.293920 0.894225 1.724186 -1.385293 0.016585 -1.040731 0.642310 -0.367764 0.957547 -0.864852 2.685209 -0.172705 -0.724128 -1.599039 -0.505843 -1.351931 0.281806 0.946799 0.452578 -0.708073 0.888621 -1.042168 -0.663341 2.877758 1.803718 1.266870 1.556685 -0.758062 0.608250 -0.211357 -3.271076 -0.443909 -0.653499 -0.610677 -0.425894 -1.045816 1.823732 0.361176 
paso 1.194405 0.263897 -0.622697 -0.622607 0.669427 -1.179719 -0.087388 -0.881389 2.695413 -0.574518 0.338219 1.223556 -0.332701 0.372873 -0.767080 1.230832 0.365942 -0.764625 -1.879056 -0.701884 0.825668 0.430822 1.262483 0.119977 -0.305725 -1.628002 -0.166106 -1.514752 0.187029 0.772250 -1.114948 -1.043649 -0.734930 -0.042751 1.249247 -0.328279 0.553953 -0.419762 1.805118 1.498514 -0.613559 0.511910 0.311089 1.108149 1.367751 0.335352 0.925945 1.082681 0.965845 -1.541600 
campeón 1.440614 2.581377 4.144813 -2.319129 2.889957 -3.933446 -1.023198 -0.498031 -0.035645 0.565735 1.017127 -0.869883 2.914694 0.614128 -3.752307 2.970956 0.483384 -2.688091 2.276840 0.345625 -2.115084 3.018993 -0.517191 2.084471 -1.544729 -2.776927 1.454654 -0.099965 1.326138 1.194760 -1.000470 0.262657 -1.682880 -2.450971 4.119483 -4.588083 -4.897729 0.369794 -3.697749 -0.755884 -1.522600 0.163653 0.323966 1.798568 -0.224396 -4.370645 2.620954 -0.473994 -0.723053 0.907334 
mar -1.789855 -1.664419 -0.317621 -0.651605 4.154160 -1.235294 2.574739 0.449962 -0.875630 0.367002 -0.264719 1.170344 0.446255 -2.196525 0.290805 -4.357749 1.248183 0.148633 0.217034 -2.815710 0.425018 -1.630592 0.187172 0.557489 1.124061 -2.465734 -3.863677 -2.089848 0.991451 -0.492965 -1.077374 -1.350478 -4.697252 -1.625485 3.991442 -3.526393 0.930040 -1.694712 0.440715 2.298868 0.110225 -2.286253 0.558696 0.933147 -0.676092 1.949254 -1.418426 0.744838 2.787549 -2.161883 
conjunto 1.575714 0.037024 -0.904620 0.424327 -1.486850 0.396204 0.200476 -0.780263 -0.746775 1.487504 -0.711801 -0.434636 -1.923248 0.770395 -1.519022 1.452172 0.035857 -0.391348 -1.831906 -1.127987 -0.888002 1.863163 1.553823 1.933029 1.259611 1.763207 0.642032 -0.223596 -0.465931 1.316425 -1.670653 0.602539 0.583766 -1.479771 0.430771 0.216490 -1.605928 -1.368898 1.213299 -0.098516 1.583500 0.774954 -2.429088 0.509366 -0.133743 -0.963235 -0.364893 -1.059617 0.644746 -2.180275 
amigo -0.667297 0.784980 -0.241443 -1.680393 1.628801 -0.476133 -4.451582 -0.577950 2.160028 -0.163301 0.831709 -1.735545 -0.771715 -0.398402 1.119824 -0.582528 0.184748 0.553666 1.940238 0.732486 2.236740 0.722985 0.587152 -0.337688 -0.505691 0.505914 0.132860 -1.216221 -2.617963 -0.127585 -1.570112 0.044884 1.893350 3.985246 -0.957244 -0.843652 0.291820 0.959320 -0.255896 -4.354902 0.755063 -1.546560 3.176733 -1.942403 -0.843835 0.125691 0.475210 0.967700 -1.986733 0.263300 
investigación -2.367861 1.017840 -0.968230 1.389145 -2.152993 -2.885078 4.106690 1.110018 -0.976099 -0.967654 0.149692 -0.415674 -1.473745 0.134386 -0.102467 1.114620 -2.325251 2.323337 0.047741 -1.465335 2.339637 0.652714 2.345689 -0.337086 1.085933 0.821804 -1.172554 1.102468 -0.600834 2.785468 2.165265 1.612615 -0.109537 4.284326 -2.078722 2.700128 -2.994398 2.926203 0.763703 -0.477826 1.835598 -2.333800 -3.524080 -1.049434 0.949723 -1.045618 -1.352218 1.664537 -2.387019 -0.812677 
voz 0.362090 -1.355956 -1.196938 0.794799 0.928407 4.353519 -2.264880 -0.148057 1.264549 0.365594 0.580094 -0.130780 1.158843 -0.006487 -1.128947 -0.074471 -0.902758 1.968620 -2.277757 -1.266231 -0.388508 -2.449916 0.495143 1.344316 -0.113154 1.417507 2.401179 -2.000981 0.497031 -0.657328 -2.742851 1.336802 1.638086 -0.515981 0.097405 -0.346148 0.224356 2.247252 -0.401637 -2.086038 -0.835972 -2.433764 2.379062 0.746351 -1.793689 2.667797 -1.894058 -1.907381 -2.170648 1.148386 
hecho 0.935498 -0.989582 -0.204444 -1.292454 -0.163308 -0.412762 -0.325526 -0.542122 -0.313508 0.412879 0.201452 -1.319041 -1.904779 0.365510 0.563448 0.190296 0.134651 -1.465455 0.326075 0.594207 -0.009078 -1.953961 0.026206 0.569583 -0.073335 0.051935 1.245684 -1.812671 0.550365 0.524715 0.375792 1.155360 -1.353504 1.225132 -2.050636 0.658454 0.384535 1.545363 2.011079 -0.747694 0.102494 0.596280 -0.802998 0.611300 -0.961189 -0.280919 0.537472 0.990530 -0.265575 0.765403 
artista -0.349063 -0.335346 -1.029874 1.858156 2.677706 1.620519 -2.616684 -0.249897 -1.200569 -0.319929 -0.972083 -1.013757 0.081346 -1.330043 -1.290448 0.501730 -0.609460 3.479937 1.123813 0.406881 -2.542536 0.437147 3.500593 0.983545 -0.276050 3.570461 3.702790 1.515933 -2.711457 0.670071 -1.982268 -0.211112 1.742534 -0.261507 0.920726 0.967988 2.950135 1.831963 0.117260 -0.409081 0.698887 0.976165 1.815885 -1.846950 0.529055 -1.291794 0.537708 2.536422 -1.812438 0.164387 
sociedad -0.694109 0.606944 0.476735 -0.112965 -1.166800 -0.564986 -0.294195 1.839705 -0.810205 1.285397 -0.534139 -0.920031 -1.194440 -0.900820 0.721501 -0.323694 1.516264 -1.188000 0.284883 -0.184681 0.882172 -0.921969 0.316865 0.974757 -0.701743 2.373138 4.959516 0.941244 -2.759618 1.382365 -0.111069 -0.249006 -1.532908 1.703284 -1.319997 3.075075 -3.734846 -0.076809 0.117701 1.827224 2.715825 -2.108997 -2.468586 -0.519807 -1.444890 0.949067 1.785470 2.570117 -1.974468 -1.610588 
cantante -1.501006 -1.283131 -0.069266 -0.005272 0.615601 3.072764 -2.349981 -0.239475 1.527349 -0.389210 0.593810 -1.570290 1.768972 -2.088161 -3.325196 0.014728 -0.605884 3.920007 1.220141 0.508547 -2.691148 -0.187219 4.656245 -0.663054 0.150393 3.648195 2.679884 -0.193832 0.195790 -1.850255 -3.154464 -0.499182 1.600152 -1.004166 1.349268 0.254024 1.272518 1.263380 -2.393723 -2.324809 -0.851721 -0.352443 4.564409 0.410242 -0.162548 3.047228 1.563065 1.988693 -1.128319 2.179617 
modo 2.352246 -0.707209 -0.853686 -0.278305 -0.043434 -0.013901 -0.206839 -0.656309 0.934262 1.098771 -0.049101 0.090182 -1.979493 1.023560 0.150233 0.435188 -1.141649 1.014703 -1.060508 0.140571 -0.160202 0.356477 -1.394162 0.882877 0.234084 -0.836944 1.717015 -1.913848 -0.866875 2.254736 -0.950748 1.156453 -0.596285 -1.035841 -0.655882 0.062901 0.329873 0.528803 1.948419 0.583738 1.631348 0.024630 -0.171671 1.392144 -1.759355 0.745731 -0.440825 -1.379331 0.473461 -1.263118 
cantón -1.480997 1.340266 -5.066958 0.621557 -1.636416 0.727126 4.450593 -2.395211 -1.618934 -1.091963 -3.132702 2.803348 2.005096 -1.918659 -0.952828 -2.421914 0.820854 -3.369102 -0.944212 -0.239235 2.755815 -0.787812 0.185282 0.301360 -2.560057 -0.176227 -0.443013 1.148340 0.948468 -0.967108 0.147543 3.134679 1.922156 -2.236786 -2.457758 -1.918203 -3.435441 -0.521343 1.708062 -0.109472 -3.386098 3.175841 1.121376 -4.312060 2.913189 -0.617100 3.258191 -1.660063 -0.033078 -4.606445 
cantidad -0.224254 -0.003435 -1.251934 -0.923829 1.694656 -0.020223 2.056794 2.550400 -1.408052 2.780079 -0.690872 -0.249723 -1.895412 0.830939 0.472589 -0.033477 0.074319 1.643377 -1.829577 2.337125 0.190407 0.294089 -0.389745 -1.915501 -0.288736 -0.832887 -0.183519 -1.304915 0.169588 0.153044 0.745492 0.233083 0.792812 -0.453083 2.292992 0.587992 0.212633 0.318666 0.793292 -0.211926 0.112433 2.023683 -1.866924 1.215062 -1.829078 -0.650599 1.128712 -0.996999 0.810414 -1.849673 
información -0.153461 -2.104526 -3.810670 0.334113 0.556298 -1.228740 4.085146 0.485315 1.554995 0.613693 -0.632836 1.780294 -3.653028 1.645944 0.525269 0.946927 -2.075078 0.098310 0.915449 -1.925267 1.189714 -0.524276 0.333256 -0.786638 2.084854 0.851701 0.195916 -1.848084 -0.923356 3.698937 1.144061 0.677973 0.905776 1.499420 -0.890316 3.343120 -2.823459 2.149019 0.447911 0.935811 1.825475 0.382611 -1.659653 1.194761 -2.789646 -0.542604 -1.157690 -1.286174 -2.711342 -0.125328 
